3.026553414494271288e-01
-4.956141559960872134e-01
-4.724354850834837360e-02
-1.012577558376937636e+00
-1.012479139811187367e-01
-3.286388625142272257e+00
-1.047582586685326334e+00
3.648365717710395084e-01
-9.788027857717184199e-01
-3.276181808855996302e-01
1.043389146018377511e+00
-6.385959505372172940e-01
1.663218735079534882e+00
4.352648232188797706e-01
6.576256427778792713e-01
2.180204861077880696e-01
-2.740126870946064663e-01
-6.451973255402036062e-03
-1.289192875268672767e+00
1.861157183581955976e-01
5.642546709358213786e-01
7.039998877675127664e-01
1.396038033939834389e+00
-1.447905338527421426e+00
1.305701370267642103e+00
3.442398328160870546e-01
-9.045119601792489528e-02
-1.183785956614229695e+00
2.164963011245206737e+00
7.787225367844805568e-01
-6.398025634444104437e-01
-6.140315011068548934e-01
-2.732992631874348599e-01
-1.574527627743935509e+00
-1.018679611180289601e+00
1.373649582433358329e+00
-1.519648465596978859e-01
-3.192727405052234180e-01
-6.050811074106015042e-01
1.869331455559139488e-01
-4.148738670154030750e-01
-3.136237087862270290e-01
-1.577615926486935161e+00
4.462264659267338729e-01
1.316310531765147562e+00
-2.954742377675740328e-01
-1.645731124760372310e-01
-2.538381648248641542e-01
-4.776547662164281616e-01
4.488667562442692771e-02
8.653772117362306115e-01
5.610303761200401834e-02
3.878862399418734896e-01
4.799865545756104024e-01
-2.240965049764883088e-01
9.468667829027932470e-01
4.650662362827800989e-01
6.214365603583326125e-01
-1.010904157128180714e+00
-1.231499480002787417e+00
1.224839074287682239e+00
1.072885345754143405e+00
4.286817491539918201e-01
-9.830081026214045892e-01
-8.353513859695874677e-01
-9.008870478102098955e-01
-2.653884357215566814e-01
2.902117079152253254e-01
9.706093800859659504e-02
-1.138952134047916953e+00
2.132228825525475102e-01
1.035491354177907192e-01
5.816732367780063084e-01
-5.870491212921243873e-01
-5.808640260068500538e-01
2.374223242337706596e-01
1.171853074591071991e-01
1.424852642784328605e-01
3.401917215292870611e-01
-9.534552615574772849e-01
-3.309162415561429094e-01
5.056633780449727444e-01
-2.913498918152052308e+00
9.247676254769473525e-01
-8.684534196085802460e-02
-5.636304451221958445e-01
1.623745232238622827e-01
-1.371046138613674970e+00
-7.444352656066415275e-01
-5.852558288145880833e-02
5.773554943317129595e-01
-1.707786860327659806e+00
5.493736309556839226e-01
1.525088973466976139e+00
3.036363887028221617e-02
-2.558605026356221002e-01
1.495425703660704375e+00
-1.864358411650929304e-02
6.084920724166945627e-01
1.184951963273988662e+00
-1.119345088167799096e+00
-8.904488938615380267e-01
3.118301384259939413e-01
-1.340034398089794188e+00
-1.224917345358540910e+00
-4.076963850402649525e-01
4.841878346041713632e-01
-1.195452276895677124e-01
-8.512879664066872465e-01
-2.157538104211832453e-01
