2.858894607645877106e-01
-5.039669331318451517e-01
-6.492922129485662053e-02
-1.042081737746001657e+00
-5.315134692296809987e-02
-3.292168533525605234e+00
-1.074308981984376521e+00
3.915997536419550951e-01
-1.011668372766610036e+00
-3.291081791416332614e-01
1.082661337333386431e+00
-6.540373484868114984e-01
1.691828202522400515e+00
4.316916957131611277e-01
6.485947722539429083e-01
1.724795743897050704e-01
-2.617406199709286230e-01
-2.313728701061742304e-02
-1.326692111435441968e+00
2.151935911400833235e-01
6.105742129367078830e-01
7.623313149340311679e-01
1.441436329686957007e+00
-1.530118181866221727e+00
1.309931357359074067e+00
3.940864848207319415e-01
-7.800945150968174868e-02
-1.217549083457263315e+00
2.187441955280100547e+00
8.218806781898635450e-01
-7.238700118465731803e-01
-6.394989095345616770e-01
-2.559062434051732615e-01
-1.565695088612894414e+00
-1.090603452592466160e+00
1.410256917011856848e+00
-1.814352217900193076e-01
-3.405122064740583321e-01
-6.134863630419677971e-01
2.083711410764905181e-01
-3.735402636144134481e-01
-3.421745832038639579e-01
-1.555866504611092216e+00
4.894912448526002047e-01
1.339633520514458276e+00
-2.726554523107975747e-01
-1.739522478183650744e-01
-2.660519069807679160e-01
-4.961869493208397874e-01
9.296071621442610067e-02
9.285156029143473155e-01
2.931232479335085794e-02
3.763057489017742063e-01
5.091956118868183889e-01
-2.302623948473976889e-01
1.104706514065822986e+00
4.532852306085935479e-01
6.838043907706405911e-01
-1.068172038334847640e+00
-1.283100591618362429e+00
1.186793859651918970e+00
1.132658968086351248e+00
4.732432110491916477e-01
-1.021032771256983329e+00
-8.701896865873537390e-01
-9.575899038816518827e-01
-3.038634694026562943e-01
3.011054291944734729e-01
2.123789074254615536e-02
-1.177639922591532162e+00
2.250701668314131765e-01
1.011739920530272396e-01
6.075792649032349946e-01
-6.197608934771794420e-01
-5.907703439244463839e-01
2.551695599499416711e-01
9.339586382608476567e-02
9.504446268120030072e-02
3.608951703554223456e-01
-9.646808923854002238e-01
-2.776573125186267976e-01
5.422796619537835205e-01
-2.936109206713414466e+00
1.006289090869406433e+00
-6.673985107038980791e-02
-6.405722379309353176e-01
1.932195047609830407e-01
-1.385887160522383255e+00
-7.726587654938528171e-01
-9.722847665711438492e-02
6.279341955429567079e-01
-1.631968163612460332e+00
5.502674235359704680e-01
1.633091091203754397e+00
3.676244645722526183e-02
-1.976640428214919698e-01
1.550072803243951691e+00
-1.002704411065758749e-01
6.809842821204338259e-01
1.219221802654885778e+00
-1.204537690913645598e+00
-9.858355296666969636e-01
4.186170525536587195e-01
-1.330410305523198167e+00
-1.311537316246240925e+00
-3.640170654453037113e-01
5.327805679743947698e-01
-1.215169330443683082e-01
-8.573004585197134819e-01
-1.492534631740962126e-01
