3.873411968383282389e-01
-3.650424464960152493e-01
-1.084958695319865746e-01
-1.090446614633284739e+00
-2.298353804772790276e-01
-3.044719273971199236e+00
-1.147306644460844849e+00
1.885515348678102610e-01
-1.009142260527491564e+00
-2.867256926276203766e-01
1.030653537427403066e+00
-6.577400365633652157e-01
1.710754358740876890e+00
4.383614779336251210e-01
7.629430082011861014e-01
4.868227263312483941e-03
-6.361192526639996014e-01
9.891972731828002630e-02
-1.335435114241079413e+00
-3.303619451459101353e-02
7.018640213212971046e-01
7.967812725633462989e-01
1.557382127308637010e+00
-1.283807805827039905e+00
1.231421579701822422e+00
2.760076975334995741e-01
-2.622061008525024550e-01
-1.282870819591990896e+00
1.822423122746116064e+00
9.191560653389577729e-01
-8.653509259689768918e-01
-1.045017797454595332e+00
-4.207972228229329703e-01
-1.519279007249864977e+00
-1.143345334181087081e+00
1.655425522410603589e+00
-5.553362257172673316e-02
-3.023652976124941438e-01
-6.925534469265474113e-01
3.436537891448653015e-02
-6.551299753141194282e-01
-1.855188628301753795e-01
-1.442805197568664877e+00
4.185427029283200762e-01
1.259958557232423004e+00
-5.355074096080546520e-01
6.082389030245115291e-02
-3.736053336019948823e-01
-5.144439493792744011e-01
4.486458034396615946e-01
9.412111996288511362e-01
8.154632123043209502e-02
1.128995314148488471e-01
3.842776649233010655e-01
-1.622070356402493807e-01
8.888060814326171899e-01
1.069487006303950355e-01
7.171230820456497845e-01
-1.065368048689653513e+00
-1.218189165692696641e+00
1.134448736856843665e+00
1.106352368853089185e+00
3.199134874540379703e-01
-1.108078231509677769e+00
-8.949339896203388767e-01
-6.919624077248448524e-01
-1.230804468463520679e-01
2.036288543029368958e-01
-1.050030541548174490e-01
-1.284703194710387963e+00
-6.219674260245312836e-02
-7.643792798840307046e-02
6.558869919981051844e-01
-4.763124275072311287e-01
-3.646321359266151418e-01
1.856435459830110268e-01
-3.933251980030310069e-01
-2.472510891496616514e-01
5.052181637016228688e-01
-5.914169371531207142e-01
-2.022078754563912950e-01
4.046433365245894476e-01
-2.749224894906688199e+00
1.449017385518325929e+00
-3.749164273766016769e-02
-7.425544380857111992e-01
-6.564343093208826335e-03
-1.296623313593641358e+00
-1.073851860792276236e+00
-2.597289534004296532e-02
6.197413867468244408e-01
-1.716504337561634452e+00
5.487160769627141832e-01
1.453355749673261643e+00
2.863713694901777185e-01
-2.873889958194416061e-01
9.302943026106457181e-01
-8.298537340294449838e-02
4.842009943866003030e-01
1.428164419436002808e+00
-8.516352090761655225e-01
-1.530094526505474839e+00
8.658395392154379089e-02
-3.917891688685890550e-01
-1.569300205697688355e+00
1.907526007173421245e-01
-2.454165021780322087e-01
-6.709058243824809198e-01
-6.850715031324415560e-02
-3.226991096223772448e-01
