4.086240808075251585e-01
6.213240530005145063e-02
8.568914978377470959e-01
-8.946942602384458931e-01
-3.778738195617161594e-02
2.360571824143441189e-01
8.790489824848677358e-01
4.795386646089486865e-02
-1.122119660539997898e+00
9.061936276850588445e-01
2.221961564437966441e-01
6.426312723252031178e-02
-8.597358631869453927e-01
4.022013764088969712e-01
-1.200705770031694986e+00
-7.972696293727929984e-01
-1.474450888374101876e+00
2.126715037401908925e-01
-2.989745124397173104e+00
-1.633890804111880035e+00
-1.233716557887135634e+00
1.720510646666476573e+00
3.434809627841517443e-02
2.620656832873229369e-01
-1.472099454099431881e+00
-1.529341696385447591e+00
1.592005510471806939e+00
8.708027549292837177e-01
-8.655670473981871837e-02
7.073932945779177750e-01
-1.420139194823210604e-01
-1.453363510792856417e+00
-1.447762577084401592e+00
-9.271053792027393603e-02
-9.899371096900458911e-01
-4.262735238695531947e-01
5.349053678853251670e-01
4.538007562639000403e-01
3.039779638200889589e-01
-5.614139920245191373e-01
1.564353898685421351e-01
-1.445656624395502021e+00
1.068152607615409533e+00
-1.512247527977414463e-01
-3.320833094888280823e-01
-1.851822327255601364e+00
-9.524444118250646740e-01
-5.217059615937443828e-01
6.675660883955899516e-01
1.446951194773774318e+00
9.129540113275895763e-01
-1.370388430308777217e+00
-1.088883132690306593e-01
1.833387752670035287e+00
1.063014465023339294e+00
5.533983514027810552e-02
-1.770013566624907719e+00
-1.904787462564949962e-01
3.295896916225574680e-01
-7.000876754936391499e-01
-1.730635928016153180e-01
-8.657796562403936858e-02
-1.798734280515343897e-01
-9.738183766046890621e-01
-8.373318520380107488e-01
2.187680481267940957e-02
1.589309455483603806e+00
2.029096356440975413e+00
-1.549702101070877358e+00
8.513972978477001297e-01
-6.132948053314828396e-01
5.105591196838984436e-01
1.939434688339093604e+00
4.147792477877246808e-01
5.677584456149402659e-01
4.633624112616858692e-01
2.343614113414762834e-01
1.060556092734802891e-01
5.466473657719026491e-01
-1.580158706680653058e+00
1.294129249523555458e+00
9.473408103097553656e-01
-3.275259402641059747e-01
5.348884383359227973e-02
2.292409715276643833e+00
4.070843011261328082e-01
2.670157579542526555e-02
1.017151319879392668e+00
-2.662743816709129407e-01
-2.591606055201344017e+00
-1.007877446851334957e+00
-1.132558161809084307e+00
1.773250441859798021e-01
1.957812975393410093e-01
-4.079683063166391621e-01
6.148289899947592119e-01
-1.551786407900726861e+00
-4.693790366032246086e-01
-3.584303388136073631e-01
-3.200365916369347086e-01
-7.708299915474360331e-01
3.733648819574434952e-01
3.760393944102373709e-01
-1.377175900808925491e+00
5.536319976518199182e-01
-4.807901916455140645e-01
-8.875725949749321275e-01
9.900663466215287034e-01
1.444269203331014051e+00
-5.269427105172447973e-02
-1.127078626216494461e+00
-7.406069609152690081e-01
-1.023034368003001182e+00
4.844381241072502897e-01
6.986140982033370861e-01
9.565094433283308217e-02
-3.838258446446249361e-01
-1.330132937087914691e+00
-7.418039071966292530e-01
2.157100165776242862e-01
8.433521817000643184e-01
3.607586491308865662e-01
-1.105015842378174407e+00
-6.673759185659706994e-02
-4.779504490122893356e-01
2.195387907404412697e+00
1.353027422186055262e-01
-2.936426575812418061e-01
-1.068377057794750895e+00
1.231768579969628297e+00
4.859513511368492855e-01
1.718664503070046701e+00
5.512277001125540643e-01
6.991390179092737966e-01
-1.795451005224812380e-01
-1.049196101342717791e+00
5.074671761664201197e-01
-3.617909387011750688e-01
-3.952261449446364261e-01
-1.994659885114575260e-01
-7.461285253833870312e-01
2.710316054422470811e-01
1.248773633640749336e+00
-1.918927401530593935e+00
5.454644307085803057e-01
-4.168385550968317088e-01
7.158963526345508699e-01
-1.342954901122122457e+00
6.708076970700576069e-01
-1.011103410056041429e+00
1.020681901628929023e+00
-9.310564650826214095e-01
1.463629611782876205e+00
2.809338168160598226e+00
-6.498095657323036400e-01
5.895131588770425868e-01
8.022487807364674373e-01
-1.100500693695109389e+00
-7.350318226662346799e-01
-2.175122609314258160e+00
-1.122602122325258994e-01
2.061846502546210158e-01
1.303590661909590054e+00
1.114160241269864571e+00
-1.439369663894451701e-01
1.328730485181998100e-01
8.870327653319843852e-01
-2.038067462318791379e-01
-4.584124224029336170e-01
9.656601748351040237e-01
8.429533453758671913e-01
2.252935743437466110e-01
-3.527326273143823188e-01
9.683465771580451742e-01
-7.983245471319959652e-01
-6.792877647737607383e-01
1.384264481946258396e+00
5.408848811628443887e-01
-1.652938030264673008e+00
-3.047598679037659755e-02
6.664187721655639995e-01
-2.810153437259876874e-01
3.503715987227447592e-01
1.117398132190929594e-01
1.813926616819631521e+00
-1.767321543349462454e+00
5.190622057720429838e-01
1.531840919695754533e+00
6.225710476541319177e-02
2.321214519284025002e+00
8.793939362084200739e-02
-1.443679076818517593e-01
-1.049874139877667201e+00
-2.753380247561043603e-01
-2.663359438490842113e-01
-6.299895613960373453e-01
-5.546852573778977558e-01
-3.114740572815448139e-01
6.320307023931669432e-01
-9.083359730204929594e-01
-5.125757949139599923e-01
-7.745059340172386619e-01
-1.286081986246454534e-01
9.254776647112343824e-01
-9.710633226431301113e-01
1.915201497251392881e+00
-3.293635670908502400e-01
1.518524865491953424e+00
-4.811165745279487038e-01
3.816663559302865827e-01
1.500141972352050587e-02
-1.174832852756227258e-01
-7.940360921854664467e-01
2.515125965226953642e-01
-1.088835844615220427e+00
4.910029256053233260e-01
-8.739393671892576876e-01
3.260263071119929856e-01
-1.295085281263694599e+00
-1.848724532134761456e-02
-1.585526845380822725e-01
-4.353180908660737036e-01
-2.500315166933297362e-01
1.428748578947782510e+00
6.699798085802990411e-01
-1.573544099528731977e+00
-1.408970275222362623e-02
6.805670440503744922e-01
2.857015993115737465e-02
-7.497003256268211513e-02
-1.028599173382245713e+00
-3.998302697346710066e-01
1.847461247370913717e-01
4.619133531643259682e-01
-5.881894579894554609e-02
-9.291848114303326023e-01
5.300720960893585965e-02
1.230269590484977527e-01
-7.684001198914640618e-01
-5.079330305652091093e-01
1.363571015801421371e+00
9.929103141967174362e-02
3.137432300864780310e-01
-5.918798043315633139e-02
-7.215426612817962271e-01
-1.274547594557458474e+00
-4.197595290049205841e-01
4.602950208026320156e-01
7.850762035729181854e-01
2.634384120704290067e-01
1.312281297268960145e+00
-1.432073760581729971e+00
-4.791386078185093378e-02
-1.062240173080742922e+00
2.916871879251541344e-01
-9.273342758101402183e-02
4.016054465912374805e-01
5.973501881013912884e-01
1.100775704439210800e+00
-2.573128990505109681e-01
-1.664691638491053061e+00
1.613472061375555433e-01
9.255392991421331761e-01
-1.068438329995140990e+00
1.751118576159623075e+00
9.032630598330837479e-02
-1.657444232855330435e-01
-8.959408792559609980e-01
3.956783455404778160e-01
-2.971701765972089571e-01
1.737440730568204028e+00
-1.115060836930325872e+00
-2.847858876317361787e-01
-2.972152122336493840e-01
-1.370029645169545951e+00
-5.472243109776629977e-01
3.691419172602416476e-01
6.178088585299463809e-01
-2.480334033869055210e-01
-9.370443829532346669e-01
-1.926517693133316875e-02
-1.030116505969606688e+00
1.357910248967676869e+00
3.979915891398161931e-01
-3.587821620530662337e-01
1.066432707494505694e+00
-3.842372255047155072e-01
-2.308886670742004821e+00
6.752995595087877279e-01
1.957054381712588942e+00
-8.221867317187826485e-01
-1.675983091516825674e+00
1.298241492888881021e+00
-4.460729581367239294e-01
-2.853302277308741863e-02
-1.493727232987997589e+00
-8.626601744386827031e-01
-7.870529819020886109e-01
-1.190396451324496008e+00
-9.509196893271881779e-01
-4.585230416340430604e-01
4.852930348850703623e-01
8.371832459720356390e-01
7.825061388160411413e-01
-9.361427170916887253e-01
3.070747427758035442e-01
1.098507123684507425e+00
2.441095668161113341e+00
8.011034741957406835e-01
-3.196278910926475092e+00
-1.185697487852050758e+00
-8.085869877988108856e-01
4.831039935614924175e-01
-3.113523830465556586e-01
-2.504380745253245374e-02
-7.658237585885304677e-01
-1.840161247066321559e+00
-5.437451409270624980e-01
-4.071061236383843318e-01
8.225792363115634886e-01
1.017721089365406284e+00
3.151130351857651668e-01
-1.899627761479265875e-01
-4.058929282708846620e-02
4.733947335795044564e-01
-2.291394305836911283e+00
6.551582973656397968e-01
-3.590547800611971763e-01
7.709161381049276507e-01
-5.376475832904229479e-01
-1.708165077611674354e+00
-1.735735792533680752e-02
2.071180497663527853e-01
-1.827865578200241758e-01
4.275261161001512877e-01
-1.463912342463636218e+00
9.757070697729546271e-01
-6.130329602810682260e-02
6.579205995489755265e-01
1.008434850481444656e+00
-6.671628807351228652e-01
1.258547663307137077e+00
1.012847732479449786e-01
9.571246818233930531e-01
-8.190734490640934062e-01
-1.029715138123363349e+00
-1.090575308600505722e-01
-7.832517948647713668e-01
8.198235247532139613e-01
1.756320462732439136e+00
5.429964076481186980e-02
-8.855714789840830603e-01
-1.328996516705275854e-01
5.708519759938962546e-01
2.249274305805047947e-01
-4.147224815394029429e-01
-6.048636977513223156e-01
-4.506579694578932149e-01
-2.557640852951060140e+00
7.436000437226739646e-01
-1.252789861850815423e-01
-1.013909200218262363e+00
6.542084387650576316e-01
8.073621388306277957e-01
-1.577672420287680177e-01
-7.196578134595530418e-01
8.777560826141178607e-01
-4.847813122056994772e-01
1.175032185641103864e-02
-2.048091481719578055e-01
6.237969458943741774e-01
7.291363755812987346e-01
8.823528309556977201e-01
-2.141807025576765999e-01
-3.271757453106092783e-01
-1.161890835655837950e+00
4.682835294184295449e-01
1.088720494368606184e+00
2.053609798749264304e+00
1.241538236719877730e+00
2.173453182814096274e-01
8.260111352145982355e-01
4.155891418605457965e-01
6.968582044519200380e-02
1.374733721579221579e-01
5.202003931041390139e-01
-3.146848200039345511e-02
1.266147493419747194e+00
-2.038483615003747473e-01
9.496543276804928491e-01
-1.532212894367766420e+00
-2.029232461427762146e+00
-2.691859610498009481e+00
9.108361825094650754e-01
-1.884479946169145714e+00
-5.879054495067714825e-02
5.404064897375653320e-01
1.074811733754263976e+00
-8.459684426538534308e-02
-9.384683542015503921e-02
-1.354039593139920727e+00
7.220006610001270531e-01
-1.487948771067695297e+00
-3.065966643354833265e-01
-8.217376028361613738e-01
2.678299622768954280e-01
-2.233921897444921978e+00
6.232855249720012925e-01
7.588650581280398377e-01
8.768143620997538301e-01
