2.848644740214254512e-01
-4.450759173838615412e-01
-4.632546492025237106e-02
-1.086138578087008311e+00
-1.230596860749337829e-01
-3.273705753774134752e+00
-1.099246564873854526e+00
3.226252737361255396e-01
-1.084651316142428712e+00
-3.448503270438395552e-01
1.125830509204325258e+00
-7.404057857588156599e-01
1.673255239129276539e+00
3.971072054164804799e-01
6.767119922228120865e-01
2.087071598848049270e-01
-2.981182904596343941e-01
-1.942313527215021873e-01
-1.337433968308000098e+00
2.594050797185687984e-01
6.409535847698700772e-01
8.012589994819905304e-01
1.461706097014924266e+00
-1.529603881496821804e+00
1.374997308381177730e+00
3.144956157384212192e-01
2.012243700047439479e-02
-1.292596959473039764e+00
2.133868724541103656e+00
8.752646890050393980e-01
-7.513418881702438323e-01
-5.727030964175729988e-01
-2.837915697306830909e-01
-1.558712291516316295e+00
-1.157787661601392903e+00
1.436570954850241000e+00
-2.446098429108133632e-01
-4.682038369245671849e-01
-6.228774077393167685e-01
2.049599816379121531e-01
-5.147302896903163116e-01
-3.925923667515883175e-01
-1.545704438317835994e+00
5.111194705180593933e-01
1.431791434428771881e+00
-2.764775078674520659e-01
-1.046950121855600990e-01
-2.700882349960233575e-01
-5.615152049157717817e-01
1.630695153952406995e-01
1.033922285824505849e+00
3.077668312792488856e-02
3.643603206709183917e-01
5.407647303260982863e-01
-2.796263335497354285e-01
1.116590589160686431e+00
4.903182024642776526e-01
7.334152001816953703e-01
-1.146985378250084064e+00
-1.350120861975803610e+00
1.272814119531772370e+00
1.086371579717981373e+00
4.502157096996544094e-01
-1.116152356433306014e+00
-8.673708672260614927e-01
-9.154530850128929087e-01
-3.576689738542627728e-01
2.600602123513746089e-01
3.051098313365274359e-02
-1.242082174523999827e+00
2.572105869701026837e-01
6.136096145650608499e-03
6.703091397410304575e-01
-6.631056632760526925e-01
-6.176869255508581347e-01
1.862857610046599055e-01
1.113175983171315470e-01
8.207910481739272290e-02
3.275124778225488309e-01
-9.838838232568171138e-01
-3.840485089234677574e-01
5.781435522279756434e-01
-2.881136386022166374e+00
1.020653280713314404e+00
-4.707971695908628323e-02
-6.564241828790710054e-01
2.033315441142257707e-01
-1.376747799114609094e+00
-8.197505321057599881e-01
-2.148735076055861004e-01
5.823372003438408440e-01
-1.702082640661866542e+00
5.674751282743040193e-01
1.647318755306577565e+00
1.020896120924312117e-01
-1.746178150679305041e-01
1.473281846375852355e+00
-3.590179442277375427e-02
7.264108509449301865e-01
1.217605031065266408e+00
-1.431047389508789180e+00
-1.309147459915371403e+00
6.089544882492727851e-01
-1.248704995116028948e+00
-1.578695971494324057e+00
-1.948569246124023657e-01
5.549110900668460244e-01
-1.458670571764880686e-01
-5.451021581828036089e-01
-8.345476431495812975e-02
