3.080096641823263925e-01
-5.947552767138106766e-01
-7.004569036071146837e-02
-1.095778878765444997e+00
-1.029574596016630816e-01
-3.290777888391918538e+00
-1.115548277079682071e+00
3.700763967904433516e-01
-1.064187054458466175e+00
-3.625085975668270732e-01
1.073313837192991116e+00
-6.665490914378847664e-01
1.692029129722794067e+00
4.499934976501043793e-01
6.994400343500174477e-01
2.078072407330250893e-01
-2.247394314876731691e-01
-6.856130029286192085e-02
-1.379325274545655455e+00
2.333794212124045142e-01
6.230133737456096110e-01
7.823886086593075939e-01
1.481623568770962684e+00
-1.558317247284856988e+00
1.360229199561697300e+00
3.559621731123946975e-01
-8.100952069682534895e-02
-1.295863398756951002e+00
2.132034208161721622e+00
8.410882572842576232e-01
-7.258684294777103529e-01
-6.862008288884910989e-01
-3.210040163604089281e-01
-1.580327939787291802e+00
-1.152876503569630451e+00
1.447071155912700746e+00
-1.405344560331952264e-01
-3.258440173237969750e-01
-6.447786634114882620e-01
2.124652404232919289e-01
-4.423073553619942810e-01
-3.716982453682965981e-01
-1.586370403455410250e+00
5.120911680791069287e-01
1.387073742026016410e+00
-3.277357768099138924e-01
-2.101592593914423657e-01
-2.841403151495537904e-01
-5.625293956758571357e-01
9.430771514782197718e-02
9.388079050126433289e-01
5.424401269364668293e-02
4.229371349316854989e-01
5.465715564083164502e-01
-2.495519067234816257e-01
1.055835352739919353e+00
4.741271936825503519e-01
7.359603440869840751e-01
-1.116814015678100125e+00
-1.320134699008614465e+00
1.249420779899517386e+00
1.153732240296463152e+00
4.639672227382117820e-01
-1.085989205933061585e+00
-9.044611222974604514e-01
-1.021896975097250637e+00
-3.218365718221706806e-01
3.279404052450008988e-01
2.645867213273485341e-02
-1.220234601679183406e+00
2.135364339131884392e-01
9.192719200460641726e-02
6.097961555132186406e-01
-6.726319184126732242e-01
-6.207230368302574242e-01
2.863028214835969809e-01
1.095019204207017399e-01
9.920288984326587622e-02
4.051398090619118819e-01
-1.082068027232037322e+00
-3.287652327181408429e-01
5.321410544603280002e-01
-2.957942945661775624e+00
1.025812027851874086e+00
-7.301066422605201334e-02
-5.816368093940439410e-01
1.792695222652588571e-01
-1.401539962708910680e+00
-7.755980826455834976e-01
-1.061149896053203978e-01
6.429420730906050263e-01
-1.702628773340091550e+00
5.740272637314925985e-01
1.731369147386459639e+00
5.127615197890199317e-02
-2.253385452325618321e-01
1.516191414256749859e+00
1.132233291198028215e-02
7.313446435479861174e-01
1.284215314956290044e+00
-1.262454167099565927e+00
-1.104055699463719842e+00
6.214337436105951129e-01
-1.528850018304042990e+00
-1.408434429124689524e+00
-4.051884646115997968e-01
7.304154490848646653e-01
-9.933390948857249991e-02
-8.268126397866965016e-01
-8.973100682161824770e-02
