4.260044001537062475e-02
-5.684593096011553159e-01
-5.592828987314766298e-01
1.596080388246779780e+00
-7.057489665442422400e-01
1.102633000600762081e+00
8.869261433946169781e-02
1.841904870293488372e+00
5.072573081451116073e-01
-8.289450888610520041e-01
-1.226261960393026235e-01
3.020754938077025997e-01
-9.750830915155985767e-01
6.938977414815968858e-01
-1.635148358427221504e+00
1.393294902159049720e+00
4.896282076162063457e-01
-1.892946208940750052e-01
-3.910424017682682107e-01
-2.317499531645064448e-01
3.661652979953016751e-01
-6.854558296317420085e-01
-4.632370949596045229e-01
-2.593304165007151996e-01
-4.725062725439117539e-01
8.503485372240832119e-01
5.214814526883679857e-01
-7.716693433442246564e-01
-7.018895766311853412e-01
-4.845692309588111590e-01
6.053522627747529583e-01
-2.152309046493868561e+00
-6.901730949586910580e-01
6.257652661317122389e-01
1.404131412976123094e+00
4.702959352377270585e-01
-2.894523960755289171e-01
1.771003462536679118e-01
-1.573423291371542243e+00
2.593810636264977987e+00
-4.874871919068726744e-01
-1.819574739097583604e+00
7.592306735367216897e-01
1.175787300545097364e-01
5.053273332587424616e-01
2.773268440728359763e-01
4.841571873813471094e-01
5.480932072888590190e-01
-1.159526043890182878e+00
-1.049233944208778135e+00
-3.521601670706405729e-01
8.865310235636604252e-01
5.903685795728199140e-03
2.631117975621511951e-01
-3.389020684083587365e-01
-1.372553393891702278e+00
-1.372072442431092165e+00
-7.101322078106162006e-02
-1.317968811648689755e-03
1.419999783472558619e+00
4.838953387503618919e-01
7.114148082154270192e-01
6.392322620198674921e-01
-2.884999975832081009e-01
5.983994157302350292e-01
-1.856910588952247199e-01
-3.742664651670287723e-01
-9.557674036469759882e-01
-1.087522976263667118e+00
9.926822908099303122e-02
3.248480956287597143e-01
-1.362230880292178425e-01
-6.706840639500680767e-01
1.438744074667655859e+00
1.021853197000673674e+00
-9.303216559870434166e-01
-6.933336994104212225e-01
-3.560929879744867410e-01
1.080966495512499348e+00
4.337449740463519277e-01
1.388348862045589494e+00
1.835969213184885263e+00
5.347037646096238772e-01
-1.991622865147055332e+00
5.686168803608014910e-01
8.971005233777914478e-01
1.193997155619074046e+00
-2.594692808264907891e-01
1.434571810516132306e-01
1.450645142223157213e+00
-4.336046239003624181e-01
-6.279512708922756481e-01
2.649979033137820572e+00
-9.918219220412380910e-01
8.066637063124283691e-02
1.822679340412149074e+00
-1.148975954084459961e+00
3.190216338763801618e-02
3.027977103208965293e-01
6.014055884279863040e-01
1.754510807360133207e+00
-1.151121785891858984e+00
1.015560763101243935e-01
1.037463755655936515e+00
-9.887719580370654127e-01
1.272808357251452582e+00
1.908077768143154884e+00
7.388754968886200869e-01
2.136489925342772267e+00
-1.279255181784688000e+00
5.190637445972414721e-01
4.335147040103362603e-02
-6.007334128118467786e-01
-6.433116451523415158e-01
1.355969285991219575e+00
3.619869897658870572e-01
-1.974954421780380276e+00
-1.053457875808547772e+00
4.738710049910056267e-03
8.180845180694180929e-02
2.088156684897288340e+00
-1.296351786089560143e+00
3.781104977325805416e-01
-1.429938961696332500e+00
1.546192483824840869e+00
-1.606656185577560070e+00
5.244307926794666147e-02
1.452313646757756427e+00
1.069976338875388899e+00
-1.398010989424550043e+00
-3.528979333611043101e-01
-1.232116800369630616e-01
-2.131768946214614990e-01
-9.723877043550460675e-03
-1.449761474160347063e+00
1.025757244137191382e+00
-6.933384712071464229e-01
5.977786293382951754e-01
1.171572986024931984e+00
-5.218976312823181418e-01
-2.963684763722939652e-01
-4.031484932881666539e-01
8.345190354758978968e-01
9.277045564103370001e-01
-1.046201140039797334e-01
1.557940550850424932e+00
1.124875152019746194e+00
-4.524849290148477698e-01
1.298223661338389900e-01
-6.005172972124162012e-01
-4.979883462791278581e-01
-1.791720122892219713e+00
3.206293715046712456e-01
-1.074607974249231601e+00
-9.509076969747419783e-01
-1.261758245485851804e+00
2.469726450044808508e-01
-1.352736241451025556e+00
1.251788598849365997e+00
-1.353612068814153746e+00
-1.785012495573553792e+00
-5.537817093949466418e-01
-1.016720625053093352e+00
-5.077789021475460629e-01
1.937896293602122677e-01
-4.911906198386926659e-01
1.145124021456326746e+00
1.326593088666181641e+00
1.002180807157007747e+00
1.540041667807249270e-01
-1.695762238653312881e+00
1.576514101703503812e+00
-4.047439471539394651e-01
-1.355735531805035032e+00
-1.302531740887808320e+00
-6.637370379318359159e-01
-1.190579151748210274e+00
-6.688698595932049407e-02
-1.911074606374828067e+00
-2.073803146248612173e+00
1.234189378186438368e+00
-8.967925543475510075e-01
-1.374911077394463055e+00
-2.707413449074344003e-01
5.120460107649026371e-01
8.036029443346073831e-02
-1.308471392794077870e+00
1.032293153132040286e+00
1.713387670900475168e+00
5.061506111475918418e-02
-1.546897094582065091e-01
3.815783047449889387e-01
-1.221576552193094578e+00
-1.517060909599443397e+00
2.170050069280146654e-02
-1.542840275192134625e+00
-1.184307263475809835e+00
2.639447437853079670e-01
2.079771149965556898e-01
1.015039491448967324e+00
-3.914777523438739415e-01
-6.114326598350354469e-02
2.476512272371691470e+00
1.881042314292870721e+00
-1.369839428532160897e+00
-9.327636478165730882e-02
-1.103587341968071123e-01
-3.250334105847078603e-01
5.943175320476226098e-01
8.607218767102694512e-01
