1.536815326651489455e+00
7.867633926834909364e-01
-7.320638537225188092e-01
1.086073514010841290e+00
5.863476178481192846e-01
9.073516746428617052e-01
6.371577775788466180e-01
-7.297371871628355322e-01
-2.197204729892083375e+00
2.275522799755671371e-02
-5.896871550517941429e-01
9.103539237925101224e-01
-8.063010998074899849e-01
3.986511962863938385e-01
8.805685490511832025e-01
-4.283364404100508671e-01
-5.308546387401610334e-01
-2.078832135286550198e-01
-3.987971765714981576e-01
1.047066768146796223e+00
1.510512938791330084e+00
4.250104420682982442e-01
-7.001472674715305544e-01
2.025262477658368865e-01
2.385953186570796691e-01
3.214177261583461287e-01
-1.299068126828279324e+00
-1.523131263607810482e+00
-1.726425044408961829e-01
5.559020721128250520e-01
-9.004387758877406833e-01
1.328535128626562090e+00
1.053033689429846431e+00
4.870774868347789721e-01
-2.050429048517047104e+00
3.150425738071155890e-01
-1.637390480910223267e-01
-2.128294143608838063e+00
-5.499805060243107696e-02
7.669337281719082466e-02
-1.017617878937929765e+00
1.408240813021013615e-01
2.253054436318129572e-01
-1.435875460979534335e-01
9.086884108880597388e-01
1.212138297140330723e+00
1.225632806002949993e+00
-1.247516626025504394e+00
-1.285448443436608690e+00
1.032078956451305762e+00
-7.687573216698681544e-02
5.233874947637154884e-01
-1.853511145196797827e+00
-2.024267889568426293e-01
2.424169336271846664e-01
-3.641465459726557774e-01
3.440979815445751044e-01
1.466723526086521234e+00
-1.041443462331053532e-01
1.273391188196755452e+00
