2.273610042157935690e-27
-8.562806633024008091e-28
-7.392865007614071334e-28
-1.501843320286073392e-27
1.211318430555856370e-27
-3.221483319188770653e-27
2.442227889181108134e-27
-1.065467783361444877e-27
4.465617404174877298e-28
-3.490458387639827784e-28
2.046524934135680290e-27
-2.883596499951893355e-27
-4.512901068996714621e-28
-5.375641517142699933e-28
1.586946746208918024e-27
-1.539527176048343963e-27
-2.413492309011349977e-28
-1.228745905413515365e-27
5.908694086657863046e-29
8.157714192248978140e-28
-1.540546037734268660e-27
1.602279527746542948e-27
1.261964211621379586e-27
7.033456065515828484e-28
1.260935745934383117e-27
-9.570197086756920846e-28
-1.720104954725728735e-28
-1.309804448284017179e-27
-3.749652269996995090e-28
7.423430645133053096e-28
-9.681234459538258922e-28
-5.553392912004472704e-28
-9.618414818912772303e-28
-1.183041536109148759e-27
-9.395489271990055046e-28
-1.772674698747280637e-29
-1.563908812553631590e-27
3.281136490546431876e-28
2.323239245971021362e-27
1.038645532504644630e-27
-2.685138567506877325e-28
-1.242421822106257412e-27
-1.045803828271432290e-27
2.368943121870603239e-27
7.111604715499793137e-29
-8.916082326142323039e-28
2.672260301617390680e-28
2.939745005103646190e-27
1.681875093368841923e-28
8.639044501703972299e-28
4.201509537788916618e-28
-4.930471107018986977e-28
-1.599192454068090800e-27
-4.889779843627186474e-28
-2.923910378755581506e-28
8.211014777222199512e-28
1.174332231100695263e-27
1.303271514594794841e-27
3.997390118728564395e-28
1.238939627515007939e-27
-1.055937224190610533e-27
1.753650229169795324e-27
7.179522389221946899e-28
-4.172430805335236657e-28
6.837830110458923558e-28
-1.057783704570478340e-28
1.583951293158558368e-27
2.127300544180669182e-27
3.059168513881773216e-27
-1.954687816537910000e-27
-2.021338394835191600e-27
-7.061051655508511254e-28
2.240052493477630572e-28
1.226381102343890464e-27
4.417969243229943803e-28
-2.830492267476755523e-27
-4.285963648094262599e-28
1.158923160182321929e-27
3.220655611022411342e-28
1.066593540111933114e-27
-3.111945950665292627e-28
-2.810027791960911683e-28
2.611315681496424022e-28
5.739527835347091871e-28
2.775618074351840896e-28
1.665774152864039269e-28
-9.387317150118073480e-28
5.284792479098186000e-28
1.705142707151502150e-28
1.580948247171151427e-27
1.678135569223725742e-27
2.591650147676413556e-28
-5.252895414253716641e-28
-8.940363922022962885e-28
5.927686548297013206e-28
1.082535524723377748e-28
-4.812949187408515665e-28
6.102289188139729183e-29
-8.678204626186026871e-28
9.770413841274148094e-28
-6.258496609000648556e-28
1.713953865123488167e-27
5.647706880717709370e-28
8.308369152466160878e-28
-1.532557437255898535e-27
2.370860344003307895e-28
1.036563172870812494e-27
-1.334902856244721157e-27
-3.726283105787076306e-28
4.565085882672294917e-29
-1.921964009755021166e-27
4.411312856594979661e-28
1.184378266263406929e-27
-1.203071783985602860e-27
4.906621923872602998e-28
-1.836814269114374007e-27
-5.416243393908380591e-29
-2.261610328489381148e-27
1.569657918774197690e-27
5.723415660818515362e-28
-3.445656283360406723e-29
-1.085000321399450022e-27
1.782887025660278874e-27
2.753369074767931289e-27
-2.600633042486962185e-27
1.730269323424217846e-27
2.278236623977587089e-27
4.731178509756037400e-28
-1.678625680567467572e-27
1.208431795189204248e-27
-2.532356879496627610e-28
-8.453128470909020177e-28
-1.721722850480555767e-27
7.705920227540120985e-28
1.109698523582960328e-27
-8.727612737459651895e-28
7.286551334200708679e-28
-1.601744390882361641e-27
1.122371716792063569e-27
6.518064427783069914e-29
-2.611432989934030958e-28
-1.424145644795116607e-28
1.216187355382482983e-27
1.050357564540232454e-27
7.410971246335871756e-28
1.927415566116115027e-28
1.089268956420847614e-28
8.655521202594687399e-28
3.254246149377629497e-28
9.553730183563804408e-28
-4.340730895568084852e-28
-3.408063159064752380e-27
1.454051644228155113e-27
3.061134041188491204e-27
6.177815713316850929e-28
-1.401881331778482317e-28
-1.909828703066651472e-28
-1.666411607660362697e-28
2.436809709582641740e-29
-1.570499172304194711e-27
-7.237815175096494001e-28
-1.395546943621919342e-27
3.482463055368901781e-28
-4.152111478477797079e-28
6.931515085238113382e-28
-2.445335008631612394e-28
1.380581764278482088e-27
2.988852206422172846e-28
3.066341071644452608e-27
-2.654352537515650203e-27
-9.054947991716248614e-28
1.261818881363870991e-27
3.538919028819367244e-27
-3.480162163106559316e-28
6.112386173675357664e-29
-3.167739730557673178e-28
1.863651862221963368e-27
-4.021472638780697285e-28
9.518995479071868490e-28
-4.476290221399004965e-28
-1.781211329737701443e-27
4.388754152216531033e-28
7.043120696376303988e-28
1.810139283848172785e-27
-1.545936436957415810e-28
-8.641269394449451908e-28
7.877015006979036896e-28
3.369617586724964604e-28
3.928492992340310973e-28
-1.023364742299568692e-28
1.624135780516578053e-27
5.171821025557106232e-28
2.665967018492859254e-27
1.555155525274159069e-27
9.224776135760763393e-28
-2.277939308346942563e-27
8.430714273578924908e-28
5.882725805287808999e-28
1.135095964341494191e-27
1.461914496817778597e-27
-5.611126198421736104e-28
1.153367683260770487e-27
-7.870637016760254805e-28
2.736259493799694746e-27
-1.864344093568899037e-27
-2.464450776039242264e-27
-2.310528617089959724e-27
-1.246518237160647755e-27
-1.566435356309261982e-27
2.737940303953324848e-27
-4.570041286762783735e-28
-1.879354739687968829e-27
1.559811345231685204e-27
-8.209625533471455195e-28
-1.731234207016314212e-27
1.225919207677446102e-27
8.725253485336228386e-28
-6.088125742180837575e-28
1.970145728166095478e-27
1.807045808452722302e-28
2.263258127159784199e-27
7.036906950258096677e-28
2.181873393557462388e-27
1.531318861101965306e-28
-1.707286622583902149e-27
3.428402162514110730e-27
-7.639247519859310958e-28
-2.783150504433802820e-28
-9.803537535335693230e-28
-2.846929427877929040e-28
3.396664838099582013e-28
2.825034206172100468e-28
9.252357273116858878e-28
2.508499111219529406e-27
-1.686152872840548127e-28
-1.726009597479801104e-27
-1.654900752999718811e-27
-9.318622702106220583e-28
-2.343386133202959574e-27
1.154801273107073492e-27
-6.973537689401127049e-28
-4.352883231894457316e-28
-2.647524640546198073e-30
-1.954861505118493541e-27
-1.205591847117631063e-27
9.443994698911556878e-28
8.657744902546774536e-28
-6.203115264668201044e-28
2.534221141956307267e-27
-1.827637096059436779e-27
-4.828815367535676321e-28
-3.231083548255863638e-28
-3.909504867001947181e-27
2.711975584843375824e-27
5.127580412727139181e-28
-1.462120655967785967e-27
2.871044940451327653e-27
8.197560904778693507e-28
6.012113970151225311e-28
-8.496208285464188517e-28
1.486808516676331382e-28
-2.135507734807978060e-27
1.112804796626169677e-27
-5.241045044575941359e-28
1.876284025783926643e-28
1.682526430068100926e-27
3.985643563212991753e-28
3.673779191878439386e-28
3.870184322596736780e-28
-1.026366510189536411e-27
1.170162927119310359e-27
2.160252894168782916e-27
1.062106746162769622e-27
1.238614405513375012e-27
-1.227938414964872487e-27
-1.214649167915446582e-27
-2.016806444995656231e-27
1.724795119922938810e-27
-3.557777258668991724e-28
1.959373490561491822e-27
-1.094448442803913531e-27
-6.123850500920201725e-28
1.335673073998280430e-28
1.289761510278198493e-27
8.503256654811850796e-29
2.955131180054099330e-28
2.313377674421954905e-29
2.480111614059514864e-28
-1.562732594444848915e-27
1.132743525925224334e-28
-2.611562065512463183e-28
-7.953770994312088595e-29
6.891276712081203570e-28
-9.527509921813268491e-28
-1.182866058217933947e-28
-4.162199603317038023e-28
5.841011710612289648e-28
1.098450165127654355e-27
-1.337316878330348462e-27
8.201038213668471301e-28
2.891494510244460850e-27
-2.059190880824894023e-27
-1.161998673514663984e-27
-1.232551967513878385e-27
-3.906554582785200869e-28
2.271515689503154746e-27
1.868985482506139818e-29
-9.723685429222763298e-28
8.703436616771557408e-28
-8.395515114465524481e-28
1.572449572728522319e-27
4.272848765814420636e-28
1.943886351120535901e-27
-9.256891706609520047e-28
4.242316517894773566e-27
1.154178123707179374e-27
9.162214154768093824e-28
-7.164890615428066478e-29
-1.015624468496430653e-27
-1.214623209971563965e-27
-1.903286216367289140e-28
-1.115945310126832901e-27
3.956636023467853416e-28
-1.156295612291137339e-27
8.693347469244896964e-28
1.338291693781899577e-27
-9.879709707620528161e-28
1.669412848677576057e-27
-3.330493543299953050e-28
1.617066295230787166e-27
6.133051687299287390e-28
1.570932512137536098e-27
-1.395537100702608356e-27
-1.494804529966650450e-28
2.031577899738652391e-27
-8.650714403147948596e-28
-2.851487909048260788e-27
-2.719058624843155547e-27
-3.508286332129255069e-27
-2.959213250560944639e-27
-5.761748431750169488e-28
1.789566648421483773e-27
-6.189920895700717953e-28
4.528439927344788677e-28
-1.539560257209914860e-28
1.196603174916396197e-29
-2.354293487564921569e-28
-2.438017116458890169e-28
6.454953190655371411e-28
-1.646032962573655464e-27
1.413883614668244533e-27
1.287756938142874627e-27
-2.730234215781179500e-28
1.127316036468928765e-27
-9.816777676845605408e-28
-7.519556427377062817e-28
2.187238423231666156e-28
-2.662539891684070472e-28
-6.281024468094931285e-28
-9.412312479945060945e-28
-7.803301109835208111e-28
1.314562491360121352e-27
-2.720086324698162997e-27
4.933893644555288186e-28
-3.309428154902436496e-28
1.018726755673047622e-27
7.209529245557682773e-28
-3.894737196797326966e-27
8.183348408724855651e-28
4.538894208154952872e-28
3.060159866007109511e-29
-6.560067329416808508e-28
1.194344994864868592e-27
-5.781206431041903969e-28
2.568069890671857480e-27
7.899714904102181225e-28
2.992336156625728072e-27
-1.099518626892679946e-27
-2.457784076110031114e-27
1.000497088383088080e-27
1.193537138774213691e-27
4.949382905495078869e-29
-2.153862013949845003e-27
-6.269227053466337849e-28
8.649996160060469378e-28
-2.577931718841887544e-28
-1.623454521006950544e-28
-2.455914130456441132e-28
-1.307208298833556003e-27
-7.460730908390987102e-28
-1.996761773909465032e-27
2.474628599639784324e-27
-6.653834626926265703e-28
6.685150399102175531e-28
-1.430342461431714852e-27
1.112107944988610411e-27
-2.621879376518198902e-27
1.288592822804336981e-27
-4.950478572681371367e-29
2.954231872262661427e-27
-1.828766871191223678e-27
1.069104087101608461e-28
5.140174980790308934e-28
1.725699501756826983e-27
-5.918764908749283239e-28
1.210249663406224777e-28
-2.998828930834250769e-27
-1.161994430588549827e-27
6.321306929859763705e-28
1.545522210199383587e-27
-3.943486557214747599e-28
2.878298342445140218e-27
2.463835836567867847e-27
-8.489580939247112862e-29
-3.378200709652916618e-27
-2.488074798034856321e-27
-1.088775625654404486e-27
1.561852303815153300e-27
4.342907641990323623e-28
-2.931336507770448766e-27
-3.202054793624334814e-28
2.258235659049378458e-27
-5.246173135107853947e-28
-1.049738861756771876e-27
2.875874858170792964e-27
7.475778361436385351e-29
-6.706802727680901028e-28
4.901319550359950551e-28
2.402561371985900860e-29
-6.006741024024699688e-28
1.691486617051151784e-27
1.561657317224561945e-27
1.176961085629567185e-27
-1.440121148604559443e-28
1.605326226471987905e-27
-6.956912342920861273e-29
6.531645561410367078e-28
1.446860314295256961e-27
1.132146341031784966e-27
2.505134875726059738e-27
6.316660814176774470e-28
-2.357193107525508027e-27
-1.623899978605127556e-27
1.889756014705223920e-27
-4.636998749196579254e-28
5.410421340939775766e-28
-1.191789735388846300e-27
1.400942254520061694e-27
-5.386529768024278498e-28
2.040926522165295633e-27
-7.449724927728833627e-28
1.565060839965992176e-27
9.439579726166417973e-28
-1.011138103548940012e-27
1.538274528511384857e-27
-1.262025476700108435e-27
-1.151214330320028933e-27
1.010185443313903390e-27
-8.752965262937391195e-28
-8.312071997614270138e-28
-4.813607521266032110e-28
-1.399945334792055078e-27
1.462687576781795941e-27
8.517432069714299842e-28
-9.703996731933365089e-29
-1.517172997374494413e-28
6.300865057736723762e-28
2.470954577826268670e-27
1.219103851774279498e-27
-7.116917820284794535e-28
1.088160283866344410e-27
-1.662450213195183086e-28
-2.785394529934955907e-28
2.612515882938366848e-27
-5.863909440128618340e-28
-6.707192075379069970e-28
-2.732378399148557134e-27
-1.962852050331829511e-27
6.314406201409769138e-28
-9.726867049237358819e-28
7.214290887980721473e-28
-1.560494508787701790e-27
-1.074010100081140678e-27
9.442023647129324227e-28
2.044823509233569843e-27
8.292892270059785446e-28
1.676614032623335738e-27
2.385934981890872671e-27
1.455821647447335645e-27
-1.285548345143778199e-27
-1.474518914532770141e-28
8.820902484439875578e-28
-5.806647415178616244e-28
6.325927182443123515e-28
-2.210358504371417043e-27
-1.159837640495430735e-27
7.402774850444038348e-28
-3.131269045746413455e-27
-1.550474625259940620e-27
-2.480048050853910768e-29
-2.406651092419004788e-27
7.995274478912787466e-29
-1.119133433495661875e-27
-4.081474392085679003e-28
-3.625005059948975541e-28
2.649553010764665922e-28
-7.891398943084410425e-28
1.255348283038669475e-28
-8.414442946947928347e-28
7.783408288485401825e-28
2.370839044220870970e-27
2.755603070097747648e-28
2.377674437049139945e-28
-1.629271872586937516e-27
9.705106123488803340e-28
-1.061073297214141550e-27
-1.132150310894049561e-27
7.802527505943061192e-28
2.534014726174593152e-28
1.549722909930632766e-27
2.019607127655140599e-27
-7.553968797766734133e-28
1.796903666732765220e-28
2.464068128169974369e-27
1.352873221803288107e-27
9.980608296652812968e-28
1.828307756006736183e-27
-8.462679261203396246e-28
8.910312207571984032e-28
1.972543973516305386e-27
2.268804733579330307e-27
-1.128423756202931001e-27
-3.522705322546324671e-28
5.356896887393967459e-28
-4.045120427727933789e-28
-5.484285284619956192e-28
9.574024855756103189e-28
-4.946709634663760952e-28
-2.502556903765532248e-27
5.064807702995992763e-28
-5.941661749132063097e-28
-1.023930146518309140e-27
-2.191577026878874907e-27
1.419055943050128027e-27
-3.117308521982934499e-27
-2.378571721939459595e-27
-3.861040835025768738e-28
1.720179601830652731e-27
1.833206512634061001e-27
-1.616639032583690162e-27
-2.486332978400212839e-28
-2.114198654710934529e-27
1.415395140916879534e-27
-2.066757333713550586e-27
-2.004323040690161820e-28
1.445876194647773520e-27
-3.113148103197047773e-28
2.057795956499485127e-27
-1.217757920979295585e-27
5.167590450947615769e-28
1.194346343999038242e-27
-1.955556992028485227e-28
1.940435884687351147e-27
7.672216488126286352e-28
-2.291952143598514970e-27
5.540889925352190986e-27
9.079120339660800632e-28
1.502493227456979499e-28
-1.957930217775249652e-27
1.144511125039289412e-28
-6.437858982525329288e-28
9.019073151316802515e-28
5.202300726032961459e-28
2.593673160715871473e-27
1.991104578629866727e-28
7.187579945266531436e-28
5.213310277546428246e-28
-2.078424422208685598e-28
-2.567068184441493488e-28
1.541079362310280571e-27
1.091810625827745580e-27
-8.810347749577832094e-28
-1.558485997898723279e-27
-9.435438613599914148e-29
1.625677435827781970e-27
-3.853311646248056969e-29
2.444500071026756354e-27
-1.084872483087438106e-27
1.982554671054830489e-28
-3.522091948790539986e-27
-8.337614069795390388e-28
-4.326797428868370552e-28
7.151639552702866345e-28
2.394427947495530195e-27
4.891083969190235091e-29
2.035060823863602875e-27
9.261606391184304913e-28
1.380605548673195811e-27
-6.524809239398356235e-28
1.938584181457813828e-27
-1.501837240729649738e-27
6.930777259998852582e-28
-1.332609432295688911e-27
-7.252527434044702505e-28
-2.045539074184232183e-27
-7.227365661312033817e-28
4.914613109606554259e-28
-9.625860297767331621e-29
-1.886478068920133629e-27
2.058607105594661368e-27
4.720110198947389466e-28
1.410997773666200512e-27
1.099088808200398956e-27
-9.306210769580636738e-28
-2.722498796436021193e-27
-1.281327286060519299e-27
1.714861078455196070e-27
-1.474657413765133170e-27
1.142223296242050982e-27
-8.571912569462335723e-28
5.502383586392366615e-28
-2.552956154389910822e-27
1.633565051330132712e-27
-5.552461742598891215e-29
1.239897916530367483e-27
2.657509679372811866e-28
1.117056692415711259e-27
-1.426751436435218566e-28
1.040482486079669700e-27
-2.112961745080824344e-27
-1.512679962018938494e-27
1.015452143867715680e-27
-5.483813894804193101e-29
-3.201891620504112367e-28
-2.514048588124015013e-28
7.022689093883155835e-28
-8.305083070852036679e-28
7.142818901102855200e-28
-1.281841652118438825e-27
-5.700341537044040570e-28
1.378645245005933049e-27
1.499441148490541210e-27
-1.535696303924339919e-27
1.173844199426356905e-27
-1.454552348204025109e-27
1.026018861539027690e-27
-2.657783414054260278e-27
-1.563629352075214275e-27
-7.124128328401222633e-28
-2.330318092288511304e-28
1.992645243514989751e-27
1.265335344376209925e-27
2.205195851915619741e-27
1.688899353111846577e-27
-3.959265227359923950e-28
-3.727800086296122211e-28
1.496248685401403949e-27
5.650823589806385233e-29
-2.197453807058832176e-28
-1.868894625043072664e-27
-1.490131389991234445e-28
-3.906581444956947195e-27
-6.384316272813179651e-28
-1.371560732236837700e-27
9.694022137975719834e-28
-6.700017747432225315e-28
-4.605762565678657273e-28
1.885554993928926773e-27
-1.468389059171891749e-27
4.432301529418108472e-28
-2.652821290808827779e-27
1.255946100255712447e-28
5.742524585927954225e-28
1.203568723851197584e-27
-1.257894520928954657e-27
4.474265445693118905e-28
4.453231434187095022e-28
-2.691868206701907941e-29
2.099790632168505013e-28
6.488129386457896805e-28
5.569166199666702794e-28
-1.394124925763355697e-27
-1.673857542692280953e-27
3.507641952017934894e-27
2.687149616653487053e-27
-1.947965773160007578e-27
6.301736086141530606e-28
8.782290294180426496e-28
1.051653128159574630e-27
1.965126883237713373e-28
-1.297350548670691277e-27
-2.553353966956810449e-28
-6.874320389103794043e-28
1.880831951494855470e-28
-3.756416004410938283e-28
-1.843074957646265412e-28
1.425676575254011519e-27
1.722422794723332573e-27
-1.653200171903622578e-27
-6.437680849935409300e-28
-1.106889431559220618e-27
1.712854404097116747e-27
-8.309775890991513476e-29
2.028162811906686217e-27
-6.684739904336308103e-28
3.639241333705631258e-29
-1.887781905164745035e-27
1.823170085790642186e-27
-5.075512278153103166e-28
-2.078786135907980341e-27
-8.292731075835687640e-28
-3.226199274362500431e-27
-4.453476765427877302e-29
1.574500512599500021e-28
4.032254642892546553e-28
2.096914785866899105e-27
-4.212788864924182644e-28
1.130202925172940769e-27
4.370431527500036678e-28
-2.705939469404992118e-28
-2.906917480880357544e-27
1.326225455019840189e-27
-7.054166296084421821e-28
2.513301449709849808e-29
-1.778274770855701261e-27
3.961112593122161997e-28
1.512116552295397917e-28
4.117609186107531718e-29
-1.886710912816977944e-28
1.468599779107887683e-27
1.352427571896860997e-27
1.016072002040818290e-27
4.648542224909267533e-27
-8.401405078203169202e-28
-5.312138993314895778e-28
-1.420429370483118297e-27
6.102535928113005169e-28
-9.622819602805634873e-28
-3.776919915227075673e-27
-1.698319710283355001e-27
1.011315987108593093e-28
1.413407934383828255e-27
-2.179264361016863626e-27
-8.572404639168510521e-28
-1.950519091282155567e-28
-1.019740129838260945e-27
7.434744863061676614e-28
5.600012593251087055e-30
4.496786371379483491e-28
-1.015089509154072978e-27
2.150702986987221629e-27
-5.249029535030763766e-31
1.810592422868354848e-27
-6.144687693413432745e-28
8.258832641108679075e-28
-9.509392682469475574e-28
-1.330995778813018607e-27
-9.858851588911599617e-28
-6.419999119740107301e-29
-3.061630857512357458e-28
2.154441162818961134e-27
-1.607851095214561673e-27
-1.526155851751445243e-27
2.379767831549022128e-27
8.521196731670000395e-28
-2.633426817168548808e-27
6.960317932551054397e-28
3.321966009335067421e-28
-3.001596599193457113e-27
-5.172796747832483546e-28
-2.443184477137247301e-29
1.023750333515815743e-27
1.336015715133986759e-27
1.340175711212445635e-28
1.446529892558881913e-27
-2.047399484711647727e-28
-1.200245609991353882e-27
-1.307582283482547801e-27
7.595452412124475643e-28
-2.740865949356564685e-27
9.487330310550909465e-28
-1.548879748534573278e-27
-5.028090267399687589e-28
7.073873542709304893e-28
1.704762253620812376e-27
-2.716387677096374573e-27
-1.128414510527921290e-27
6.867206873617999764e-29
-8.343471201564366715e-28
1.206021194498999954e-27
-2.920338646942397514e-27
5.064168382373280146e-28
5.961640991608461466e-28
6.869824996000052360e-29
1.542810143767601520e-27
-1.721045556554190867e-27
1.551740319673299676e-27
-9.838836756303695136e-28
1.015559240601896803e-27
-4.537914076779172650e-28
1.139843014677282576e-27
1.092430408948635491e-27
-2.049248258167804274e-27
-2.162426399768403224e-28
-1.293783036276004573e-28
-3.329560353495928420e-28
-1.057707609265346123e-27
2.591473392112330086e-27
2.926743993480184236e-28
2.176569133340043557e-27
-7.966422184914552380e-28
-1.486205971495875423e-27
1.851083426784918118e-28
-7.883670725939017649e-28
3.345507663425662544e-27
3.435204525920532469e-28
1.613302827444107018e-27
-3.138647203457065891e-28
-4.563907871560929749e-28
-4.326697453281579089e-29
4.979004811293530875e-28
1.189173944103278875e-27
-1.709800154946756254e-28
-9.529937478404475452e-28
-1.494715940586322694e-27
-1.073287571559487569e-28
8.019808081821432604e-28
6.409924236352010082e-28
-2.493937518578840880e-29
-8.400193894439757579e-28
2.054285893510728070e-28
8.003601597451226292e-28
-5.153398745021837201e-29
1.572831309493374102e-28
-2.106621866519245349e-28
1.281432123991848430e-27
-6.133526469093656200e-28
2.596957891124401073e-28
5.520842734585837901e-28
1.015520104996574273e-27
2.093802649183343755e-27
9.454384504521962513e-28
8.387238699421795755e-28
-2.057903377403180392e-27
8.487887663641890573e-28
3.210536080560126189e-27
-1.161773446770492451e-27
-1.427030617774778296e-27
-3.004528114466589398e-28
1.429449701384402720e-27
7.344977340427925239e-28
-6.678348160757001530e-28
-5.037576393822196048e-29
1.451552296583673327e-27
9.414715910133595253e-28
3.399719784109771434e-27
1.407668213158501407e-27
4.948910440257154926e-28
8.604376046899980322e-28
-4.884761447716740669e-28
-1.368597199196023326e-27
2.406898626751130771e-28
6.866424717598015764e-28
-1.952989535604450278e-27
-7.311467938324392935e-28
-5.168506312174147596e-28
3.718219336173017458e-28
-3.645765613182577129e-28
6.230056569306206904e-28
1.373285467851375831e-28
1.484149446739951580e-27
-2.395135949392588609e-27
2.319491471731626936e-27
1.984330392149073169e-27
7.042925409549174465e-29
9.102629426279756473e-28
8.489909628112450553e-28
-1.031990572419759635e-27
2.304830953332784380e-28
1.089217027195927170e-27
4.336531561307431068e-28
1.471542634209035790e-27
1.329668644678783619e-28
1.130278466356346245e-28
-1.074701443682976003e-27
-5.102470134138158376e-28
-6.434707541557035070e-28
2.387179807599048787e-27
3.366376700359149703e-28
-1.398905787351962740e-27
5.579215592845675412e-28
-2.687492097169561791e-28
-4.274380016121263745e-27
6.716534514239197728e-28
-2.173325713145270971e-27
8.096815765581537325e-28
-1.345488847881585687e-27
-2.041229169637918239e-27
6.919342198236760326e-28
-2.091435741225360813e-27
-6.252486802184222051e-28
2.860687806162960799e-28
8.569470777941281624e-28
1.042621230795477969e-27
-5.078322864303183469e-29
-1.165110858741843610e-27
2.692780839341936154e-27
-8.481972162801989846e-28
2.524498860873693862e-27
-6.334030598427423761e-28
1.625461477133743471e-27
1.497639879141432699e-27
-1.463443192213198578e-27
4.972947508718288660e-28
1.057328657903180126e-27
9.811706466627645000e-28
-2.784544437684713117e-28
4.226560477370264298e-28
-5.524505085689966985e-28
-1.640197168736978160e-27
1.377330310143799378e-27
-7.833908537861657821e-28
1.931259293965740827e-27
8.432556583144188540e-28
-1.249445152735893588e-27
-2.256306609951834915e-28
-4.008554055872076264e-28
-1.218988861688123230e-27
7.018552682944553749e-28
-6.699201961549772441e-28
2.283892510844215323e-27
1.204996803371400630e-27
-1.232008131341152144e-27
-2.659519186166177350e-29
-3.173981725880287861e-28
-2.189854969905037353e-27
1.303486506274843807e-27
1.329455489394613913e-27
1.295431933903268385e-27
-6.396497970271233183e-28
1.496268770404176570e-27
-2.935929704464695967e-28
1.308934312950346331e-27
2.537010622450964226e-27
1.961129943583876020e-28
-1.986394632085219211e-27
-4.435693042357784739e-28
8.971933772781359426e-28
1.707468559568728438e-27
-1.586978369905354073e-27
-2.667120753816669566e-28
3.266067626756762110e-28
6.088708599109424716e-28
1.274327672371857044e-27
-1.327539066219114471e-27
-5.927461799359581724e-28
1.410859264844108974e-27
5.491545171216337174e-28
6.276022163336749022e-28
1.575124886907588364e-27
1.456444159324260175e-28
7.390508875581105815e-28
-4.402977170706413558e-28
-1.882621982550297251e-27
-1.812983495405240359e-27
1.040271120733180939e-28
-2.793268368945251386e-28
-9.162536310813018877e-28
4.451273196346857406e-28
-1.246120675074104738e-27
1.558397201589088950e-28
-2.732589117963600751e-29
-1.175739639048762757e-27
-3.216818347763337991e-27
2.038713789962924058e-27
4.431998360214931106e-28
-3.728999770972996991e-27
-5.968757685426049100e-28
5.511880418260868230e-28
-3.193304681411190152e-28
8.122930020287155489e-28
-1.362290929644657738e-27
2.451837627154178394e-28
-7.486158031079982133e-29
-2.562334225251192710e-28
-3.093760366207290234e-28
2.796051510122029616e-28
1.305538107927072477e-27
-7.420132000521251202e-28
-5.700173305965077021e-28
2.247441866804795791e-28
-1.681749443594050557e-28
5.397308132651417392e-28
1.005397661441343048e-27
1.807288106037521442e-27
-1.629878662404481936e-28
-3.187553404600779942e-27
-9.745406095709048287e-29
4.953154508775118000e-28
-2.616825291770376468e-28
-2.144859609348619753e-28
-3.404802885956195337e-27
7.110300031164897141e-28
-4.535508111293160314e-28
-2.115066799875591521e-27
-1.219736888235911917e-27
-1.210509835938439723e-27
8.520712760525899294e-28
7.861296278976577286e-28
2.120209013438476579e-27
9.069058790034721580e-28
-1.891915158366323308e-27
-1.972482228325629573e-27
1.582685910576125234e-27
2.192904021155523468e-27
-3.327780381802969682e-28
7.821613026065058004e-28
-2.106409149000804370e-27
-2.720923844019560321e-27
-1.643290940726798209e-27
-4.999584222121464056e-28
-7.297749678889948686e-28
-3.220926147902680147e-28
-6.872770840505022694e-28
9.508235990674109936e-28
1.998149628025966541e-27
5.066589696611705812e-29
2.841404775270189196e-27
-8.879816770489909784e-28
-7.349916934772898883e-28
5.427155102761139844e-28
-4.966148494636479846e-28
1.647530068878720454e-27
-8.973640700720453951e-28
1.851386038043233093e-27
2.717884243447914297e-28
3.590886110431419169e-27
-6.496255868993165665e-28
-2.837123892228789475e-28
2.038700893597869093e-28
-3.052803424145730821e-27
8.429956292823569981e-28
6.730444007218354240e-28
1.530138451634822052e-28
-2.161703930811603808e-27
-2.164734661694178498e-27
8.210949374699194312e-28
1.644907619482595101e-27
2.231785727268059110e-27
-1.253357128700024516e-27
-1.442816780085987512e-27
-3.806350543710339034e-28
-2.765446309415091780e-27
-8.243319837928419693e-28
1.192257211417727833e-27
2.287967045179025400e-27
3.907362663784315973e-28
2.296296916588086642e-27
5.751023512505329233e-28
2.678537021126757249e-28
-2.399676904974649444e-28
2.616573753504088864e-28
-3.567198411677228562e-28
-1.972339804385465131e-28
-9.264556395488965309e-28
3.625691594461568366e-28
2.022356957612892831e-29
-2.070980777937944568e-27
-3.369105426580062694e-28
-1.197690536788341529e-27
-2.866883629256642261e-27
6.772960658424431111e-28
2.181709227207495158e-27
3.316931531676221763e-27
2.186931924567612887e-27
-1.218868350922067346e-27
1.645000427366994604e-27
1.567532174897815679e-27
-2.782381927993914733e-27
1.205552871695559460e-27
8.778650389106115868e-28
2.278840948016691216e-28
4.039792754526471967e-28
8.161334030587041789e-29
2.284234508658923619e-27
-5.623872532666648653e-28
-2.798568718328262955e-28
1.034242343502265617e-29
3.858493541730342317e-28
-2.468035766314542110e-27
1.942758764384037389e-27
3.166137264876447215e-28
7.966085447417533007e-28
2.761848744435512255e-28
-2.609634355762379023e-28
-4.972345724905865017e-28
1.345317837604033245e-28
2.128289568299627469e-28
1.617029719908929055e-27
4.843799752936286060e-28
-1.868452276063022797e-28
2.780612107917252159e-27
-1.790823689510114975e-27
-1.875902199797533191e-27
4.963395129440416993e-28
-2.972606967575648543e-28
-2.483917121234231506e-27
-4.370305166920075177e-28
-9.947109357912336145e-28
1.583250337291900515e-27
-8.695713950715107083e-28
1.470554273455420782e-27
6.435603623362030388e-28
-2.888031351748651719e-28
2.963438882252025417e-29
5.999972893033488465e-28
-3.230581168056841312e-27
4.578004361370701355e-28
-5.306569486874912611e-28
2.516563052324764264e-27
-9.675750472066234084e-28
1.599256451518272601e-27
-3.520161419627448671e-27
1.140237572682592091e-27
3.864633765887315435e-28
-3.457510864498598749e-28
-1.692097976574823590e-28
-3.647088782237712301e-28
5.920811957157675793e-28
-1.879088594807614514e-28
-2.502311698933488147e-27
-2.600810390255209974e-28
3.127959052154676098e-27
6.557103198956418985e-29
4.070183656870734242e-28
-6.131486256041079022e-28
2.436255189324210430e-28
2.490719132700029910e-28
-3.656065516560590005e-28
1.208317133017229453e-27
-1.292040079573056859e-27
-1.822353419598406915e-28
7.069280392757714528e-28
-3.737280242429482271e-28
-1.713074772267119416e-27
7.814071821832670251e-28
-1.374739059280786624e-27
-6.261010443052783001e-28
-1.159165234984888602e-27
-1.549875043496731021e-28
-6.010152043387061269e-28
-6.642874796433089891e-28
9.531720053345880516e-28
2.467138693719929884e-27
-5.004156907707385149e-28
7.315648993112171217e-28
-4.974752901556374304e-28
1.384903045900935835e-28
1.578523164035564399e-27
7.039587507835251935e-29
-1.141528574547315651e-27
-1.021684496942884561e-27
-8.632652247809355691e-28
-1.862203189326593536e-29
1.200965938279025024e-27
-1.901919513110545047e-27
-1.451902486272107172e-27
-1.294088209349064769e-27
-2.448657670730502446e-27
1.855905274667754881e-27
-5.091949756029535871e-29
2.660537005199145162e-27
-1.993651978032686463e-27
1.811478008085674189e-27
-9.821034273128132081e-28
-5.701988184300984233e-28
-1.384261974872779342e-27
-1.329532535337198702e-27
-1.852857728138778173e-27
3.028030835674120811e-28
-1.839498379968908499e-27
-3.384521306300754797e-28
-1.287947985887617321e-29
9.330606547436325910e-28
1.405191490080685100e-28
4.497625062429599267e-28
7.200262432294132440e-28
-2.414618305183145147e-29
5.085811767299651229e-28
-1.371322697502376460e-27
-1.085432573134273805e-27
2.655962040292928738e-27
-1.642447981826376089e-29
-9.944938465794550329e-28
1.931429651740407582e-27
-2.195339379677423106e-28
-9.048989971849341450e-28
-2.028165813390472885e-27
1.091061404847970030e-27
-1.520504633245389949e-27
5.762618432498463270e-06
-4.447825384001189331e-05
-8.366005659160141231e-06
-3.343306139878609662e-05
1.076108903430736963e-05
4.559414931788437189e-09
-7.975356906276036761e-05
1.074384973004899252e-05
-7.082196751611777828e-05
-1.127485993585138444e-05
3.844297223598748666e-05
-1.947729021096433316e-05
3.277979952833248875e-07
9.951385417661061847e-06
2.340223051340373169e-05
-1.347815982577035554e-05
-1.359661171718137646e-05
-1.255246026924661308e-05
-3.474333925343695706e-05
4.559145568709864157e-05
4.376164505203580319e-05
6.017517247273400355e-05
5.586814278487407429e-05
-7.291076050751525771e-05
3.584966057382475430e-05
3.642125343576750536e-05
-3.079348397080880646e-06
-5.866760589294916763e-05
2.513724756025394332e-08
4.091890463057404668e-05
-3.049547010889564424e-05
-3.077773787794482816e-05
1.390815610236375522e-06
-4.670534940303318383e-07
-1.134853804454873170e-04
7.216811065820681809e-05
-2.093927914546706037e-05
-8.442073191061116687e-06
-2.894854359386812148e-05
2.187918870477711735e-05
5.517795617763654848e-06
-4.676373814148823254e-05
-4.614367796059069105e-07
3.514264707092111306e-05
7.054493369168726030e-05
1.930144597045243171e-05
-1.882885608222829315e-05
-1.650094723253057305e-05
-4.583190151467310923e-05
8.224890466164508783e-06
5.477114559869098262e-05
2.565559043649014672e-05
4.358633951057257831e-06
4.137632142320335233e-05
-3.247200928800375992e-05
9.929880646486225425e-05
9.385377640945303333e-06
6.025286089099085807e-05
-6.745479868756504044e-05
-4.847955108243542341e-05
4.810913946275750081e-05
3.861311222534534069e-05
3.162552879086943220e-05
-7.027273406870899715e-05
-3.044998480836940441e-05
-6.219772025667006212e-05
-1.088373048080698619e-05
3.289175206226477982e-05
-4.268112152938575743e-05
-4.295930009340233037e-05
-3.163453201657712356e-05
5.620042907712804782e-06
4.843542838540311356e-06
-5.468942944613368773e-05
-4.377768614920332326e-05
1.006132500914666471e-05
7.181895568247123370e-06
-1.182133857168741388e-05
1.661906546213761079e-05
-4.337276456181026970e-05
-2.105441800553735468e-05
2.713138770379023678e-05
7.372957430912006404e-09
7.488842704934817337e-05
-7.503572295574918124e-06
-4.360091866189787127e-05
7.926872530285988347e-06
-1.015177193132305697e-06
-3.157727554019217043e-05
-2.948736200003760250e-06
3.326077000480856169e-05
-2.727317672333829202e-07
2.748363846678462033e-05
7.716506280074246818e-05
8.130839581005824671e-06
2.395283423282389720e-05
6.339280847911598986e-07
-2.104336559169894469e-05
3.062613224873479836e-05
8.454683379237558350e-05
-2.858323176808095457e-05
-2.821555869017326013e-05
3.439498005459407592e-05
-5.637974767853994740e-05
-1.906986827507600041e-05
1.578428360585301619e-08
-1.055250286915598873e-04
2.984935518613423259e-05
-9.405328527320801245e-05
-4.736575622055419900e-05
5.009869104544696731e-05
-5.459912489149751770e-05
1.826290683965699159e-07
2.095580573527006747e-05
3.308116245552403982e-05
-4.242285001022545618e-05
-3.151846761940566634e-05
-6.517465495508958961e-05
-8.320599929558104401e-05
1.115853214938288018e-04
7.738710884293872709e-05
7.937999635294943170e-05
7.304951446729370196e-05
-9.502701636077697412e-05
8.479252782507588025e-05
9.417979202591545470e-05
-4.659579647373926720e-06
1.210558126212809741e-05
-5.696348270888906678e-08
8.012694203283330274e-05
2.835571304095054897e-05
-4.264976182604048196e-05
3.916527958772578254e-05
-3.127765755556418499e-07
-1.645729444455251592e-04
1.598190230747118011e-05
-5.994987523907671466e-05
3.205889820662894427e-05
-5.224410183305472116e-05
6.001799078157750010e-05
-5.228132869896946569e-06
-7.835836687039595782e-05
-3.074546240747109614e-07
-2.529937813136841947e-06
9.193707108784699149e-05
1.811319235049011365e-05
-3.698155164160154960e-05
-4.142699481527873089e-05
-8.987403476630143756e-05
1.449681728669072157e-05
7.342788432704282773e-05
7.941478513263938591e-05
-2.039322061106626949e-05
5.414430605123807911e-05
-4.494477302255312959e-05
1.347429210250038548e-04
1.744530574442148375e-06
5.715906799343196297e-05
-4.371245604326463874e-05
-6.332408187078034307e-05
6.283406832238719189e-05
5.020293768286048061e-05
-6.832045759153942789e-06
-1.236997015929232530e-04
-7.545216249682787835e-05
-8.184580593896081837e-05
-3.801774224449255110e-06
1.892214882804143616e-05
-4.474922028656770200e-05
-5.599932584687585929e-05
-7.440149712347379611e-05
3.764869528236159464e-05
-3.582082985002560984e-05
-6.123256294720604844e-05
-9.471738065314647625e-05
5.258618521843298898e-06
2.623689495342016996e-05
-2.438663017030739543e-05
5.482881879878762619e-05
-5.883970815544482374e-05
-5.957422797381970868e-05
7.265002520016713885e-05
3.023666951873456908e-08
9.904258891922866875e-05
-3.814666237995884235e-05
-7.715461738426285406e-05
3.330319775062169380e-05
-8.447061086884550007e-07
1.706712661752436922e-06
-8.684714724244777792e-06
3.238030223211327654e-05
-1.326093787256992242e-07
2.471253281676776396e-05
1.005593856574926460e-04
3.804596151571458144e-05
4.010614152073554506e-05
4.726515945536435503e-07
-1.576919715476441144e-06
6.845765811400228494e-05
1.102820180284931395e-04
-5.666775964367958896e-05
9.951788209681839559e-06
7.007028406255632594e-05
-5.293446161124683140e-05
-4.689129644796451960e-05
2.112502909215838396e-08
-7.651510547222007763e-05
3.716252209820944738e-05
-6.854052853163775810e-05
-6.655393848424914641e-05
3.556497561438158649e-05
-6.820574860454659927e-05
-1.168286669556014213e-07
2.292644293589846647e-05
2.608804683019820547e-05
-5.516935829933045159e-05
-3.628273685086685815e-05
-9.546719840529247934e-05
-9.729439288061778957e-05
1.317948131721482347e-04
7.545403979157832999e-05
5.731927529298324513e-05
5.210205796114273172e-05
-6.746967085022063048e-05
9.856658012054080248e-05
1.139408392695733364e-04
-3.959494928443598119e-06
9.785032549629768713e-05
-1.308653004779568203e-07
8.389414494062041210e-05
8.876186066606914747e-05
-3.283731519010586481e-05
6.544956103864089524e-05
7.616995507235053218e-08
-1.336404347722657167e-04
-6.733494414775116729e-05
-7.547679643354314601e-05
6.615738042330907573e-05
-5.172055055024508171e-05
7.435929473894133980e-05
-1.622789452393979642e-05
-7.317937630551325128e-05
7.793458357676605401e-08
-5.050329190611696153e-05
6.526925896427989880e-05
5.762863363982842503e-06
-3.879477162719151972e-05
-4.948849826453523358e-05
-9.418436132556280433e-05
1.409912573819543275e-05
5.419283553333124897e-05
1.027181621386254575e-04
-4.075529954523542987e-05
3.866159057703367563e-05
-3.455426859428911170e-05
1.010329045440116780e-04
-9.330382775593333393e-06
1.904715547137945581e-05
1.351006815303283992e-05
-4.510057414072798714e-05
4.474536209107518776e-05
3.552057832966752686e-05
-5.327375747425625485e-05
-1.201871499810488813e-04
-8.961424091233778080e-05
-5.889844952022400647e-05
7.764529702583889784e-06
-1.069749340266829381e-05
-2.080938108801300384e-05
-3.976892259607628030e-05
-8.625363423856700917e-05
5.728963974067433486e-05
-6.789302693028770699e-05
-3.335160603311588883e-05
-1.052021089938438034e-04
-4.181856283010092883e-06
3.563559031203622528e-05
-2.636369765707424664e-05
7.235439038868470918e-05
-4.410494222669222056e-05
-7.468029988437571048e-05
8.915961134874416185e-05
4.225527098174261565e-08
7.176990458469643822e-05
-5.567113652975847599e-05
-7.526577993951813982e-05
4.679528123136730405e-05
-1.176306757371569470e-07
4.440632033940591569e-05
-1.104523575675116432e-05
1.193561904533707260e-05
1.304244193141561706e-07
6.352150154474355559e-06
7.138518120359396766e-05
5.467428424094918993e-05
3.743204981982484371e-05
-2.072250342957917157e-08
2.493027293447753966e-05
7.736804759384730186e-05
7.839081346710174373e-05
-5.666775964363147749e-05
9.951788209675303852e-06
7.007028406253198560e-05
-5.293446161121938753e-05
-4.689129644794789065e-05
2.112502909214479834e-08
-7.651510547217494772e-05
3.716252209819028411e-05
-6.854052853160336179e-05
-6.655393848421862612e-05
3.556497561436299242e-05
-6.820574860450558932e-05
-1.168286669554974744e-07
2.292644293588630647e-05
2.608804683018774292e-05
-5.516935829930487797e-05
-3.628273685085237050e-05
-9.546719840523799818e-05
-9.729439288056845837e-05
1.317948131721026440e-04
7.545403979154715918e-05
5.731927529295158643e-05
5.210205796111503035e-05
-6.746967085019198044e-05
9.856658012047837954e-05
1.139408392695320012e-04
-3.959494928441904054e-06
9.785032549626345344e-05
-1.308653004779204508e-07
8.389414494060111330e-05
8.876186066603120040e-05
-3.283731519009149913e-05
6.544956103860647182e-05
7.616995507226518038e-08
-1.336404347722020198e-04
-6.733494414771950859e-05
-7.547679643350568683e-05
6.615738042328107621e-05
-5.172055055022192044e-05
7.435929473889038230e-05
-1.622789452393301338e-05
-7.317937630546925978e-05
7.793458357673062421e-08
-5.050329190609230949e-05
6.526925896425317321e-05
5.762863363981397465e-06
-3.879477162717196343e-05
-4.948849826450288369e-05
-9.418436132551824362e-05
1.409912573818797378e-05
5.419283553330526878e-05
1.027181621385973766e-04
-4.075529954521518239e-05
3.866159057702001469e-05
-3.455426859427292321e-05
1.010329045439720775e-04
-9.330382775588095341e-06
1.904715547137161567e-05
1.351006815302363267e-05
-4.510057414070929821e-05
4.474536209105338174e-05
3.552057832964907510e-05
-5.327375747422700850e-05
-1.201871499809817963e-04
-8.961424091229945425e-05
-5.889844952019843285e-05
7.764529702576029318e-06
-1.069749340266050789e-05
-2.080938108800397109e-05
-3.976892259605828255e-05
-8.625363423853193523e-05
5.728963974064720270e-05
-6.789302693024788966e-05
-3.335160603309451650e-05
-1.052021089938072929e-04
-4.181856283006067783e-06
3.563559031201914910e-05
-2.636369765705973188e-05
7.235439038864242530e-05
-4.410494222666905929e-05
-7.468029988433459211e-05
8.915961134869558960e-05
4.225527098172186334e-08
7.176990458465762378e-05
-5.567113652973622274e-05
-7.526577993947477173e-05
4.679528123134051070e-05
-1.176306757370983032e-07
4.440632033938524809e-05
-1.104523575674570604e-05
1.193561904533037087e-05
1.304244193140586030e-07
6.352150154471534940e-06
7.138518120355949004e-05
5.467428424090849169e-05
3.743204981980608701e-05
-2.072250342956230040e-08
2.493027293446253023e-05
7.736804759381718814e-05
7.839081346706591085e-05
4.073215368157847407e-28
1.504546334342826246e-27
-9.767304613520302065e-28
-8.094874324564728043e-28
-1.186186536071726385e-27
1.098637720990695900e-27
2.286110623261871179e-27
3.621640733316320079e-28
-8.724103164752833251e-28
-7.283537622671548287e-28
-1.556915787013317386e-27
1.023390401876001622e-27
-1.487790443023600702e-27
-3.564120707695798277e-28
-1.636205151862856044e-27
-2.658694680709223674e-27
-3.555197214074158047e-27
-1.245686706942912169e-27
3.052463310062872202e-28
-4.448491554147873522e-28
-3.129396744459088890e-28
-1.499619544898071938e-27
-1.304082618884894341e-27
-1.494472064343467350e-27
2.956655548743962657e-28
2.866119918058859230e-27
-1.908817635661328594e-28
-1.916593447099212006e-27
1.781301717382126743e-27
-1.397701916855260193e-27
7.803831873587040937e-28
-6.195885475805488811e-28
1.134928538452995630e-28
4.804728245892460513e-27
-1.046318885773424144e-27
-8.211816089563640794e-28
5.252202572713215203e-28
-3.071907228344356600e-29
-5.683808994312100270e-28
-9.635699022254927748e-28
8.265192945164867551e-28
1.508013159108966800e-27
-1.332640185210968405e-27
-1.590675092376413016e-27
2.561335349059674960e-27
-1.994803234203629290e-27
1.001258322127138146e-27
6.146503249068647699e-28
-1.543835873039785088e-27
1.063069651699361057e-27
-1.544181317390838056e-27
-1.525053953626553385e-27
-1.944965305373589355e-27
1.167753309054115272e-27
-6.289532104758605687e-28
1.519035517602353290e-27
-1.133959901896749999e-27
8.603484576716426550e-28
1.969964598069097188e-27
-1.203938469642059061e-28
-1.575305795855087295e-27
-4.794994660719366194e-28
1.759066143241537735e-27
1.034515938401466592e-27
-5.402708224691590774e-28
-2.441612871725917457e-27
1.001542933191154527e-27
2.282793376362665933e-27
2.307551172844525675e-27
6.057801290589639714e-28
-2.673851584491285324e-28
-1.100340638361292208e-27
-8.014756412757828272e-28
-2.309169553573725075e-27
2.987749999730304739e-27
-3.774228536984497342e-29
3.337472183357949688e-27
-1.042746668881526337e-28
-2.265173394170005107e-27
2.605648531001904262e-27
-1.203507209560243110e-27
-6.129438531858478663e-28
2.307491003497363930e-27
2.041857289357669081e-27
-2.836098380047826264e-27
1.476370472407108070e-30
-1.525031427611125295e-27
7.546363619657592970e-28
2.536519711748709427e-27
-7.243349126262663616e-28
2.090076673774202949e-27
-1.299831302705648690e-27
3.040545545018326798e-27
-1.155674784292019344e-27
-6.485381004258399794e-28
4.156537572175884065e-28
-1.960423977665510192e-27
2.169000711852130190e-27
-1.497711775419512843e-27
8.593532340578382894e-28
-1.804406297432466824e-27
1.536641248360070725e-28
-1.473357740176446784e-29
-5.434241046600751621e-28
6.847642728101836156e-28
-1.563239623950027828e-27
2.130168477292715593e-27
2.833672899768668420e-28
-3.907207998198893238e-27
2.807201621718003446e-27
6.336671133882953738e-28
2.174538474333148675e-27
-2.476596063445523468e-28
-3.167001945890072560e-27
-5.874826777937435674e-28
-1.716140568762876374e-27
-5.386423026464999490e-29
-6.756769012586595538e-28
2.925562688404931603e-28
-2.469657020191195085e-27
7.527968961050060488e-29
-6.432806067408413615e-28
8.867277628387376604e-28
-2.368730293144251945e-27
-5.949754656413003266e-28
2.321275682648692689e-27
-1.653143798595988229e-27
1.033060030350084019e-27
1.862320743070131441e-27
-1.412273471615750623e-29
1.383626766330058654e-27
1.457711927519480388e-27
2.197200158850743116e-27
-5.148578655515457947e-28
-1.571859836129887914e-28
1.125537604321735890e-27
-1.043684327932547187e-27
6.725698343071479984e-29
-9.777953062962031330e-28
-3.259978698500769080e-27
4.687835796338464844e-28
2.382905838442605707e-27
-5.207821033630925110e-28
1.179917761264423749e-28
-6.342148601211399267e-28
-1.037132702383968711e-27
1.905065774773071465e-28
1.501790797399980008e-27
3.101534792374262877e-27
1.156826277092412758e-27
-1.345629103617516614e-27
-1.997405931234779995e-27
1.829181902855718990e-27
4.433086715256007455e-28
-8.544706019468529387e-28
-1.478333136103716772e-27
-1.130575877073426140e-27
1.726435352213116186e-27
-3.129660348390328700e-29
-1.960249756585179298e-27
1.221356244805050219e-27
4.340532453481644100e-28
-4.075001794079533868e-28
8.506242099790582572e-28
-1.158516285444044669e-27
1.349185475854430816e-27
-1.994389941417856047e-27
-1.264556479869352439e-27
-1.927234921179209850e-27
-5.830612644747804539e-28
-1.060210663639059964e-27
-5.075985816205596398e-28
6.673574751061452032e-30
7.757920013923403247e-28
2.051021904514279824e-28
3.525301720570520521e-28
2.245585889270879250e-27
-3.730091081431460394e-28
-2.041245236850687416e-27
1.331657227071076455e-27
2.569682241354982506e-27
2.621495805660471170e-28
1.175103203026615158e-27
-9.176722617291191859e-28
2.598913742921040312e-28
8.916497650811942164e-28
5.298954596562458427e-28
-7.554194019415903549e-28
2.282406410229124503e-27
2.418921450166467854e-28
1.302006351989478719e-27
5.679723041254557431e-28
1.222889251674243656e-27
1.306282588949539920e-27
-3.025542038859694763e-28
1.166907335878539280e-27
3.024008284264127272e-27
2.798006149838256234e-27
1.069435283964634305e-27
2.361665508374104048e-27
-1.830778631400858827e-27
2.060925652820722263e-27
1.048047120308516694e-28
-2.501188706296845219e-27
2.312466652759863602e-28
1.366530244796018741e-27
-9.742358604759067705e-28
2.711419574440907256e-27
1.888525474372262844e-27
-1.784787738163745210e-27
1.412432236381985443e-27
1.567291245042761239e-28
-7.721915366322492387e-28
-4.431920072858896249e-28
-6.228632958961943977e-28
-1.702424910853400530e-27
-6.275216714241425359e-28
9.695625701370706125e-28
1.995903202470219783e-27
2.041248592495545281e-27
-8.025378967921137727e-28
-1.641125724275203241e-28
-1.202869352660983382e-27
1.441703257102843962e-27
-2.306933679613714207e-27
-1.908189809676258260e-27
-8.900000403315590307e-28
3.519895223492142881e-28
-4.495135633109603363e-28
4.627983049732919405e-29
6.653461555799342411e-29
3.265236211037273881e-28
-1.447946646637373862e-27
-4.750047616464400932e-28
8.084889066468352318e-28
3.922391363271722467e-28
1.530310607332665950e-27
-1.044496474848093191e-27
1.268501820155891617e-27
2.052847142089314849e-27
-1.995848460988612548e-28
3.722246883412184963e-28
3.151995694171828820e-28
7.497826869363363395e-28
5.429764889489098816e-28
2.056854462134074620e-27
7.185612733670513085e-28
1.210050398493507385e-27
4.640407887213216891e-28
-1.458174737842230860e-27
6.065781763282823363e-28
-3.218714037286839810e-28
-8.889372704367803751e-28
-1.251858208644313441e-27
-9.853539334287146946e-29
-8.502726780282834224e-28
2.854946644821238733e-27
2.235015227420268254e-27
-3.736246086096408273e-28
9.926133342747236564e-28
1.619410262470653042e-27
-2.419247411372696019e-28
2.586987988925121851e-27
1.290685737086344709e-27
-1.423631129188210968e-28
-2.518494318577443110e-27
-1.352055733246222436e-27
4.460766668441542811e-28
-6.134417827021962997e-28
-2.904851704153873830e-29
-1.102009471255333621e-27
3.456198501335336906e-28
-6.414892665429613304e-28
-2.173335639311527988e-27
-4.782009690577106561e-28
-8.006695070127111826e-28
-2.171868415040820662e-27
1.992033230731207293e-27
-1.064491851510893891e-28
-4.575172347168281729e-28
1.050306015553817787e-27
-1.156092595445659623e-28
1.073987425021423422e-27
-2.072484883245950244e-27
-1.451016048357812787e-27
7.631597035059125830e-28
2.088221444453732437e-27
4.200738882925437779e-29
3.029448834586553279e-28
-1.152581447029962053e-27
-4.190150180867162668e-29
-9.923047570084442580e-28
-2.242866556249436284e-28
1.010981641640386126e-27
-2.797686918703929607e-27
2.981739238489180112e-28
-1.126123710334803705e-27
-9.050266346416677230e-28
1.593110120444036782e-27
4.135294152623612126e-28
1.306809343528391303e-27
-2.468770493974487015e-27
-5.741839762789026730e-28
-6.350017389413218739e-28
-8.250297317805603911e-28
6.161999858242943379e-28
1.254028928910468745e-27
-1.549167812032518238e-27
-1.347446991597917518e-27
-1.752375482671999498e-27
1.606314838089545001e-27
-7.204788550783489045e-28
-1.419035430371364802e-28
-4.649981178364478813e-28
-1.348838330588282935e-27
5.224565643623525901e-28
5.361259723315973807e-28
1.317581439174291076e-27
-3.155224094692567191e-28
-4.158357941629832842e-28
-8.195597766064830053e-28
2.082964427427874281e-27
1.410300092205856077e-27
-5.652751948745386450e-29
9.083738844893218889e-28
-8.200104835833939948e-28
2.875665824954582272e-27
-8.280203196288729354e-28
-5.314538652429606707e-28
-5.193359761499452613e-28
2.381233072597893669e-27
2.066003869705145022e-28
1.517869900625300849e-27
-1.541036503959903473e-28
-1.697811399623484366e-27
1.085446205130682787e-27
-8.768565642342355781e-28
-1.845547190764210890e-27
-5.823844834116330015e-28
8.841358248927477419e-28
2.469484825505082577e-27
-1.942064683846753287e-27
-3.078040202164917836e-27
1.301948672593335637e-27
4.199843030739306961e-28
-7.886978327529385136e-28
5.855847384383795687e-28
1.021007683975885123e-27
2.676338912076772325e-27
-1.824407129049977290e-28
1.791347201935141258e-27
-6.323266396370323146e-28
-7.133876777414222617e-28
5.931592800668011991e-28
-1.560629513235391654e-27
-1.822363139173868424e-27
1.348189582821770574e-27
-2.747732894642204115e-27
1.586545182989390093e-28
-4.545445132256229352e-28
-5.221195406760436136e-28
-1.864839068292617207e-27
-2.849669980678946241e-27
-9.250792237492007219e-28
-1.630965563102033337e-27
-5.954626328605081328e-28
1.232248736626555321e-28
-1.038248114559987249e-27
-1.501222801274067292e-27
4.059733683438846641e-28
-1.066346505928667571e-27
-1.343064866072693949e-27
-4.187273814970235311e-28
3.996047950934173284e-28
2.951633140390894804e-27
2.258515847843449954e-27
-1.768365065051260202e-27
-1.853562909621447737e-27
9.058545713202160950e-29
7.796361612354675634e-28
-1.843493978409308376e-28
3.040632719471171185e-27
1.647555213863350159e-27
2.295602267976522365e-27
-5.848970632506518307e-28
-1.255369996983355320e-27
-1.498091638768850881e-27
-1.592610247938618869e-28
-1.761323098205829615e-27
-8.871241363815761491e-28
-6.029520736471111209e-28
1.321723379147581747e-27
-6.618879480631134620e-28
-1.969479621237889924e-27
-6.263321515448580601e-28
2.639611088582490214e-28
7.851217844214851520e-28
-1.290054029558925929e-27
9.061364641838417109e-28
1.941151597216573518e-27
6.851805802556450216e-28
3.342445959063583344e-28
-6.272259121335219435e-28
-8.549349684134808938e-28
-2.841331404992261631e-27
8.509480152117617720e-28
-4.956492207193971928e-28
2.135696114558863371e-28
7.016386762051341510e-28
-1.100734656946245278e-27
1.423497524296391778e-27
1.583218449573519613e-28
2.095356999985172383e-27
2.364634927577216112e-28
4.459817001758570467e-28
-3.826483093169968406e-28
2.066549242301626209e-27
-2.944276764841971476e-27
-7.458094347954719076e-28
-4.269866738662870484e-28
-2.142142939488139404e-27
-1.112352071171757812e-27
-3.040338660601406417e-27
2.664866377863114323e-28
-1.966908963574670254e-27
5.176968556437376711e-28
-3.664180697684481069e-28
-1.165556197136667043e-27
-2.174842754778656976e-27
-9.557879445725964659e-28
4.347828071380787668e-28
-1.755895058501763724e-28
9.325471211162749467e-28
-1.103432592073689372e-27
2.247922812447519725e-27
-3.330654238407095305e-28
-1.183027241677746663e-27
1.833841036489922659e-27
1.900197363343872205e-27
-1.262107612181409154e-28
-6.778817981220777244e-28
1.273839224394325346e-27
-1.251531130852660066e-27
1.308995567276691175e-27
-1.941648390189829047e-27
-1.167262744506132193e-28
1.645428355511759058e-29
1.690987106695718909e-27
-2.560374303175709606e-27
3.281430767374845323e-28
-1.689594685926738956e-28
4.070754308797572589e-30
-1.237490063523039726e-27
-1.822273284150185537e-27
-6.482568904663946240e-28
-3.382588579641995433e-28
2.064826880623781524e-27
1.559018352317374824e-28
-5.985510089027523198e-30
9.774812544861593385e-28
-2.256126671117825261e-27
1.011382411105455163e-27
1.281259782424114575e-27
1.269736998727147027e-27
-4.660946255118795159e-28
-1.728989941516388511e-27
-1.378612819183686551e-27
3.463632882475711260e-28
7.513143261950339617e-28
1.786797594803823822e-27
2.129564192817498329e-27
1.219493640303021252e-27
4.749042812364135532e-29
3.708107200712373365e-28
-3.293687284039299183e-28
1.476508358175863971e-27
8.318069497810899110e-28
3.021406221576146899e-28
-1.757474768658881263e-27
1.465020856286702372e-27
-2.137195852419054146e-27
1.724136020349932592e-27
1.378194304072085036e-27
-2.221433746580640155e-27
-6.783594399226391396e-29
-1.737590120174427477e-27
-2.024248939346542310e-28
7.770761410312418483e-28
-1.912535120820446388e-28
-1.909017691879142874e-27
3.650821616833503967e-28
3.632071532715663325e-28
-3.812079633543885749e-29
-1.462889925810143089e-27
-4.895923718854142014e-28
3.758597650263413010e-28
-2.170245556347790952e-28
2.957055176313160533e-27
3.584365699594184145e-28
-2.894056005336494268e-28
6.754964636558640593e-28
-1.547283081201811765e-27
5.889346373477130678e-28
2.263040652580392316e-27
-1.237022242823790115e-27
4.182819217523167690e-28
1.073734735582890969e-27
-2.370194611117132584e-27
2.293966796851996395e-27
-1.462692866832904178e-27
-4.689780185602221691e-28
5.328300897145400416e-28
-3.255762382260671805e-28
1.123877292606764337e-27
2.112515917662964106e-28
7.974857353236570357e-28
1.049409398027157984e-28
2.060373198842356564e-27
-2.821109731776221422e-27
5.096258184440847467e-28
-4.207735551083432371e-28
-1.342366123301951798e-27
-1.136017445324757029e-27
-8.006052477469651025e-28
8.096061553314215056e-28
-1.254321405110101830e-27
-2.284094418775670128e-28
3.852681881496747095e-28
-1.617771419407680237e-27
1.556963884330227794e-27
3.389519176511921810e-27
-9.434277663691679203e-28
1.286958056144630646e-27
-4.334610066818974091e-28
7.465589721375548687e-28
-2.543343099390032020e-28
3.091482497497157397e-27
-4.539700050700419204e-28
1.111271156603836903e-27
8.501355775377607356e-28
-1.517228237080179548e-27
-3.023747499238391038e-27
8.105533087158405933e-28
1.182079653725236791e-27
-7.512311456750389516e-28
-8.865399174193216305e-28
1.367239837499850300e-27
1.193718209529270704e-27
1.337948685747041262e-27
3.658866558429579916e-28
-1.103357277396884282e-27
-1.704807714604180178e-27
-2.789810201169025802e-27
-8.073764788845437467e-29
2.686276859711681072e-27
6.689130809294696305e-28
-1.116130981328773580e-28
-2.128601433572855390e-27
-9.349074037985311497e-28
6.912846310181372387e-30
-3.110424930355581410e-28
1.271410801826579751e-27
-2.220032468779543490e-28
9.732257243520131048e-28
-1.598722716496772321e-28
-2.656187193622924313e-28
1.762419927039968649e-27
-1.052549220224221900e-27
-3.961915103550509441e-28
-1.809455554361074361e-27
1.354068986825521985e-28
1.496989661462793000e-27
9.537640579902258529e-28
1.027402582866327964e-27
1.473952383835224821e-27
8.751232220855282366e-28
1.061342186250055341e-27
5.650960297227911930e-28
-1.365259655595324812e-27
7.363797924329257583e-28
1.323965216172267636e-27
-1.248413541951158922e-27
3.303171866809769850e-28
1.515622679989352145e-27
-5.227581759867411411e-28
-1.849164124709925073e-27
8.612962458056447043e-29
2.230695253132329766e-27
-1.277857480092279706e-27
-1.475153792894585058e-28
-1.051224414262066401e-27
-5.024495792778420599e-28
3.286113619359356176e-28
2.067108587915303993e-27
-1.003092747726569481e-27
-9.919104319475893673e-28
-1.221249098036727811e-27
-1.530987803769763266e-27
-2.148132747293194155e-27
-1.191518951250107749e-27
-1.481077346341732597e-28
5.719962962684638503e-29
1.641087115031092657e-27
-1.150001196884531067e-27
-1.091686035888252658e-27
-1.059351532515702777e-27
2.739872303207000229e-28
-2.218151915123776720e-28
1.087865771004149977e-27
-1.104567109427425652e-27
1.278296195376187826e-27
1.319243674873227381e-27
-3.673782783600901884e-28
-8.713709767688604571e-28
2.535839177936132081e-28
-1.107916554052976442e-27
2.788505938698403231e-27
1.972011582830930833e-28
1.109186093995968905e-27
-1.773580882095358262e-27
-2.450550304885729375e-27
9.619723617256599984e-28
7.220910349931263219e-28
-1.064624957300798328e-27
-7.933207049860500216e-28
-9.517231299025440613e-28
3.188912734252763651e-28
1.293123693205864440e-27
-2.162353995415848656e-27
6.701036381821586293e-28
-1.223580005314635143e-27
-7.431499930641301351e-28
-2.245625273770096697e-28
-1.905638817250052325e-27
3.980685041546481347e-27
3.394261627756190026e-27
1.052958529725542127e-27
9.182300375565339390e-28
-1.460750076333109279e-27
3.327595472512202318e-27
2.563883167221080603e-29
-1.727177464638133465e-28
1.685240068604747287e-27
3.650440733700674861e-28
-1.087018689940332761e-27
-3.064261911027632186e-28
-5.264104688265877035e-28
9.049912476521488931e-29
7.760789401905957131e-28
7.457071759015598666e-28
1.821303371943387301e-27
-5.743093933185619115e-30
1.341016666119155285e-27
2.388829117356814167e-27
-1.716074287746217909e-27
9.973910875979501969e-28
-1.500952389068125343e-27
-2.109466542015357645e-27
2.218064955415493708e-27
1.589346583501595502e-27
7.325695678352441232e-28
-6.675649399210759322e-28
2.104547453151913745e-27
-1.913636310663585758e-27
9.433044394267015218e-29
6.791071547427463696e-28
1.801602532519546884e-27
-2.136553853361588060e-27
-4.288904757372269398e-27
1.614848102640956609e-28
4.443054932708916028e-28
2.431017571244651993e-28
-1.227889904417497986e-27
-6.181224771061376847e-29
-2.155661794990468370e-27
5.887081530767044563e-28
1.249363580967405606e-27
-1.024631264539128740e-27
-2.804934362573780613e-27
-1.816565653618352383e-28
-2.778425879477374805e-28
-1.128262965919145316e-28
1.824625663634632924e-27
1.939932727181482135e-28
2.917164503067321267e-27
5.329298548794247824e-28
-1.521810230200780050e-27
1.586728413996287712e-27
-1.264557809247490841e-28
-6.841367324971323686e-28
3.910804513257155445e-28
1.606638785787982451e-28
-2.181577568236308785e-27
-1.189078667792009600e-27
1.612473409171017438e-27
2.462477696802748894e-28
8.943940824495619979e-28
1.427916346480236151e-27
2.509135786355888863e-27
-8.945488153324720883e-28
-9.845480551396026052e-28
-1.294043954726539732e-27
-8.404557378251730445e-28
-1.277355471626745126e-27
-2.099665305772278895e-29
-1.514943286164835317e-28
8.135641600817217691e-28
-1.666564673922897050e-27
-9.151637547461174725e-28
5.031407155843759573e-28
9.779035255082649350e-28
-3.242588983001436616e-27
-8.427233787206516413e-28
-3.549946197258366899e-28
-2.857020891954241259e-27
6.280497115335260506e-28
1.685427555607756473e-27
-2.719772799277348418e-27
-2.190444127042702587e-27
1.332777433758558361e-27
1.589143988742789071e-27
-1.781514901627224043e-27
-1.382381124407836149e-27
9.229941209060358307e-28
-3.401623873971586716e-28
-7.296910488768139973e-28
2.231327669591268961e-27
4.168318508711947023e-28
-2.546698043018817289e-27
3.545656316404438599e-28
-1.966951117102665451e-27
1.038662915678606437e-27
1.374504887613137774e-27
6.138589645215566230e-28
1.298677351594791660e-27
2.749418688616074955e-27
1.017140138528072245e-27
-5.206354976533945490e-28
-1.530306794179978586e-27
3.141656052864121630e-28
-1.448751743679476787e-27
-2.013824014388563590e-27
-6.464546862321064301e-28
-2.489127027970471662e-27
-1.820284231768889029e-27
7.014728694732506966e-28
-6.652188544889320197e-28
-4.291987546686779201e-28
-3.627498405257098189e-29
-2.735298930836203310e-27
2.606589629090060295e-28
-5.360803934700654252e-30
-6.327588073517825157e-29
4.798849014031730101e-28
-3.030267560371904210e-27
2.676004053515866296e-27
-4.246031393850226147e-28
-2.007481156712219749e-27
1.561093210355940448e-28
-1.779264290178427301e-27
9.293042752603958139e-29
7.566855492624393662e-28
-1.846071124098281980e-27
1.183350574429049481e-27
1.834908685659522820e-28
4.886154063899899709e-28
5.655775687432698254e-28
7.172584403444658412e-28
1.568179954427843395e-27
1.204385420153086726e-27
6.815325693990608971e-28
-1.069852685753457637e-27
4.007800831763868581e-28
-7.808049377715571005e-28
-2.027830898344482578e-27
-5.791556469290743883e-29
-1.277668067999833651e-27
1.588867067144899736e-27
-5.278188034003514930e-29
6.335440299788791334e-29
1.085062607622514511e-27
-5.852516152060814174e-28
-3.591580090653700876e-28
1.630200146872044185e-27
-1.936746725185468458e-27
-1.213484604212506683e-27
-1.871324518160636441e-28
1.098476115785434264e-27
3.496366535899696306e-28
-1.620186177822539853e-27
-1.287415461440982272e-27
2.371750123606755650e-27
4.426848072343045654e-28
-8.656374470718793573e-28
-6.778473707603252308e-28
5.235258251026047655e-27
1.875990009707017697e-27
-2.290586613074072832e-27
-6.421512412427252957e-28
1.011741067165892596e-27
-3.855932184525539869e-28
1.594342600494027353e-27
2.469435164162876265e-27
1.058234933533867920e-29
4.125494096279492290e-28
-2.360780394691001450e-28
1.235661372764162707e-27
2.099458028145424981e-27
1.307881164409222267e-27
-1.515852979828659864e-27
1.055888414713362763e-27
-8.100868104731407277e-28
2.447197137074242292e-27
6.666585139667560792e-28
1.481071802865952149e-27
-2.947700209141478935e-29
-4.526365122602219080e-29
6.029631220638028750e-28
-4.311285886661467538e-29
2.210019242387378837e-27
-1.598741891940716777e-27
9.593832403989360648e-28
-8.211527144129398329e-28
1.205213760134122568e-27
-2.515438702816873735e-27
1.800201865549622932e-27
-4.330261144164223064e-28
-1.726782820309514981e-27
1.003149133992220499e-27
-2.684316813045191109e-28
3.879135833045151891e-28
1.718714264513496480e-27
-1.527348717362345491e-27
-1.030713348452042506e-27
1.125465453375780146e-28
7.943561375654012013e-28
-9.848558752998926884e-28
-1.110172253777222001e-27
1.079644579012221384e-27
1.376807386424363833e-27
1.955775282309779448e-27
-4.131034298276436350e-28
-3.614376042489451541e-27
7.325938399799774599e-28
1.063683437230100985e-27
-2.053124857622590574e-27
1.265060008339768390e-28
3.853513440356103144e-28
4.763977399071258755e-28
-6.504368064142519682e-28
1.167821534178685425e-28
8.403772905444752108e-28
-2.486125096919041014e-27
1.275249844198374439e-27
-5.120646808798325713e-28
1.070080128487672196e-27
-9.834635874412151320e-28
-2.395971862928061866e-27
1.653249939454247439e-27
2.297112298802413995e-27
-2.604200721417133284e-27
-1.808810594912217392e-27
1.318149712316934982e-28
-1.468798580931757861e-27
1.064130846350613308e-27
-1.115657128973812443e-27
-7.244618710444580797e-28
2.959473271612028980e-28
-3.048880223470727160e-27
-4.477983703952314814e-28
2.819921190292982628e-27
8.214675773279209274e-28
-1.398462095880963110e-27
1.464116274909322338e-27
2.887858233471254587e-27
1.784164325495532309e-27
-8.182847688252900492e-28
-9.204429184835854509e-28
-5.185596088853616196e-28
-1.468368932868202778e-27
4.089359190421191497e-29
-1.407671908791355211e-27
-1.225080025726080770e-27
4.490527677274318055e-28
-7.889065959347014599e-28
-2.860791656757993049e-28
3.006823386132270266e-27
5.153999553996671271e-28
1.666105569361088120e-27
6.129577399254310981e-28
8.439948672317297507e-28
-1.888452029848555541e-27
-7.656012459437649085e-28
-3.670789808379318804e-28
-6.251471271309855028e-28
-2.840127622984497299e-28
2.238158321570751727e-28
-3.115924857803553931e-28
9.652289399885887700e-28
-3.468442801087270823e-28
1.517216817299387793e-27
-1.832975881029888514e-29
-8.323734235526327724e-28
-1.751582302094171745e-27
-1.076912812942754701e-27
-3.559608750867200470e-28
1.682532713089740635e-27
-1.780252281890238426e-27
1.455910649453623524e-27
-1.284431231169593316e-28
-1.163780761453655482e-27
-1.846343231038829232e-27
7.684331532237368414e-28
-2.668170351945065395e-27
-6.459836361425779353e-28
-6.163783463415783109e-28
-2.283274607416474175e-28
8.134895172515212035e-28
-8.603181382932968340e-28
1.684443215938207611e-28
-1.704629491208767280e-27
8.075211341875564484e-29
8.515202029003373430e-28
-4.922661148223305308e-28
5.160245108861635922e-28
1.464547542676700206e-28
-4.819044550012751706e-28
-8.512673716802990546e-29
-2.729723822753427227e-28
-2.763371410572092362e-27
-2.098391027929449426e-27
6.058669498204481918e-28
-2.923077143383313572e-27
1.621396865887307256e-27
-1.973548612356773740e-27
4.272650548433315194e-29
6.608526632754485536e-28
-8.912434372510208530e-28
1.627285092184204457e-27
-1.918795389562045736e-27
1.269208622442531372e-27
2.079358674798948939e-28
-2.116160827302948502e-28
1.416079433204770680e-27
7.547981691894694605e-28
-1.685917328056787623e-27
1.976123331954117744e-27
1.405302318059026418e-27
1.453004954832946204e-28
2.095189091043482814e-28
1.870341916636341154e-27
2.320957829068495600e-27
8.575433026419672417e-28
-1.627331125251885605e-27
1.683151543895950568e-28
1.147788846930190583e-27
-1.168054428633308099e-27
-1.687862188402302253e-27
8.088064091892598580e-30
1.572766319103131201e-28
5.288515773420355598e-28
1.722060472981835773e-27
-3.054759422216673585e-27
1.397769194469709008e-28
-2.878888619659680355e-28
2.204435329739177113e-29
2.343577529617937099e-28
1.435750379692967676e-27
7.823429113287671916e-28
-6.396657181892423937e-29
1.247385659530176804e-28
1.474696389420460925e-28
-1.861133375102853124e-28
1.850433955454966986e-27
-2.676576217865370129e-27
-1.961686152843552162e-27
2.236226066023391668e-27
8.029474724957240637e-28
8.827145210205833072e-28
1.621124003547950411e-27
-2.825108758782926296e-27
2.014370081893702672e-27
-1.632709805814526862e-27
-1.375548107634208141e-27
1.450437840244804546e-27
-1.617665465695376323e-27
7.431349440762175647e-28
1.997845101295500895e-27
-9.092416227818673342e-28
-8.245405057045884161e-28
9.406441111360849363e-28
1.254589044247062565e-27
4.783157031995115583e-28
-2.213454267410357860e-27
2.253816287158072256e-27
8.713114572135552175e-28
-3.298923887856343133e-27
-1.259440218727524151e-27
-1.483738984897178222e-27
-1.088549981353843286e-27
3.583987059942298146e-28
-1.001116519989980310e-27
1.714568770404051775e-27
1.551909919100989886e-27
1.039293122286628936e-28
-1.474210766505777537e-27
-8.580284251762842262e-31
5.693450530282905723e-28
1.627101506669030652e-27
-6.498764100419035933e-28
1.115875089563379301e-28
-1.395145148411038479e-27
-6.452409543732751194e-28
1.635332883679387373e-27
2.234219606906738103e-27
-4.828632149181580728e-28
-3.697175283718353224e-28
-1.064705312590210544e-27
-2.140991321283686390e-27
5.217560224794300697e-28
6.616286633004307787e-28
8.460497274468043288e-28
3.657715434867204568e-29
7.407415705521810330e-28
2.314864541494594467e-28
1.741879949780327076e-27
5.242973746510840557e-28
2.031446124418399791e-27
1.500994044914881406e-27
5.025185146663135309e-28
-1.738858608451521638e-27
7.240304599380758632e-28
4.489732766661002406e-28
2.685508094453631776e-27
1.039061824263266386e-27
-1.583449946736922348e-27
-1.109778123299098825e-27
1.349230723206316370e-27
-2.703008785275540862e-28
-1.683695396317305444e-27
6.869228861336399912e-28
6.909650422754043234e-28
-1.659238974003974197e-28
1.205983592731190543e-27
-1.458971132919177446e-28
2.610197920505867419e-27
-1.536193819667328949e-27
1.270826278991947172e-27
1.387091785099864581e-27
1.773243921720148956e-27
-1.753194251416452804e-28
-5.780716930319572984e-28
2.436437714699572515e-27
7.650374288256948604e-28
-8.190188354420139881e-28
1.165049926279093014e-27
2.221452925181339300e-27
9.327392406838810685e-28
-1.016160467582684308e-27
1.370909495870290948e-27
-2.152100614410511755e-27
1.087320569446816678e-27
1.369373395054926217e-27
-3.106917597195606397e-28
3.878963234782675729e-28
2.103486259413814747e-28
-7.499577521818748266e-28
-1.200390473472581265e-27
-3.900726562062365851e-28
-8.706357109060330399e-28
2.118935791045722150e-27
-1.896985013167776738e-27
2.518372097976490117e-27
-3.295067232619227251e-28
-1.079229175032474806e-27
-7.617856373521432004e-28
-1.457044564618542503e-27
-2.844441913621326211e-27
1.142146969419924152e-27
-2.150614695323954621e-28
-1.173586013958068636e-27
-1.827785508377716532e-27
-7.877966078354025634e-28
-1.751734375764965108e-27
1.817621760601955281e-27
-2.654236372253490502e-27
-1.341218640567465864e-27
-1.235973037826150589e-27
6.651098443560738506e-28
3.552107597995734004e-28
-2.026681557220686015e-28
-2.410647839369877207e-28
5.571844723862033081e-28
-1.113382652734771872e-27
6.769896472855757718e-28
-1.851481826614847137e-27
7.562702336003406729e-28
-7.100122275641696286e-28
1.579401057419611402e-27
-1.712334215908889729e-27
-6.347721786131030971e-28
-1.149028241106880837e-27
1.316032410547924451e-27
-1.975399487335793169e-27
1.237549200246857677e-27
6.483690926773409590e-28
7.921975167655664125e-28
-9.632224442622003846e-28
6.653381711253658246e-28
2.450500223396306071e-27
-9.676304499378478971e-28
3.543915672409361804e-28
-3.682370707380270876e-28
-1.540164223750978585e-27
-1.154518209377952910e-27
7.346383388973714015e-28
-6.352235118962580779e-29
-3.433372826635816214e-27
7.450482993392858786e-28
-4.445324874805575443e-28
1.284578450122244249e-27
-9.009002260729004672e-28
3.229025756443997204e-27
-1.327972409754828279e-27
1.072493326038999131e-27
-1.505330266280624984e-27
2.728810347091277505e-28
-1.606179602545680812e-27
1.756422489451482480e-27
-2.953919577762105280e-29
2.092241157657044516e-27
-1.361718263773891390e-28
-2.273629077497924776e-27
-1.180118508845306157e-27
-5.489222553549425630e-28
1.933696500001233003e-27
3.820451401321696590e-27
-1.597866205062338124e-28
4.451309092296490189e-28
1.749792731851521488e-27
-1.597498980093689427e-27
-4.417525005979035580e-28
9.372346002498753644e-28
4.942836243790479665e-28
-1.180269672980182561e-28
-1.368076099597926053e-27
1.458355967489660817e-28
9.978204285411385377e-28
-1.005579933091353731e-27
1.042462241809801042e-28
2.925028162605058449e-27
6.681321886584960388e-28
8.302001082526709837e-28
-1.450361962929517723e-27
-7.710653392664963306e-28
-4.443601032443888222e-28
-1.173903911756435442e-27
-1.692388211423950625e-27
-2.191628388144769263e-27
-2.909711797521926899e-28
1.165703489495836297e-27
8.633130087568948215e-28
9.465969911964059261e-28
1.276655744770580689e-27
-1.202102079795327242e-27
-9.563798448590456256e-28
-3.297512438158365150e-28
-1.247500909172462316e-27
3.494666462875816008e-28
-9.282248660155345902e-28
1.559209141778733108e-27
-1.228736281868564673e-27
7.873945262918535698e-28
2.349775231333452003e-27
-1.700961369396123735e-27
-7.716917016074295099e-28
-1.075197962774222585e-27
-1.484074295925065519e-27
3.648878873489687608e-28
7.003014932901665012e-28
-1.025716812139236161e-27
-7.173262964059583381e-28
3.393043950950955678e-28
4.394549260306647017e-28
-1.555598160344117108e-27
3.221617419524385852e-27
-3.267494245666798185e-28
1.233419009642489093e-28
-8.791135470901478710e-28
-3.620982055477620866e-28
-1.265740510638798466e-27
2.279059589415800034e-27
-2.585524093853628410e-27
-2.588752009019413051e-28
9.253675460848731484e-28
-2.235634383215282215e-27
6.452879715172251379e-28
1.842725226249827463e-27
4.148311541520996033e-28
1.051492007124006544e-32
-4.788514830700889331e-29
-3.940169968666195718e-28
8.120795914235313966e-28
-1.208685532912936674e-27
4.574430267368784698e-28
-4.738373411396764277e-28
-8.141024579459755144e-28
-1.618588766871995868e-27
9.441428944339103843e-28
-8.267313679484559978e-28
1.508213897709590736e-27
-3.925541176446549278e-29
-4.328231809759610378e-30
-1.536701783105140094e-27
-1.399870492481511215e-27
7.656380815221709667e-28
-1.346347335809082363e-28
8.222228051115121553e-29
9.112305490746740195e-28
7.304306627991461878e-28
-4.980615066665209041e-28
4.051297007629639303e-27
4.388152467151831396e-27
6.163100095446263233e-28
-2.014452603823428736e-27
-1.250793726859605004e-27
8.142654381923495001e-28
-8.070815709056450267e-28
-1.143593610558557253e-28
-2.794861739672719509e-27
6.105269833254110370e-28
1.691467406933094373e-27
-1.699768741237972301e-27
-4.807999118642067739e-28
-5.025242021655633926e-28
-3.478129270404497634e-27
-6.657714648605016654e-28
-7.966644769836243116e-28
-1.950573557388445999e-27
-1.224101816395477353e-27
3.455226263053475429e-28
4.778451572409138425e-28
4.547212798913187406e-28
-8.061651950813564061e-28
-1.154625882715011539e-27
2.035007876941985036e-28
-5.502844282334363968e-28
1.450681718214036639e-27
1.629692731293249913e-27
-6.615206186685372778e-28
-2.286405610541819539e-27
2.566502223718321708e-28
-9.362587286691802976e-28
1.150976213887111262e-27
9.799352586152207233e-28
-1.470546869432779293e-27
1.467217243065462183e-27
1.948782452977152702e-27
5.406008588589845146e-28
8.540266048982235324e-28
-7.291474222614771792e-28
-1.202574127890467023e-27
1.756475843419708726e-27
3.374824849674465118e-28
-1.283185578434097269e-28
-9.647493691265225252e-29
1.053646635227308009e-27
-3.018489142920572362e-28
-6.976537789010492043e-28
-4.265522209476964905e-28
-2.274487164701875021e-28
-6.809180953922320628e-28
1.235695022522028173e-28
-6.880947856169885549e-28
-6.367663765238357944e-28
2.780575836967914856e-27
1.016256128187030443e-29
2.390682806547446764e-27
-1.406377580606440662e-27
1.056523412718451357e-27
1.584191098284188951e-29
2.366921127147723258e-27
-6.511252926648534793e-28
2.508729755718228351e-27
-8.239329583238913479e-28
1.067620423632722058e-29
-1.618183328578397153e-27
-4.836154124087033107e-29
-2.894920599407604968e-28
-1.552816786122311691e-27
-2.583857098763967575e-27
1.254708433057139074e-27
6.930482859535818163e-28
-9.746709540450472007e-28
-1.494799626649615905e-28
-1.015074000269494772e-27
-1.932642726470619264e-28
3.499868813768825817e-28
4.942589931410645742e-28
-7.012215974646823366e-28
-2.936649736426817484e-28
7.224131996189667795e-28
-9.228648497913108417e-28
-7.776180269001584724e-28
1.145664341971781404e-28
6.925229338835535044e-28
-5.934060781361693312e-28
1.114910943952022569e-27
-9.806933998587727995e-29
-9.416434502802428815e-28
1.321540497799541740e-28
-2.038941813055623895e-27
-2.569723526807484276e-27
4.745363618289177506e-28
-2.486334909901846822e-27
-1.122492163572309145e-27
1.397847730243912078e-27
4.642750072115656006e-28
-1.189705865488601442e-27
-2.098223069086099101e-29
-2.007036064931014967e-27
-1.594534386561106484e-27
-2.348964192923459510e-28
8.222581411950995738e-28
-4.721149786232210112e-29
-1.179874037104702430e-28
-9.102924988988534218e-28
1.043038188370488452e-28
1.114192917026272166e-27
1.544925510480434429e-27
4.797828632478601583e-28
1.707339101052851120e-28
4.971382225843509211e-28
7.353511583187394103e-28
-6.743464946886277654e-28
-5.166490929653409170e-28
-9.286295815534540441e-28
-8.801359135236395304e-28
2.635692482175535620e-27
1.098684016220912334e-27
-9.584359988400868181e-28
5.923115637012255045e-29
4.303952562307130808e-28
-1.259155842916674123e-28
-1.348975234692072666e-27
2.024718462696417627e-27
-1.663448043004039886e-27
1.215423428282395651e-27
7.563598809759497501e-29
-1.138623414698409222e-27
-2.260586848723848206e-28
-2.590159399235413186e-27
3.848814477408735603e-28
1.019638115086281182e-27
-7.419308330350351699e-28
4.169142790702917943e-28
-3.497723602609469127e-27
-7.437988659275814174e-28
-1.871972398076176258e-27
1.295139939021253364e-27
2.719818233965426768e-28
-6.611884101065391729e-29
-2.648650205560573165e-28
-3.399729427178023797e-28
1.098858638051840952e-27
-1.458150274947097116e-27
1.304882643417673610e-27
9.792205354626335982e-28
1.442755617449093303e-27
-4.870099186219196435e-28
1.513765055344752127e-27
1.400808585287558539e-27
6.293057191739049716e-28
1.571690348115021799e-27
-6.176936697962637941e-28
-1.023857274762589646e-28
1.886246610845202030e-27
2.823758499902168175e-27
-2.304808730280744547e-27
1.311587680622622269e-27
-1.760995569564416804e-27
2.943468059031484017e-28
-8.228859819555454864e-28
2.879047024108944802e-28
-4.174471780419464737e-28
5.515879672312512944e-28
9.094531781795330074e-28
-4.873166608226395871e-28
9.357938804126799257e-28
-4.025220540696309373e-28
9.585476272299133619e-28
1.648092945021297927e-27
2.310709980091356040e-28
3.262897428425751260e-28
-2.523285410081645217e-27
-1.080421677610046260e-27
-8.715377168314155418e-28
-2.108795452712212740e-28
-1.959623960585065386e-27
-1.821113273290233445e-27
-1.079272643464456661e-28
2.908947969730243401e-28
1.380386841503137235e-27
2.005441374972490029e-27
7.394079216286092937e-28
-5.147175776072931454e-28
9.682075791356883361e-28
-1.117452744092216757e-27
2.992824941897325373e-28
2.505444556103921507e-27
2.062573985189849283e-27
-4.232514233559659633e-28
1.358226342980804173e-27
-5.429707580185301909e-28
-8.609691223882581334e-28
-2.252603222394670248e-27
7.514897346879914858e-28
4.282279216883184782e-28
1.378004662037112023e-27
1.128056094842165163e-27
-4.192411626819359051e-28
1.208090675332690518e-27
2.632474857850520333e-27
3.221126484496731558e-27
1.081212969650201883e-27
4.037821581251397895e-28
5.440164332451334029e-28
1.167212295502248496e-28
-8.056286688477822760e-28
2.207748211010398977e-27
1.067286801272952732e-27
2.050526784713039841e-28
2.082235741375852364e-27
1.175379299255036695e-27
-1.758423314861904907e-27
1.730933815729799832e-27
-5.730844249549985887e-28
-1.844230802421008158e-27
4.057186733746848796e-28
-4.341852437427198509e-28
-1.042044926869678808e-27
2.216504633263874994e-27
8.359363768872589319e-29
-7.309836108221778347e-29
-3.518379355344247205e-28
-5.500607189003075328e-28
2.642358594366616528e-28
-4.495076329006627148e-28
4.532736557629589984e-27
-1.475817719232881079e-27
1.641062807131889687e-28
-6.582455125312390334e-28
-9.833519802266248324e-28
-9.349192311936218473e-28
3.870901422489532456e-29
1.303401168701331806e-27
1.671960800992118797e-27
9.750950763592519832e-28
-5.930309831293831384e-28
2.689873283548823003e-27
2.488308858204627146e-27
2.467907668571128036e-27
-6.598970036097547712e-28
8.698273630037129072e-28
9.941489693289504733e-28
8.187353291213236563e-28
7.960909328036743630e-28
7.684717607484430889e-28
-4.233158919569298776e-28
1.689891931862987973e-27
1.928331698097675318e-27
8.906120368944033636e-28
7.740017673132693245e-29
5.680256754098282681e-28
1.747476293713557394e-27
-1.784370967322721951e-28
9.790060605347314066e-28
-1.029136331975684163e-27
5.307920045467144967e-28
-1.784155008116266360e-27
-1.591347961307978079e-27
2.923265772112928095e-27
1.842671714963940271e-28
1.544879032556268546e-27
-3.746797676573901118e-27
-3.327085643810793939e-28
-2.460453260559230240e-28
-7.813712404436351669e-28
1.954770884839262461e-28
-1.212630828681430237e-27
1.757839540230152701e-27
9.223139763030935313e-28
-1.601764477225327325e-27
6.783753367560053115e-28
4.402361875371713079e-28
2.254764525842301755e-27
1.477908276666839466e-27
-1.565321801848857662e-27
-1.087818918328276669e-27
1.391919143679434433e-27
-1.849733532707937475e-27
8.396879980099616632e-28
-9.494895677347152506e-28
7.123747538112284686e-28
7.534138527127167428e-28
5.242379501966787689e-28
-1.045326453349182721e-27
4.694323856580785060e-29
1.707955797048295531e-27
-2.583859581522661560e-28
6.252139098095800337e-28
2.307766333270627497e-27
2.672783575477107480e-27
2.176112101003046695e-27
1.998471253069739679e-28
1.438947343646236132e-28
-2.471886985491324009e-28
-7.167453570522365791e-28
-2.294825100248149685e-28
-1.974941089476363361e-27
8.090664375280047368e-28
-3.984062479158064602e-28
1.583441076096522536e-27
1.469698756766145077e-27
1.949816016381608204e-27
-1.087306722970630028e-27
-3.172794309882310145e-28
-1.022085108051137063e-27
-2.182278779733876065e-27
-9.380888048343849057e-28
-1.109605793225972604e-27
1.582517697573387767e-27
-3.834000024820415011e-27
7.142922219396278498e-28
-3.549931237708450963e-28
-6.405943344560204423e-28
-4.283618913899124344e-28
6.519248182502022955e-28
-1.371373526482852444e-28
3.328842255715994090e-27
2.755266936869840362e-28
-6.590433916132318802e-28
-7.413911256701918178e-28
-3.025829427252484986e-28
2.226315803677193752e-27
7.602009023069419946e-28
1.927451058079865420e-27
-1.769526869203680146e-27
-6.818571523660238547e-28
9.745965529869206847e-29
-2.806529879915521391e-28
9.839572135713653174e-28
1.471794511108366047e-27
-5.124658459076230984e-28
-4.020033200272245600e-27
-1.291677877117071298e-27
-1.680361699289946804e-27
8.153589852181297343e-28
2.860262337771970566e-27
4.802047460247268213e-28
2.547151890116305801e-27
4.731251507484965636e-28
1.571837332079949750e-27
4.536638142957082488e-28
1.057303890089524626e-27
-1.297519262304492174e-27
-4.340423015737304471e-28
2.110916613350626329e-27
1.301321893329128763e-27
-1.896871584733436227e-27
1.504848592007680967e-27
1.723978073259700644e-27
-3.857628360699824948e-28
4.675636291005307382e-28
-8.035171772685199572e-28
4.316662747365676567e-28
2.199170632584315184e-28
-5.393117716340489033e-28
-5.672655138579119912e-29
-7.593941739468170878e-28
9.643568765403362251e-28
-9.017290672706476115e-28
4.955563091380879493e-28
3.930525623987663129e-28
-1.103178055413200466e-27
-5.582203806012895080e-28
4.374279372387446716e-28
1.923793938966100662e-27
-8.965167439936021939e-28
-1.733606906272614687e-28
-2.606991318742641960e-28
-2.454258592208685779e-27
-2.069986501578410943e-28
1.052470062755380352e-27
1.093618640028831948e-27
-6.719087096274624540e-28
7.498375205032051530e-28
-3.483200146397957306e-28
5.004402536313085774e-28
1.310092051580190376e-27
1.066579563595766811e-05
-4.550197939973624889e-05
-1.443806056419036089e-05
-2.898571702873433827e-05
1.483812561903846900e-05
2.759554531847701216e-09
-7.345313645113554985e-05
7.576643112246640874e-06
-6.517589815662483692e-05
-5.578730307298188190e-06
3.551956119274358504e-05
-1.366996274645354353e-05
3.389687212054845183e-07
8.015886650093720223e-06
2.124013531726087539e-05
-8.769061509277994158e-06
-1.051047455080743225e-05
-4.370275536170745419e-06
-2.648446201751656308e-05
3.439652646616649296e-05
3.741690183992485029e-05
5.545698162595192276e-05
5.158366220796337489e-05
-6.736469682720782064e-05
2.748522691793600189e-05
2.672871183410372505e-05
-2.749605310184515854e-06
-6.732328156754605866e-05
3.647090645504531562e-08
3.383448129884339910e-05
-3.826264221559725790e-05
-2.806096103459951492e-05
-4.243445928289664571e-06
-4.752097669499422918e-07
-1.023816289416132889e-04
7.824258957636780264e-05
-1.450854991741836038e-05
-1.417382371216364780e-05
-2.458806867812321893e-05
1.554957182246628297e-05
6.940188926575664679e-06
-4.062456007623428786e-05
-4.697253602517831522e-07
3.962346123380207038e-05
6.517975193776179201e-05
1.887186265387285776e-05
-1.555102300449458409e-05
-1.229624156021354388e-05
-3.788009285166251240e-05
7.043222627885089913e-06
5.030246747539440712e-05
1.689293382886746081e-05
7.887435738008511738e-06
3.819686586335365710e-05
-2.960896105491212673e-05
9.095960685378260595e-05
1.022229193453763480e-05
5.883599864247093802e-05
-6.886465123595715240e-05
-4.477122296476582019e-05
4.443005793135138654e-05
3.569399919329268618e-05
3.633219901130571616e-05
-6.017235588430239386e-05
-2.283675222949303995e-05
-5.735084211254765438e-05
-1.159987868362786440e-05
3.393789353609985099e-05
-4.104634263725437745e-05
-3.969009870707723519e-05
-2.431119244033159556e-05
7.004939538069899815e-07
1.071104414797950527e-05
-5.201674322709706549e-05
-3.487451657217855875e-05
1.046016294155929454e-05
4.136440177354009222e-06
-9.591995917737752286e-06
1.044747447938697694e-05
-3.973146023382295169e-05
-1.469481336916462509e-05
1.954589086652721536e-05
3.766778542662584174e-09
6.897608551686436719e-05
-2.729257728719897788e-06
-3.727181105332517730e-05
3.914937216408191843e-06
-1.008561917931638825e-06
-3.552614005543811124e-05
-2.002169584554515480e-06
3.235266798216542846e-05
-2.848811304873967506e-07
2.703556202419838471e-05
7.129722763897139892e-05
3.439399301796284615e-06
2.081547859487063644e-05
6.378936349237062143e-07
-2.327325582536357763e-05
2.406447730077181809e-05
7.810239786287119415e-05
-1.257455227260979717e-04
-5.394178112518188169e-05
-1.724369755145937802e-05
-2.499333680205979581e-05
-5.895595483353090682e-05
2.002248997073219686e-07
-8.354104193084650916e-05
-1.571282577685472745e-05
-7.400525301712860453e-05
9.049773487309018809e-07
2.939144042467087172e-05
-1.762186194413240461e-05
-4.906183389144927676e-06
1.272061551816078674e-04
2.448611135572036920e-05
4.080222822785066039e-05
1.198385348378237350e-05
-5.600468023439493612e-05
-2.970664966438113947e-05
-3.830598722700904465e-05
2.099275196297439961e-05
7.446619891583889370e-05
6.322734497788829301e-05
-6.880216778542923685e-05
3.090934777798250383e-05
-5.827910343032476585e-05
-3.499541558880981833e-05
-8.855732108842723519e-05
-1.832050588115626892e-06
1.491302736460047175e-05
-6.294655178632515809e-05
-2.854357944008106162e-05
1.368135754289715817e-05
5.881181821895481253e-06
-1.065458888918019789e-04
1.028068180801384264e-04
-6.838846808035541534e-06
4.104512623559896392e-06
-1.998281738699698456e-05
1.596509511708986745e-05
3.041943084469080042e-05
-3.469430933948178822e-05
5.843631161653463161e-06
1.634718593492616865e-05
7.361322860073353199e-05
-1.019928835962826845e-04
-4.749943294863606596e-06
-2.998528165775370827e-05
-4.252005625982553308e-05
1.047968076214331537e-04
5.704980199188142907e-05
-5.239491638123293366e-05
2.446388913041529501e-06
4.771111336423058464e-05
-2.572064569338962956e-05
1.678710630699669932e-04
-5.559434186287680302e-05
8.367032637440573574e-05
-1.135438541533831788e-05
-5.632133555627846083e-05
5.595023127291751542e-05
4.570057573668282212e-05
1.390567387241653332e-05
-6.859166351131349999e-05
-2.539052907148660893e-05
-6.434907378527165143e-05
-1.442060672658574023e-04
5.313135282077716842e-05
-8.227582396034345720e-05
-5.058194688443289099e-05
3.913173351662446329e-06
-7.793766013272655760e-06
-3.995161989375213107e-05
-6.003097542188010082e-05
-8.741568417828523641e-05
2.073694180985448257e-05
3.406775232543898152e-06
-1.542458985156153564e-05
5.171541917768819477e-05
-4.324288341455110332e-05
-2.771397427511093598e-05
2.298444469076325951e-05
4.201333037306800627e-07
7.073245544603919935e-05
1.025223045474263318e-04
-2.079334864764232753e-05
-7.511811385455939119e-06
9.212706241045617796e-06
-5.802802894474136630e-05
1.417682910773056118e-04
-3.910214534677241139e-05
4.486457732933836605e-06
-4.333415411332968467e-05
7.420097250175707634e-05
-8.180112520219309040e-06
4.012583710047862859e-05
-6.951613363117682469e-06
-1.288261116759886499e-04
-9.331697769077693894e-06
8.990918345491070952e-05
-9.598653278328512107e-04
-1.197174609008763626e-04
4.836589310855871532e-05
2.064535797413767821e-04
-6.611271603919137950e-04
1.471768370460451629e-06
-1.393099445469661449e-04
-1.087956505736069535e-04
-1.214805278758597864e-04
8.300927773439100463e-05
-1.913171622787796726e-05
-2.633708120358758115e-05
-3.842413118165237016e-05
9.755450487954294737e-04
3.251094890576839244e-05
2.779106040409803479e-04
6.179561431608796528e-04
-4.891911606489017733e-04
-4.890153954431086575e-05
-5.021636373792889114e-04
-4.453160016322219082e-05
1.388210450080621283e-04
1.221863364530803066e-04
-7.754807339611848472e-05
5.150307696186306187e-05
-4.707170640218508628e-04
-1.511819626673153441e-04
-3.810796546135355664e-04
-1.384760903359413711e-05
-3.971046551914858211e-04
-2.534346483282465300e-04
-1.562282595501793590e-05
3.799706387870090563e-04
4.638508227511974519e-05
-1.321796762000176202e-04
4.270721734650072439e-04
7.244340943950649354e-05
3.739870754596727400e-04
2.841736786326458245e-04
7.555606090754155773e-06
1.368735161810018339e-04
3.114774006133035165e-05
4.607793763535800017e-05
-3.976067681189037156e-04
1.219891149085636760e-04
-9.500067233296897486e-04
1.056096940171529083e-04
-1.133155302958542614e-04
-5.658432892989493762e-05
7.750030600512479570e-04
9.042353456530715186e-05
-3.759741883371096904e-04
-3.137585789283371408e-05
1.030074599407240820e-04
3.819594984467488075e-05
8.791228190570413506e-04
-6.328037878701298470e-04
2.331933756080693885e-04
5.115899281018364969e-04
-1.091998072360722668e-04
1.084239425127911903e-04
8.428026725313331939e-05
-3.934491611153956357e-04
-1.185413680746818198e-04
-3.602609695737552908e-05
-1.054387741700688199e-04
-9.417070635272922199e-04
1.907430210945830029e-04
-2.742786839437509508e-04
-9.645286523567990109e-05
1.902130124326149451e-04
-9.541244340746639775e-05
-5.102637778514638534e-04
-1.117509055741965551e-04
-5.996912703214708979e-04
9.664340895295650330e-05
-5.504235203092322855e-06
-4.744633933124121265e-05
5.168474478379610172e-04
-6.620017677363919362e-05
-6.128430903624001666e-05
3.908702957065058887e-05
3.100973422968126874e-06
-1.696097148082929417e-05
6.075745870481492894e-04
4.494094040890660342e-05
-4.024157598792205159e-04
7.361211967474453298e-05
-3.169968132210452443e-04
9.949945196474397919e-04
-6.571745803180213457e-04
3.501061589085916468e-05
-6.530292090489866292e-04
9.276701300158658443e-05
-3.770476148820312880e-04
1.271859677105930102e-04
-5.514706680843221886e-05
-6.562948304884736470e-04
-6.459804898374560704e-04
1.660663285828641023e-04
-1.202225241033603792e-03
-1.851170119198334435e-04
3.863515664610201275e-05
9.333326574423331462e-04
-1.029754450206488538e-03
1.952353806048272061e-06
-1.906242899382298611e-04
-3.399524645962264812e-04
-1.698002622208874535e-04
8.599906270189403880e-05
-4.485395552494333756e-06
-3.909479881754836564e-05
-5.000173386490571815e-05
1.375295099716876803e-03
6.635163712275199237e-05
4.302713927267322932e-04
1.517845701990168990e-03
-5.593807612093945093e-04
-6.141400543236955241e-05
-7.824759368718466274e-04
-1.679169491720953827e-04
1.889361825680719155e-04
1.581430860966818877e-04
-1.114381373903429440e-04
6.494680031399988366e-05
-8.011400152994631839e-04
-1.609625409624719560e-04
-6.537011050294399194e-04
-1.824968714241560698e-05
-1.047143690857502444e-03
-4.492734021250086723e-04
-3.039978819898297120e-05
5.601749864909913055e-04
6.012413423970017548e-05
8.727863642858423786e-06
7.022947256613523053e-04
1.691605864034343148e-04
5.440170867057913563e-04
8.938724092432304320e-04
1.287115919706109967e-05
3.135512231181242031e-04
2.192369730244558075e-04
5.973497791963865340e-05
-6.045434558428091666e-04
1.613014329289701588e-04
-1.328687406667921830e-03
2.997438819606409056e-04
-1.679558724176222618e-04
-5.007469290647464472e-05
1.162509697309898780e-03
1.337451160647141828e-04
-4.278766836160927101e-04
-8.697775676019836068e-05
1.261622426840980262e-04
1.088043779226635112e-04
1.356015090043484516e-03
-1.038575121326032686e-03
3.454274384953426140e-04
9.636175839322377954e-04
-1.386990280154904213e-04
1.375517693774792861e-04
1.020659264603677931e-04
-5.936698613730681529e-04
-1.583365648533777994e-04
-3.769123537898983367e-05
-1.429130358922533540e-04
-1.291296395706266519e-03
3.103659686737589361e-04
-3.777143174588046010e-04
-1.199110453389462181e-04
3.684893178103481898e-04
-1.948238167914057256e-04
-8.716081440767154635e-04
-1.563013684220856383e-04
-9.176253123979673416e-04
1.981513530541300738e-04
3.897163155670240364e-09
-7.133528178451238415e-05
7.976487189101082870e-04
-9.078710883553056383e-05
-8.994398820161777380e-05
6.877292973901023864e-05
4.110007790080908718e-06
-2.396710960230589191e-05
8.255643393042261940e-04
1.681479780696713161e-04
-1.170789041798137638e-03
9.422161197927486436e-05
-5.310328968861676227e-04
1.321971068229737959e-03
-1.080866204640540396e-03
4.563802735747110530e-05
-1.070252311133263953e-03
1.296879295196706186e-04
-1.063155130619967623e-03
1.739791745392427007e-04
-7.118101584964125583e-05
-9.156450348391311249e-04
-1.386106744247367524e-03
2.169529110258996767e-04
-2.265809035397306319e-03
-7.011527576363597077e-04
-9.917458023100382428e-05
3.885659075451246020e-03
-2.012641621649368176e-03
3.525468371736287303e-06
-2.974994873767156513e-04
-1.874174717974830132e-03
-2.844933166217825321e-04
3.678424179263453789e-05
5.620747599391153512e-05
-1.098619254367146168e-04
-8.798187171415422611e-05
2.315999966481676817e-03
2.353378625021116831e-04
1.727994268672534582e-03
3.802170357434861338e-03
-7.061485207213165187e-04
-5.904870688152184430e-05
-1.955461442614919894e-03
-1.374522314090976518e-03
4.221741919243005492e-04
2.392256672955985256e-04
-1.421620719041630286e-04
6.436504368494506349e-05
-2.618173499889709169e-03
-3.760530399362916861e-04
-1.708184798884349910e-03
-3.262835405001074461e-05
-3.385316020412751977e-03
-1.853770465027861081e-03
-7.241759619776842218e-05
9.008171696340316935e-04
1.053759273609871825e-04
1.162269766814113571e-03
1.693420399025931172e-03
1.133467052953971918e-03
8.746684461307181919e-04
2.874848718279491167e-03
2.114984460586440417e-05
1.408595459612103267e-03
1.733995192776111374e-03
1.047086666347393682e-04
-1.072610458223997474e-03
2.272373140478428860e-04
-2.259378282617727652e-03
1.684834257425278214e-03
-4.254793182094963877e-04
-9.773539287871798752e-05
2.428146203871362017e-03
2.651434526034808091e-04
-1.001406069651358506e-03
-3.894056799647075892e-04
1.979886383953372334e-04
3.061836717570080033e-04
2.143331439689651931e-03
-2.519556700675230562e-03
1.390260160204969449e-03
2.976673408733802005e-03
-2.195672915436714138e-04
2.180881513493191889e-04
1.645771950133334506e-04
-1.038098967923713938e-03
-2.103800789552061714e-04
-4.794813709821196975e-05
-1.921869078282563144e-04
-2.278229702555706858e-03
1.350425164904781603e-03
-1.095354245194524829e-03
-1.931160947642665961e-04
1.800173062779330960e-03
-1.103440389316996196e-03
-2.347768260865306864e-03
-3.245276990502746076e-04
-1.532502390983514267e-03
6.343602241089666728e-04
-1.598360842854669987e-05
-2.108581628552349055e-04
1.341010588110731240e-03
-1.094375766741555200e-04
-2.744161677727133481e-04
1.806030691721357574e-04
7.411513328119295445e-06
2.250880550967765848e-04
2.371298871905748971e-03
1.373270475087864451e-03
-3.474181430552421637e-03
1.636139598474363487e-04
-1.701671297348857645e-03
2.968132786653909609e-03
-2.651003053589421829e-03
8.045467609467111918e-05
-2.612852415128740120e-03
1.603619285926554110e-04
-3.465701057441795963e-03
4.741986774268371215e-04
-1.242984244861647597e-04
-2.554439192973987412e-03
-3.572329088479622890e-03
2.689889000979177563e-04
-1.595517235995727373e-03
-7.727257980925388188e-04
2.253350968026427619e-04
3.338893707064224340e-03
-1.505825916347763426e-03
3.682427171687257634e-06
-3.561849530445303420e-04
-1.120068621434010042e-03
-3.283124009265159281e-04
-9.279714199844829375e-04
1.476844136707636636e-04
-2.895495447312381463e-04
-9.121593637546432203e-05
1.617668169375056355e-03
2.092975542487485663e-04
1.990777001255402464e-03
3.779758882500129646e-03
-5.609163839810359401e-04
-4.154947134824402057e-04
-1.238063455523207446e-03
-1.259138811630449188e-03
4.693973059714604944e-04
2.922826845956668219e-04
-2.314814199515507359e-04
4.193625434862376230e-04
-2.574443632383486332e-03
-4.607348001338320989e-04
-2.166160763664604517e-03
-3.401377531667739698e-05
-2.389305586277857413e-03
-1.719311301135729910e-03
-3.532856824232585846e-04
7.148470715717032166e-04
1.090174529451901065e-04
1.171532269307416730e-03
2.072611846772748085e-03
5.391593731634664825e-04
6.743017231501802341e-04
3.093282686447280678e-03
8.792428908854661154e-04
6.712005200615654785e-04
1.637707214574090882e-03
1.083362806199894318e-04
-7.829728855524234346e-04
3.125652792141753265e-04
-1.646278315041129186e-03
1.628046793157152984e-03
-3.073395659220000235e-04
-9.734644509162764881e-04
1.544164883477953769e-03
2.827349440846509306e-04
-2.024908578485040862e-04
-4.815081735663537385e-04
3.063064672689342163e-04
-6.148416542339943218e-04
1.357378933597740579e-03
-1.409270124078133195e-03
1.772051921232471999e-03
2.100987681271602407e-03
-2.628001869360502892e-04
2.608939684978080448e-04
1.990736609510862845e-04
-7.601930285764963574e-04
-3.477129599789585972e-04
-6.127270140913898154e-04
-3.245939250620496672e-04
-2.461139736929198862e-03
1.705424560709623352e-03
-8.088830036635085569e-04
-2.307180703076941648e-04
2.060243186491579788e-03
-4.691135280255095529e-04
-1.479642483639859478e-03
