2.273610042157935690e-27
-8.562806633023990154e-28
-7.392865007613753856e-28
-1.501843320286074109e-27
1.211318430556215102e-27
-3.221483319188770653e-27
2.442227889181202839e-27
-1.065467783361444877e-27
4.465617404174977743e-28
-3.490458387639829578e-28
2.046524934135842437e-27
-2.883596499951893355e-27
-4.512901068996714621e-28
-5.375641517142699933e-28
1.586946746209919964e-27
-1.539527176048343963e-27
-2.413492309011350874e-28
-1.228745905413536889e-27
5.908694086658132095e-29
8.157714192248978140e-28
-1.540546037734268660e-27
1.602279527746537926e-27
1.261964211621370258e-27
7.033456065515867944e-28
1.260935745934383117e-27
-9.570197086756920846e-28
-1.720104954725726045e-28
-1.309804448284017897e-27
-3.749652269997013027e-28
7.423430645133053096e-28
-9.681234459538273272e-28
-5.553392912004461942e-28
-9.618414818912811763e-28
-1.183041536109204721e-27
-9.395489271990055046e-28
-1.772674698747261579e-29
-1.563908812553725578e-27
3.281136490546411249e-28
2.323239245971043604e-27
1.038645532504648217e-27
-2.685138567506649530e-28
-1.242421822106292209e-27
-1.045803828271374534e-27
2.368943121870603239e-27
7.111604715499793137e-29
-8.916082326142997456e-28
2.672260301617390680e-28
2.939745005103758832e-27
1.681875093368761656e-28
8.639044501703961537e-28
4.201509537788916618e-28
-4.930471107018866802e-28
-1.599192454068113042e-27
-4.889779843627225934e-28
-2.923910378755592268e-28
8.211014777222877516e-28
1.174332231100695263e-27
1.303271514594816365e-27
3.997390118728558117e-28
1.238939627515054933e-27
-1.055937224190361931e-27
1.753650229169795324e-27
7.179522389222935207e-28
-4.172430805335694041e-28
6.837830110458923558e-28
-1.057783704570478340e-28
1.583951293158561238e-27
2.127300544180669182e-27
3.059168513881942538e-27
-1.954687816538079321e-27
-2.021338394835191600e-27
-7.061051655508507666e-28
2.240052493477630572e-28
1.226381102343902302e-27
4.417969243230124963e-28
-2.830492267476755523e-27
-4.285963648094341520e-28
1.158923160182170185e-27
3.220655611022411342e-28
1.066593540111936343e-27
-3.111945950665078285e-28
-2.810027791960851596e-28
2.611315681496439268e-28
5.739527835347077522e-28
2.775618074351840896e-28
1.665774152864019091e-28
-9.387317150118173925e-28
5.284792479098186000e-28
1.705142707151525019e-28
1.580948247171127033e-27
1.678135569223728612e-27
2.591650147676417143e-28
-5.252895414253723816e-28
-8.940363922022962885e-28
5.927686548296998857e-28
1.082535524723170580e-28
-4.812949187408818794e-28
6.102289188139646227e-29
-8.678204626187354181e-28
9.770413841274126570e-28
-6.258496609000648556e-28
1.713953865123488167e-27
5.647706880717709370e-28
8.308369152466139354e-28
-1.532557437255921494e-27
2.370860344002373397e-28
1.036563172870795633e-27
-1.334902856244721874e-27
-3.726283105787060164e-28
4.565085882672290433e-29
-1.921964009755079280e-27
4.411312856595037059e-28
1.184378266263287830e-27
-1.203071783985667790e-27
4.906621923872520489e-28
-1.836814269114374007e-27
-5.416243393908167594e-29
-2.261610328489280703e-27
1.569657918774398580e-27
5.723415660818515362e-28
-3.445656283360607389e-29
-1.085000321399355676e-27
1.782887025660278874e-27
2.753369074768038191e-27
-2.600633042486962185e-27
1.730269323423988975e-27
2.278236623977627984e-27
4.731178509756058924e-28
-1.678625680567477616e-27
1.208431795189193844e-27
-2.532356879496627610e-28
-8.453128470909020177e-28
-1.721722850480554332e-27
7.705920227540515590e-28
1.109698523582963556e-27
-8.727612737459590910e-28
7.286551334200701504e-28
-1.601744390882351597e-27
1.122371716792023391e-27
6.518064427784388256e-29
-2.611432989934021093e-28
-1.424145644795201806e-28
1.216187355382482983e-27
1.050357564539892375e-27
7.410971246336686078e-28
1.927415566116115027e-28
1.089268956420709502e-28
8.655521202594683811e-28
3.254246149377622322e-28
9.553730183563639391e-28
-4.340730895568084852e-28
-3.408063159064729422e-27
1.454051644228155113e-27
3.061134041188475420e-27
6.177815713316872453e-28
-1.401881331778480075e-28
-1.909828703066651472e-28
-1.666411607660362697e-28
2.436809709582641740e-29
-1.570499172304194711e-27
-7.237815175096526287e-28
-1.395546943621945171e-27
3.482463055368901781e-28
-4.152111478478035636e-28
6.931515085238140287e-28
-2.445335008631703871e-28
1.380581764278483523e-27
2.988852206422187195e-28
3.066341071644422475e-27
-2.654352537515669575e-27
-9.054947991716535600e-28
1.261818881363870991e-27
3.538919028819367244e-27
-3.480162163106550347e-28
6.112386173675781417e-29
-3.167739730557673178e-28
1.863651862221927495e-27
-4.021472638780711634e-28
9.518995479071491820e-28
-4.476290221399004965e-28
-1.781211329737796866e-27
4.388754152216518477e-28
7.043120696376074400e-28
1.810139283848154849e-27
-1.545936436957392941e-28
-8.641269394449451908e-28
7.877015006979065595e-28
3.369617586724935008e-28
3.928492992340310973e-28
-1.023364742299643129e-28
1.624135780516579488e-27
5.171821025557106232e-28
2.665967018492859254e-27
1.555155525274179875e-27
9.224776135760806441e-28
-2.277939308346854315e-27
8.430714273578975130e-28
5.882725805287808999e-28
1.135095964341609703e-27
1.461914496817774293e-27
-5.611126198421327149e-28
1.153367683260743582e-27
-7.870637016760244043e-28
2.736259493799706226e-27
-1.864344093568879665e-27
-2.464450776039221458e-27
-2.310528617089959724e-27
-1.246518237160647755e-27
-1.566435356309281354e-27
2.737940303953324848e-27
-4.570041286762790909e-28
-1.879354739688519125e-27
1.559811345231685204e-27
-8.209625533471408560e-28
-1.731234207016317082e-27
1.225919207677418480e-27
8.725253485336271433e-28
-6.088125742178312099e-28
1.970145728165921134e-27
1.807045808453080137e-28
2.263258127159785634e-27
7.036906950258096677e-28
2.181873393557456648e-27
1.531318861101959028e-28
-1.707286622584143935e-27
3.428402162514126514e-27
-7.639247519858381841e-28
-2.783150504433802820e-28
-9.803537535335639420e-28
-2.846929427877938008e-28
3.396664838099594569e-28
2.825034206171856530e-28
9.252357273116883989e-28
2.508499111219740340e-27
-1.686152872840548127e-28
-1.726009597479689179e-27
-1.654900752999716658e-27
-9.318622702106292329e-28
-2.343386133202959574e-27
1.154801273107099321e-27
-6.973537689401137811e-28
-4.352883231894457316e-28
-2.647524640546161640e-30
-1.954861505118798463e-27
-1.205591847117631780e-27
9.443994698911348813e-28
8.657744902546760187e-28
-6.203115264668201044e-28
2.534221141956307267e-27
-1.827637096059425299e-27
-4.828815367535676321e-28
-3.231083548255810725e-28
-3.909504867001947181e-27
2.711975584843569540e-27
5.127580412727019006e-28
-1.462120655967785967e-27
2.871044940451327653e-27
8.197560904778693507e-28
6.012113970151225311e-28
-8.496208285464794775e-28
1.486808516676329589e-28
-2.135507734807978060e-27
1.112804796626204833e-27
-5.241045044575968264e-28
1.876284025783916778e-28
1.682526430068109536e-27
3.985643563212887721e-28
3.673779191878686015e-28
3.870184322596736780e-28
-1.026366510189536411e-27
1.170162927119317534e-27
2.160252894168624357e-27
1.062106746162768187e-27
1.238614405513360663e-27
-1.227938414964885402e-27
-1.214649167915450887e-27
-2.016806444995669863e-27
1.724795119922938810e-27
-3.557777258669904698e-28
1.959373490561641055e-27
-1.094448442803906356e-27
-6.123850500920183789e-28
1.335673073998280430e-28
1.289761510278198493e-27
8.503256654811850796e-29
2.955131180054067941e-28
2.313377674421954905e-29
2.480111614059514864e-28
-1.562732594444852503e-27
1.132743525925219401e-28
-2.611562065512452421e-28
-7.953770994312319529e-29
6.891276712081321952e-28
-9.527509921813246967e-28
-1.182866058217898073e-28
-4.162199603317038023e-28
5.841011710612289648e-28
1.098450165127654355e-27
-1.337316878330354560e-27
8.201038213668471301e-28
2.891494510243841678e-27
-2.059190880824894023e-27
-1.161998673514669723e-27
-1.232551967513897757e-27
-3.906554582785200869e-28
2.271515689503162638e-27
1.868985482506148786e-29
-9.723685429222763298e-28
8.703436616771248898e-28
-8.395515114465542417e-28
1.572449572728522319e-27
4.272848765815749740e-28
1.943886351120393126e-27
-9.256891706609792683e-28
4.242316517894743433e-27
1.154178123707179374e-27
9.162214154768093824e-28
-7.164890615428035089e-29
-1.015624468496441773e-27
-1.214623209971603067e-27
-1.903286216367289140e-28
-1.115945310126931194e-27
3.956636023467853416e-28
-1.156295612291137339e-27
8.693347469245072743e-28
1.338291693781802361e-27
-9.879709707620528161e-28
1.669412848677590407e-27
-3.330493543299978161e-28
1.617066295230787166e-27
6.133051687299303533e-28
1.570932512137536098e-27
-1.395537100702698398e-27
-1.494804529966647760e-28
2.031577899738652391e-27
-8.650714403147948596e-28
-2.851487909048260788e-27
-2.719058624843155547e-27
-3.508286332129140274e-27
-2.959213250560890829e-27
-5.761748431750212536e-28
1.789566648421276425e-27
-6.189920895700717953e-28
4.528439927344788677e-28
-1.539560257209913964e-28
1.196603174916397318e-29
-2.354293487564921569e-28
-2.438017116458958328e-28
6.454953190655272759e-28
-1.646032962573676271e-27
1.413883614668378699e-27
1.287756938142874627e-27
-2.730234215781259318e-28
1.127316036468927688e-27
-9.816777676845343533e-28
-7.519556427377075372e-28
2.187238423231767498e-28
-2.662539891684013972e-28
-6.281024468094994063e-28
-9.412312479945068120e-28
-7.803301109835190174e-28
1.314562491360121352e-27
-2.720086324698162997e-27
4.933893644555288186e-28
-3.309428154902440980e-28
1.018726755673047622e-27
7.209529245557682773e-28
-3.894737196797949725e-27
8.183348408723958820e-28
4.538894208154952872e-28
3.060159866007647609e-29
-6.560067329416808508e-28
1.194344994864868592e-27
-5.781206431043903903e-28
2.568069890671950033e-27
7.899714904102242210e-28
2.992336156626058823e-27
-1.099518626892840300e-27
-2.457784076110018917e-27
1.000497088383085210e-27
1.193537138774213691e-27
4.949382905495083353e-29
-2.153862013949807695e-27
-6.269227053465241922e-28
8.649996160060469378e-28
-2.577931718841946735e-28
-1.623454521006937091e-28
-2.455914130456441132e-28
-1.307208298833540577e-27
-7.460730908391058849e-28
-1.996761773909465032e-27
2.474628599639909163e-27
-6.653834626926341036e-28
6.685150399102175531e-28
-1.430342461431714852e-27
1.112107944988615075e-27
-2.621879376518396923e-27
1.288592822804329807e-27
-4.950478572681597817e-29
2.954231872262606182e-27
-1.828766871191223678e-27
1.069104087101608461e-28
5.140174980789891011e-28
1.725699501756838463e-27
-5.918764908749430319e-28
1.210249663406216706e-28
-2.998828930834370586e-27
-1.161994430588546240e-27
6.321306929859349369e-28
1.545522210199630036e-27
-3.943486557214824727e-28
2.878298342445166764e-27
2.463835836567860672e-27
-8.489580939247112862e-29
-3.378200709652916618e-27
-2.488074798034236431e-27
-1.088775625654405563e-27
1.561852303815153300e-27
4.342907641990549625e-28
-2.931336507770496837e-27
-3.202054793624334814e-28
2.258235659049378458e-27
-5.246173135107889821e-28
-1.049738861756554126e-27
2.875874858170883364e-27
7.475778361436488487e-29
-6.706802727680901028e-28
4.901319550359489580e-28
2.402561371985896376e-29
-6.006741024024739149e-28
1.691486617051318953e-27
1.561657317224714765e-27
1.176961085629606646e-27
-1.440121148604559443e-28
1.605326226471986470e-27
-6.956912342922903805e-29
6.531645561410185918e-28
1.446860314295270952e-27
1.132146341031769900e-27
2.505134875726063325e-27
6.316660814176785232e-28
-2.357193107525455652e-27
-1.623899978605214370e-27
1.889756014705267686e-27
-4.636998749196781938e-28
5.410421340939535416e-28
-1.191789735388849170e-27
1.400942254520029408e-27
-5.386529768025141249e-28
2.040926522165440561e-27
-7.449724927727970876e-28
1.565060839965993611e-27
9.439579726166417973e-28
-1.011138103548941447e-27
1.538274528511452299e-27
-1.262025476700108435e-27
-1.151214330320178166e-27
1.010185443313906260e-27
-8.752965262937405545e-28
-8.312071997614270138e-28
-4.813607521266032110e-28
-1.399945334792055078e-27
1.462687576781795941e-27
8.517432069714299842e-28
-9.703996731933941303e-29
-1.517172997374586339e-28
6.300865057736781159e-28
2.470954577826268670e-27
1.219103851774278063e-27
-7.116917820284794535e-28
1.088160283866361270e-27
-1.662450213195082641e-28
-2.785394529934949630e-28
2.612515882938362543e-27
-5.863909440129226392e-28
-6.707192075379095082e-28
-2.732378399148812551e-27
-1.962852050331905562e-27
6.314406201409720710e-28
-9.726867049237358819e-28
7.214290887981250603e-28
-1.560494508787433100e-27
-1.074010100081110903e-27
9.442023647129467720e-28
2.044823509233681767e-27
8.292892270059806970e-28
1.676614032623335738e-27
2.385934981890872671e-27
1.455821647446534596e-27
-1.285548345143755240e-27
-1.474518914532770141e-28
8.820902484439889927e-28
-5.806647415178433290e-28
6.325927182442721735e-28
-2.210358504371069790e-27
-1.159837640495430735e-27
7.402774850444363001e-28
-3.131269045746429957e-27
-1.550474625259875331e-27
-2.480048050853910768e-29
-2.406651092419004788e-27
7.995274478911935476e-29
-1.119133433495661875e-27
-4.081474392085679003e-28
-3.625005059948378252e-28
2.649553010764665922e-28
-7.891398943084399663e-28
1.255348283038647055e-28
-8.414442946948904100e-28
7.783408288485401825e-28
2.370839044220886037e-27
2.755603070097676798e-28
2.377674437048386607e-28
-1.629271872586974106e-27
9.705106123488803340e-28
-1.061073297214402707e-27
-1.132150310894049561e-27
7.802527505944558900e-28
2.534014726174593152e-28
1.549722909930642093e-27
2.019607127655149209e-27
-7.553968797766734133e-28
1.796903666732757597e-28
2.464068128169942083e-27
1.352873221803295282e-27
9.980608296652260520e-28
1.828307756006730444e-27
-8.462679261203543327e-28
8.910312207574599191e-28
1.972543973516273818e-27
2.268804733579330307e-27
-1.128423756203046154e-27
-3.522705322546381171e-28
5.356896887393967459e-28
-4.045120427727933789e-28
-5.484285284621276328e-28
9.574024855755920236e-28
-4.946709634663760952e-28
-2.502556903766055997e-27
5.064807702996007112e-28
-5.941661749131969827e-28
-1.023930146518309140e-27
-2.191577026878874907e-27
1.419055943050262911e-27
-3.117308521982843381e-27
-2.378571721939459595e-27
-3.861040835025775912e-28
1.720179601830644121e-27
1.833206512633821368e-27
-1.616639032583690162e-27
-2.486332978400644214e-28
-2.114198654710934529e-27
1.415395140916879534e-27
-2.066757333713535519e-27
-2.004323040690287376e-28
1.445876194647714329e-27
-3.113148103196976027e-28
2.057795956499681713e-27
-1.217757920979295585e-27
5.167590450948015756e-28
1.194346343999057614e-27
-1.955556992028055197e-28
1.940435884687351147e-27
7.672216488126442401e-28
-2.291952143598496316e-27
5.540889925350965556e-27
9.079120339661105555e-28
1.502493227457062008e-28
-1.957930217775248934e-27
1.144511125039289412e-28
-6.437858982525564258e-28
9.019073151316741531e-28
5.202300726033006301e-28
2.593673160715717218e-27
1.991104578629864933e-28
7.187579945266448927e-28
5.213310277546428246e-28
-2.078424422208635375e-28
-2.567068184441486313e-28
1.541079362310287746e-27
1.091810625827767821e-27
-8.810347749577832094e-28
-1.558485997898727584e-27
-9.435438613599319997e-29
1.625677435827776948e-27
-3.853311646248056969e-29
2.444500071026861104e-27
-1.084872483087428420e-27
1.982554671054830489e-28
-3.522091948790501243e-27
-8.337614069795433436e-28
-4.326797428868153519e-28
7.151639552703183823e-28
2.394427947495599789e-27
4.891083969191870687e-29
2.035060823863608615e-27
9.261606391184326437e-28
1.380605548673279395e-27
-6.524809239398356235e-28
1.938584181457813828e-27
-1.501837240729651173e-27
6.930777259999259743e-28
-1.332609432295712946e-27
-7.252527434044702505e-28
-2.045539074184285993e-27
-7.227365661312033817e-28
4.914613109606554259e-28
-9.625860297767331621e-29
-1.886478068920133629e-27
2.058607105594661368e-27
4.720110198947437895e-28
1.410997773666189750e-27
1.099088808200477160e-27
-9.306210769580636738e-28
-2.722498796436009714e-27
-1.281327286060446476e-27
1.714861078455215442e-27
-1.474657413764934791e-27
1.142223296242246491e-27
-8.571912569462378771e-28
5.502383586392366615e-28
-2.552956154389910822e-27
1.633565051330097556e-27
-5.552461742599232011e-29
1.239897916530362461e-27
2.657509679372811866e-28
1.117056692415711259e-27
-1.426751436435214530e-28
1.040482486079676875e-27
-2.112961745080972859e-27
-1.512679962018938494e-27
1.015452143867530574e-27
-5.483813894804193101e-29
-3.201891620504117748e-28
-2.514048588124023982e-28
7.022689093883119961e-28
-8.305083070850060063e-28
7.142818901102855200e-28
-1.281841652118376047e-27
-5.700341537044040570e-28
1.378645245005973945e-27
1.499441148490553406e-27
-1.535696303924339919e-27
1.173844199426462731e-27
-1.454552348204025109e-27
1.026018861539033788e-27
-2.657783414054244494e-27
-1.563629352075217145e-27
-7.124128328401222633e-28
-2.330318092288511304e-28
1.992645243514988316e-27
1.265335344376327589e-27
2.205195851915417416e-27
1.688899353111863797e-27
-3.959265227359879109e-28
-3.727800086294182366e-28
1.496248685401400362e-27
5.650823589806351602e-29
-2.197453807058830383e-28
-1.868894625043071947e-27
-1.490131389991242068e-28
-3.906581444956945760e-27
-6.384316272813466636e-28
-1.371560732236837700e-27
9.694022137975716246e-28
-6.700017747432225315e-28
-4.605762565678671623e-28
1.885554993928904532e-27
-1.468389059171911480e-27
4.432301529418137170e-28
-2.652821290808330576e-27
1.255946100255712447e-28
5.742524585927866336e-28
1.203568723851313454e-27
-1.257894520928944612e-27
4.474265445692639998e-28
4.453231434187037625e-28
-2.691868206701591808e-29
2.099790632168505013e-28
6.488129386457889630e-28
5.569166199666695619e-28
-1.394124925763393723e-27
-1.673857542692113784e-27
3.507641952017934894e-27
2.687149616653487053e-27
-1.947965773159998251e-27
6.301736086141955703e-28
8.782290294180379861e-28
1.051653128159611221e-27
1.965126883237749246e-28
-1.297350548670584733e-27
-2.553353966956518082e-28
-6.874320389103794043e-28
1.880831951494859057e-28
-3.756416004410938283e-28
-1.843074957646255099e-28
1.425676575254033043e-27
1.722422794723256521e-27
-1.653200171903552984e-27
-6.437680849935005726e-28
-1.106889431559220618e-27
1.712854404097325529e-27
-8.309775890991681632e-29
2.028162811906672585e-27
-6.684739904336318865e-28
3.639241333705631258e-29
-1.887781905164745035e-27
1.823170085790596268e-27
-5.075512278153130071e-28
-2.078786135907980341e-27
-8.292731075835673291e-28
-3.226199274362500431e-27
-4.453476765427708026e-29
1.574500512599498227e-28
4.032254642892603950e-28
2.096914785866899105e-27
-4.212788864924182644e-28
1.130202925172940769e-27
4.370431527500016948e-28
-2.705939469404949967e-28
-2.906917480880320236e-27
1.326225455019840906e-27
-7.054166296084446932e-28
2.513301449709852050e-29
-1.778274770855554899e-27
3.961112593122671397e-28
1.512116552295297023e-28
4.117609186107531718e-29
-1.886710912816976150e-28
1.468599779107892705e-27
1.352427571897290759e-27
1.016072002040818290e-27
4.648542224909237399e-27
-8.401405078203423902e-28
-5.312138993314895778e-28
-1.420429370483118297e-27
6.102535928113345964e-28
-9.622819602805781954e-28
-3.776919915227045539e-27
-1.698319710283432487e-27
1.011315987108561256e-28
1.413407934383807090e-27
-2.179264361016869365e-27
-8.572404639168510521e-28
-1.950519091282216552e-28
-1.019740129838260586e-27
7.434744863061683789e-28
5.600012593251134699e-30
4.496786371379483491e-28
-1.015089509154070109e-27
2.150702986987383058e-27
-5.249029535030698956e-31
1.810592422868405070e-27
-6.144687693413432745e-28
8.258832641108679075e-28
-9.509392682471107806e-28
-1.330995778813018607e-27
-9.858851588911599617e-28
-6.419999119740122995e-29
-3.061630857512364633e-28
2.154441162819526497e-27
-1.607851095214558085e-27
-1.526155851751445243e-27
2.379767831549037912e-27
8.521196731672963524e-28
-2.633426817168557418e-27
6.960317932551054397e-28
3.321966009335067421e-28
-3.001596599193472897e-27
-5.172796747832680848e-28
-2.443184477137186765e-29
1.023750333515810720e-27
1.336015715134034112e-27
1.340175711212460433e-28
1.446529892558742725e-27
-2.047399484711628893e-28
-1.200245609991355317e-27
-1.307582283482549953e-27
7.595452412122430869e-28
-2.740865949356564685e-27
9.487330310550880766e-28
-1.548879748534580452e-27
-5.028090267399691176e-28
7.073873542709218797e-28
1.704762253620791569e-27
-2.716387677096404706e-27
-1.128414510527921290e-27
6.867206873615172504e-29
-8.343471201564513795e-28
1.206021194499252861e-27
-2.920338646942473565e-27
5.064168382372925001e-28
5.961640991608518863e-28
6.869824996000052360e-29
1.542810143767538025e-27
-1.721045556554215978e-27
1.551740319673306851e-27
-9.838836756303630564e-28
1.015559240601868822e-27
-4.537914076779172650e-28
1.139843014677315220e-27
1.092430408948624370e-27
-2.049248258167881761e-27
-2.162426399768435510e-28
-1.293783036276009505e-28
-3.329560353495928420e-28
-1.057707609265344688e-27
2.591473392112334391e-27
2.926743993480184236e-28
2.176569133340013423e-27
-7.966422184915058193e-28
-1.486205971495876858e-27
1.851083426784773728e-28
-7.883670725939017649e-28
3.345507663425577883e-27
3.435204525920532469e-28
1.613302827444107018e-27
-3.138647203456989660e-28
-4.563907871560951273e-28
-4.326697453281655319e-29
4.979004811293959560e-28
1.189173944103278875e-27
-1.709800154946756254e-28
-9.529937478404439579e-28
-1.494715940586319825e-27
-1.073287571559501022e-28
8.019808081821081046e-28
6.409924236352341909e-28
-2.493937518578672164e-29
-8.400193894439359386e-28
2.054285893510728070e-28
8.003601597450781464e-28
-5.153398745021817022e-29
1.572831309493374102e-28
-2.106621866519248936e-28
1.281432123991848430e-27
-6.133526469093763820e-28
2.596957891124381343e-28
5.520842734586087220e-28
1.015520104996577502e-27
2.093802649183343755e-27
9.454384504521962513e-28
8.387238699421917724e-28
-2.057903377403165326e-27
8.487887663641226918e-28
3.210536080560126189e-27
-1.161773446770501778e-27
-1.427030617774800179e-27
-3.004528114466575946e-28
1.429449701384329539e-27
7.344977340427910890e-28
-6.678348160757430215e-28
-5.037576393822221832e-29
1.451552296583673327e-27
9.414715910133595253e-28
3.399719784108477127e-27
1.407668213158455131e-27
4.948910440256762114e-28
8.604376046899980322e-28
-4.884761447716722732e-28
-1.368597199196023326e-27
2.406898626751134359e-28
6.866424717597242696e-28
-1.952989535604465344e-27
-7.311467938324392935e-28
-5.168506312174005897e-28
3.718219336173456905e-28
-3.645765613182593272e-28
6.230056569305740552e-28
1.373285467851381661e-28
1.484149446739951580e-27
-2.395135949392588609e-27
2.319491471731626936e-27
1.984330392149073169e-27
7.042925409548692418e-29
9.102629426279756473e-28
8.489909628112436204e-28
-1.031990572419779724e-27
2.304830953332786174e-28
1.089217027195924300e-27
4.336531561307431068e-28
1.471542634209078838e-27
1.329668644678775996e-28
1.130278466356346245e-28
-1.074701443682974569e-27
-5.102470134137326117e-28
-6.434707541557047625e-28
2.387179807599107619e-27
3.366376700359149703e-28
-1.398905787351972785e-27
5.579215592844941804e-28
-2.687492097169561791e-28
-4.274380016121321142e-27
6.716534514239125982e-28
-2.173325713145270971e-27
8.096815765581537325e-28
-1.345488847881585687e-27
-2.041229169637918239e-27
6.919342198236745977e-28
-2.091435741225360813e-27
-6.252486802184017573e-28
2.860687806162985014e-28
8.569470777941303148e-28
1.042621230795472230e-27
-5.078322864303421129e-29
-1.165110858741856525e-27
2.692780839341930415e-27
-8.481972162801989846e-28
2.524498860873631443e-27
-6.334030598427337665e-28
1.625461477133759256e-27
1.497639879141434851e-27
-1.463443192213212927e-27
4.972947508717981944e-28
1.057328657903199856e-27
9.811706466627652175e-28
-2.784544437684254836e-28
4.226560477370210488e-28
-5.524505085689966985e-28
-1.640197168736984617e-27
1.377330310143661983e-27
-7.833908537861815663e-28
1.931259293965737957e-27
8.432556583144457590e-28
-1.249445152735901121e-27
-2.256306609951839399e-28
-4.008554055872060121e-28
-1.218988861688126818e-27
7.018552682944553749e-28
-6.699201961549558996e-28
2.283892510844134967e-27
1.204996803371369062e-27
-1.232008131341148557e-27
-2.659519186166169503e-29
-3.173981725880287861e-28
-2.189854969905040223e-27
1.303486506274812956e-27
1.329455489394613913e-27
1.295431933903271255e-27
-6.396497970271443041e-28
1.496268770404001150e-27
-2.935929704464695967e-28
1.308934312950346331e-27
2.537010622450949877e-27
1.961129943583876020e-28
-1.986394632085234277e-27
-4.435693042357825994e-28
8.971933772781528030e-28
1.707468559568728438e-27
-1.586978369905272999e-27
-2.667120753816691090e-28
3.266067626756788118e-28
6.088708599109062396e-28
1.274327672371857044e-27
-1.327539066218814212e-27
-5.927461799359115372e-28
1.410859264844109692e-27
5.491545171216358698e-28
6.276022163336749022e-28
1.575124886907536707e-27
1.456444159324141793e-28
7.390508875581037656e-28
-4.402977170707285278e-28
-1.882621982550280032e-27
-1.812983495405048796e-27
1.040271120733101570e-28
-2.793268368945446895e-28
-9.162536310813029639e-28
4.451273196346832294e-28
-1.246120675074119446e-27
1.558397201589017652e-28
-2.732589117963579451e-29
-1.175739639048762757e-27
-3.216818347763335121e-27
2.038713789962926928e-27
4.431998360214907788e-28
-3.728999770972996991e-27
-5.968757685426038338e-28
5.511880418261103200e-28
-3.193304681411195533e-28
8.122930020287646952e-28
-1.362290929644651999e-27
2.451837627154182878e-28
-7.486158031079437308e-29
-2.562334225251053701e-28
-3.093760366206674111e-28
2.796051510122029616e-28
1.305538107927083239e-27
-7.420132000521032376e-28
-5.700173305965077021e-28
2.247441866804913276e-28
-1.681749443594078807e-28
5.397308132651435328e-28
1.005397661441294978e-27
1.807288106037542966e-27
-1.629878662404624084e-28
-3.187553404600779942e-27
-9.745406095708958604e-29
4.953154508774807696e-28
-2.616825291770380952e-28
-2.144859609348606300e-28
-3.404802885956195337e-27
7.110300031164954538e-28
-4.535508111293160314e-28
-2.115066799875591521e-27
-1.219736888235911917e-27
-1.210509835938441158e-27
8.520712760525971040e-28
7.861296278976672350e-28
2.120209013438476579e-27
9.069058790034721580e-28
-1.891915158366341962e-27
-1.972482228325912972e-27
1.582685910576125234e-27
2.192904021155523468e-27
-3.327780381802969682e-28
7.821613026065300149e-28
-2.106409149000845983e-27
-2.720923844019576105e-27
-1.643290940726905112e-27
-4.999584222121464056e-28
-7.297749678889912813e-28
-3.220926147902784179e-28
-6.872770840505022694e-28
9.508235990673238217e-28
1.998149628026031831e-27
5.066589696611705812e-29
2.841404775270189196e-27
-8.879816770489909784e-28
-7.349916934773191250e-28
5.427155102760802635e-28
-4.966148494636479846e-28
1.647530068878587006e-27
-8.973640700721623418e-28
1.851386038043198655e-27
2.717884243447800400e-28
3.590886110431427778e-27
-6.496255868993205126e-28
-2.837123892228908754e-28
2.038700893597870887e-28
-3.052803424145730821e-27
8.429956292823562806e-28
6.730444007218357827e-28
1.530138451634818913e-28
-2.161703930811535649e-27
-2.164734661694182803e-27
8.210949374700266922e-28
1.644907619482599406e-27
2.231785727268059110e-27
-1.253357128699952052e-27
-1.442816780086060334e-27
-3.806350543710339034e-28
-2.765446309415091780e-27
-8.243319837928563186e-28
1.192257211417733572e-27
2.287967045179025400e-27
3.907362663784315973e-28
2.296296916587984762e-27
5.751023512505329233e-28
2.678537021126757249e-28
-2.399676904974648547e-28
2.616573753503992007e-28
-3.567198411677433039e-28
-1.972339804385465131e-28
-9.264556395488427211e-28
3.625691594461568366e-28
2.022356957612939915e-29
-2.070980777937915152e-27
-3.369105426580403490e-28
-1.197690536788517307e-27
-2.866883629257005298e-27
6.772960658424395237e-28
2.181709227207679547e-27
3.316931531676221763e-27
2.186931924567602125e-27
-1.218868350922065553e-27
1.645000427366994604e-27
1.567532174897815679e-27
-2.782381927993914733e-27
1.205552871695565917e-27
8.778650389106115868e-28
2.278840948016682248e-28
4.039792754526457618e-28
8.161334030587028337e-29
2.284234508658923619e-27
-5.623872532666790353e-28
-2.798568718328244121e-28
1.034242343502281591e-29
3.858493541730245459e-28
-2.468035766314542110e-27
1.942758764384033802e-27
3.166137264876082205e-28
7.966085447417350054e-28
2.761848744435501493e-28
-2.609634355762379023e-28
-4.972345724905865017e-28
1.345317837604033245e-28
2.128289568299525230e-28
1.617029719908929055e-27
4.843799752935152466e-28
-1.868452276062952396e-28
2.780612107917182565e-27
-1.790823689510196049e-27
-1.875902199797533191e-27
4.963395129440332691e-28
-2.972606967575840465e-28
-2.483917121233987568e-27
-4.370305166920068002e-28
-9.947109357912257224e-28
1.583250337291924191e-27
-8.695713950715114258e-28
1.470554273455318185e-27
6.435603623362030388e-28
-2.888031351748655307e-28
2.963438882252149853e-29
5.999972893033488465e-28
-3.230581168056861401e-27
4.578004361370392845e-28
-5.306569486874912611e-28
2.516563052324645165e-27
-9.675750472066144401e-28
1.599256451518289820e-27
-3.520161419627454410e-27
1.140237572682568774e-27
3.864633765887125307e-28
-3.457510864498629241e-28
-1.692097976574791304e-28
-3.647088782237756246e-28
5.920811957157661443e-28
-1.879088594807614514e-28
-2.502311698933527607e-27
-2.600810390255018052e-28
3.127959052154676098e-27
6.557103198956324818e-29
4.070183656870732449e-28
-6.131486256041079022e-28
2.436255189324756600e-28
2.490719132699970719e-28
-3.656065516560674307e-28
1.208317133017229453e-27
-1.292040079573262412e-27
-1.822353419598552202e-28
7.069280392757714528e-28
-3.737280242429449985e-28
-1.713074772267130178e-27
7.814071821832541107e-28
-1.374739059280782319e-27
-6.261010443052783001e-28
-1.159165234984936672e-27
-1.549875043496731021e-28
-6.010152043387176063e-28
-6.642874796433043255e-28
9.531720053345966612e-28
2.467138693720046113e-27
-5.004156907707720563e-28
7.315648993112171217e-28
-4.974752901555963555e-28
1.384903045900910723e-28
1.578523164035560812e-27
7.039587507835278840e-29
-1.141528574547364797e-27
-1.021684496942884561e-27
-8.632652247809366453e-28
-1.862203189326593536e-29
1.200965938279024306e-27
-1.901919513110545047e-27
-1.451902486272186093e-27
-1.294088209349064769e-27
-2.448657670730454376e-27
1.855905274667754881e-27
-5.091949756029533629e-29
2.660537005199110006e-27
-1.993651978032715879e-27
1.811478008085671319e-27
-9.821034273129369708e-28
-5.701988184300926836e-28
-1.384261974872833869e-27
-1.329532535337364437e-27
-1.852857728138787500e-27
3.028030835674105565e-28
-1.839498379968878365e-27
-3.384521306300723407e-28
-1.287947985887617321e-29
9.330606547436354608e-28
1.405191490080718731e-28
4.497625062429561600e-28
7.200262432295050795e-28
-2.414618305183145147e-29
5.085811767299651229e-28
-1.371322697502481210e-27
-1.085432573134277392e-27
2.655962040293034206e-27
-1.642447981826376089e-29
-9.944938465794550329e-28
1.931429651740539596e-27
-2.195339379677423106e-28
-9.048989971849341450e-28
-2.028165813390411900e-27
1.091061404847970030e-27
-1.520504633245312104e-27
3.605695165695072045e-05
-1.766631043085980807e-04
8.346913192270359269e-05
-2.591061153774903807e-04
-8.688684902606224529e-05
-2.376462259712882252e-04
3.774009229784534570e-05
-1.147860672277558280e-04
-5.656333835920673543e-05
3.573885947787881659e-05
-2.045981431576163309e-05
-1.144980353334113139e-04
-1.727260973659016361e-05
3.019771514397792678e-05
1.368875883054052381e-04
1.561017236005710247e-05
-6.860758563120698296e-05
1.187754297370854217e-04
-1.015959837024972724e-04
-1.443572370515588290e-06
-1.987861525078289606e-04
-2.086220041164308519e-04
1.704339736944329969e-04
-4.848569407393037655e-05
1.978617492100148505e-04
-9.214511313361274094e-05
-4.526852452498160949e-05
3.219240927977336795e-05
1.850826553449529609e-04
-2.010424451683186209e-04
-4.666875715174887156e-05
-1.820342075448442383e-04
-1.943730192808897008e-04
-2.709257175641135822e-04
-3.259547134713658531e-04
8.007118651570426166e-05
-2.102267397586391276e-04
1.991247551875138550e-04
-1.089877704487015870e-04
1.654598357465544704e-04
-1.386864703454223930e-04
-3.991440318637368948e-05
-3.903961934332697212e-04
6.269409063611117172e-05
1.531466314674389672e-04
3.115948842877887850e-05
-8.448583188625707950e-05
3.156352801600877383e-05
-6.795668842864460073e-05
-9.304311513331752897e-06
-5.650667160718702295e-05
-2.010111038727269655e-05
9.335608292402903120e-05
6.406505105458183095e-05
-3.014722471745490606e-04
1.352263057173955002e-04
-7.517665848408156535e-05
3.722096872137329275e-05
-1.847771216543519124e-04
-1.370096481742232540e-04
2.605363453310871450e-04
5.083001426711187837e-05
-1.726845168393310599e-04
-1.323516039184747757e-05
-1.294458453531558079e-04
-1.128983740855403110e-04
1.661777898058422194e-04
1.002381268833972468e-04
-3.438566666495885686e-05
-1.397369187016740937e-04
2.951549844142404991e-04
5.990422627721497036e-05
4.652024997906975388e-05
-1.811886506996447204e-05
-5.910098104303605353e-05
4.247084484197456513e-06
1.162805670818408459e-06
-8.843046688024767065e-05
-8.945510088318676316e-05
-8.467138555735295743e-06
-4.908428974774089597e-05
7.113458651175527366e-05
-2.825046476850848090e-04
1.390474881405066930e-04
1.381869465323519225e-04
-1.350862477499019745e-04
-1.510170336911465601e-04
-1.011805501607150436e-04
-3.081108570022210360e-04
-1.099624924959549729e-05
-5.726476780432880278e-05
-3.414151352331919507e-05
1.176360188885531530e-04
3.358647538255144969e-04
1.458993106273768277e-04
-2.623767393642692478e-05
4.530181014031142228e-04
-3.408415277914440518e-05
1.143441012847072125e-04
-3.861912043378451769e-05
4.696643256891182608e-05
-3.446757889919594559e-04
1.375269487060402571e-03
-1.438455175501109897e-03
-2.209835157788994436e-04
-3.095794285369241386e-04
4.927370853972770409e-05
-1.495159462969951575e-04
-7.384736634005281577e-05
4.670075814513101510e-05
-1.165686114902343153e-04
-1.491441665167885921e-04
-9.728924975184367625e-04
1.660818166741814849e-04
1.782343391794863514e-04
1.957301520388099456e-05
-8.936625690142206257e-05
8.992562265877091779e-04
-1.346104921702447857e-04
-2.417236742274418921e-04
-2.046615339490933522e-04
-2.228891766328583695e-03
2.057093166338533786e-04
-7.881202956509298545e-05
2.621792471356792966e-04
8.271038841029860643e-05
-5.896505062406968989e-05
1.997571097097130535e-04
2.408073569701659920e-04
-1.649191665988016843e-03
-6.300298735690663357e-05
-2.368462554879206437e-04
-2.307822081753015283e-04
-8.610851651873900657e-04
-2.391444534199333588e-03
2.711081752833082608e-04
-9.159557634217707677e-04
2.593164803853146932e-04
-1.419633047323260659e-04
1.752339258492113783e-04
-1.699118128757162488e-04
-5.186430930425208868e-05
-2.122612613020468872e-03
8.172021731521829401e-05
1.988960123377425909e-04
4.059462244049482157e-05
-8.565562707427212819e-04
4.129347724539787659e-05
-8.853651744462299133e-05
-1.211944071908530423e-05
-7.361187245957643730e-05
3.576607634295703755e-05
3.386129115259013255e-04
1.069204840391527531e-04
-2.433833083017374055e-03
-2.381103909580224211e-04
-9.761977412829471261e-05
4.848261303629221541e-05
-2.407815161247683824e-04
-1.757546847461905197e-04
1.450379184794377838e-03
-3.242700391429222313e-04
-2.057725285477589316e-03
-1.725933871192582861e-05
-1.511015313863159197e-04
-2.018392682389358816e-04
2.164569161516475897e-04
1.512900704174526001e-04
-3.213358073727598199e-05
-1.820296982562406710e-04
4.525045749682059704e-04
7.802022522117156187e-05
3.230495437928351598e-06
-3.190280737772059518e-05
-1.204614745386411811e-04
8.070007061947222660e-04
2.126094539412853655e-06
-1.887805696016925459e-04
-8.654691209604729787e-04
-5.363708239942740810e-06
-6.332224721797105767e-05
1.129046233607311180e-04
-3.677188988766696628e-04
8.969717830417569659e-04
1.019843854246891418e-03
-2.850018029267447359e-04
-2.607890012234705839e-04
-1.810958212442315954e-04
-2.238064364802558933e-03
1.046466022836519885e-04
-7.875622441125383491e-04
-4.691544520966982410e-05
1.531950591433540185e-04
1.373017304285870837e-03
1.900282237931923829e-04
-3.259209708861437213e-04
3.510400313816137898e-03
-4.483129340343351867e-05
1.491511248731782402e-04
-7.298218504499089999e-05
3.331840320493308679e-05
-3.600331052499657525e-04
2.252743175785229448e-03
-2.130593366374817707e-03
-2.654752668800769455e-04
-2.196490114802812546e-04
3.507104398014196698e-05
-1.060678570488211804e-04
-5.255947874128366577e-05
3.327983247658417227e-05
-1.733635832303248754e-04
-1.058075413105925264e-04
-1.648503262555738383e-03
2.456250015440666532e-04
1.263701339804150850e-04
1.311871681009413930e-05
-6.339780864419415705e-05
1.388697222074550524e-03
-9.778823799111359839e-05
-4.133256954559627063e-04
-9.046598166288817989e-05
-3.554676179282406298e-03
1.295044769370283218e-04
-7.169698481199506793e-05
1.904813858760341639e-04
2.631024262333142984e-04
-4.183029765924546850e-05
3.008509645453435197e-04
1.705542155206970264e-04
-2.568849437672470534e-03
-4.692736779565715019e-05
-1.677539481904048323e-04
-1.411312168054658475e-04
-1.123289663869323635e-03
-3.679793242899249538e-03
3.605289951177828686e-04
-1.297267823586513175e-03
1.839049851332248393e-04
-1.007099485542841923e-04
8.368845503124335949e-05
-1.097113743586314359e-04
-3.666524817460005393e-05
-3.133366711743689869e-03
5.803077039359664553e-05
1.405066492307132568e-04
2.880568851692300294e-05
-1.360386275661603890e-03
2.947547034930394339e-05
-6.282742994444232595e-05
-8.597632112537247672e-06
-5.222938619560399723e-05
8.783875339434264783e-05
4.590366940572934771e-04
9.951795770769968725e-05
-3.784762386369029761e-03
-5.866255744425075743e-04
-6.894728682004619099e-05
3.439397035840318848e-05
-1.709111250807442822e-04
-1.219503811103908955e-04
2.149197367181021091e-03
-6.237778256050613684e-04
-3.307855778323088875e-03
-1.226380754992673236e-05
-8.953687799926322334e-05
-1.984257924466913678e-04
1.535564141952113913e-04
1.282230976058430403e-04
-1.003433687018214250e-05
-1.291472238811021899e-04
3.896253557321880615e-04
5.533939287361930455e-05
-5.555199578326564972e-05
-3.100326501255516894e-05
-1.292980129720586700e-04
1.380650171744649945e-03
2.124840375541303179e-06
-2.081311004389745914e-04
-1.369169559298319622e-03
1.907482318344317168e-06
-4.430313946354845630e-05
1.005118799799822204e-04
-2.605998077823212604e-04
1.358147137852530259e-03
1.570341352748725466e-03
-3.121362757969028067e-04
-2.496206405117166755e-04
-1.781842266155433203e-04
-3.439760587689469611e-03
1.941999127889026109e-04
-1.277624553129605043e-03
-3.574661747621723129e-05
1.086444485711656437e-04
1.917369960312011266e-03
1.347928369423935968e-04
-5.253905415108366421e-04
5.434994509022486771e-03
-3.224189749591650523e-05
1.060216759789170003e-04
-7.464182283095174993e-05
3.331840320491691863e-05
-3.600331052498455145e-04
2.252743175784348208e-03
-2.130593366373208751e-03
-2.654752668798734407e-04
-2.196490114801837848e-04
3.507104398012792656e-05
-1.060678570487690302e-04
-5.255947874126051805e-05
3.327983247657555286e-05
-1.733635832302347240e-04
-1.058075413105450790e-04
-1.648503262554887501e-03
2.456250015439643045e-04
1.263701339803806616e-04
1.311871681009134748e-05
-6.339780864416379939e-05
1.388697222073857502e-03
-9.778823799106499902e-05
-4.133256954557184355e-04
-9.046598166283952632e-05
-3.554676179280472081e-03
1.295044769369402304e-04
-7.169698481195079182e-05
1.904813858759355557e-04
2.631024262332456684e-04
-4.183029765922427235e-05
3.008509645452021397e-04
1.705542155205995566e-04
-2.568849437671393270e-03
-4.692736779563547292e-05
-1.677539481903204271e-04
-1.411312168053970007e-04
-1.123289663868667475e-03
-3.679793242897133176e-03
3.605289951176040837e-04
-1.297267823586204828e-03
1.839049851330993429e-04
-1.007099485542309851e-04
8.368845503121142974e-05
-1.097113743585747864e-04
-3.666524817457884422e-05
-3.133366711742311631e-03
5.803077039357307769e-05
1.405066492306443016e-04
2.880568851691029744e-05
-1.360386275661181485e-03
2.947547034929296584e-05
-6.282742994441719957e-05
-8.597632112534096710e-06
-5.222938619557710902e-05
8.783875339430581206e-05
4.590366940571348042e-04
9.951795770763487907e-05
-3.784762386366844009e-03
-5.866255744422506184e-04
-6.894728682001483044e-05
3.439397035838821293e-05
-1.709111250806620997e-04
-1.219503811103444645e-04
2.149197367180148525e-03
-6.237778256046743082e-04
-3.307855778321750536e-03
-1.226380754992400661e-05
-8.953687799923365173e-05
-1.984257924466156905e-04
1.535564141951415687e-04
1.282230976057756029e-04
-1.003433687017819532e-05
-1.291472238810473835e-04
3.896253557320241302e-04
5.533939287359363607e-05
-5.555199578323630850e-05
-3.100326501254343923e-05
-1.292980129719916663e-04
1.380650171743935672e-03
2.124840375541048222e-06
-2.081311004388456797e-04
-1.369169559297585400e-03
1.907482318345093898e-06
-4.430313946352997743e-05
1.005118799799621898e-04
-2.605998077822115392e-04
1.358147137851771317e-03
1.570341352747972163e-03
-3.121362757967275996e-04
-2.496206405116292888e-04
-1.781842266154476395e-04
-3.439760587687652488e-03
1.941999127888081769e-04
-1.277624553129177868e-03
-3.574661747619812223e-05
1.086444485711182369e-04
1.917369960311089260e-03
1.347928369423323394e-04
-5.253905415105371854e-04
5.434994509019832644e-03
-3.224189749590772319e-05
1.060216759788773185e-04
-7.464182283090781264e-05
4.073215368158012424e-28
1.504546334342824811e-27
-9.767304613520309239e-28
-8.094874324564720869e-28
-1.186186536071730690e-27
1.098637720990706662e-27
2.286110623262588644e-27
3.621640733316221428e-28
-8.724103164752829663e-28
-7.283537622671548287e-28
-1.556915787013317386e-27
1.023390401876001622e-27
-1.487790443023594245e-27
-3.564120707695865539e-28
-1.636205151862851739e-27
-2.658694680709223674e-27
-3.555197214074155177e-27
-1.245686706942946966e-27
3.052463310062872202e-28
-4.448491554147905808e-28
-3.129396744459247629e-28
-1.499619544898077678e-27
-1.304082618884914071e-27
-1.494472064343507528e-27
2.956655548743938442e-28
2.866119918058859230e-27
-1.908817635661259986e-28
-1.916593447099212006e-27
1.781301717382134635e-27
-1.397701916855075087e-27
7.803831873587162906e-28
-6.195885475805244873e-28
1.134928538452990249e-28
4.804728245892647054e-27
-1.046318885773408001e-27
-8.211816089563640794e-28
5.252202572713222378e-28
-3.071907228344356600e-29
-5.683808994312100270e-28
-9.635699022253758281e-28
8.265192945165208347e-28
1.508013159109007337e-27
-1.332640185210970558e-27
-1.590675092376413734e-27
2.561335349059695050e-27
-1.994803234203595569e-27
1.001258322127133842e-27
6.146503249069307766e-28
-1.543835873039908492e-27
1.063069651699344556e-27
-1.544181317390802541e-27
-1.525053953626757145e-27
-1.944965305373589355e-27
1.167753309054115272e-27
-6.289532104758609274e-28
1.519035517602548440e-27
-1.133959901896734932e-27
8.603484576716577217e-28
1.969964598069072077e-27
-1.203938469642059061e-28
-1.575305795855011961e-27
-4.794994660719366194e-28
1.759066143241773063e-27
1.034515938401487757e-27
-5.402708224691136978e-28
-2.441612871725917457e-27
1.001542933191147711e-27
2.282793376362847451e-27
2.307551172844588094e-27
6.057801290589661238e-28
-2.673851584491290705e-28
-1.100340638361344942e-27
-8.014756412757828272e-28
-2.309169553573755208e-27
2.987749999730301869e-27
-3.774228536984497342e-29
3.337472183357949688e-27
-1.042746668881487773e-28
-2.265173394170019456e-27
2.605648531001907131e-27
-1.203507209560408485e-27
-6.129438531858478663e-28
2.307491003497284292e-27
2.041857289357697780e-27
-2.836098380048322750e-27
1.476370472407124885e-30
-1.525031427611029513e-27
7.546363619657592970e-28
2.536519711748707992e-27
-7.243349126262670791e-28
2.090076673774202949e-27
-1.299831302705867517e-27
3.040545545018352627e-27
-1.155674784292019344e-27
-6.485381004257739726e-28
4.156537572175814112e-28
-1.960423977665510192e-27
2.169000711852145975e-27
-1.497711775419759292e-27
8.593532340578361370e-28
-1.804406297432466824e-27
1.536641248360080590e-28
-1.473357740176446784e-29
-5.434241046600579430e-28
6.847642728101846918e-28
-1.563239623950027828e-27
2.130168477292729225e-27
2.833672899768639722e-28
-3.907207998198917631e-27
2.807201621718003446e-27
6.336671133882977055e-28
2.174538474333148675e-27
-2.476596063445540508e-28
-3.167001945890072560e-27
-5.874826777937435674e-28
-1.716140568762701313e-27
-5.386423026464999490e-29
-6.756769012586617062e-28
2.925562688404931603e-28
-2.469657020191195085e-27
7.527968961050060488e-29
-6.432806067408413615e-28
8.867277628387297683e-28
-2.368730293144113475e-27
-5.949754656413003266e-28
2.321275682648691254e-27
-1.653143798595988229e-27
1.033060030349963485e-27
1.862320743070148660e-27
-1.412273471615929990e-29
1.383626766330058654e-27
1.457711927519565049e-27
2.197200158850935397e-27
-5.148578655515457947e-28
-1.571859836129687920e-28
1.125537604321663068e-27
-1.043684327932547187e-27
6.725698343071488952e-29
-9.777953062962031330e-28
-3.259978698500769080e-27
4.687835796338464844e-28
2.382905838442605707e-27
-5.207821033630925110e-28
1.179917761264423749e-28
-6.342148601211399267e-28
-1.037132702383968711e-27
1.905065774773136037e-28
1.501790797400025208e-27
3.101534792374268616e-27
1.156826277092397332e-27
-1.345629103617513744e-27
-1.997405931234779995e-27
1.829181902855717555e-27
4.433086715256020011e-28
-8.544706019468640594e-28
-1.478333136103726458e-27
-1.130575877073429368e-27
1.726435352212834222e-27
-3.129660348390328700e-29
-1.960249756584859309e-27
1.221356244804753547e-27
4.340532453481644100e-28
-4.075001794079530281e-28
8.506242099790582572e-28
-1.158516285444047539e-27
1.349185475854422924e-27
-1.994389941418050480e-27
-1.264556479869352439e-27
-1.927234921179385629e-27
-5.830612644747935477e-28
-1.060210663639055659e-27
-5.075985816205748860e-28
6.673574751061017629e-30
7.757920013922178176e-28
2.051021904514625104e-28
3.525301720570520521e-28
2.245585889270882838e-27
-3.730091081431388648e-28
-2.041245236850664457e-27
1.331657227071070715e-27
2.569682241354982506e-27
2.621495805660471170e-28
1.175103203026615158e-27
-9.176722617291267193e-28
2.598913742921051074e-28
8.916497650811942164e-28
5.298954596562279060e-28
-7.554194019415932248e-28
2.282406410229124503e-27
2.418921450166460680e-28
1.302006351989447510e-27
5.679723041254487478e-28
1.222889251674241503e-27
1.306282588949547094e-27
-3.025542038859694763e-28
1.166907335878531029e-27
3.024008284264133012e-27
2.798006149838396857e-27
1.069435283964721836e-27
2.361665508373990688e-27
-1.830778631400871741e-27
2.060925652820722263e-27
1.048047120308422078e-28
-2.501188706296886115e-27
2.312466652759849253e-28
1.366530244796011208e-27
-9.742358604759889202e-28
2.711419574440907256e-27
1.888525474372132265e-27
-1.784787738163745210e-27
1.412432236382004456e-27
1.567291245042739715e-28
-7.721915366322492387e-28
-4.431920072858636168e-28
-6.228632958962232757e-28
-1.702424910853429946e-27
-6.275216714241425359e-28
9.695625701370691776e-28
1.995903202470218348e-27
2.041248592495539541e-27
-8.025378967921663270e-28
-1.641125724275152122e-28
-1.202869352660974414e-27
1.441703257102620113e-27
-2.306933679613714207e-27
-1.908189809676195123e-27
-8.900000403315590307e-28
3.519895223492142881e-28
-4.495135633109603363e-28
4.627983049732919405e-29
6.653461555799335685e-29
3.265236211037257738e-28
-1.447946646637209921e-27
-4.750047616464397344e-28
8.084889066468219587e-28
3.922391363271673141e-28
1.530310607332665950e-27
-1.044496474848243499e-27
1.268501820155896639e-27
2.052847142089535110e-27
-1.995848460988710303e-28
3.722246883412184963e-28
3.151995694171876352e-28
7.497826869363481777e-28
5.429764889489093435e-28
2.056854462134119821e-27
7.185612733670444926e-28
1.210050398493586306e-27
4.640407887213222272e-28
-1.458174737842168082e-27
6.065781763282606330e-28
-3.218714037286018313e-28
-8.889372704367893434e-28
-1.251858208644429671e-27
-9.853539334287209724e-29
-8.502726780282755303e-28
2.854946644821241603e-27
2.235015227420514345e-27
-3.736246086096237875e-28
9.926133342747236564e-28
1.619410262470653042e-27
-2.419247411372690638e-28
2.586987988925118981e-27
1.290685737086564612e-27
-1.423631129188226662e-28
-2.518494318577569384e-27
-1.352055733246230328e-27
4.460766668441514112e-28
-6.134417827022124426e-28
-2.904851704154115974e-29
-1.102009471255336849e-27
3.456198501335347668e-28
-6.414892665429613304e-28
-2.173335639311527988e-27
-4.782009690577099387e-28
-8.006695070127775481e-28
-2.171868415040820662e-27
1.992033230731170702e-27
-1.064491851510886717e-28
-4.575172347168604589e-28
1.050306015553822809e-27
-1.156092595445668592e-28
1.073987425021423422e-27
-2.072484883245740744e-27
-1.451016048357871261e-27
7.631597035059133005e-28
2.088221444453714500e-27
4.200738882925424326e-29
3.029448834586165848e-28
-1.152581447029962053e-27
-4.190150180867162668e-29
-9.923047570084395945e-28
-2.242866556249448840e-28
1.010981641640386126e-27
-2.797686918703935347e-27
2.981739238489197152e-28
-1.126123710334803705e-27
-9.050266346416677230e-28
1.593110120444270317e-27
4.135294152623610333e-28
1.306809343528404217e-27
-2.468770493974459752e-27
-5.741839762788031248e-28
-6.350017389413218739e-28
-8.250297317805919596e-28
6.161999858242943379e-28
1.254028928910474843e-27
-1.549167812032517520e-27
-1.347446991597916083e-27
-1.752375482671918425e-27
1.606314838089542131e-27
-7.204788550783478283e-28
-1.419035430371366147e-28
-4.649981178363707538e-28
-1.348838330588456561e-27
5.224565643623576124e-28
5.361259723315839283e-28
1.317581439174291076e-27
-3.155224094692684676e-28
-4.158357941629850779e-28
-8.195597766064830053e-28
2.082964427427881456e-27
1.410300092205823791e-27
-5.652751948745386450e-29
9.083738844893258349e-28
-8.200104835833918424e-28
2.875665824954582272e-27
-8.280203196291541816e-28
-5.314538652429617469e-28
-5.193359761499493867e-28
2.381233072597754481e-27
2.066003869705461604e-28
1.517869900625263541e-27
-1.541036503959920065e-28
-1.697811399623490823e-27
1.085446205130682070e-27
-8.768565642342355781e-28
-1.845547190764212325e-27
-5.823844834116330015e-28
8.841358248927477419e-28
2.469484825505082577e-27
-1.942064683846754722e-27
-3.078040202164914966e-27
1.301948672593345681e-27
4.199843030739341040e-28
-7.886978327530240713e-28
5.855847384383824386e-28
1.021007683975885123e-27
2.676338912076861291e-27
-1.824407129049995227e-28
1.791347201935606175e-27
-6.323266396370420003e-28
-7.133876777414222617e-28
5.931592800668011991e-28
-1.560629513235127268e-27
-1.822363139173856945e-27
1.348189582821770574e-27
-2.747732894643523533e-27
1.586545182989354220e-28
-4.545445132256229352e-28
-5.221195406760436136e-28
-1.864839068292614337e-27
-2.849669980679251881e-27
-9.250792237492014394e-28
-1.630965563101922848e-27
-5.954626328605081328e-28
1.232248736626546353e-28
-1.038248114559975411e-27
-1.501222801274043616e-27
4.059733683438846641e-28
-1.066346505928667571e-27
-1.343064866072665250e-27
-4.187273814970366248e-28
3.996047950934257586e-28
2.951633140390959376e-27
2.258515847843482958e-27
-1.768365065051263789e-27
-1.853562909621447737e-27
9.058545713202178887e-29
7.796361612354636173e-28
-1.843493978409308376e-28
3.040632719471182665e-27
1.647555213863325047e-27
2.295602267976519495e-27
-5.848970632506518307e-28
-1.255369996983355320e-27
-1.498091638768859849e-27
-1.592610247938619318e-28
-1.761323098205829615e-27
-8.871241363815858349e-28
-6.029520736471324655e-28
1.321723379147619773e-27
-6.618879480631473622e-28
-1.969479621237993239e-27
-6.263321515448399441e-28
2.639611088582520706e-28
7.851217844214887394e-28
-1.290054029558869608e-27
9.061364641837290689e-28
1.941151597216396304e-27
6.851805802556525550e-28
3.342445959063720559e-28
-6.272259121335147688e-28
-8.549349684134191918e-28
-2.841331404992212126e-27
8.509480152117535212e-28
-4.956492207193971928e-28
2.135696114558857990e-28
7.016386762051386352e-28
-1.100734656946245278e-27
1.423497524296395365e-27
1.583218449573516922e-28
2.095356999985178122e-27
2.364634927577184723e-28
4.459817001757793811e-28
-3.826483093169625816e-28
2.066549242301499935e-27
-2.944276764841971476e-27
-7.458094347954719076e-28
-4.269866738662870484e-28
-2.142142939488600016e-27
-1.112352071171757812e-27
-3.040338660601406417e-27
2.664866377863114323e-28
-1.966908963574505955e-27
5.176968556437376711e-28
-3.664180697684423672e-28
-1.165556197136673859e-27
-2.174842754778656976e-27
-9.557879445725720720e-28
4.347828071380755382e-28
-1.755895058501763724e-28
9.325471211162731530e-28
-1.103432592073695112e-27
2.247922812447519725e-27
-3.330654238407155392e-28
-1.183027241677736619e-27
1.833841036489922659e-27
1.900197363343866466e-27
-1.262107612181440991e-28
-6.778817981221523408e-28
1.273839224394321759e-27
-1.251531130852655762e-27
1.308995567276684718e-27
-1.941648390189830482e-27
-1.167262744506132193e-28
1.645428355511759058e-29
1.690987106695489320e-27
-2.560374303175716781e-27
3.281430767374883886e-28
-1.689594685926738956e-28
4.070754308797558576e-30
-1.237490063523049771e-27
-1.822273284150185537e-27
-6.482568904663946240e-28
-3.382588579642039378e-28
2.064826880623714083e-27
1.559018352317374824e-28
-5.985510089027464344e-30
9.774812544861593385e-28
-2.256126671117846067e-27
1.011382411105453010e-27
1.281259782424114575e-27
1.269736998727211240e-27
-4.660946255118798746e-28
-1.728989941516382771e-27
-1.378612819183649243e-27
3.463632882475845785e-28
7.513143261950346791e-28
1.786797594803819517e-27
2.129564192817459586e-27
1.219493640303018382e-27
4.749042812364146742e-29
3.708107200712414620e-28
-3.293687284039299183e-28
1.476508358175799758e-27
8.318069497810899110e-28
3.021406221575869778e-28
-1.757474768658872653e-27
1.465020856286781652e-27
-2.137195852419054146e-27
1.724136020349932592e-27
1.378194304071889527e-27
-2.221433746580627240e-27
-6.783594399226391396e-29
-1.737590120174427477e-27
-2.024248939346542310e-28
7.770761410312167370e-28
-1.912535120820446388e-28
-1.909017691879201706e-27
3.650821616833503967e-28
3.632071532715677674e-28
-3.812079633543789339e-29
-1.462889925810145241e-27
-4.895923718854703430e-28
3.758597650263434533e-28
-2.170245556347832206e-28
2.957055176313163403e-27
3.584365699594184145e-28
-2.894056005336235083e-28
6.754964636558807403e-28
-1.547283081201826832e-27
5.889346373477130678e-28
2.263040652580392316e-27
-1.237022242823780788e-27
4.182819217523167690e-28
1.073734735582885588e-27
-2.370194611117135454e-27
2.293966796851996395e-27
-1.462692866832907048e-27
-4.689780185602865615e-28
5.328300897145382480e-28
-3.255762382260671805e-28
1.123877292606796982e-27
2.112515917662964106e-28
7.974857353236570357e-28
1.049409398027157984e-28
2.060373198842334322e-27
-2.821109731776284559e-27
5.096258184440727292e-28
-4.207735551082829700e-28
-1.342366123301956103e-27
-1.136017445324757029e-27
-8.006052477470149663e-28
8.096061553314505629e-28
-1.254321405110125865e-27
-2.284094418775680890e-28
3.852681881496757857e-28
-1.617771419407670910e-27
1.556963884330227794e-27
3.389519176511807015e-27
-9.434277663691499837e-28
1.286958056144636386e-27
-4.334610066819008170e-28
7.465589721375616846e-28
-2.543343099390012290e-28
3.091482497497130134e-27
-4.539700050700394093e-28
1.111271156603840132e-27
8.501355775377449514e-28
-1.517228237080109953e-27
-3.023747499238306377e-27
8.105533087158434631e-28
1.182079653725092939e-27
-7.512311456750190420e-28
-8.865399174193216305e-28
1.367239837499976932e-27
1.193718209529229450e-27
1.337948685747038392e-27
3.658866558429431939e-28
-1.103357277396885717e-27
-1.704807714604180178e-27
-2.789810201169271893e-27
-8.073764788845437467e-29
2.686276859711955144e-27
6.689130809294681956e-28
-1.116130981328755643e-28
-2.128601433572853955e-27
-9.349074037988195706e-28
6.912846310181333151e-30
-3.110424930355563473e-28
1.271410801826579751e-27
-2.220032468779543490e-28
9.732257243520131048e-28
-1.598722716496775909e-28
-2.656187193622893821e-28
1.762419927039968649e-27
-1.052549220224221900e-27
-3.961915103550509441e-28
-1.809455554361075796e-27
1.354068986825516604e-28
1.496989661463073528e-27
9.537640579902312339e-28
1.027402582866399352e-27
1.473952383835044379e-27
8.751232220855612399e-28
1.061342186250055341e-27
5.650960297227919105e-28
-1.365259655595324812e-27
7.363797924329110503e-28
1.323965216172267636e-27
-1.248413541951163944e-27
3.303171866809769850e-28
1.515622679989352145e-27
-5.227581759867411411e-28
-1.849164124709871264e-27
8.612962458056433590e-29
2.230695253132329766e-27
-1.277857480092253160e-27
-1.475153792894598511e-28
-1.051224414262083979e-27
-5.024495792778420599e-28
3.286113619359429716e-28
2.067108587915303993e-27
-1.003092747726582037e-27
-9.919104319475893673e-28
-1.221249098036723507e-27
-1.530987803769763266e-27
-2.148132747293470379e-27
-1.191518951250107749e-27
-1.481077346341671613e-28
5.719962962684638503e-29
1.641087115031089788e-27
-1.150001196884063997e-27
-1.091686035888244766e-27
-1.059351532515725736e-27
2.739872303207815448e-28
-2.218151915123752505e-28
1.087865771003954110e-27
-1.104567109427528967e-27
1.278296195376187826e-27
1.319243674873235991e-27
-3.673782783600901884e-28
-8.713709767688600984e-28
2.535839177936167954e-28
-1.107916554052968909e-27
2.788505938698403231e-27
1.972011582830930833e-28
1.109186093995968188e-27
-1.773580882095313779e-27
-2.450550304885717896e-27
9.619723617256908494e-28
7.220910349931291918e-28
-1.064624957300798328e-27
-7.933207049860500216e-28
-9.517231299025440613e-28
3.188912734252697285e-28
1.293123693205864440e-27
-2.162353995415848656e-27
6.701036381821580912e-28
-1.223580005314333090e-27
-7.431499930642219706e-28
-2.245625273770094903e-28
-1.905638817250051607e-27
3.980685041546469868e-27
3.394261627756190026e-27
1.052958529725571543e-27
9.182300375565339390e-28
-1.460750076333266763e-27
3.327595472512162140e-27
2.563883167221276785e-29
-1.727177464638203417e-28
1.685240068604747287e-27
3.650440733700728671e-28
-1.087018689940332761e-27
-3.064261911027655504e-28
-5.264104688265385571e-28
9.049912476521506867e-29
7.760789401906227974e-28
7.457071759015598666e-28
1.821303371943395911e-27
-5.743093933185748035e-30
1.341016666119074570e-27
2.388829117356923222e-27
-1.716074287746213604e-27
9.973910875981008645e-28
-1.500952389068125343e-27
-2.109466542015383473e-27
2.218064955415495143e-27
1.589346583501568239e-27
7.325695678352970362e-28
-6.675649399210709100e-28
2.104547453151913745e-27
-1.913636310663566387e-27
9.433044394267042123e-29
6.791071547427669968e-28
1.801602532519513880e-27
-2.136553853361570841e-27
-4.288904757372299532e-27
1.614848102640956609e-28
4.443054932708673883e-28
2.431017571244695938e-28
-1.227889904417515564e-27
-6.181224771061320795e-29
-2.155661794990468370e-27
5.887081530767051738e-28
1.249363580967402019e-27
-1.024631264539115467e-27
-2.804934362573705996e-27
-1.816565653618352383e-28
-2.778425879477380186e-28
-1.128262965919136796e-28
1.824625663634632924e-27
1.939932727181275864e-28
2.917164503067316962e-27
5.329298548794037966e-28
-1.521810230200780050e-27
1.586728413996247175e-27
-1.264557809247490841e-28
-6.841367324971323686e-28
3.910804513257435256e-28
1.606638785788021014e-28
-2.181577568236308785e-27
-1.189078667792016774e-27
1.612473409171017438e-27
2.462477696802739926e-28
8.943940824496186776e-28
1.427916346480236151e-27
2.509135786355873079e-27
-8.945488153324720883e-28
-9.845480551396026052e-28
-1.294043954726575964e-27
-8.404557378252760007e-28
-1.277355471626742257e-27
-2.099665305772286182e-29
-1.514943286164881952e-28
8.135641600816866133e-28
-1.666564673922965927e-27
-9.151637547461174725e-28
5.031407155843808002e-28
9.779035255082670874e-28
-3.242588983001925927e-27
-8.427233787206620445e-28
-3.549946197258338201e-28
-2.857020891954314441e-27
6.280497115335260506e-28
1.685427555607833242e-27
-2.719772799277348418e-27
-2.190444127042627971e-27
1.332777433758393702e-27
1.589143988742789071e-27
-1.781514901626812936e-27
-1.382381124407836149e-27
9.229941209060358307e-28
-3.401623873970898847e-28
-7.296910488767280809e-28
2.231327669591266091e-27
4.168318508711930880e-28
-2.546698043019200415e-27
3.545656316404580298e-28
-1.966951117102665451e-27
1.038662915678755311e-27
1.374504887613137057e-27
6.138589645215535738e-28
1.298677351594889235e-27
2.749418688615757118e-27
1.017140138528098074e-27
-5.206354976533970601e-28
-1.530306794179996523e-27
3.141656052864337767e-28
-1.448751743679458850e-27
-2.013824014388560720e-27
-6.464546862320949506e-28
-2.489127027970471662e-27
-1.820284231768883289e-27
7.014728694732514141e-28
-6.652188544889320197e-28
-4.291987546686777408e-28
-3.627498405257100431e-29
-2.735298930836203310e-27
2.606589629090137422e-28
-5.360803934700208639e-30
-6.327588073517284816e-29
4.798849014031832339e-28
-3.030267560371918559e-27
2.676004053515636707e-27
-4.246031393850213592e-28
-2.007481156711909087e-27
1.561093210355929686e-28
-1.779264290178424431e-27
9.293042752603976075e-29
7.566855492624350614e-28
-1.846071124098119115e-27
1.183350574429043741e-27
1.834908685659542999e-28
4.886154063899725723e-28
5.655775687432705429e-28
7.172584403446383914e-28
1.568179954427843395e-27
1.204385420153058386e-27
6.815325693990626908e-28
-1.069852685753461942e-27
4.007800831764060503e-28
-7.808049377715585355e-28
-2.027830898344491187e-27
-5.791556469290858229e-29
-1.277668067999833651e-27
1.588867067144911216e-27
-5.278188034003407310e-29
6.335440299788697167e-29
1.085062607622508412e-27
-5.852516152060557680e-28
-3.591580090654751065e-28
1.630200146872045620e-27
-1.936746725185451239e-27
-1.213484604212509553e-27
-1.871324518160646755e-28
1.098476115785434264e-27
3.496366535899793164e-28
-1.620186177822538418e-27
-1.287415461440929897e-27
2.371750123606825244e-27
4.426848072343045654e-28
-8.656374470719424942e-28
-6.778473707604063043e-28
5.235258251026179669e-27
1.875990009707149710e-27
-2.290586613074094356e-27
-6.421512412427057448e-28
1.011741067165960396e-27
-3.855932184525247502e-28
1.594342600494025918e-27
2.469435164162876265e-27
1.058234933533948915e-29
4.125494096278312061e-28
-2.360780394691190682e-28
1.235661372764162707e-27
2.099458028145424981e-27
1.307881164409233747e-27
-1.515852979828659864e-27
1.055888414713388233e-27
-8.100868104731400103e-28
2.447197137074545780e-27
6.666585139667560792e-28
1.481071802865952149e-27
-2.947700209141478935e-29
-4.526365122602221322e-29
6.029631220637971353e-28
-4.311285886661478748e-29
2.210019242387378837e-27
-1.598741891940524496e-27
9.593832403989557951e-28
-8.211527144129366043e-28
1.205213760134122568e-27
-2.515438702816867995e-27
1.800201865549677459e-27
-4.330261144164258938e-28
-1.726782820309491304e-27
1.003149133992220499e-27
-2.684316813045191109e-28
3.879135833045168034e-28
1.718714264513488588e-27
-1.527348717362349078e-27
-1.030713348452035331e-27
1.125465453375786872e-28
7.943561375654040712e-28
-9.848558752998898186e-28
-1.110172253777215186e-27
1.079644579012221384e-27
1.376807386424350201e-27
1.955775282309779448e-27
-4.131034298276436350e-28
-3.614376042489451541e-27
7.325938399799756662e-28
1.063683437230094527e-27
-2.053124857622617120e-27
1.265060008339768390e-28
3.853513440356186549e-28
4.763977399071316152e-28
-6.504368064142492777e-28
1.167821534178685425e-28
8.403772905444526106e-28
-2.486125096919061103e-27
1.275249844198374439e-27
-5.120646808798332888e-28
1.070080128487675066e-27
-9.834635874412151320e-28
-2.395971862928061866e-27
1.653249939454092467e-27
2.297112298802586904e-27
-2.604200721417123957e-27
-1.808810594912213805e-27
1.318149712316918839e-28
-1.468798580931706921e-27
1.064130846350613308e-27
-1.115657128973810291e-27
-7.244618710444580797e-28
2.959473271612231664e-28
-3.048880223470727160e-27
-4.477983703952347100e-28
2.819921190292980476e-27
8.214675773279209274e-28
-1.398462095880963110e-27
1.464116274909322338e-27
2.887858233471254587e-27
1.784164325495532309e-27
-8.182847688252825158e-28
-9.204429184835786350e-28
-5.185596088853609022e-28
-1.468368932868202778e-27
4.089359190421265486e-29
-1.407671908791355211e-27
-1.225080025726076465e-27
4.490527677274253483e-28
-7.889065959347014599e-28
-2.860791656758233400e-28
3.006823386132298965e-27
5.153999553996642573e-28
1.666105569361088120e-27
6.129577399254422188e-28
8.439948672318362943e-28
-1.888452029848507471e-27
-7.656012459437930690e-28
-3.670789808379313423e-28
-6.251471271309659518e-28
-2.840127622984668593e-28
2.238158321570692536e-28
-3.115924857803553931e-28
9.652289399885536142e-28
-3.468442801087267236e-28
1.517216817299403577e-27
-1.832975881029933356e-29
-8.323734235526327724e-28
-1.751582302094259994e-27
-1.076912812942982496e-27
-3.559608750867189708e-28
1.682532713089853994e-27
-1.780252281890239143e-27
1.455910649453532047e-27
-1.284431231169829183e-28
-1.163780761453663374e-27
-1.846343231038846451e-27
7.684331532237368414e-28
-2.668170351945030957e-27
-6.459836361426261848e-28
-6.163783463415783109e-28
-2.283274607415526225e-28
8.134895172515334004e-28
-8.603181382932946816e-28
1.684443215938186984e-28
-1.704629491208711318e-27
8.075211341875568969e-29
8.515202029003351906e-28
-4.922661148222670352e-28
5.160245108861635922e-28
1.464547542676718591e-28
-4.819044550012751706e-28
-8.512673716803001756e-29
-2.729723822753245170e-28
-2.763371410572093797e-27
-2.098391027929458035e-27
6.058669498204645141e-28
-2.923077143383313572e-27
1.621396865887307256e-27
-1.973548612356773740e-27
4.272650548433366762e-29
6.608526632754481949e-28
-8.912434372509580748e-28
1.627285092184204457e-27
-1.918795389561819017e-27
1.269208622442390032e-27
2.079358674798948939e-28
-2.116160827302948502e-28
1.416079433204797584e-27
7.547981691894791463e-28
-1.685917328056790493e-27
1.976123331954129223e-27
1.405302318059092066e-27
1.453004954832934993e-28
2.095189091043482814e-28
1.870341916636324652e-27
2.320957829068548692e-27
8.575433026420067023e-28
-1.627331125251888475e-27
1.683151543896198542e-28
1.147788846930233989e-27
-1.168054428633296261e-27
-1.687862188402300818e-27
8.088064091892598580e-30
1.572766319103138376e-28
5.288515773419460561e-28
1.722060472981726001e-27
-3.054759422216662105e-27
1.397769194469710802e-28
-2.878888619659524307e-28
2.204435329739142922e-29
2.343577529617950551e-28
1.435750379692957632e-27
7.823429113287734694e-28
-6.396657181892423937e-29
1.247385659530245860e-28
1.474696389420461822e-28
-1.861133375102858953e-28
1.850433955454966986e-27
-2.676576217865380174e-27
-1.961686152843550727e-27
2.236226066023365839e-27
8.029474724957262161e-28
8.827145210205833072e-28
1.621124003547950411e-27
-2.825108758783079116e-27
2.014370081893702672e-27
-1.632709805814523992e-27
-1.375548107634198455e-27
1.450437840244775130e-27
-1.617665465695885723e-27
7.431349440762175647e-28
1.997845101295506634e-27
-9.092416227818594420e-28
-8.245405057046666197e-28
9.406441111361462795e-28
1.254589044247220048e-27
4.783157031995115583e-28
-2.213454267410362165e-27
2.253816287158102389e-27
8.713114572137460631e-28
-3.298923887856343133e-27
-1.259440218727354470e-27
-1.483738984897679371e-27
-1.088549981353875213e-27
3.583987059942375273e-28
-1.001116519989940132e-27
1.714568770404052492e-27
1.551909919100993474e-27
1.039293122286622210e-28
-1.474210766505777537e-27
-8.580284251762842262e-31
5.693450530283187328e-28
1.627101506669075852e-27
-6.498764100418323849e-28
1.115875089563397686e-28
-1.395145148411032022e-27
-6.452409543732501875e-28
1.635332883679190788e-27
2.234219606906739537e-27
-4.828632149181580728e-28
-3.697175283718353224e-28
-1.064705312590210544e-27
-2.140991321283707197e-27
5.217560224794300697e-28
6.616286633004128421e-28
8.460497274468043288e-28
3.657715434867195600e-29
7.407415705521806743e-28
2.314864541494615991e-28
1.741879949780327076e-27
5.242973746510033409e-28
2.031446124418399791e-27
1.500994044914879971e-27
5.025185146662977467e-28
-1.738858608451523790e-27
7.240304599380704822e-28
4.489732766660941421e-28
2.685508094453631776e-27
1.039061824263266386e-27
-1.583449946736914456e-27
-1.109778123299139003e-27
1.349230723206281932e-27
-2.703008785275540862e-28
-1.683695396317290377e-27
6.869228861336399912e-28
6.909650422754071933e-28
-1.659238974004035630e-28
1.205983592731186955e-27
-1.458971132919177446e-28
2.610197920505904727e-27
-1.536193819667328949e-27
1.270826278991951476e-27
1.387091785099864581e-27
1.773243921719473105e-27
-1.753194251416478363e-28
-5.780716930319459983e-28
2.436437714699582559e-27
7.650374288257023937e-28
-8.190188354419838546e-28
1.165049926279093014e-27
2.221452925181500012e-27
9.327392406838810685e-28
-1.016160467582570589e-27
1.370909495870269066e-27
-2.152100614410511755e-27
1.087320569446816678e-27
1.369373395055179482e-27
-3.106917597195622540e-28
3.878963234782675729e-28
2.103486259414047923e-28
-7.499577521818748266e-28
-1.200390473472645837e-27
-3.900726562062381993e-28
-8.706357109060434431e-28
2.118935791045726455e-27
-1.896985013167781043e-27
2.518372097976492987e-27
-3.295067232619227251e-28
-1.079229175032401625e-27
-7.617856373521432004e-28
-1.457044564618541786e-27
-2.844441913621339126e-27
1.142146969419927022e-27
-2.150614695323938478e-28
-1.173586013958075093e-27
-1.827785508377670614e-27
-7.877966078354025634e-28
-1.751734375764891926e-27
1.817621760602057161e-27
-2.654236372253042804e-27
-1.341218640567465864e-27
-1.235973037826136240e-27
6.651098443560706220e-28
3.552107597995394105e-28
-2.026681557220756864e-28
-2.410647839370078097e-28
5.571844723861416061e-28
-1.113382652734740304e-27
6.769896472853244797e-28
-1.851481826614846420e-27
7.562702336003238125e-28
-7.100122275641696286e-28
1.579401057419552570e-27
-1.712334215908870358e-27
-6.347721786131117067e-28
-1.149028241106880837e-27
1.316032410547918711e-27
-1.975399487335793169e-27
1.237549200246857677e-27
6.483690926774161135e-28
7.921975167655664125e-28
-9.632224442620511520e-28
6.653381711253694119e-28
2.450500223396306071e-27
-9.676304499378478971e-28
3.543915672409343867e-28
-3.682370707380310336e-28
-1.540164223751001544e-27
-1.154518209377947170e-27
7.346383388972723914e-28
-6.352235118962639073e-29
-3.433372826635810474e-27
7.450482993392961025e-28
-4.445324874805589793e-28
1.284578450122244249e-27
-9.009002260729804645e-28
3.229025756443985725e-27
-1.327972409754673666e-27
1.072493326038999131e-27
-1.505330266280627136e-27
2.728810347091302616e-28
-1.606179602545689421e-27
1.756422489451435128e-27
-2.953919577762173664e-29
2.092241157657017252e-27
-1.361718263773886009e-28
-2.273629077497924776e-27
-1.180118508845306875e-27
-5.489222553549013088e-28
1.933696500001217936e-27
3.820451401321630583e-27
-1.597866205062338124e-28
4.451309092296969097e-28
1.749792731851561667e-27
-1.597498980093647814e-27
-4.417525005979035580e-28
9.372346002498753644e-28
4.942836243790486840e-28
-1.180269672979933690e-28
-1.368076099597944707e-27
1.458355967489660817e-28
9.978204285411385377e-28
-1.005579933091406106e-27
1.042462241809827498e-28
2.925028162605052709e-27
6.681321886585351406e-28
8.302001082526652440e-28
-1.450361962929583013e-27
-7.710653392664870036e-28
-4.443601032444279240e-28
-1.173903911756442257e-27
-1.692388211423924797e-27
-2.191628388144909886e-27
-2.909711797521926899e-28
1.165703489495871453e-27
8.633130087569231613e-28
9.465969911964037737e-28
1.276655744770570645e-27
-1.202102079795327242e-27
-9.563798448590319938e-28
-3.297512438158187578e-28
-1.247500909172462316e-27
3.494666462876046493e-28
-9.282248660155084027e-28
1.559209141778733108e-27
-1.228736281868563955e-27
7.873945262918517761e-28
2.349775231333452003e-27
-1.700961369396424352e-27
-7.716917016074295099e-28
-1.075197962774222585e-27
-1.484074295925075922e-27
3.648878873489687608e-28
7.003014932901598646e-28
-1.025716812139236161e-27
-7.173262964059759160e-28
3.393043950950955678e-28
4.394549260306663160e-28
-1.555598160344181321e-27
3.221617419524411681e-27
-3.267494245666801773e-28
1.233419009642489093e-28
-8.791135470901414138e-28
-3.620982055477529389e-28
-1.265740510638798466e-27
2.279059589415783533e-27
-2.585524093853545184e-27
-2.588752009019333233e-28
9.253675460848882152e-28
-2.235634383215287955e-27
6.452879715172280078e-28
1.842725226249886295e-27
4.148311541521037287e-28
1.051492007124006544e-32
-4.788514830700871394e-29
-3.940169968665960749e-28
8.120795914235313966e-28
-1.208685532912999811e-27
4.574430267368973032e-28
-4.738373411396764277e-28
-8.141024579459310316e-28
-1.618588766871856680e-27
9.441428944339103843e-28
-8.267313679484581502e-28
1.508213897709522577e-27
-3.925541176446479773e-29
-4.328231809759610378e-30
-1.536701783105071217e-27
-1.399870492481511215e-27
7.656380815221824461e-28
-1.346347335809068014e-28
8.222228051115072227e-29
9.112305490746740195e-28
7.304306627991513895e-28
-4.980615066665183929e-28
4.051297007629584776e-27
4.388152467151723777e-27
6.163100095446263233e-28
-2.014452603823513397e-27
-1.250793726859457923e-27
8.142654381923502176e-28
-8.070815709056450267e-28
-1.143593610558560392e-28
-2.794861739672743903e-27
6.105269833253636843e-28
1.691467406932925769e-27
-1.699768741237967279e-27
-4.807999118642067739e-28
-5.025242021655646482e-28
-3.478129270404477545e-27
-6.657714648605016654e-28
-7.966644769834140945e-28
-1.950573557388445999e-27
-1.224101816395547665e-27
3.455226263053731026e-28
4.778451572409138425e-28
4.547212798913187406e-28
-8.061651950813564061e-28
-1.154625882715029117e-27
2.035007876941985036e-28
-5.502844282334374730e-28
1.450681718214092601e-27
1.629692731293249913e-27
-6.615206186685372778e-28
-2.286405610541816670e-27
2.566502223718321708e-28
-9.362587286691802976e-28
1.150976213887184802e-27
9.799352586152207233e-28
-1.470546869432716515e-27
1.467217243065462183e-27
1.948782452976923831e-27
5.406008588590024513e-28
8.540266048982235324e-28
-7.291474222614771792e-28
-1.202574127890391331e-27
1.756475843419696529e-27
3.374824849674284855e-28
-1.283185578434102650e-28
-9.647493691265171442e-29
1.053646635227308009e-27
-3.018489142920526624e-28
-6.976537789010492043e-28
-4.265522209476943381e-28
-2.274487164701875021e-28
-6.809180953922320628e-28
1.235695022522028173e-28
-6.880947856170055947e-28
-6.367663765238357944e-28
2.780575836967906964e-27
1.016256128187034928e-29
2.390682806547396541e-27
-1.406377580606505233e-27
1.056523412718451357e-27
1.584191098284120568e-29
2.366921127147495104e-27
-6.511252926648534793e-28
2.508729755718228351e-27
-8.239329583238920654e-28
1.067620423632806136e-29
-1.618183328578385674e-27
-4.836154124086994992e-29
-2.894920599407584341e-28
-1.552816786122311691e-27
-2.583857098763906590e-27
1.254708433057151989e-27
6.930482859535701575e-28
-9.746709540450511467e-28
-1.494799626649649985e-28
-1.015074000269360247e-27
-1.932642726470815670e-28
3.499868813768748689e-28
4.942589931410645742e-28
-7.012215974646855652e-28
-2.936649736426817484e-28
7.224131996189624748e-28
-9.228648497913108417e-28
-7.776180269001620598e-28
1.145664341971891714e-28
6.925229338835508139e-28
-5.934060781361838599e-28
1.114910943952021134e-27
-9.806933998587719027e-29
-9.416434502802145417e-28
1.321540497799538153e-28
-2.038941813055629635e-27
-2.569723526808092686e-27
4.745363618288990965e-28
-2.486334909901897762e-27
-1.122492163572203677e-27
1.397847730243912078e-27
4.642750072115679323e-28
-1.189705865488601442e-27
-2.098223069086099101e-29
-2.007036064931022859e-27
-1.594534386561106484e-27
-2.348964192923440676e-28
8.222581411950995738e-28
-4.721149786232155181e-29
-1.179874037104702430e-28
-9.102924988988584441e-28
1.043038188370501456e-28
1.114192917026272166e-27
1.544925510480837286e-27
4.797828632478580059e-28
1.707339101052854708e-28
4.971382225843509211e-28
7.353511583187394103e-28
-6.743464946886187971e-28
-5.166490929653409170e-28
-9.286295815534518917e-28
-8.801359135236208763e-28
2.635692482175753012e-27
1.098684016220909464e-27
-9.584359988401223326e-28
5.923115637012277466e-29
4.303952562307127221e-28
-1.259155842916674123e-28
-1.348975234692074819e-27
2.024718462696376014e-27
-1.663448043004053517e-27
1.215423428282395651e-27
7.563598809757347349e-29
-1.138623414698402047e-27
-2.260586848723848206e-28
-2.590159399235413186e-27
3.848814477409007342e-28
1.019638115086318849e-27
-7.419308330350351699e-28
4.169142790702914355e-28
-3.497723602609469127e-27
-7.437988659275789062e-28
-1.871972398076176258e-27
1.295139939021253364e-27
2.719818233965426768e-28
-6.611884101066546399e-29
-2.648650205560573165e-28
-3.399729427177834566e-28
1.098858638051840952e-27
-1.458150274947103573e-27
1.304882643417669305e-27
9.792205354626274997e-28
1.442755617448989270e-27
-4.870099186219196435e-28
1.513765055344961985e-27
1.400808585287558539e-27
6.293057191739117875e-28
1.571690348115200089e-27
-6.176936697962609242e-28
-1.023857274762529110e-28
1.886246610845233599e-27
2.823758499902178219e-27
-2.304808730280741677e-27
1.311587680622560926e-27
-1.760995569564416804e-27
2.943468059031479533e-28
-8.228859819555440515e-28
2.879047024108944802e-28
-4.174471780418994798e-28
5.515879672312459135e-28
9.094531781795215280e-28
-4.873166608226395871e-28
9.357938804126799257e-28
-4.025220540696309373e-28
9.585476272299133619e-28
1.648092945021437832e-27
2.310709980091356040e-28
3.262897428425751260e-28
-2.523285410081653827e-27
-1.080421677610046260e-27
-8.715377168314169767e-28
-2.108795452712216327e-28
-1.959623960585062516e-27
-1.821113273290237032e-27
-1.079272643464464284e-28
2.908947969730257751e-28
1.380386841503145127e-27
2.005441374972493616e-27
7.394079216286157509e-28
-5.147175776072701865e-28
9.682075791356876187e-28
-1.117452744092216757e-27
2.992824941897325373e-28
2.505444556103921507e-27
2.062573985190617688e-27
-4.232514233559656045e-28
1.358226342980912152e-27
-5.429707580185266036e-28
-8.609691223882581334e-28
-2.252603222394670248e-27
7.514897346879918446e-28
4.282279216883184782e-28
1.378004662037065387e-27
1.128056094842114941e-27
-4.192411626819359051e-28
1.208090675332654645e-27
2.632474857850520333e-27
3.221126484496711469e-27
1.081212969650201883e-27
4.037821581251457085e-28
5.440164332451093678e-28
1.167212295502263294e-28
-8.056286688477869395e-28
2.207748211010398977e-27
1.067286801272949145e-27
2.050526784713039841e-28
2.082235741375911914e-27
1.175379299254777690e-27
-1.758423314861917822e-27
1.730933815729514281e-27
-5.730844249549810108e-28
-1.844230802421010311e-27
4.057186733746848796e-28
-4.341852437427189540e-28
-1.042044926869677373e-27
2.216504633263897953e-27
8.359363768872589319e-29
-7.309836108221778347e-29
-3.518379355344252586e-28
-5.500607189002888787e-28
2.642358594366617425e-28
-4.495076329006627148e-28
4.532736557629620117e-27
-1.475817719232881079e-27
1.641062807131891481e-28
-6.582455125312390334e-28
-9.833519802266155054e-28
-9.349192311936555682e-28
3.870901422489878857e-29
1.303401168701333241e-27
1.671960800992118797e-27
9.750950763592476784e-28
-5.930309831293860083e-28
2.689873283548551084e-27
2.488308858204632169e-27
2.467907668571119427e-27
-6.598970036096245513e-28
8.698273630037121898e-28
9.941489693289504733e-28
8.187353291213236563e-28
7.960909328036743630e-28
7.684717607484380666e-28
-4.233158919569282633e-28
1.689891931862987973e-27
1.928331698098088577e-27
8.906120368943911667e-28
7.740017673132693245e-29
5.680256754098289856e-28
1.747476293713481343e-27
-1.784370967322717916e-28
9.790060605347245907e-28
-1.029136331975684163e-27
5.307920045466942283e-28
-1.784155008116287167e-27
-1.591347961307988124e-27
2.923265772112677700e-27
1.842671714963940271e-28
1.544879032556268546e-27
-3.746797676573901118e-27
-3.327085643810707844e-28
-2.460453260559243692e-28
-7.813712404436290684e-28
1.954770884839106413e-28
-1.212630828681430237e-27
1.757839540230152701e-27
9.223139763031200775e-28
-1.601764477225327325e-27
6.783753367560031591e-28
4.402361875371775857e-28
2.254764525842311799e-27
1.477908276666839466e-27
-1.565321801848638835e-27
-1.087818918328219989e-27
1.391919143679425824e-27
-1.849733532707951107e-27
8.396879980099778061e-28
-9.494895677347217078e-28
7.123747538112446116e-28
7.534138527127167428e-28
5.242379501966561688e-28
-1.045326453349224693e-27
4.694323856580764881e-29
1.707955797048442611e-27
-2.583859581522661560e-28
6.252139098095705273e-28
2.307766333270621757e-27
2.672783575477107480e-27
2.176112101003033780e-27
1.998471253069550448e-28
1.438947343646236132e-28
-2.471886985491410105e-28
-7.167453570524229406e-28
-2.294825100248149685e-28
-1.974941089476363361e-27
8.090664375279921812e-28
-3.984062479158091507e-28
1.583441076096492043e-27
1.469698756766303278e-27
1.949816016381814117e-27
-1.087306722970630028e-27
-3.172794309882331669e-28
-1.022085108051084688e-27
-2.182278779733876065e-27
-9.380888048343827533e-28
-1.109605793226028567e-27
1.582517697573365525e-27
-3.834000024820407836e-27
7.142922219396106306e-28
-3.549931237708450963e-28
-6.405943344560204423e-28
-4.283618913898880406e-28
6.519248182501940447e-28
-1.371373526483104902e-28
3.328842255715994090e-27
2.755266936869840362e-28
-6.590433916132308040e-28
-7.413911256701876923e-28
-3.025829427252484986e-28
2.226315803677198775e-27
7.602009023069419946e-28
1.927451058079865420e-27
-1.769526869203505084e-27
-6.818571523660217023e-28
9.745965529867980430e-29
-2.806529879915581478e-28
9.839572135714094415e-28
1.471794511108363894e-27
-5.124658459076098253e-28
-4.020033200272245600e-27
-1.291677877117061971e-27
-1.680361699289948239e-27
8.153589852181311692e-28
2.860262337771982763e-27
4.802047460247284356e-28
2.547151890116544000e-27
4.731251507484945906e-28
1.571837332080115126e-27
4.536638142956836756e-28
1.057303890089524626e-27
-1.297519262304509393e-27
-4.340423015737304471e-28
2.110916613350629199e-27
1.301321893328870117e-27
-1.896871584733467078e-27
1.504848592007997011e-27
1.723978073259700644e-27
-3.857628360699867996e-28
4.675636291005310969e-28
-8.035171772685163698e-28
4.316662747365676567e-28
2.199170632584333121e-28
-5.393117716340424461e-28
-5.672655138578624412e-29
-7.593941739468170878e-28
9.643568765403659999e-28
-9.017290672706461766e-28
4.955563091380888461e-28
3.930525623987663129e-28
-1.103178055413200466e-27
-5.582203806012796429e-28
4.374279372387351651e-28
1.923793938966064788e-27
-8.965167439936047051e-28
-1.733606906272573881e-28
-2.606991318742641960e-28
-2.454258592208656363e-27
-2.069986501578375070e-28
1.052470062755378199e-27
1.093618640028825491e-27
-6.719087096274504365e-28
7.498375205032051530e-28
-3.483200146398404825e-28
5.004402536312158451e-28
1.310092051580190376e-27
3.331835685318362855e-05
-1.462807470028927451e-04
-1.104233765062456241e-04
-7.639492498976752121e-05
-6.432318360084419116e-05
-2.195919899822076937e-04
3.485667445275387246e-05
-1.060679671939366480e-04
-5.224205715581845455e-05
3.300241027110144813e-05
-5.590607094122229393e-06
-1.058011975903386481e-04
1.247756302421922667e-04
9.135117938598038781e-06
1.265011226324581439e-04
1.453712328998422794e-05
-6.339662026222999281e-05
-4.994875398807762526e-07
-9.354263079204155906e-05
3.418258586074741283e-05
-1.917243616203639662e-04
9.704213043664670999e-05
1.599016794116578464e-04
-4.248469256752168487e-05
1.821745134999150145e-04
-1.151679852332181331e-04
-4.183029768978116888e-05
6.376323810315989050e-06
1.710659005839371800e-04
1.966493611949709803e-05
-4.279631908336769403e-05
-1.682475530032152453e-04
-1.829272202590262605e-04
-1.750948033581871172e-04
-9.939636747577380098e-06
4.928796504425738746e-05
-9.917300657386762417e-05
1.840091450991110638e-04
-1.007099510250099783e-04
1.588587766484340436e-04
-1.297427739994343882e-04
-3.690159335022852002e-05
-1.217257721986201555e-04
5.792387666854826239e-05
1.416017811554705103e-04
2.879176338080596193e-05
3.247557095969932965e-05
2.913956107477376937e-05
-6.279248042788431513e-05
-8.597537624450569390e-06
-5.221363706375856079e-05
-2.774802577302834376e-05
5.413007208171333830e-05
5.572343825908518606e-05
2.368265115007736068e-05
1.862988321170979615e-04
-6.951164404610296729e-05
3.439402007137431420e-05
-1.707284768861212592e-04
-1.270046569758498129e-04
7.622665009140292187e-05
1.047924172769912490e-04
1.118352353571704550e-04
-1.222700502468833752e-05
-1.222070700938138817e-04
-9.621121277082469927e-05
1.535563002369174724e-04
8.955604491703831769e-05
-3.364812260577563011e-05
-1.291216126486348934e-04
2.626608802371547678e-04
5.535567933223844663e-05
5.148168921419700255e-05
-1.551334560365340092e-05
-4.817371479496660537e-05
-1.147587855722712432e-04
9.839408894660402841e-07
-7.081598702536313992e-05
2.824510245142974692e-05
-8.662968692066308534e-06
-4.544703384431616431e-05
6.273350109931400429e-05
-2.610865401910655447e-04
2.248135756972438951e-05
3.325020908111876498e-06
-1.086787914826372074e-04
-1.300579093506366391e-04
-8.619496836821666360e-05
-1.272212155283352273e-05
-2.777838968950007391e-05
5.266297778660484179e-05
-3.118648846194447887e-05
1.087062542603129441e-04
1.718194602273045925e-04
1.348201759005647981e-04
1.895713604089328054e-05
-1.383634116091342784e-05
-3.143104602033121352e-05
1.056282329480317806e-04
-3.232766201047567817e-05
-1.303524675216539063e-03
-2.163873130700992640e-04
-1.273870285975810279e-04
9.153138021288809590e-04
-4.182421044596668666e-04
-2.535428913729140038e-04
1.806662926325258513e-05
-1.126269062794702137e-04
-6.026767483225776653e-05
-3.524517754225074771e-03
-1.378569840032140169e-05
-7.526038341711855132e-05
5.716018876631859345e-04
-2.163600277508083251e-03
1.514322232053695073e-04
2.673572463772080386e-05
1.649419879276669068e-02
-5.762213350951229443e-07
-1.076012085247971900e-04
9.876525025584851524e-06
-2.211777691002498225e-04
1.119501028335497916e-04
-9.214473379529849485e-05
-4.901123190907654607e-05
2.101608338259243296e-04
-1.328605547937476705e-04
-4.542014481269065866e-03
3.843694704322950587e-03
1.980029449357687845e-04
-4.393077159263304374e-03
9.021966100903965058e-03
-1.940943643591075982e-04
-2.110291686224036666e-04
1.459857417493388640e-02
-1.146660042334414947e-05
5.685976452185069908e-05
-1.144082831045319977e-04
2.124731353398231397e-04
-3.254400350884126616e-03
1.876163672890828968e-04
-1.730065733080583519e-04
-1.252785630155007351e-03
9.915496290618650878e-04
1.647744959109352192e-04
1.680447879869099949e-04
3.327848379164870539e-05
-2.012214070445523736e-02
2.725958489331273558e-05
-7.244028718242568514e-05
-1.005407220131868711e-05
-6.022368484899224319e-05
-3.201103463201068115e-05
6.400520306243823740e-05
6.428387665127663049e-05
1.220410581862055397e-03
-1.312858784003951738e-04
-9.127985266081247123e-05
-4.227867623453520317e-03
-2.069943340491307274e-04
-8.563068721798497017e-05
-5.696017326098968842e-04
-1.188538259587266610e-04
1.290157778285179685e-04
-1.389809396739240983e-05
-1.409809721741782048e-04
-1.577460238399222819e-04
1.771461517278357138e-04
1.353505334550711425e-03
-3.890023026955555648e-05
-1.007295319862832250e-03
2.845966167883530007e-04
6.385964252304419594e-05
5.939392515304184079e-05
-1.729654124939371143e-05
-5.557433953189236820e-05
-5.167996974012489158e-04
3.626305973627636036e-06
8.364054329726970660e-03
5.173683353755100753e-05
-1.511703973318229925e-03
-1.855351039953370186e-04
8.095010904187442289e-05
-3.011961147183632751e-04
2.593502683149031551e-05
-1.725231778019161767e-04
-2.047773587145917842e-04
-3.158609249476125895e-04
-9.943655819324593984e-05
3.798360916347157660e-05
2.851675687126257281e-04
-1.224148401584652024e-03
2.242973626749202444e-04
1.254805989357027081e-04
6.874272977382283895e-04
4.197752200262594717e-04
1.255369796483597874e-04
-1.596601612840458376e-05
-4.287442010784781737e-03
7.461843718527946465e-04
-3.730256339285434482e-05
-4.786857793760347646e-03
-4.913782440711342856e-04
-2.477187850631350132e-04
3.467900253074186930e-03
-1.725515422937323566e-03
-4.739145416895224777e-04
-2.621596028914046413e-04
1.121091308330814633e-04
-1.125983843918876049e-04
-1.282825848344242882e-02
-4.762046419675740940e-05
-4.929870676064184034e-05
1.845813080105191545e-03
-7.852158776069187787e-03
8.428347678723567245e-04
7.203837959380455386e-05
5.985353151581199183e-02
-1.514050447164433621e-06
7.082835304010966140e-04
-3.084052904198671227e-04
-4.169721404654063335e-04
7.077221836541771911e-04
-7.910718771412014304e-04
-9.156924000334326630e-05
8.956011617889548658e-05
-2.484287129005457529e-04
-1.650571873458594671e-02
1.389628915819140359e-02
3.751321528967369642e-04
-1.591171916206361031e-02
3.275136347140582271e-02
-3.649335916647735009e-04
-3.947572775367630773e-04
5.327106793991272932e-02
-2.668949981824415385e-05
9.259390256955548411e-05
-2.154409281144755296e-04
5.006522197922091489e-04
-1.157856527393156393e-02
2.962258915195787050e-04
-3.650197688262574419e-04
-4.693888227056172702e-03
4.113376564130788275e-03
5.887310126748862039e-04
3.115336562114223999e-04
6.247032705849372134e-05
-7.296772583698343806e-02
3.888482404045589592e-05
-4.213756974477805015e-04
-5.737358522762595032e-05
-1.212997070410147711e-04
-6.045886992970600564e-05
-1.069553037131876509e-04
1.039394994838914444e-04
4.338214408327137686e-03
-8.617980946309870653e-04
-1.893782596096038357e-04
-1.536815826725307366e-02
-4.663658695378482982e-04
1.418241877076577696e-04
-1.437664240094155884e-03
-6.723467270428899658e-04
8.130844193378445554e-04
-2.570746932900228016e-05
-2.621066126911766165e-04
-3.771451044097935907e-04
3.305096373700110342e-04
4.945094003398335138e-03
-8.513381715680135801e-05
-3.386148458027237081e-03
4.971564612854667553e-04
1.193120102940993798e-04
1.126684713101198102e-04
-4.260967037148522267e-05
-1.038129472172756725e-04
-1.626213181107147776e-03
5.213231856943225244e-06
3.041910601910384829e-02
1.614788935882961328e-04
-5.645521991319705710e-03
-5.795217697636787391e-04
1.657825355686784691e-04
-5.627626277298391003e-04
2.352556224507550352e-06
-6.331464940690684391e-04
-5.042860390470918974e-04
-8.870765380250335850e-04
-1.154905031180889321e-04
1.799962810625225151e-04
1.088977289126071479e-03
-4.538936248152616003e-03
1.076409762146289181e-03
1.477295164273351212e-04
2.114539765632771941e-03
1.255335419364487582e-03
4.087986255124631541e-04
-3.012693664993628797e-05
-1.608228279804920988e-02
2.974296122725515919e-03
-1.411465775677584920e-04
-2.930495160886857197e-03
-1.659790737982922348e-03
-3.319379126022204947e-04
2.131271595723686647e-03
-1.523349908847217334e-03
-6.242553918728322446e-04
-2.801001925260235845e-04
8.120775191258562588e-04
-1.474221266474004110e-04
-8.067903531227223202e-03
-7.418715724727342146e-04
-1.093772045964130739e-04
1.383547680757593037e-03
-4.948087279751443683e-03
1.385274154054599079e-03
1.631087716763838147e-04
3.772821350859329598e-02
-7.320687280566840578e-04
9.708880598043506454e-04
-2.738570724594448745e-04
-5.529949789756726745e-04
9.654092988829014732e-04
-6.316148839280492054e-04
-9.168370486668087462e-05
-1.169179341932617889e-04
-3.333609523752504330e-04
-1.061021988469247959e-02
8.719592938496608520e-03
4.936813083336279899e-04
-1.001910010344504373e-02
2.062804170140928456e-02
-1.389720750930595805e-03
-5.678322685165851542e-04
3.342061110577661948e-02
2.603167546089359314e-05
4.904017503601662369e-05
-1.303178984724218505e-03
6.266728064415511175e-04
-7.473056044243676921e-03
4.116615171291311982e-04
-1.050451722550814959e-03
-3.142233789422689029e-03
3.042408773057595286e-03
4.941062407512441515e-04
4.031684943079159151e-04
2.038429390712707273e-04
-4.606440663426934756e-02
6.160738776918952859e-05
-5.375507787643049162e-04
-7.603848962509051864e-05
5.622687642017941081e-05
-8.827978619793914810e-05
-4.291796976538158671e-05
1.459067340581392876e-04
2.801067072550984718e-03
-3.879083058381844356e-04
-2.322628271595050949e-04
-9.952902891559933102e-03
-5.645943786189909453e-04
1.533743362638792756e-04
-2.842195217317452604e-04
-4.335950864027918747e-04
1.121833809771323595e-03
-3.186732183807481803e-05
-3.630599336571758724e-04
-3.898058918137692753e-04
4.321785408477932765e-04
4.172761584818699201e-03
-1.376957287794060877e-04
-2.774508883519920168e-03
7.011824512207378126e-04
1.611000305440825212e-04
6.161181281164712338e-04
-4.236687141760415981e-05
-1.352904812794972808e-04
-1.028806011862865239e-03
8.620396045004605773e-06
1.915181335822473477e-02
3.627068443377982117e-04
-3.719767300634798865e-03
-4.336411006180087885e-04
1.490953543632124608e-04
-7.432954052848985685e-04
2.491757413326030441e-05
-3.979725504417566998e-04
-4.574314150639332069e-04
-7.752641980144612827e-04
-1.842760932072086703e-04
9.765769167793019920e-05
6.469027823395604110e-04
-2.792445538275184578e-03
6.532174899132006012e-04
1.523548716833318781e-04
1.603207917443091705e-03
1.307404088921106881e-03
2.695279986944722640e-04
-4.137183212374736320e-05
-1.078913169879684719e-02
2.749170274414051811e-03
-1.381477413394301417e-04
-3.075656866427988671e-04
-6.035993560788771237e-03
-1.066448883997634647e-03
1.082531154780792468e-02
1.151065093195196296e-03
-5.089418582595096364e-04
-1.629075792158407674e-03
4.885816622402217729e-03
-1.713540169949039375e-04
-1.344633507806610373e-03
-3.389942963233421366e-03
4.474398685817104586e-04
1.379734120350959315e-03
-8.007735677334732556e-04
6.602500739561075437e-04
6.073272541419726112e-04
5.863106188785847939e-03
-1.074773150923831813e-02
7.661951997960033149e-04
-1.222444813691278467e-03
-6.933512841177286211e-04
1.606598766837214701e-03
-5.197008764350307796e-04
6.423624667508056219e-05
-1.864469108946006839e-03
-4.870254195125272353e-04
-3.267959245219387732e-03
7.704645471142715319e-04
6.372989959223375554e-04
-1.496993213982570443e-03
2.933064662036096500e-03
-5.884316883318078950e-03
-1.340069821799544586e-03
3.666170527567393263e-03
2.105116661321294359e-03
-1.511782857599118686e-02
-8.655912470634416836e-03
8.611536385596326067e-04
-1.401096248376437802e-03
1.288848540984862149e-03
-3.700318282757626958e-03
-5.979385845046654869e-04
1.706999057742204741e-03
-4.746306170935693058e-04
5.112438136732418321e-04
7.185798766607485576e-04
-7.488654326995211261e-03
-2.894509685451301267e-04
-4.392129323285655015e-03
7.118131738466007942e-05
1.578928264372123427e-02
-1.481737633670754221e-04
2.104764903458536244e-04
-1.359297563405628120e-03
6.291816035251862399e-04
-1.123292163894686361e-03
-9.881343576977116155e-04
-8.298749494549940292e-03
-7.618507990511900205e-04
6.437954363023917423e-04
5.064627503828338356e-04
-7.754965517619622677e-04
1.009463871813575915e-03
-1.068330437542684801e-05
-7.091212841282322835e-04
-4.823434767069896241e-04
3.563435034741697071e-06
3.918004792909261791e-03
-2.907398806293701350e-04
-2.901366228786691689e-03
7.765015551050986854e-04
1.257132413785818324e-03
2.585533870933329030e-03
3.078750357849996812e-04
-1.246772667281397776e-04
2.757943046899447655e-04
8.778572420608658257e-04
2.221714824108640771e-03
3.217732849103203171e-03
-1.190829564651996186e-03
-2.108394130038969427e-04
1.738756010675217376e-03
-9.787648638410367027e-04
6.868257657068537825e-05
-7.784059891778530706e-05
-5.950428543493854533e-04
-5.541036290667004406e-04
3.647275932266199196e-04
-2.730610425989014910e-05
-1.613414746466545124e-04
-4.730593338102270090e-03
-3.782986538653792830e-05
-3.871710946605926452e-03
9.484590199744163475e-04
1.952571612905350945e-02
-3.211091465519240028e-04
-3.096635928946509160e-04
-1.984863374317719521e-03
1.747018537982190835e-03
9.591452761625701674e-05
-2.867520636433948974e-04
-2.317983152515482471e-03
-6.136078102425810993e-04
1.868690054357240171e-02
-2.018446651230115536e-03
-4.408023064943621832e-04
-3.364183597757413203e-03
4.508416038257715905e-03
-1.994302719003238338e-03
-5.973639885057407560e-04
-1.194490949737414456e-03
-6.811784312433000026e-03
1.128817240446424244e-02
-9.085209891529620217e-04
1.158227842836052207e-03
6.597127737416748046e-04
6.427007167549606340e-03
-1.284773241895394852e-02
6.920617466485588440e-04
-8.978989502574209833e-04
-1.215973074850523885e-04
9.149730566231372569e-03
-2.618878337163854067e-04
2.699058176156443763e-04
2.012531274372852258e-03
-1.746723069732684030e-04
-3.899052520995961724e-03
3.207273576533213816e-04
1.501808107192701422e-03
3.311002130134377622e-03
3.043060510191470877e-03
-1.269007107054322386e-03
-3.393078626060305920e-03
-5.732557343017465230e-04
3.738135350653834163e-03
-2.445697488921870499e-02
-1.622215539613905411e-02
-1.209508689434750156e-03
-6.719349433611745579e-04
-4.373442931986009697e-04
-2.150467884551395328e-03
-2.178604274843819362e-04
9.352114463183132820e-04
-2.143203056946593049e-03
6.603442012171516565e-04
4.173325939762922727e-04
-4.581290056258477926e-03
-4.095104283037867251e-04
-8.755166710094639329e-03
-2.956384564752662439e-03
1.545979074413198623e-02
4.117470031228620195e-03
1.044202049169288909e-04
9.036547304914752110e-03
4.629573753506380012e-04
-4.829867867782085614e-03
-1.770114725923650984e-03
-1.604901731182772212e-02
-1.092762458599351796e-03
1.283555382183353350e-03
2.796616490465395543e-04
-8.829452869690301332e-04
1.007199424330225542e-03
-1.449443782839517840e-04
1.186057451316631546e-02
-6.508739034609430487e-04
-3.158557402046103645e-04
1.448439937670153478e-03
-2.131574532111479674e-03
-1.131422661662475661e-03
-6.342985380954124786e-03
