8.594373334316422586e+00
-3.236788878883950726e+00
-2.794544390088891550e+00
-5.677051888782807865e+00
4.578851529461588576e+00
-1.217738742441068034e+01
9.231758242577521756e+00
-4.027527912042518921e+00
1.688028396605613102e+00
-1.319412825199899331e+00
7.735978903955549768e+00
-1.090015631818224584e+01
-1.705901886806223677e+00
-2.032022609554907433e+00
5.998747606543257227e+00
-5.819498974734777619e+00
-9.123136139675812606e-01
-4.644728360769782682e+00
2.233519467164487293e-01
3.083661666813778623e+00
-5.823350328989286950e+00
6.056706379745122604e+00
4.770295419231818101e+00
2.658685796452089800e+00
4.766407761314128244e+00
-3.617588114123534204e+00
-6.502093094686626218e-01
-4.951134193982944964e+00
-1.417389564819897085e+00
2.806098372310410483e+00
-3.659560863100854711e+00
-2.099213632634773674e+00
-3.635814687005939572e+00
-4.471963284291523344e+00
-3.551547581368588169e+00
-6.700809672212662549e-02
-5.911662926665897544e+00
1.240287975410282018e+00
8.781974505117485563e+00
3.926138301134924458e+00
-1.014997421528958998e+00
-4.696424092038726350e+00
-3.953197060162975784e+00
8.954737716500702049e+00
2.688226423960550227e-01
-3.370329070049644216e+00
1.010129364875168800e+00
1.111240081328191742e+01
6.357582076995487164e-01
3.265607220353799356e+00
1.588194143494209509e+00
-1.863745700541037831e+00
-6.045037068293493299e+00
-1.848364175012777499e+00
-1.105254503857336257e+00
3.103809586539317156e+00
4.439041623437187667e+00
4.926439338637171872e+00
1.511035859547271709e+00
4.683261201400052975e+00
-3.991501864445374359e+00
6.628896111397949653e+00
2.713899685123184469e+00
-1.577202219717900533e+00
2.584738089479960976e+00
-3.998481663728252755e-01
5.987424626193767807e+00
8.041315235234236525e+00
1.156382836694841032e+01
-7.388829454421718346e+00
-7.640772374359644736e+00
-2.669117084069287049e+00
8.467523920298564155e-01
4.635789272683366491e+00
1.670017124827592792e+00
-1.069941934436188546e+01
-1.620118270328267496e+00
4.380794472097994330e+00
1.217425864117032575e+00
4.031783335631599741e+00
-1.176333003475448002e+00
-1.062206248041733581e+00
9.870919570374057095e-01
2.169573676445004651e+00
1.049199182011830489e+00
6.296719619860384753e-01
-3.548458473520491374e+00
1.997681164209021087e+00
6.445534960620669107e-01
5.976072944121042951e+00
6.343446466226820846e+00
9.796582750805458151e-01
-1.985623895001392247e+00
-3.379507649322348151e+00
2.240698724066538805e+00
4.092044930580415185e-01
-1.819321756532458645e+00
2.306699500106741407e-01
-3.280409966799735066e+00
3.693271169008578880e+00
-2.365746780317835807e+00
6.478841631382777244e+00
2.134864841186041140e+00
3.140610085792232109e+00
-5.793152971634501824e+00
8.961984923563339756e-01
3.918266865061154736e+00
-5.046007582166804895e+00
-1.408555889825589880e+00
1.725628038732751612e-01
-7.265131631494369913e+00
1.667500973388645669e+00
4.477016199163186272e+00
-4.547678743420949132e+00
1.854730575700728634e+00
-6.943260841504583780e+00
-2.047370346439357225e-01
-8.549013744390560277e+00
5.933394870259988352e+00
2.163483184209280985e+00
-1.302477378787220974e-01
-4.101362000104241901e+00
6.739412840074396449e+00
1.040788935522940761e+01
-9.830538596446904975e+00
6.540514977803827179e+00
8.611862072798420087e+00
1.788411982273373946e+00
-6.345299114564522114e+00
4.567939886054917409e+00
-9.572450875288815997e-01
-3.195329919154278553e+00
-6.508208831277532802e+00
2.912881017056317745e+00
4.194722588032480104e+00
-3.299086509657907840e+00
2.754357225935078368e+00
-6.054683532421181624e+00
4.242627968355018098e+00
2.463864869999535523e-01
-9.871363002839604883e-01
-5.383350322552349354e-01
4.597256338078295812e+00
3.970410438373573658e+00
2.801388649764024130e+00
7.285738819952041201e-01
4.117497679623692286e-01
3.271835505600366734e+00
1.230123275800603766e+00
3.611363532461662196e+00
-1.640820596696852318e+00
-1.288266967195041168e+01
5.496396675841229040e+00
1.157125817028949299e+01
2.335248949747873670e+00
-5.299189972031844720e-01
-7.219259492349616725e-01
-6.299129234705761471e-01
9.211277220157806922e-02
-5.936574855731741707e+00
-2.735934684758358770e+00
-5.275245629926955004e+00
1.316390544809709517e+00
-1.569521400330414984e+00
2.620151534800348347e+00
-9.243503328169754285e-01
5.218676413612348242e+00
1.129802878540092870e+00
1.159094103713556478e+01
-1.003360129719145988e+01
-3.422821069605013644e+00
4.769746062715615409e+00
1.337731219058217391e+01
-1.315520794643587621e+00
2.310516217206327605e-01
-1.197423364849665939e+00
7.044708446975478822e+00
-1.520139187044617257e+00
3.598233619564890517e+00
-1.692062781309270569e+00
-6.733078615604104478e+00
1.658973656753523818e+00
2.662339081062133239e+00
6.842427902780890747e+00
-5.843726340038613021e-01
-3.266448242276133840e+00
2.977555802213210256e+00
1.273734325465400996e+00
1.484992359787607130e+00
-3.868376058084181390e-01
6.139324239673058514e+00
1.954977321868706097e+00
1.007750468596655224e+01
5.878575010358371600e+00
3.487017059484726289e+00
-8.610738203047905159e+00
3.186857226991040903e+00
2.223703311324890741e+00
4.290726336944322483e+00
5.526118699133174772e+00
-2.121037138339088912e+00
4.359794458099544023e+00
-2.975144886179908355e+00
1.034321418063971443e+01
-7.047325120258614461e+00
-9.315761999900235679e+00
-8.733927615862382865e+00
-4.711908770436443739e+00
-5.921213403607475279e+00
1.034956773718546685e+01
-1.727501209239121760e+00
-7.104066203527946044e+00
5.896174270632259962e+00
-3.103284444619301752e+00
-6.544162291837823275e+00
4.634043284965915888e+00
3.298194699138861985e+00
-2.301345638185799292e+00
7.447261226379371379e+00
6.830734392479380634e-01
8.555242515679207571e+00
2.659990250217723506e+00
8.247603663225248738e+00
5.788471084380706344e-01
-6.453639081062127580e+00
1.295955224443584086e+01
-2.887678360032796210e+00
-1.052046482782329706e+00
-3.705792110931865224e+00
-1.076155273154237868e+00
1.283958338012576528e+00
1.067878756684860431e+00
3.497442883924797741e+00
9.482267174615031990e+00
-6.373752323052471747e-01
-6.524412975092772626e+00
-6.255617559209945888e+00
-3.522491587323603124e+00
-8.858130867549409260e+00
4.365213508035528989e+00
-2.636036314598605657e+00
-1.645414247911183514e+00
-1.000779146412086873e-02
-7.389486006986937916e+00
-4.557204723243669875e+00
3.569882904489054987e+00
3.272676076640568255e+00
-2.344812321895373586e+00
9.579497891826578737e+00
-6.908570613223573353e+00
-1.825319261508438817e+00
-1.221367682812925848e+00
-1.477814742032578366e+01
1.025141964432039643e+01
1.938254122368989307e+00
-5.526897992266685655e+00
1.085271072008763227e+01
3.098723947383766220e+00
2.272612762517069562e+00
-3.211614330402835726e+00
5.620219488839484079e-01
-8.072338875597864671e+00
4.206464474157632694e+00
-1.981144388872457363e+00
7.092458732942413802e-01
6.360044166207978300e+00
1.506595595754285144e+00
1.388709116224360773e+00
1.462951355961402466e+00
-3.879722908875983922e+00
4.423281420809702880e+00
8.165876964281963524e+00
4.014823003137372837e+00
4.682031844010467125e+00
-4.641676001633580739e+00
-4.591441903279154246e+00
-7.623641350076473699e+00
6.519822181889582069e+00
-1.344859735591678485e+00
7.406541564740633632e+00
-4.137076428328875011e+00
-2.314849797130468900e+00
5.048919048423278211e-01
4.875370765448734822e+00
3.214278653502066208e-01
1.117056141657769563e+00
8.744697212183651092e-02
9.374960844981508057e-01
-5.907216756316035600e+00
4.281833987938396535e-01
-9.871850915760612688e-01
-3.006569995437801124e-01
2.604941204319431769e+00
-3.601452126625178884e+00
-4.471299968029915917e-01
-1.573334768036900755e+00
2.207935149841492084e+00
4.152203162898856270e+00
-5.055132720889421449e+00
3.100038389625622948e+00
1.093001123955608378e+01
-7.783856892020646789e+00
-4.392420084794654400e+00
-4.659115488737429978e+00
-1.476699518070378581e+00
8.586456563949699472e+00
7.064869830465028699e-02
-3.675607567464440617e+00
3.289947800593400640e+00
-3.173551747649402177e+00
5.943947478604243884e+00
1.615160771353524538e+00
7.347999310007831575e+00
-3.499156925187191902e+00
1.603619410588169814e+01
4.362857968391585572e+00
3.463368280176782221e+00
-2.708368792657738777e-01
-3.839117389472262332e+00
-4.591343780799489238e+00
-7.194528526099879251e-01
-4.218335791133312362e+00
1.495630583220411980e+00
-4.370862193868079615e+00
3.286134046308023748e+00
5.058817577907523955e+00
-3.734585618797845896e+00
6.310474093886508484e+00
-1.258945217864471333e+00
6.112601189235588706e+00
2.318327897131100102e+00
5.938212904578966445e+00
-5.275208423139876146e+00
-5.650444867039180474e-01
7.679478276552937466e+00
-3.270018508477512853e+00
-1.077878404574714821e+01
-1.027819393232974221e+01
-1.326151888094755726e+01
-1.118599187178222998e+01
-2.177973186373071357e+00
6.764662188321408642e+00
-2.339824776506521431e+00
1.711775662315586866e+00
-5.819624023379118549e-01
4.523227038751725937e-02
-8.899361278103483652e-01
-9.215841285786711135e-01
2.440008468795384466e+00
-6.222096814600257986e+00
5.344559273759693419e+00
4.867793370473929571e+00
-1.032043829217528685e+00
4.261317773731912339e+00
-3.710796958599127837e+00
-2.842434456527474396e+00
8.267883775959468107e-01
-1.006454995462847446e+00
-2.374262437263026104e+00
-3.557906848225919738e+00
-2.949691536124913860e+00
4.969119863367518874e+00
-1.028207869536051788e+01
1.865039438903678848e+00
-1.250982383036107759e+00
3.850844208799693469e+00
2.725242444925180862e+00
-1.472232479962051954e+01
3.093351544252877172e+00
1.715727439030791057e+00
1.156757573352790447e-01
-2.479742202130316819e+00
4.514690991645791129e+00
-2.185328419115673881e+00
9.707448058289056547e+00
2.986136490499394114e+00
1.131119831235921680e+01
-4.156242008232288399e+00
-9.290561500683027774e+00
3.781935045158036690e+00
4.511637250362005247e+00
1.870894466315647375e-01
-8.141719079019148708e+00
-2.369802948439408308e+00
3.269747008567762236e+00
-9.744726321262100477e-01
-6.136749040562048396e-01
-9.283493001347731255e-01
-4.941320603608145845e+00
-2.820198080788757000e+00
-7.547871370406481262e+00
9.354234743307504374e+00
-2.515186765904442456e+00
2.527024303227168645e+00
-5.406774636603032036e+00
4.203830335927870365e+00
-9.910850929368606899e+00
4.870953061323772815e+00
-1.871308634650553082e-01
1.116716198274561478e+01
-6.912841226510910708e+00
4.041273343900069759e-01
1.943014939653854078e+00
6.523240795886048105e+00
-2.237326294336924981e+00
4.574811529758500139e-01
-1.133574136261855969e+01
-4.392404046296293885e+00
2.389489433485926906e+00
5.842160539689007059e+00
-1.490660011308937216e+00
1.088012898599033385e+01
9.313437494249587445e+00
-3.209109156403022745e-01
-1.276978794017221475e+01
-9.405062126543526801e+00
-4.115632861691592481e+00
5.903889208421793100e+00
1.641643419040691887e+00
-1.108061622228876608e+01
-1.210394650933055871e+00
8.536257304845968008e+00
-1.983082835824466095e+00
-3.968071707192360353e+00
1.087096807965918899e+01
2.825886102342440864e-01
-2.535209004733993687e+00
1.852726248807037512e+00
9.081816585337243453e-02
-2.270581758780460646e+00
6.393914174984692167e+00
5.903152148186528336e+00
4.448978840831618875e+00
-5.443738621954403722e-01
6.068223071613255470e+00
-2.629751840488840919e-01
2.468998614597036845e+00
5.469213045812001184e+00
4.279576595587228027e+00
9.469550175974106310e+00
2.387733175728642188e+00
-8.910322003997967144e+00
-6.138432895236005216e+00
7.143383605803084180e+00
-1.752811505156556260e+00
2.045169577798196858e+00
-4.505031967671080828e+00
5.295640207383373266e+00
-2.036138429388683058e+00
7.714816593061859962e+00
-2.816037758441290340e+00
5.916017654823884087e+00
3.568214020057348002e+00
-3.822158678628586159e+00
5.814763896870341675e+00
-4.770527004658113412e+00
-4.351654663346145924e+00
3.818557569567978316e+00
-3.308669906323746801e+00
-3.142009782003296170e+00
-1.819570610418311141e+00
-5.291871794962153430e+00
5.529040984708879947e+00
3.219637039751458651e+00
-3.668165129589047169e-01
-5.734998926994411272e-01
2.381762291301450674e+00
9.340346735020606417e+00
4.608280857833677580e+00
-2.690234807336159939e+00
4.113306835258605076e+00
-6.284154941697386310e-01
-1.052894736993605695e+00
9.875456399063612167e+00
-2.216590619878435753e+00
-2.535356180344541244e+00
-1.032854342542393411e+01
-7.419690715549545068e+00
2.386880919471674467e+00
-3.676810237654954516e+00
2.727042372440232842e+00
-5.898756667147479149e+00
-4.059818347812118589e+00
3.569137835872915776e+00
7.729547422506942489e+00
3.134759737535919744e+00
6.337694972636021440e+00
9.018967899314992209e+00
5.503087387169713018e+00
-4.859444765204361083e+00
-5.573764104232644678e-01
3.334350556658858711e+00
-2.194945253647068384e+00
2.391235914845460719e+00
-8.355278977933618734e+00
-4.384251258915215388e+00
2.798290366199249313e+00
-1.183637241670478524e+01
-5.860880946068638409e+00
-9.374720572506478611e-02
-9.097275957695696746e+00
3.022258545131085716e-01
-4.230387076075746045e+00
-1.542820185943913458e+00
-1.370272221106914934e+00
1.001545881718554298e+00
-2.982993010646937115e+00
4.745286838542586150e-01
-3.180706574366042094e+00
2.942171938209829030e+00
8.961904409197300581e+00
1.041633398273498434e+00
8.987742577025172874e-01
-6.158738955441446450e+00
3.668584485809320839e+00
-4.010916508216311627e+00
-4.279591601887990926e+00
2.949399109519695639e+00
9.578717628612065660e-01
5.858039420009691689e+00
7.634228087433085896e+00
-2.855442525323887537e+00
6.792396528583131143e-01
9.314315569522538141e+00
5.113936570732512621e+00
3.772725850715972662e+00
6.911105745399185096e+00
-3.198940171393213738e+00
3.368147932901972119e+00
7.456326728159155870e+00
8.576208998681075002e+00
-4.265505016381409220e+00
-1.331602347253181939e+00
2.024937034497486188e+00
-1.529078183749871922e+00
-2.073090562320632380e+00
3.619035032246230355e+00
-1.869883954963316164e+00
-9.459805297539544355e+00
1.914525686416599370e+00
-2.245981428276472514e+00
-3.870513317703780487e+00
-8.284283940810178493e+00
5.364110964812991433e+00
-1.178360085476288077e+01
-8.991134364186118333e+00
-1.459495066434645993e+00
6.502375264921265163e+00
6.929623319889010702e+00
-6.110986112492996725e+00
-9.398477950735065756e-01
-7.991789359023233175e+00
5.350272927662871325e+00
-7.812458507838281996e+00
-7.576453382441982187e-01
5.465493018411523352e+00
-1.176787423867192928e+00
7.778583999927308312e+00
-4.603193164024408368e+00
1.953378140965023491e+00
4.514696091448917592e+00
-7.392114986473514726e-01
7.334956353586530753e+00
2.900140814740971962e+00
-8.663707505343936077e+00
2.094487433634057894e+01
3.431958352548580393e+00
5.679508574304136248e-01
-7.401085912747952911e+00
4.326316171848664238e-01
-2.433546762355430104e+00
3.409260178950415110e+00
1.966498819404197906e+00
9.804229853438689801e+00
7.526486855314706848e-01
2.716945486449897196e+00
1.970660491555827232e+00
-7.856560755977730626e-01
-9.703661552621856146e-01
5.825366325761901720e+00
4.127105332378542712e+00
-3.330360807747962060e+00
-5.891164383463731724e+00
-3.566648656306589116e-01
6.145151783116743260e+00
-1.456573389775807081e-01
9.240347217249722078e+00
-4.100878764121462794e+00
7.494167725687473913e-01
-1.331370488535976193e+01
-3.151664828381768757e+00
-1.635553668225508073e+00
2.703359816713696073e+00
9.051071785103420808e+00
1.848857141782592750e-01
7.692643924871978456e+00
3.500939102370491440e+00
5.218766319954871946e+00
-2.466414446576296271e+00
7.327956811641399781e+00
-5.677028907719681605e+00
2.619872632726488071e+00
-5.037338311152510073e+00
-2.741496001065814703e+00
-7.732252298107058941e+00
-2.731984710007204775e+00
1.857751288676091850e+00
-3.638629119726259353e-01
-7.130992787097567565e+00
7.781650188946781732e+00
1.784228098780066274e+00
5.333650633098512728e+00
4.154617269494836229e+00
-3.517799807292304237e+00
-1.029119797368070977e+01
-4.843488925393707234e+00
6.482270948606259964e+00
-5.574287639093782332e+00
4.317668050824156722e+00
-3.240230973872928022e+00
2.079931821782166068e+00
-9.650317288427547879e+00
6.174967411609591394e+00
-2.098861645382186503e-01
4.686883587559053765e+00
1.004553547028981697e+00
4.222536878448775788e+00
-5.393200360938965598e-01
3.933082088564887613e+00
-7.987113771329386935e+00
-5.718015001638906192e+00
3.838465992721132647e+00
-2.072912374327218754e-01
-1.210332970578840373e+00
-9.503244508210759722e-01
2.654615820855383834e+00
-3.139367928532637908e+00
2.700025560990967133e+00
-4.845433257908141833e+00
-2.154761036153590492e+00
5.211356262268571626e+00
5.667971544818221297e+00
-5.805018063488281754e+00
4.437196836366020136e+00
-5.498289364922946731e+00
3.878408777498182580e+00
-1.004657020271444523e+01
-5.910606550401444892e+00
-2.692960419798220428e+00
-8.808732940779210319e-01
7.532310654888153323e+00
4.783038489904769541e+00
8.335763862417243431e+00
6.384134172344760216e+00
-1.496624437021654819e+00
-1.409129316956940770e+00
5.655903855488761067e+00
2.136042974681461870e-01
-8.306498499125209989e-01
-7.064526384162516770e+00
-5.632780136128269222e-01
-1.476709672120858841e+01
-2.413307318120982536e+00
-5.184576407104472651e+00
3.664394677187963190e+00
-2.532644244187663318e+00
-1.741004052792604728e+00
7.127503511915713297e+00
-5.550592907556124445e+00
1.675434809301458827e+00
-1.002781309885728156e+01
4.747546621112793686e-01
2.170706464954988757e+00
4.549557203957251161e+00
-4.754911760416291600e+00
1.691297404747845956e+00
1.683346430560389351e+00
-1.017541262846359679e-01
7.937326226636021165e-01
2.452549256673590250e+00
2.105176023736108792e+00
-5.269870322750244362e+00
-6.327275286266678123e+00
1.325908308802616276e+01
1.015757609372831638e+01
-7.363419753861056627e+00
2.382091544917256165e+00
3.319754932419883175e+00
3.975307741440692766e+00
7.428289711381694804e-01
-4.904057755734990032e+00
-9.651821042210669832e-01
-2.598531619239885959e+00
7.109650146917366742e-01
-1.419946294320646896e+00
-6.966926594903932735e-01
5.389137325455273242e+00
6.510854659729863769e+00
-6.249189267395417247e+00
-2.433479427238760984e+00
-4.184104062808113866e+00
6.474685607108927599e+00
-3.141141840836284005e-01
7.666569053220256613e+00
-2.526869133905239373e+00
1.375653612343166465e-01
-7.135921361141699393e+00
6.891685064147752726e+00
-1.918572075797216892e+00
-7.857928054028606724e+00
-3.134698805218655515e+00
-1.219521399916661153e+01
-1.683439167143614967e-01
5.951700146215552767e-01
1.524214845004376651e+00
7.926455366498239563e+00
-1.592457792341189116e+00
4.272230374762132854e+00
1.652047601960293433e+00
-1.022860278979794701e+00
-1.098831093261647496e+01
5.013206519398403671e+00
-2.666514379634189247e+00
9.500420283146335243e-02
-6.721978258514385907e+00
1.497322751629129201e+00
5.715885281316501754e-01
1.556479340522342603e-01
-7.131872950071911355e-01
5.551389440721961499e+00
5.112251989118874462e+00
3.840809091342376469e+00
1.757175003647997258e+01
-3.175778186939912207e+00
-2.008018299787178051e+00
-5.369302597459672199e+00
2.306792769198414916e+00
-3.637479719995757144e+00
-1.427696887477598509e+01
-6.419743650216014785e+00
3.822831088450258097e-01
5.342761175639375359e+00
-8.237741374058124677e+00
-3.240416978978285734e+00
-7.373071439410973094e-01
-3.854674819916592110e+00
2.810375210072721508e+00
2.116836133323707347e-02
1.699810440827678182e+00
-3.837095213188863152e+00
8.129777780124857856e+00
-1.984162570995065718e-03
6.844140793660659305e+00
-2.322726372631163549e+00
3.121885006980972044e+00
-3.594603708651981755e+00
-5.031238610585899274e+00
-3.726701133068926808e+00
-2.426795634165473947e-01
-1.157313616382666055e+00
8.143908294200592479e+00
-6.077767216909880865e+00
-5.768954619785315430e+00
8.995655725519737800e+00
3.221060103061741842e+00
-9.954500901954121517e+00
2.631039172448553565e+00
1.255721762252312246e+00
-1.134620330406745126e+01
-1.955346150354256629e+00
-9.235374198647947064e-02
3.869833614483273898e+00
5.050214251113329667e+00
5.065939269345629548e-01
5.467964033137123536e+00
-7.739284754127352395e-01
-4.536995647394761022e+00
-4.942734286537346478e+00
2.871123563956154978e+00
-1.036062684071295159e+01
3.586264008468893927e+00
-5.854852222694856501e+00
-1.900646290058524368e+00
2.673963829264162761e+00
6.444096824962509018e+00
-1.026809760021737716e+01
-4.265470067211906802e+00
2.595842670533013985e-01
-3.153878857004347669e+00
4.558827680402100846e+00
-1.103904369221909576e+01
1.914284019639286960e+00
2.253533693862534992e+00
2.596832335461573549e-01
5.831908776636855585e+00
-6.505648622296102523e+00
5.865665341858559145e+00
-3.719135414217385360e+00
3.838870824375971047e+00
-1.715356943878386442e+00
4.308670453160660330e+00
4.129448147299167537e+00
-7.746273221363517258e+00
-8.174092937219257227e-01
-4.890572359016052140e-01
-1.258592466891506279e+00
-3.998194019210557837e+00
9.795914604874543130e+00
1.106325626098896509e+00
8.227553262438586756e+00
-3.011352216361953271e+00
-5.617941834301785953e+00
6.997199056903756764e-01
-2.980071701269895179e+00
1.264620639386980372e+01
1.298526555921255987e+00
6.098375070158399858e+00
-1.186426226620135083e+00
-1.725182743931725105e+00
-1.635515876893897658e-01
1.882091712656982496e+00
4.495144130066442756e+00
-6.463140374212295036e-01
-3.602369756616652374e+00
-5.650109994221252485e+00
-4.057087149523830316e-01
3.031532384477482633e+00
2.422987271802108822e+00
-9.427223538642215406e-02
-3.175320352692231118e+00
7.765315765186981967e-01
3.025406242591247796e+00
-1.948013596618368704e-01
5.945390464967486022e-01
-7.963148675184535952e-01
4.843885218645420210e+00
-2.318507367308440870e+00
9.816646318396183846e-01
2.086909483214224093e+00
3.838722889593979559e+00
7.914691315479929656e+00
3.573810309215297298e+00
3.170423216394662624e+00
-7.778990056962618027e+00
3.208469088739955399e+00
1.213600624909009973e+01
-4.391568715083944419e+00
-5.394255682044941658e+00
-1.135728459603213558e+00
5.403399953612662898e+00
2.776442583612045656e+00
-2.524453019024345490e+00
-1.904232098990144284e-01
5.486949001723500530e+00
3.558815358301550713e+00
1.285113124718979982e+01
5.321064707847982689e+00
1.870715871806483355e+00
3.252502350216382343e+00
-1.846467193244523131e+00
-5.173374086185090093e+00
9.098211651333442118e-01
2.595547011175546537e+00
-7.382409857349326643e+00
-2.763775841885793838e+00
-1.953724341639016204e+00
1.405507739736515216e+00
-1.378119826537302695e+00
2.354996285982398518e+00
5.191096004353039639e-01
5.610168055512452234e+00
-9.053748071938958475e+00
8.767807708527501021e+00
7.500880050898772744e+00
2.662265261546195028e-01
3.440844918995475954e+00
3.209233402636091803e+00
-3.900982179180752851e+00
8.712390127653575345e-01
4.117301384248070129e+00
1.639233224820811907e+00
5.562513597871980409e+00
5.026221969206474682e-01
4.272515924669503251e-01
-4.062431665358658073e+00
-1.928762296386215658e+00
-2.432355500014327543e+00
9.023673410228626679e+00
1.272509252261650570e+00
-5.287942247399010753e+00
2.108974750659497577e+00
-1.015887068926941028e+00
-1.615739592548437287e+01
2.538887674572203768e+00
-8.215292952397065918e+00
3.060641720360192330e+00
-5.086023223613915789e+00
-7.715960617468030414e+00
2.615550115318587832e+00
-7.905744270798860107e+00
-2.363475039671203870e+00
1.081356017223634947e+00
3.239307962997761692e+00
3.941166663407851267e+00
-1.919634493107288120e-01
-4.404184319308373396e+00
1.017886243096903343e+01
-3.206232996278694181e+00
9.542747124664009206e+00
-2.394299051486915353e+00
6.144335447157947883e+00
5.661162645766570023e+00
-5.531897253371144352e+00
1.879802018348908366e+00
3.996761561835351806e+00
3.708880012724510511e+00
-1.052573397360605956e+00
1.597663538999853250e+00
-2.088293872450161626e+00
-6.200037186958569535e+00
5.206385734824030109e+00
-2.961261315391047422e+00
7.300268326558882137e+00
3.187553630326299015e+00
-4.722972675286729149e+00
-8.528965391186840161e-01
-1.515255890331360877e+00
-4.607846188864949788e+00
2.653052234347951455e+00
-2.532335872554877909e+00
8.633241642009679140e+00
4.554955424549300247e+00
-4.657059757535784605e+00
-1.005313151853919618e-01
-1.199782874050578485e+00
-8.277774468973788657e+00
4.927252019231813662e+00
5.025416230291956943e+00
4.896805284427240501e+00
-2.417912068005129811e+00
5.655979777924061480e+00
-1.109797876311706677e+00
4.947845033669003634e+00
9.590042284374490578e+00
7.413181055563304866e-01
-7.508682993505828129e+00
-1.676716820192706070e+00
3.391441229775120192e+00
6.454326813059456214e+00
-5.998867145883521879e+00
-1.008186587012599222e+00
1.234591860477309400e+00
2.301565961370256819e+00
4.817029993508658237e+00
-5.018172043321796671e+00
-2.240613767710110338e+00
5.333127061994492379e+00
2.075834840125401204e+00
2.372371538041094574e+00
5.954060316082616211e+00
5.505440516939417162e-01
2.793653758982790336e+00
-1.664350037423509621e+00
-7.116416564588680771e+00
-6.853179181804994968e+00
3.932283115712632560e-01
-1.055871092251030818e+00
-3.463490056968264064e+00
1.682606205685282630e+00
-4.710405963476419267e+00
5.890828728443217033e-01
-1.032933995434357627e-01
-4.444361704324934159e+00
-1.215975357107743271e+01
7.706452341380517268e+00
1.675320209643428759e+00
-1.409582804485475371e+01
-2.256223843996508549e+00
2.083521677433082253e+00
-1.207087059495085546e+00
3.070513054940654740e+00
-5.149536033984738026e+00
9.268083590481562828e-01
-2.829809675617778186e-01
-9.685766921667471330e-01
-1.169458750669116309e+00
1.056923135207654463e+00
4.935007188416022927e+00
-2.804851466167466612e+00
-2.154697443861973927e+00
8.495456165456898301e-01
-6.357107113807723975e-01
2.040212711601112616e+00
3.800459485863709297e+00
6.831650290921755797e+00
-6.161032654944371689e-01
-1.204913044640371922e+01
-3.683818101083345953e-01
1.872320153483408856e+00
-9.891746205880196374e-01
-8.107689485286377895e-01
-1.287034565694365540e+01
2.687733245971731577e+00
-1.714447475446471802e+00
-7.995070996380215789e+00
-4.610673771121655662e+00
-4.575794996507280388e+00
3.220877159257514943e+00
2.971614034968537155e+00
8.014508851731669381e+00
3.428155030421895955e+00
-7.151545289802457184e+00
-7.456093327878476451e+00
5.982641409144755507e+00
8.289300053516615918e+00
-1.257919627619844327e+00
2.956613543048016268e+00
-7.962344591051342846e+00
-1.028524456531138220e+01
-6.211731818400525462e+00
-1.889870845242550779e+00
-2.758590262966672313e+00
-1.217528128573556190e+00
-2.597945881186929373e+00
3.594166472675563995e+00
7.553117536715198810e+00
1.915199289988603337e-01
1.074066923517322891e+01
-3.356620486839037465e+00
-2.778309777948638093e+00
2.051495033515700062e+00
-1.877231952936305071e+00
6.227755960304603100e+00
-3.392086458099319302e+00
6.998342944410776312e+00
1.027375470485906384e+00
1.357375067043368055e+01
-2.455621112598673772e+00
-1.072448725745012821e+00
7.706403592391757318e-01
-1.153976797115300812e+01
3.186570706019944410e+00
2.544145540844714670e+00
5.784009070468313363e-01
-8.171361964087399343e+00
-8.182818296611024778e+00
3.103784864020754597e+00
6.217842954668760136e+00
8.436275080902797541e+00
-4.737760163591181239e+00
-5.453928259970311387e+00
-1.438821829925049256e+00
-1.045354197879826863e+01
-3.116021080469772109e+00
4.506799053250179377e+00
8.648643610062109133e+00
1.477004977215691239e+00
8.680130990659808532e+00
2.173919106813798408e+00
1.012502000012873715e+00
-9.070913138431848655e-01
9.890795377135155331e-01
-1.348420984208631657e+00
-7.455554957410804873e-01
-3.502054220524258188e+00
1.370531734999592910e+00
7.644622598733166741e-02
-7.828423363619341657e+00
-1.273540726061269890e+00
-4.527337327541117951e+00
-1.083698073065423628e+01
2.560217073191893622e+00
8.246983105227741362e+00
1.253818701491813314e+01
8.266725193839803865e+00
-4.607390651419935423e+00
6.218193773668603264e+00
5.925359439318124366e+00
-1.051755956581882501e+01
4.557057393967633097e+00
3.318379027912025769e+00
8.614146451512265656e-01
1.527064293431140474e+00
3.085029985984309997e-01
8.634534412911412105e+00
-2.125855324094484189e+00
-1.057874654011772497e+00
3.909494000027501082e-02
1.458532175298758116e+00
-9.329313463985032584e+00
7.343736968976390500e+00
1.196817623844750100e+00
3.011224927702018661e+00
1.043994298162918222e+00
-9.864564064902638929e-01
-1.879574540696496099e+00
5.085376795183093046e-01
8.045053801813415451e-01
6.112462932472165100e+00
1.830983443135821842e+00
-7.062854280239171390e-01
1.051086954676893903e+01
-6.769413874059714509e+00
-7.091015409318346840e+00
1.876191165466687849e+00
-1.123662087246041219e+00
-9.389345875311752465e+00
-1.651999836954170409e+00
-3.760063064201526473e+00
5.984774973749360072e+00
-3.287028589561508785e+00
5.558777538851964906e+00
2.432694223957549973e+00
-1.091692030643694356e+00
1.120196499630134596e-01
2.268023367348702912e+00
-1.221177780282550707e+01
1.730511296053368842e+00
-2.005912995150171074e+00
9.512749323758631803e+00
-3.657487885111243120e+00
6.045278982236438559e+00
-1.330640737698267628e+01
4.310161904525148024e+00
1.460853214429271407e+00
-1.306958476870848651e+00
-6.396225148230388902e-01
-1.378619991851985471e+00
2.238100090103623874e+00
-7.103060160971749193e-01
-9.458878409535254050e+00
-9.831208980944229348e-01
1.182386045548646081e+01
2.478621744208390487e-01
1.538552224778103605e+00
-2.317736155344946258e+00
9.209181102504844230e-01
9.415057859715890709e-01
-1.382013247717052362e+00
4.567506456627230094e+00
-4.883983885035443784e+00
-6.888598020195292326e-01
2.672227592848578581e+00
-1.412712869085918976e+00
-6.475518611137275116e+00
2.953762925601683076e+00
-5.196590661394104416e+00
-2.366697023671776812e+00
-4.381709528415298927e+00
-5.858614493410596591e-01
-2.271871143210107746e+00
-2.511043888577341843e+00
3.603043579931634710e+00
9.325922479320206904e+00
-1.891599346013248528e+00
2.765356304020954781e+00
-1.880484466955801182e+00
5.235011100236306447e-01
5.966905994009183090e+00
2.661003516000628455e-01
-4.315041963895240862e+00
-3.862024636502153108e+00
-3.263190912570546942e+00
-7.039232382277259281e-02
4.539718528677035181e+00
-7.189362311216969559e+00
-5.488272738364686099e+00
-4.891725930332893491e+00
-9.256063177058340585e+00
7.015425912034107370e+00
-1.924785534522538699e-01
1.005697893151242717e+01
-7.536116167767315410e+00
6.847488355391355697e+00
-3.712405975841250427e+00
-2.155383478041700940e+00
-5.232587815836076572e+00
-5.025707468270923073e+00
-7.003906015423289055e+00
1.144612619889113336e+00
-6.953406930903377692e+00
-1.279368014959482380e+00
-4.868515541650574735e-02
3.527021547995209172e+00
5.311702555860823294e-01
1.700127470742990532e+00
2.721739537597351433e+00
-9.127392468293665795e-02
1.922465340396141809e+00
-5.183676622475678286e+00
-4.102995935876111666e+00
1.003968530786177737e+01
-6.208545386530228694e-02
-3.759242454818203516e+00
7.300912288489902480e+00
-8.298505845164673156e-01
-3.420568904717465664e+00
-7.666580399000050505e+00
4.124273235101304280e+00
-5.747592697237680071e+00
-2.851726171808012467e+00
3.409179974210220454e+00
9.709135482436616060e-01
-4.563292266103342598e-01
-1.131471227631551280e+00
6.063224578089307037e+00
1.180052253118564387e+01
-2.903000352831277553e+00
3.009383577363685891e+00
1.020575781284211203e+01
5.709740702492241304e+00
-3.632873964352132390e+00
-2.278902090495828148e+00
-3.163544108171197689e+00
-4.832757461061882864e+00
-3.301004201907572266e+00
1.385289269084945873e+00
-3.105043592023657428e+00
4.636717727711328507e+00
6.529754880646982951e-01
-2.101326796069098002e+00
4.689007324796103049e+00
1.688046870097876795e+00
1.401392812408680744e+00
5.502710821250721196e+00
3.032813287667157187e+00
-5.761755047546448516e-01
4.960323736255769056e+00
1.637718664685051451e+00
1.543617785796203101e+01
5.813439345544460402e+00
6.102074949163579731e+00
6.831189605822019395e+00
4.230674574553118239e-01
6.946851763100160504e+00
1.241129939899041357e-01
-4.397672657235350613e+00
-2.984631778003164815e+00
2.793018733039087653e+00
-8.259228284184061408e+00
1.102781030772258086e+00
-3.853253869567234258e+00
3.800222979165211346e+00
-3.947740781666021714e+00
9.907513919897947829e+00
4.062994646515110553e+00
-6.713782691428047400e+00
9.306351434785982590e+00
-1.202250568065756031e+00
-3.848874131136402532e+00
-5.416054207728534742e+00
3.003157395885856840e+00
7.960099779661047315e+00
-3.060270408870606307e+00
-5.278788985185420835e+00
-6.030156598701725379e+00
7.917289765337869767e+00
8.839287524137814600e+00
-1.843625063415590404e+00
2.845798932768183409e+00
-1.427934745768021443e-02
-3.210740354651321904e-01
5.100668951796686557e+00
2.333752688162655797e+00
1.742887862273195587e+00
-1.546951147454725062e+00
4.315801539517149621e+00
-1.492193062964056072e+00
2.646125743501678840e-01
1.161778299361238442e+00
-6.355902915792726482e+00
-1.582096285707353722e+00
-1.653702271231751730e+00
5.349086357505765665e-01
-5.883396453536703596e+00
-6.277070297422513434e+00
8.590131558846696436e+00
6.118350767766526310e+00
4.703248033140836171e+00
9.656359787858731281e+00
2.220286018344794776e+00
-4.814110402184930693e-01
2.552434142067146361e+00
-9.943896288058144961e+00
-5.809807635602283860e+00
4.013531547236596886e+00
1.721482369610448371e-01
-6.760244943195111489e+00
3.483206890316229654e+00
5.286902316335152285e+00
3.534163646488699406e+00
-1.603551417327354622e-01
-4.423256643712911718e+00
5.691254555078009147e-01
2.259032722851304520e+00
-1.897621067133779427e+00
3.191495676664077408e+00
1.662416676230602075e+00
1.762198583247245320e+00
-1.075385676573792537e+01
5.720405854172694760e+00
9.125360098988931412e+00
-2.130342169613577141e+00
-7.812996185983959840e+00
3.381515022729575826e+00
-2.463599703494396831e+00
-5.116186924004081149e+00
6.443533934588719703e+00
-7.320306592830373660e+00
3.796576047877809224e+00
-6.601113263205275139e+00
7.738305550825742785e+00
2.732831301635803012e+00
-1.361488648661159484e+00
7.906389329986461822e-01
3.079893299920574812e+00
4.390576911019481443e+00
4.381014519520286754e+00
2.893733178285041063e+00
-2.524729249275518672e+00
3.513441664364636896e+00
-6.937240618405869697e+00
5.313120814220247290e+00
4.619033147985207144e+00
7.375909101293114389e+00
-3.115636988200706003e+00
9.852466094172750433e-01
4.540836384696030237e+00
1.683244516862056450e+00
-2.256489623353658658e+00
1.626477700852546615e+00
3.605471855102803103e-01
5.268993765727282508e+00
-3.324349712222165465e+00
1.796681639422348375e+00
1.550584056994165572e+00
4.007065811555310830e+00
-3.864430827821090930e-01
6.731559542186299483e-01
-3.745847647720352835e-01
1.807504570950003442e-01
4.478745508347983101e-02
-1.728593416014027717e+00
1.495949866134485617e+01
-4.463551385800440308e+00
-6.207850181694276159e+00
-4.210006012507106377e+00
-3.755833497006201060e+00
6.068927002709336577e-02
7.571272884924090896e+00
8.934298519556307383e+00
1.254541090624713862e+00
-1.321836309901883233e+01
2.033861922024040148e+00
-6.935164255417604728e+00
-2.649239512434001576e+00
-6.083359252428185648e+00
2.251305596397791042e+00
-3.315199142394709142e+00
4.086327298520757267e+00
2.526819937216063572e+00
-1.270567863484658666e+00
4.263052318442938082e-01
4.854912473772554193e+00
-1.969508982149621668e+00
4.845921176098030969e+00
-1.015764707951398588e-01
1.425236994056483963e+00
4.229381987725912673e+00
7.045795213304012705e+00
2.754802223791315896e+00
3.093759646722098466e-01
3.813487980208345451e+00
-8.177649617147505268e+00
8.670674669124101897e+00
-7.011909757884422056e+00
4.782067578530360130e+00
-2.985454003316997174e+00
2.683024699158103488e+00
-6.150800805525007409e-01
1.606569530037275984e+00
-4.236314517848126293e+00
-1.143019944139031274e+01
2.150781318465436964e+00
-3.177092102804838003e+00
-3.432436937969213453e+00
-3.838214208213863277e+00
1.049908147912536549e+01
-3.081794570871157823e+00
1.731422445747987204e+00
-6.139319647291848980e+00
8.058596686560530742e+00
-2.942860057790620321e+00
-1.376013929875157160e+01
1.434910574864796118e+01
-5.810716557500079205e+00
6.926633352362766338e+00
3.877060678415123807e+00
3.450272899014908745e+00
-1.224437304108943581e+00
1.001307311230282160e+00
6.476982950690140406e+00
-1.592852571977180220e+00
1.330554320342503871e+00
4.912239258114031060e+00
4.413467589514909473e-01
-2.248396725233529736e+00
7.681243034108515388e+00
1.807242966310193433e+00
-6.618046726270099267e-01
-4.104802392933514454e+00
-5.319541568831152922e+00
4.728823581260082065e+00
5.022826423454358036e+00
-1.148495020094630981e+01
-3.256493313229607001e+00
5.104934658811795423e+00
1.282779342245170007e+01
1.137817837099179741e+01
4.984162298555061987e+00
7.266136754626565164e+00
-2.789892897473845057e+00
4.098390014701624118e+00
-6.545823918697585952e+00
-2.972974702352764176e+00
1.697954065875327379e+00
1.147050779399899945e+01
3.957218992308554562e+00
1.449852663201605107e+00
-8.992008734236329737e-01
-6.996733760389903800e+00
3.190153506988291809e+00
-1.846516305315672346e+00
1.265369436021102079e+00
-4.705103025766547375e+00
6.420482629029514721e-01
-8.132340932561191948e+00
2.665608417035196798e+00
6.982310620866684303e+00
4.836265808059431848e+00
1.118455300755315562e+01
1.717601849749065268e+00
2.674011129166773415e+00
2.724365939107472823e+00
-4.653519894623092235e+00
1.139315783486163269e+01
5.230285153595195524e+00
-1.284052597619570912e+00
-4.776734908802168889e+00
3.076922925233275485e+00
4.538043980375076281e+00
7.287393199614644601e-01
9.842477284816076866e-01
-9.951617432410224673e-01
-1.490643247979260913e-02
7.064173743591283916e+00
7.410492565730460335e+00
-7.937864421396215064e+00
7.349227768968542573e-01
-6.370120010731950444e+00
-7.066123117891104144e+00
3.100003273521454883e+00
-4.452679565831952679e+00
-1.668372622125420079e+01
3.413084857526186955e+00
6.784777786083361129e+00
1.078756488898404164e+01
-2.096876884475837421e+00
7.648255190471088483e+00
-1.386722336477952666e+01
-5.521172533880188027e+00
2.746231994649822372e+00
2.495129017597332854e+00
6.985787887816756303e+00
5.061089007816127250e+00
-4.307099881255628815e-01
8.091613442923325294e+00
3.631826031171480729e+00
9.084486408396520218e+00
-4.254222193732268842e+00
1.588836094550328371e+00
-2.272533040519344461e+00
4.265226787643365824e+00
-1.162230085296929838e+00
-1.332428941924498123e+00
-7.018794783416426597e+00
1.630313206588688280e+00
5.901750080862504078e+00
5.333326369339934203e+00
-1.595614958636948799e+01
-8.569111531378620583e+00
1.060910026303313103e+01
-9.924848904190635146e-01
-7.881894939653307786e-01
6.165934517274323845e+00
1.040135062245477249e+00
-3.346237186789579710e+00
-1.111436804064191541e+00
1.003755311056080934e+01
-7.308664591679679745e+00
6.885011327354091826e+00
-1.651693227400348851e+00
-1.435699978839384938e+00
9.857510528104510783e+00
-3.400751718587244010e+00
4.418412654697738695e+00
-1.920727896331122952e+00
-7.576589269630015444e+00
-8.790306682726076737e-01
6.185243080158877582e+00
-9.831121881293072295e-01
2.908027855441221110e+00
9.974639624452268372e-01
2.480547975677039607e-01
-2.208739965815625705e+00
6.973156282346525403e-01
-1.075625762568779820e+01
-2.371215604448722925e+00
-9.543916876483860889e+00
1.427740682248137105e+00
1.876367189410067304e+00
-4.211291503539662529e+00
4.240045780975720824e+00
2.094315772892835437e+00
1.553182954983503894e+00
-1.912475804660022760e+00
2.501540179291628530e+00
5.577547280913014660e+00
-3.493349548198950050e+00
-4.321197476171428242e+00
6.291309186994173963e+00
-1.226633140004081390e+01
-1.384749040501238149e+01
-9.601089094959238679e+00
9.619135822077935494e-01
8.066995060671749984e-01
2.627039406795141030e+00
4.014464619172309900e-01
8.133912293554690365e+00
8.338006781838609882e+00
6.132659116290492207e+00
-6.114915421846377264e+00
1.923827070511768600e+00
-4.582830005732864365e+00
-2.648136921903807117e+00
-5.414135575349623863e+00
5.642082537005330134e-02
2.879684122062773355e+00
4.164845238544322981e-01
-6.313914928123806725e+00
-8.073436565926581210e+00
-4.032979175183636578e+00
-4.114734554309080750e+00
4.149731010559808198e+00
-1.689677583281163908e+00
-9.982569867345350012e-01
-8.304836845650553911e-01
5.802934288836326004e+00
8.656764750659698748e+00
2.260308806378367397e+00
-1.312770074625270400e+00
7.420343560881454081e+00
2.318769083871470293e+00
-2.227399464259633088e+00
5.346519131037725359e+00
1.097444143916961767e+00
-7.586980332848041186e+00
3.316848260338901788e+00
1.586805998344329449e+00
-9.822958439268091979e+00
-1.138168864603353825e+01
7.215426185257777236e-01
3.615874194734193914e+00
3.219470402891964955e+00
-7.201644867560705876e+00
-1.835146447665667813e+00
3.527310432239943339e+00
-8.125966588191360529e+00
4.506403397881362238e-01
1.129908742735227678e+00
4.887772145046945127e+00
-1.298303719573757498e+01
7.682828812306695676e-01
1.067725082420014537e+01
-3.286678358559275370e+00
-1.673583963931370766e+00
5.047162922986702327e+00
-4.038047768562837092e+00
6.120408207731754757e+00
2.861553434314840771e+00
-8.327989723449613635e+00
5.321860525711209489e-01
-7.719197692007176315e+00
5.039763298770993494e+00
-8.892237384144245027e+00
-9.586257132204924147e+00
-6.016668580865619731e+00
-4.250180203623810549e+00
6.957041235392107836e+00
-9.635649558430403605e-02
1.539698228629481358e+00
5.687269433348019376e+00
-3.692095863497133035e+00
-3.059907844781215136e+00
-4.483851560342730913e+00
4.152912134569334945e+00
8.641626231215838061e+00
1.369000486791292159e+00
-3.297759871512253582e+00
-2.753218026095088256e+00
-5.885228898350059801e+00
3.868473052723308658e+00
-5.623931225447683424e+00
-1.347257594862285357e+00
-6.184947139524203052e+00
-1.005001484172757031e+01
-1.343884464280183266e+01
-4.708765539629188979e+00
1.153848232087368419e+00
-1.681554729350809074e+00
-1.182929501294871066e+00
-5.668645893234002919e+00
-4.929505358296449202e+00
-5.649188128357887528e+00
1.117632361562761911e+00
1.083409385954128368e+01
-7.215437600921248418e-01
-7.244830603773661615e+00
6.733420285967516072e+00
-5.283391549476246674e+00
2.949892167796239306e+00
-2.342079421202754475e+00
4.290093457704879376e-01
1.816214194584488695e+01
-3.955144006379968769e+00
-3.104112487094484507e+00
1.985361997016150903e+00
-1.161198142128783001e-01
-2.148511642381746967e+00
-3.642348212701017829e+00
3.124289237545492703e+00
5.700374225187877286e+00
-5.037454558895262835e+00
-6.012840963927329696e+00
9.681991113706160945e+00
-7.540467980590291219e+00
3.784812551356294463e+00
2.323412662840200760e+00
-5.835786090751117428e+00
4.018462840010975867e+00
-5.837091889753127205e+00
-5.764789383146606383e+00
-7.352077817534143911e+00
4.414172929527653721e+00
-2.377478371583193084e+00
5.742039357805834854e+00
-4.286431957256267467e+00
3.252165369489480540e+00
7.446576544465280278e+00
-4.550954863756266344e-01
-5.954744162034739219e+00
-1.812534844857105032e+00
6.649368570007867518e+00
3.910528204075660597e+00
-2.042253976645804769e+00
-9.229433442144745925e+00
3.785888397122570304e+00
8.629086852094724591e+00
8.722672709805992852e+00
2.289882825598477556e+00
-1.010730878716159298e+00
-4.159349257633762065e+00
-3.029622825271178321e+00
-8.728790279630006310e+00
1.129386238236439866e+01
-1.426679531424503433e-01
1.261583182904324651e+01
-3.941640826400913400e-01
-8.562482332275319408e+00
9.849497424016744773e+00
-4.549324676488813779e+00
-2.316962104133147626e+00
8.722445266304497125e+00
7.718334945194332164e+00
-1.072061076395421253e+01
5.580763096732694641e-03
-5.764704233547016443e+00
2.852567725391810693e+00
9.588186614417425702e+00
-2.738026549303378410e+00
7.900606919694109109e+00
-4.913435144968008927e+00
1.149343250132619687e+01
-4.368515429247795012e+00
-2.451510352804586734e+00
1.571194488545677892e+00
-7.410512464846743086e+00
8.198944205205680902e+00
-5.661434417726166402e+00
3.248403368475045738e+00
-6.820756892944149108e+00
5.808590006397125194e-01
-5.569374800116774771e-02
-2.054173559983591524e+00
2.588447313923031068e+00
-5.909133356254358205e+00
8.052156183070955819e+00
1.071144231261886404e+00
-1.476946512756558505e+01
1.061137939857130164e+01
2.395297188681781098e+00
8.219877257638346535e+00
-9.361671866709795342e-01
-1.197144478111738763e+01
-2.220717434733889828e+00
-6.487107493645135392e+00
-2.036098080480150119e-01
-2.554096540355105915e+00
1.105879086161570157e+00
-9.335441894475637881e+00
2.845614441385773130e-01
-2.431636732133390932e+00
3.351880620875029138e+00
-8.953933211985072305e+00
-2.249040592566189378e+00
8.774552125757850263e+00
-6.248976173130039058e+00
3.905024790074195007e+00
7.039676742011876875e+00
-5.338472842820721209e-02
5.230186691959623602e+00
5.510232751740320012e+00
8.305539694687816166e+00
-1.946191575781278882e+00
-5.941718241222748720e-01
4.254595200581201553e+00
-3.945185230143402055e+00
2.542351653210602747e-01
-3.696121037043206492e+00
-1.232290211484207454e+01
1.772028193781519212e+00
9.007517567377353984e+00
-1.968585526602167235e+00
4.460155240371123098e-01
-2.397367702019167268e+00
-3.920419718525073538e+00
7.201255356565671173e-01
5.676853349333239152e+00
1.172397527314764076e+01
4.372868136545439377e+00
-5.086553398149966654e+00
-7.550306321181794011e+00
6.914410069456999430e+00
1.675731613946997989e+00
-3.229946745554987508e+00
-5.588182075460124132e+00
-4.273640153840703171e+00
6.526022351837692526e+00
-1.183029145057091780e-01
-7.409853899398367361e+00
4.616795029676636020e+00
1.640745584477460106e+00
-1.540373507635923733e+00
3.215407168429427198e+00
-4.379256462794333338e+00
5.099996684448787398e+00
-7.538905710711871322e+00
-4.780094338434736301e+00
-7.285055971966643895e+00
-2.204004244684893532e+00
-4.007655704975815247e+00
-1.918751075832476172e+00
2.522648643416073450e-02
2.932537227630484633e+00
7.752977703919263774e-01
1.332583800251838202e+00
8.488440466400740902e+00
-1.409995325952841494e+00
-7.716021352433537928e+00
5.033738922056889109e+00
9.713542834200524112e+00
9.909401010031878565e-01
4.441955940508558243e+00
-3.468852560293655074e+00
9.824039547758932622e-01
3.370486065098849071e+00
2.003034523951156221e+00
-2.855527660369073573e+00
8.627624098427094879e+00
9.143658597402645194e-01
4.921656953112055533e+00
2.146967129233032345e+00
4.622589881523612831e+00
4.937821368389375465e+00
-1.143671840750197344e+00
4.410975103529784391e+00
1.143092072921105995e+01
1.057661999970701849e+01
4.042525286598411149e+00
8.927227929764583791e+00
-6.920445792808363805e+00
7.790414427358101968e+00
3.961676829739539940e-01
-9.454633434456308549e+00
8.741253499264574067e-01
5.165560882754672178e+00
-3.682666132430894468e+00
1.024931789384285352e+01
7.138732094405905393e+00
-6.746597639818270764e+00
5.339072982530096212e+00
5.924448710969029142e-01
-2.918927269128730018e+00
-1.675290616584648173e+00
-2.354458153296786982e+00
-6.435261538351520372e+00
-2.372067073769394963e+00
3.665000833136259573e+00
7.544625922265410622e+00
7.716034036955837117e+00
-3.033638210632568999e+00
-6.203547178913736415e-01
-4.546913541675749570e+00
5.449719080709895636e+00
-8.720338550791938204e+00
-7.213064383514051769e+00
-3.364250013123717853e+00
1.330540114066832702e+00
-1.699186452513469225e+00
1.749403520251862354e-01
2.515045742928324612e-01
1.234277580678236674e+00
-5.473319442925761003e+00
-1.795544610319419476e+00
3.056133361278422278e+00
1.482685909817679448e+00
5.784659828651860458e+00
-3.948255190982811413e+00
4.795007945752359113e+00
7.759877204208132540e+00
-7.544418996398734034e-01
1.407030175156641416e+00
1.191472030892815726e+00
2.834220561861716448e+00
2.052481547519295457e+00
7.775025098479677155e+00
2.716201869446568828e+00
4.574058297227310277e+00
1.754100178427193235e+00
-5.511982200691070588e+00
2.292899488984391443e+00
-1.216691938367484127e+00
-3.360232683380555585e+00
-4.732094161809465405e+00
-3.724693071061660476e-01
-3.214078357962456334e+00
1.079185826073594434e+01
8.448482772405821351e+00
-1.412321952199021347e+00
3.752134012953112219e+00
6.121461516717578988e+00
-9.144890749025845755e-01
9.778959529540790285e+00
4.878864394560824103e+00
-5.381405424734935217e-01
-9.520049618390242330e+00
-5.110846418187255935e+00
1.686194791323190945e+00
-2.318844305598459776e+00
-1.098050218084939689e-01
-4.165657539466900872e+00
1.306462396241609314e+00
-2.424865365829495190e+00
-8.215330473860193550e+00
-1.807626453396270261e+00
-3.026575592592319008e+00
-8.209784283919306702e+00
7.529997212280867380e+00
-4.023838834974620693e-01
-1.729440778819137048e+00
3.970215580319231385e+00
-4.370094778816483450e-01
4.059732634815265584e+00
-7.834108965949727832e+00
-5.484921953385087257e+00
2.884786433920269566e+00
7.893594048925076656e+00
1.587902831639173840e-01
1.145148631422515884e+00
-4.356822441101577681e+00
-1.583900242939177416e-01
-3.750967573599529370e+00
-8.478161235234271675e-01
3.821567243847790785e+00
-1.057541328813023007e+01
1.127114136813030632e+00
-4.256810714145395025e+00
-3.421051381453333207e+00
6.022045506439712703e+00
1.563164356941894706e+00
4.939812530208476993e+00
-9.332090775705305319e+00
-2.170447597970416087e+00
-2.400342148042198254e+00
-3.118658606956090651e+00
2.329270467925288024e+00
4.740299606025100587e+00
-5.855941118854318006e+00
-5.093425116561907551e+00
-6.624077498221481619e+00
6.071960078910406011e+00
-2.723450435743808740e+00
-5.364033425742154026e-01
-1.757718936114127661e+00
-5.098684455892050771e+00
1.974915082988845327e+00
2.026586210918751796e+00
4.980531655239122557e+00
-1.192692384376085712e+00
-1.571882598395448305e+00
-3.097981869953080114e+00
7.873722230056158899e+00
5.331013358093042775e+00
-2.136771905162593022e-01
3.433704173398997028e+00
-3.099685567575458212e+00
1.087017792239627667e+01
-3.129963196564577110e+00
-2.008925384376009315e+00
-1.963119084721412611e+00
9.001194418766651495e+00
7.809610371678908924e-01
5.737633260324919604e+00
-5.825204318800428771e-01
-6.417822207442604565e+00
4.103047465586996623e+00
-3.314566937136345537e+00
-6.976271774589738683e+00
-2.201445974351141199e+00
3.342082950231017424e+00
9.334790988904366316e+00
-7.341113305657506416e+00
-1.163516440590948875e+01
4.921438921760532104e+00
1.587564194493281899e+00
-2.981321993201732301e+00
2.213543117640667024e+00
3.859466245570037035e+00
1.011671102477992434e+01
-6.896361156972772299e-01
6.771392780356975116e+00
-2.390230122804531732e+00
-2.696645388138370070e+00
2.242175309346152723e+00
-5.899266991523703041e+00
-6.888634760732382567e+00
5.096232152991012399e+00
-1.038658427859926192e+01
5.997229675072457411e-01
-1.718203725040529095e+00
-1.973641114573981614e+00
-7.049196152439929364e+00
-1.077191217466173434e+01
-3.496851291689285990e+00
-6.165141200471602190e+00
-2.250882111948263820e+00
4.657969258991533357e-01
-3.924636039039442359e+00
-5.674706292155227594e+00
1.534602076275877636e+00
-4.030849532578729466e+00
-5.076860436577787183e+00
-1.582812960515489475e+00
1.510528512601380768e+00
1.115733863068154186e+01
8.537316434178812585e+00
-6.684519015398894481e+00
-7.006571640933730194e+00
3.424181028481638744e-01
2.947068367201988615e+00
-6.968510516861052828e-01
1.149376202564731386e+01
6.227851009754550304e+00
8.677505179991987561e+00
-2.210943666907311034e+00
-4.745368918472411934e+00
-5.662870322470180184e+00
-6.020155960366078141e-01
-6.657899986213444699e+00
-3.353378935073019207e+00
-2.279192617705705359e+00
4.996188420381914241e+00
-2.501973524775108704e+00
-7.444743304871619394e+00
-2.367570621986176516e+00
9.977877794356779795e-01
2.967804330167109761e+00
-4.876476504716768190e+00
3.425246599297382843e+00
7.337661787042853767e+00
2.590020979389856315e+00
1.263463297985488065e+00
-2.370949087082504292e+00
-3.231702076814392477e+00
-1.074039189140701644e+01
3.216631170351746505e+00
-1.873581822184805734e+00
8.073050961610863663e-01
2.652233504114128504e+00
-4.160838669962307002e+00
5.380900390757156870e+00
5.984654436388486820e-01
7.920566848592361708e+00
8.938452500710860615e-01
1.685835811995717304e+00
-1.446432046410068839e+00
7.811671910644466976e+00
-1.112953111897389036e+01
-2.819201446175032544e+00
-1.614033548383554395e+00
-8.097420321020178946e+00
-4.204753146577528966e+00
-1.149265046664205236e+01
1.007334420272468334e+00
-7.435026074884811820e+00
1.956923117378277510e+00
-1.385080831645855826e+00
-4.405867723393119384e+00
-8.221027454758312203e+00
-3.612931976802690848e+00
1.643503368916139795e+00
-6.637381692033336167e-01
3.525080362113925503e+00
-4.171037015889323740e+00
8.497274166929624784e+00
-1.259005961515891281e+00
-4.471909250540512026e+00
6.932021855612856776e+00
7.182852488616594755e+00
-4.770837481379099354e-01
-2.562431174023287017e+00
4.815183632787096712e+00
-4.730857789431723859e+00
4.948076578454415397e+00
-7.339539692314128949e+00
-4.412318568054426349e-01
6.219811366034357081e-02
6.392025997855846242e+00
-9.678358306426650515e+00
1.240399213700352776e+00
-6.386762569338855222e-01
1.538767934402439884e-02
-4.677781768298598486e+00
-6.888295103708353295e+00
-2.450447363403005507e+00
-1.278637433455675154e+00
7.805161287013066662e+00
5.893176712989562915e-01
-2.262556346409145061e-02
3.694933903606362424e+00
-8.528285212310258601e+00
3.823082174877372452e+00
4.843233757865085032e+00
4.799676989948692629e+00
-1.761863796558207129e+00
-6.535678842520833420e+00
-5.211233690846373889e+00
1.309272633963048715e+00
2.840010244067713518e+00
6.754195010513926789e+00
8.049871953899522481e+00
4.609754280309592112e+00
1.795164788742514839e-01
1.401685295881071491e+00
-1.245032245663762582e+00
5.581284312662068814e+00
3.144276870677571001e+00
1.142108478646912895e+00
-6.643353084929684904e+00
5.537860911954979315e+00
-8.078720054741925338e+00
6.517330748576848798e+00
5.209651680280056318e+00
-8.397144013955188058e+00
-2.564236686790027364e-01
-6.568187999653421372e+00
-7.651774395679777907e-01
2.937391347408642162e+00
-7.229489903079863167e-01
-7.216193824622681774e+00
1.380031024241940241e+00
1.372943387401854842e+00
-1.440987457977856989e-01
-5.529805875371384793e+00
-1.850686594269444818e+00
1.420770968676001944e+00
-8.203649787139554173e-01
1.117783423022279266e+01
1.354910315218572636e+00
-1.093969383451792510e+00
2.553414476106170561e+00
-5.848816730725138413e+00
2.226205923189541469e+00
8.554420449583293617e+00
-4.676013379849034202e+00
1.581129097724847998e+00
4.058777454579516331e+00
-8.959468415961799437e+00
8.671323007513526804e+00
-5.529060981395875096e+00
-1.772763183816668864e+00
2.014127589979783917e+00
-1.230696420325085860e+00
4.248319129284076290e+00
7.985428518714935420e-01
3.014540757243834523e+00
3.966826315836991523e-01
7.788326120364042815e+00
-1.066395283377273984e+01
1.926414144599552181e+00
-1.590547611399978578e+00
-5.074219149756907576e+00
-4.294209586685968638e+00
-3.026332688969663565e+00
3.060356623898624839e+00
-4.741405182443663158e+00
-8.634004865297311149e-01
1.456335335171170087e+00
-6.115266598129002418e+00
5.885410708899408760e+00
1.281257237900322465e+01
-3.566209810737135388e+00
4.864773551764450588e+00
-1.638506889140225464e+00
2.822034739319308816e+00
-9.613979401973639094e-01
1.168597703534817178e+01
-1.716032052027115729e+00
4.200667228954831245e+00
3.213560110427245320e+00
-5.735207736178479010e+00
-1.142993494720267833e+01
3.063936916752846962e+00
4.468327314994878563e+00
-2.839695817041401948e+00
-3.351170554667644907e+00
5.168243182931062663e+00
4.512321707962705375e+00
5.057520988319176958e+00
1.383072057236437669e+00
-4.170752322193346018e+00
-6.444268670025603107e+00
-1.054563885457295136e+01
-3.051928322014693662e-01
1.015427702359572493e+01
2.528528920579662387e+00
-4.219037638676794710e-01
-8.046232670015605493e+00
-3.534002362883766679e+00
2.613094633241765455e-02
-1.175758049277723538e+00
4.806004059438313547e+00
-8.391847105360509262e-01
3.678847761290743534e+00
-6.043261433956386153e-01
-1.004053640006273396e+00
6.662046060654926549e+00
-3.978695019643811115e+00
-1.497626105067124458e+00
-6.839843367011825492e+00
5.118456629506906719e-01
5.658704786512785745e+00
3.605281572138353319e+00
3.883639321638010955e+00
5.571622586462152249e+00
3.308014806706145006e+00
4.011932923836371678e+00
2.136094650852969234e+00
-5.160757984390975217e+00
2.783556869765163810e+00
5.004662689926866470e+00
-4.719073128728085820e+00
1.248617471087194675e+00
5.729138640428423912e+00
-1.976055191826797897e+00
-6.989943987534760872e+00
3.255748061735325716e-01
8.432153027580445936e+00
-4.830372864440887426e+00
-5.576163980012376342e-01
-3.973687178890163985e+00
-1.899287558513712781e+00
1.242169357985069666e+00
7.813786268401328172e+00
-3.791746782893500978e+00
-3.749477002777512169e+00
-4.616390008889021956e+00
-5.787219669119131105e+00
-8.120062130085777596e+00
-4.504008388455240208e+00
-5.598555343895059710e-01
2.162178044970942126e-01
6.203401233802560810e+00
-4.347068950995510939e+00
-4.126634375426322165e+00
-4.004408141196540427e+00
1.035687080260291548e+00
-8.384738507186489942e-01
4.112193560141237825e+00
-4.175325555047065151e+00
4.832031232792211917e+00
4.986814999302663587e+00
-1.388710473915764521e+00
-3.293831109196161844e+00
9.585614158479719427e-01
-4.187986643375847251e+00
1.054070866936496920e+01
7.454314261544640052e-01
4.192785575483294558e+00
-6.704235096034540931e+00
-9.263217440191523266e+00
3.636309420113233770e+00
2.729544566141402839e+00
-4.024341982318630606e+00
-2.998796709227926627e+00
-3.597566749627990834e+00
1.205426878864290341e+00
4.888080005276671969e+00
-8.173819244709328302e+00
2.533029293693504602e+00
-4.625200968984595207e+00
-2.809148607440833612e+00
-8.488589342010450789e-01
-7.203421489231063291e+00
1.504721246783732092e+01
1.283049911039042712e+01
3.980242232492485321e+00
3.470960984169016328e+00
-5.521717124464580628e+00
1.257849730871965832e+01
9.691622009092107359e-02
-6.528827578377507379e-01
6.370301871903898849e+00
1.379887048284089035e+00
-4.108991546263384365e+00
-1.158308169351213390e+00
-1.989861063374759542e+00
3.420917616652356941e-01
2.933621872363475269e+00
2.818814901827088715e+00
6.884628781226870942e+00
-2.170921681406474610e-02
5.069118126000609514e+00
9.029907893515243700e+00
-6.486856947691220121e+00
3.770194188178737527e+00
-5.673684118866944459e+00
-7.973901707934324179e+00
8.384409794620289347e+00
6.007819125951433747e+00
2.769154007326089850e+00
-2.523432872040118014e+00
7.955307276441659248e+00
-7.233652462372069714e+00
3.565743627988149367e-01
2.567063090698947558e+00
6.810158504501287346e+00
-8.076293262336864842e+00
-1.621230026113249068e+01
6.104216296979629863e-01
1.679499655989564744e+00
9.189382612735509381e-01
-4.641492629047809793e+00
-2.336537592673602060e-01
-8.148522352186059692e+00
2.225349799957539343e+00
4.722664329431603747e+00
-3.873163583102037677e+00
-1.060280903199389257e+01
-6.866719940539831590e-01
-1.050260548079717360e+00
-4.264897220099318487e-01
6.897187229940191955e+00
7.333054390031387149e-01
1.102704525055522744e+01
2.014504707892327495e+00
-5.752527926870034669e+00
5.997922298544771991e+00
-4.780099363557873127e-01
-2.586075176383090923e+00
1.478306015598345180e+00
6.073184619360556535e-01
-8.246485426943785058e+00
-4.494783980273095558e+00
6.095239822623041093e+00
9.308303649840787841e-01
3.380859738498386058e+00
5.397603786172699536e+00
9.484673842299951474e+00
-3.381444637462216907e+00
-3.721646805980821870e+00
-4.891558645379765480e+00
-3.176969774018295389e+00
-4.828475244320209470e+00
-7.936852485836154436e-02
-5.726570493709911558e-01
3.075318103594160135e+00
-6.299707833750383124e+00
-3.459370263361800646e+00
1.901900092471910497e+00
3.696530111727710732e+00
-1.225716801602981931e+01
-3.185541583641937180e+00
-1.341899550505819771e+00
-1.079969903110327145e+01
2.374063094965570553e+00
6.371010583277574746e+00
-1.028089355169877450e+01
-8.280001515957282621e+00
5.037973366093523531e+00
6.007053306412769800e+00
-6.734226134356683602e+00
-5.225478095706593606e+00
3.488969486128524977e+00
-1.285832881354004753e+00
-2.758273044399060403e+00
8.434543597224326561e+00
1.575647748556475491e+00
-9.626661276844078685e+00
1.340277951510321142e+00
-7.435185417586716028e+00
3.926204010508291375e+00
5.195705479370050561e+00
2.320421276249370557e+00
4.909073145118198589e+00
1.039295667426020131e+01
3.844846707102012928e+00
-1.968031348807139924e+00
-5.784645414717506817e+00
1.187563588552425164e+00
-5.476362754847305503e+00
-7.612367595291996025e+00
-2.443634930431921148e+00
-9.409039614640809290e+00
-6.880776374274019780e+00
2.651606745378000785e+00
-2.514564537672270728e+00
-1.622395337745277999e+00
-1.371214719602575904e-01
-1.033958319881284815e+01
9.853054827505313140e-01
-2.026413920267372201e-02
-2.391863740974948527e-01
1.813991812002170523e+00
-1.145458114355795942e+01
1.011544524065578265e+01
-1.605023654512151232e+00
-7.588391237934821731e+00
5.901019792620106896e-01
-6.725718696993728152e+00
3.512822223104489217e-01
2.860313768175586802e+00
-6.978252271945570406e+00
4.473131466454557170e+00
6.936057629293220783e-01
1.846993609962627847e+00
2.137914895326458620e+00
2.711277087632909755e+00
5.927808082231126541e+00
4.552644361730738609e+00
2.576231293978564985e+00
-4.044103088742756924e+00
1.514971167398677654e+00
-2.951486407983467508e+00
-7.665314401364844876e+00
-2.189240791557924282e-01
-4.829656876121922515e+00
6.006006527262412575e+00
-1.995184646964343611e-01
2.394831926498159347e-01
4.101597445516285134e+00
-2.212283893159962656e+00
-1.357637395456659624e+00
6.162247884242761486e+00
-7.321011123988419023e+00
-4.587039787237959132e+00
-7.073711516278577971e-01
4.152301257844993820e+00
1.321646138342347898e+00
-6.124394520219166083e+00
-4.866502569410013024e+00
8.965348340319589937e+00
1.673373371975687807e+00
-3.272158045730919618e+00
-2.562301036667616216e+00
1.978956948492111323e+01
7.091347335696830179e+00
-8.658545723465934429e+00
-2.427367667280198926e+00
3.824437914881205547e+00
-1.457563967925127768e+00
6.026704350078118999e+00
9.334603266254006826e+00
4.000187334488229662e-02
1.559459880740085236e+00
-8.923882150452300266e-01
4.670869214780578815e+00
7.936068964791371805e+00
4.943864073184784047e+00
-5.730009186718863390e+00
3.991317361885422965e+00
-3.062173527260459327e+00
9.250542278010637887e+00
2.520006531152803930e+00
5.598534389250955812e+00
-1.114247193021779270e-01
-1.710991374499669648e-01
2.279234381339230175e+00
-1.629690218370186683e-01
8.353996548621706708e+00
-6.043333918211342137e+00
3.626522396447753316e+00
-3.104003264103079474e+00
4.555775533264553090e+00
-9.508499219631044497e+00
6.804863904886234494e+00
-1.636862972012012696e+00
-6.527335800707979807e+00
3.791959926135853642e+00
-1.014686793739142834e+00
1.466335077060484604e+00
6.496836207769383975e+00
-5.773463718626712371e+00
-3.896154201031850395e+00
4.254322465959727850e-01
3.002710702387287434e+00
-3.722810383432356041e+00
-4.196513314704261255e+00
4.081116993836271689e+00
5.204409053873609636e+00
7.392940135964451542e+00
-1.561554108134148633e+00
-1.366254392959505459e+01
2.769245757392012397e+00
4.020782983702387625e+00
-7.760926984483279334e+00
4.781997704261252702e-01
1.456649669078535769e+00
1.800810146184052662e+00
-2.458687567813222508e+00
4.414430824318870128e-01
3.176673238901450258e+00
-9.397692147098368309e+00
4.820515854676694190e+00
-1.935633181239976963e+00
4.044962835022015035e+00
-3.717547457326549232e+00
-9.056907871935219845e+00
6.249377391527806580e+00
8.683213181107729994e+00
-9.844024622670469071e+00
-6.837405384162425825e+00
4.982679759553483856e-01
-5.552140922755087082e+00
4.022474215242282547e+00
-4.217246450229674259e+00
-2.738506459236322854e+00
1.118697476591939521e+00
-1.152493805281775607e+01
-1.692702927201164220e+00
1.065946008037630932e+01
3.105193463559294820e+00
-5.286265068783291277e+00
5.534441543670560293e+00
1.091626590964345489e+01
6.744241105009415982e+00
-3.093162269110302454e+00
-3.479325798043376050e+00
-1.960184372965950050e+00
-5.550516829000715191e+00
1.545800683886523752e-01
-5.321078677549374802e+00
-4.630871130176669404e+00
1.697444619392246778e+00
-2.982111129722294862e+00
-1.081395273331453355e+00
1.136596085151848001e+01
1.948240705775593051e+00
6.297972392785178286e+00
2.317014596785553771e+00
3.190347881448063916e+00
-7.138454469987385309e+00
-2.894015601117254644e+00
-1.387579112514701007e+00
-2.363091163311914045e+00
-1.073584152798665592e+00
8.460363844370748510e-01
-1.177837052665070328e+00
3.648619468391705922e+00
-1.311090810145728813e+00
5.735164568768004401e+00
-6.928751519508929979e-02
-3.146418173270379537e+00
-6.621079231198248927e+00
-4.070790765054558946e+00
-1.345552049903370184e+00
6.360067916383978393e+00
-6.729453361012675217e+00
5.503423819742035761e+00
-4.855222011794233516e-01
-4.399156477042470925e+00
-6.979280851424921828e+00
2.904720369285950454e+00
-1.008583340985168775e+01
-2.441854334704923524e+00
-2.329944680672760615e+00
-8.630905932430846805e-01
3.075035949513428069e+00
-3.252050760542976704e+00
6.367289724183107236e-01
-6.443594975605419606e+00
3.052475127164836488e-01
3.218794071869738982e+00
-1.860793492361981993e+00
1.950601560506108889e+00
5.536071759990932595e-01
-1.821625837744403009e+00
-3.217838355690331165e-01
-1.031850897793261446e+00
-1.044569874493211259e+01
-7.932035644200132296e+00
2.290211012940328583e+00
-1.104939536219012908e+01
6.128970988929867580e+00
-7.460124319261609571e+00
1.615085844072866039e-01
2.498060090278391598e+00
-3.368950123136955188e+00
6.151228814210612406e+00
-7.253154069642224755e+00
4.797679697989308600e+00
7.860092283111073108e-01
-7.999206481356248011e-01
5.352859590850830074e+00
2.853179365763214292e+00
-6.372861950575865464e+00
7.469856903585325725e+00
5.312121491829190134e+00
5.492440131290663441e-01
7.919932143387982126e-01
7.069997227462039291e+00
8.773350621418636308e+00
3.241561726326124049e+00
-6.151402821786064123e+00
6.362407131498897250e-01
4.338706144227874262e+00
-4.415311178404728309e+00
-6.380213631640020644e+00
3.057333538675598497e-02
5.945144797646657597e-01
1.999088590321882464e+00
6.509485063247795189e+00
-1.154716175345311058e+01
5.283645862628940648e-01
-1.088236026692840142e+00
8.332889045987727783e-02
8.858854356715548661e-01
5.427216870603811749e+00
2.957300034192861915e+00
-2.417972250890318697e-01
4.715187675586670069e-01
5.574434969253201366e-01
-7.035188424576723776e-01
6.994744018889035964e+00
-1.011760805395289253e+01
-7.415283557726274566e+00
8.453059810161704490e+00
3.035186429739077596e+00
3.336710341967757287e+00
6.127939554003424050e+00
-1.067906937989601523e+01
7.614431761059726966e+00
-6.171734535642997344e+00
-5.199648909492851523e+00
5.482736294325624371e+00
-6.114866087160208963e+00
2.809091721421114851e+00
7.551966408613237647e+00
-3.436984272759326942e+00
-3.116809304978814144e+00
3.555687438006845280e+00
4.742416873374549979e+00
1.808060154880964499e+00
-8.366981135655107593e+00
8.519551831507843787e+00
3.293606121942779907e+00
-1.247011711244438104e+01
-4.760754584685833457e+00
-5.608616486754882224e+00
-4.114779913593801908e+00
1.354767187309134480e+00
-3.784276531334863414e+00
6.481166007794944228e+00
5.866306437198139712e+00
3.928586226793261416e-01
-5.572599287428203318e+00
-3.243395516683590489e-03
2.152156196991040993e+00
6.150534850676455889e+00
-2.456569238128415211e+00
4.218070353466533695e-01
-5.273726821521430352e+00
-2.439046956009071287e+00
6.181649916924932597e+00
8.445475282290214381e+00
-1.825250003943603261e+00
-1.397552970013562934e+00
-4.024645729811833661e+00
-8.093067139689877010e+00
1.972266995425481007e+00
2.500993413844498914e+00
3.198115368182414375e+00
1.382636926081036444e-01
2.800044635414626892e+00
8.750317653019161757e-01
6.584403795895971356e+00
1.981873449009543986e+00
7.678980158455291694e+00
5.673841580302030785e+00
1.899548138144657061e+00
-6.572982956408156774e+00
2.736875701086949775e+00
1.697144138726481621e+00
1.015137104785223521e+01
3.927711907307636086e+00
-5.985529508632811968e+00
-4.195023479418539480e+00
5.100167721970035650e+00
-1.021752463960036383e+00
-6.364462924123127863e+00
2.596606993219458648e+00
2.611886569887741150e+00
-6.272016277648638782e-01
4.558685543608842039e+00
-5.514992618700990112e-01
9.866694371209517200e+00
-5.806898700867960450e+00
4.803794530373181715e+00
5.243284657030345741e+00
6.702961366938295029e+00
-6.627172489942280142e-01
-2.185143385101805169e+00
9.209871058655490828e+00
2.891884340824762312e+00
-3.095937082044701860e+00
4.403953991185897365e+00
8.397216510134660084e+00
3.525806584841753910e+00
-3.841143496045971606e+00
5.182114697157595984e+00
-8.135060890085963337e+00
4.110132667711130061e+00
5.176308150019738541e+00
-1.174432257693623249e+00
1.466269833950273549e+00
7.951295904663859826e-01
-2.834882318296095161e+00
-4.537543239471371059e+00
-1.474496493587650781e+00
-3.291051763042454059e+00
8.009695999762165286e+00
-7.170709624983683916e+00
9.519587617676663172e+00
-1.245553873958584745e+00
-4.079546743518341678e+00
-2.879592386876952403e+00
-5.507710082589399647e+00
-1.075214978828967993e+01
4.317379531162744755e+00
-8.129444032690842370e-01
-4.436220880831179159e+00
-6.909131620097719306e+00
-2.977915312522485536e+00
-6.621654078195039261e+00
6.870712084101017858e+00
-1.003316218599408316e+01
-5.069881600733562088e+00
-4.672047326176171467e+00
2.514152473262996068e+00
1.342716572093788141e+00
-7.660969827528738563e-01
-9.112383885081776214e-01
2.106188520888935045e+00
-4.208648802621958396e+00
2.559058793879773752e+00
-6.998705030580755881e+00
2.858743851705266348e+00
-2.683885997365913934e+00
5.970224480182828586e+00
-6.472719266616543621e+00
-2.399474397140323845e+00
-4.343391123650493846e+00
4.974676240250389903e+00
-7.467120730369952497e+00
4.678005308428078379e+00
2.450871494045767207e+00
2.994550994831512991e+00
-3.641034802135400650e+00
2.515015561242143427e+00
9.263028129360124652e+00
-3.657697310540034774e+00
1.339619978328207672e+00
-1.391956757217217344e+00
-5.821907050741202738e+00
-4.364143511280507148e+00
2.776974077838769261e+00
-2.401180462235540658e-01
-1.297834163329068424e+01
2.816324311509257772e+00
-1.680357706818657926e+00
4.855778507688773615e+00
-3.405453325888041505e+00
1.220589825978756338e+01
-5.019810106167281738e+00
4.054084856960395555e+00
-5.690232739995297884e+00
1.031505598875655183e+00
-6.071448880979274598e+00
6.639375410572358582e+00
-1.116598149203267831e-01
7.908788790034664729e+00
-5.147371324907467072e-01
-8.594445288969939867e+00
-4.460914077478189022e+00
-2.074956877634394736e+00
7.309481101912819412e+00
1.444152033099533305e+01
-6.040023772750198194e-01
1.682619774555477843e+00
6.614314555425635511e+00
-6.038635641792783559e+00
-1.669849200658933386e+00
3.542799295844430318e+00
1.868419791514159822e+00
-4.461485486374439646e-01
-5.171404300510817009e+00
5.512667258910365353e-01
3.771817120998957051e+00
-3.801148482912529492e+00
3.940565676134840656e-01
1.105677032415384708e+01
2.525577104047973975e+00
3.138202919680463943e+00
-5.482449473822141428e+00
-2.914670179992577825e+00
-1.679706084748620487e+00
-4.437422552318809110e+00
-6.397322252224276973e+00
-8.284478089267985013e+00
-1.099887360606748077e+00
4.406424496761188081e+00
3.263371538677523720e+00
3.578189658133331452e+00
4.825830237603957684e+00
-4.544013207259111731e+00
-3.615169393046760327e+00
-1.246478175351110051e+00
-4.715623325693726997e+00
1.321003501215086473e+00
-3.508741995688004600e+00
5.893897907845659034e+00
-4.644691983228452337e+00
2.976395421761432569e+00
8.882282016420251836e+00
-6.429729269652073143e+00
-2.917037864731687247e+00
-4.064308535343390538e+00
-5.609883981224029981e+00
1.379296656374802366e+00
2.647178877784123863e+00
-3.877267013848092247e+00
-2.711533587345291707e+00
1.282589622385022832e+00
1.661164240076428156e+00
-5.880248195723080329e+00
1.217789433118683640e+01
-1.235131130417876255e+00
4.662392956556007939e-01
-3.323098458772954178e+00
-1.368751502878748250e+00
-4.784570041076067426e+00
8.614972928256312557e+00
-9.773425924155681344e+00
-9.785627624319518381e-01
3.497941166271742564e+00
-8.450823216001266402e+00
2.439224683447173359e+00
6.965604590628164061e+00
1.568085002872876998e+00
3.974698694897075272e-05
-1.810085432807873040e-01
-1.489406322257653237e+00
3.069706350896599822e+00
-4.568899028869719103e+00
1.729160268497473174e+00
-1.791131695401486423e+00
-3.077352899678629239e+00
-6.118356217334532943e+00
3.568913034885705216e+00
-3.125090887002432982e+00
5.701133028345599207e+00
-1.483876556843922723e-01
-1.636095872239250182e-02
-5.808818831124255233e+00
-5.291588886834196259e+00
2.894154841666762845e+00
-5.089268356076276367e-01
3.108048266893530531e-01
3.444502525571602636e+00
2.761068826459259107e+00
-1.882700398209334214e+00
1.531412965555216488e+01
1.658746216427054776e+01
2.329686363751219513e+00
-7.614743698575630937e+00
-4.728070361025470625e+00
3.077968974141695568e+00
-3.050813553334190686e+00
-4.322847915708694644e-01
-1.056473395312132979e+01
2.307826200659481852e+00
6.393841559663254515e+00
-6.425221068403860869e+00
-1.817450602806758519e+00
-1.899569637209561845e+00
-1.314752349813687005e+01
-2.516653435835689123e+00
-3.011436354708919350e+00
-7.373277324344233108e+00
-4.627173444104597522e+00
1.306094884725546912e+00
1.806281464794949887e+00
1.718871912939114122e+00
-3.047349601380060058e+00
-4.364550522524924148e+00
7.692443782540392405e-01
-2.080105967429072500e+00
5.483658166713661686e+00
6.160329824927085696e+00
-2.500584999083769411e+00
-8.642741299658013077e+00
9.701522189380608063e-01
-3.539110446600161275e+00
4.350754569890984413e+00
3.704210176695970524e+00
-5.558749551231437991e+00
5.546163377028893393e+00
7.366506849325827666e+00
2.043501532689912192e+00
3.228268411837824203e+00
-2.756218105336768698e+00
-4.545797575503346621e+00
6.639577091564054179e+00
1.275702700032697035e+00
-4.850513374669636613e-01
-3.646806663668603621e-01
3.982843309839682266e+00
-1.141005806573478276e+00
-2.637170369058137176e+00
-1.612391292011024824e+00
-8.597688906667582120e-01
-2.573908547806249558e+00
4.670996412748948945e-01
-2.601036838918629357e+00
-2.407012576964638662e+00
1.051073244055653078e+01
3.841505098491705683e-02
9.036914942504715498e+00
-5.316186044494597418e+00
3.993717689919548341e+00
5.988331103005349598e-02
8.947094463163956846e+00
-2.461290084410049595e+00
9.483139023737651385e+00
-3.114512741844216670e+00
4.035665012869703305e-02
-6.116823637872588648e+00
-1.828093352598388344e-01
-1.094296204854881660e+00
-5.869734445342719376e+00
-9.767124589331640294e+00
4.742868169765847242e+00
2.619761347703679188e+00
-3.684310810497863464e+00
-5.650426332229540050e-01
-3.837036588734167530e+00
-7.305497778931480113e-01
1.322970018996333597e+00
1.868326684054240072e+00
-2.650656923110601859e+00
-1.110070052427540421e+00
2.730762366475920633e+00
-3.488480834073500514e+00
-2.939439706350460479e+00
4.330675396460351156e-01
2.617775487444857330e+00
-2.243108219874985210e+00
4.214425829044264660e+00
-3.707075993070825803e-01
-3.559464995958400380e+00
4.995497118638924650e-01
-7.707314281443406578e+00
-9.713698895528127153e+00
1.793774032769379634e+00
-9.398485251931756324e+00
-4.243083263932089899e+00
5.283942732256414310e+00
1.754985537442103283e+00
-4.497154822701151744e+00
-7.931400750361827789e-02
-7.586708766070638710e+00
-6.027429312153465446e+00
-8.879216245789174344e-01
3.108181839267682989e+00
-1.784621068598385984e-01
-4.459989960599436420e-01
-3.440956643354603717e+00
3.942742786404098698e-01
4.211711647036519679e+00
5.839904981319198995e+00
1.813606102058505254e+00
6.453837452618504944e-01
1.879210332652699655e+00
2.779668575187197010e+00
-2.549067528987466691e+00
-1.952962515754971262e+00
-3.510271843094557642e+00
-3.326963061169505131e+00
9.963065242610955607e+00
4.153087133133436026e+00
-3.622941770287581686e+00
2.238970893991495958e-01
1.626918180680935855e+00
-4.759679628192886591e-01
-5.099201961075261913e+00
7.653549220239770356e+00
-6.287926794275709774e+00
4.594368650842297619e+00
2.859082723808969995e-01
-4.304060296912414429e+00
-8.545144933537617282e-01
-9.790947638183247648e+00
1.454873434759398121e+00
3.854289198438682007e+00
-2.804540114229099768e+00
1.575959331766030980e+00
-1.322159117160439479e+01
-2.811601383215083239e+00
-7.076160538654312937e+00
4.895701527413738319e+00
1.028106529736984909e+00
-2.499329232109115950e-01
-1.001204616293583705e+00
-1.285116769852351348e+00
4.153747213438468755e+00
-5.511889729577282182e+00
4.932529495851793122e+00
3.701508483138404859e+00
5.453697061775617527e+00
-1.840924776255792317e+00
5.722116715201858383e+00
5.295134930197431977e+00
2.378810874211124915e+00
5.941077567033883788e+00
-2.334916677019521991e+00
-3.870237858384745211e-01
7.130117862607386670e+00
1.067396532568026579e+01
-8.712306123277041792e+00
4.957874912123401145e+00
-6.656661909598069471e+00
1.112647416570833769e+00
-3.110555112516828480e+00
1.088295904462069252e+00
-1.577973719734262925e+00
2.085033417870184369e+00
3.437783964015445282e+00
-1.842084278959078336e+00
3.537353294146859284e+00
-1.521555914966086220e+00
3.623363731852656144e+00
6.229883663660478632e+00
8.734613178162607960e-01
1.233393507747495121e+00
-9.538160212684690720e+00
-4.084054470067146170e+00
-3.294461395972748896e+00
-7.971364952766293310e-01
-7.407488355461447682e+00
-6.883910197667171715e+00
-4.079711056624981680e-01
1.099598629422074758e+00
5.217939594603075548e+00
7.580680748683541914e+00
2.795003367770134695e+00
-1.945661279492855833e+00
3.659878891242230647e+00
-4.224033975970766797e+00
1.131304594806363140e+00
9.470720785150255949e+00
7.796645216058983863e+00
-1.599914092194099302e+00
5.134171668685701739e+00
-2.052459884281216507e+00
-3.254511516892717893e+00
-8.514966378741439357e+00
2.840673297998180580e+00
1.618725534688864043e+00
5.208934822761174921e+00
4.264115235842085738e+00
-1.584755082178238350e+00
4.566650433892657013e+00
9.950902442398721348e+00
1.217603856928256079e+01
4.087045598310942829e+00
1.526319178891058614e+00
2.056412595220183270e+00
4.412127867990918162e-01
-3.045321502158408578e+00
8.345411922790114900e+00
4.034403901656937741e+00
7.751106123334150499e-01
7.870967755954029421e+00
4.442999599719202664e+00
-6.646938642716763823e+00
6.543026795946031093e+00
-2.166291232365789909e+00
-6.971295752901202292e+00
1.533639315023984206e+00
-1.641244545804139809e+00
-3.938988202281185291e+00
8.378511689470908408e+00
3.159886336484138414e-01
-2.763159000963556489e-01
-1.329967107414733896e+00
-2.079260333617487522e+00
9.988263520147698804e-01
-1.699164035230608105e+00
1.713399812634325059e+01
-5.578673658763625198e+00
6.203309348583101457e-01
-2.488204914404062329e+00
-3.717125575802635140e+00
-3.534047071099029047e+00
1.463222423737968736e-01
4.926929438425247554e+00
6.320105496381365207e+00
3.685914016607044541e+00
-2.241690339734847992e+00
1.016787170718641775e+01
9.405946887096403586e+00
9.328829247339500697e+00
-2.494447643200873532e+00
3.287996162685199231e+00
3.757938799489916271e+00
3.094865412271695426e+00
3.009268325578380754e+00
2.904866307892842503e+00
-1.600157787117714836e+00
6.387886175634826635e+00
7.289201850163105512e+00
3.366563394418001121e+00
2.925770042516688263e-01
2.147168875677705646e+00
6.605558289488073775e+00
-6.745022222692986791e-01
3.700697755896694030e+00
-3.890192990399367723e+00
2.006423513864355357e+00
-6.744205884789485239e+00
-6.015384446183937861e+00
1.105010838935788442e+01
6.965402314972860554e-01
5.839729292160972030e+00
-1.416310512512563413e+01
-1.257657012766272953e+00
-9.300651167429461186e-01
-2.953627063810670084e+00
7.389143457256582836e-01
-4.583812467902810717e+00
6.644731941905700268e+00
3.486398501426340779e+00
-6.054759459917631759e+00
2.564296777708893416e+00
1.664117452339972658e+00
8.523136226859477915e+00
5.586576082983909508e+00
-5.917004105361296951e+00
-4.112016454401595134e+00
5.261532342902919268e+00
-6.992096381663023053e+00
3.174067674505471892e+00
-3.589123759500929989e+00
2.692816478936499003e+00
2.847946571925449533e+00
1.981648821242627312e+00
-3.951392556213571883e+00
1.774480716903003297e-01
6.456168598030699535e+00
-9.767133974293447096e-01
2.363343605578195117e+00
8.723486028269661574e+00
1.010327165325393928e+01
8.225825654602168413e+00
7.554333297397760605e-01
5.439301573450043836e-01
-9.343871288227281191e-01
-2.709337604042804326e+00
-8.674567442435475728e-01
-7.465387960782891241e+00
3.058316460364657097e+00
-1.505997937123814578e+00
5.985495977118489463e+00
5.555543637840560933e+00
7.370413776896525881e+00
-4.110080327252938481e+00
-1.199334024151051503e+00
-3.863538968937158202e+00
-8.249136045683888696e+00
-3.546028237031580321e+00
-4.194372062087602160e+00
5.982005554571249384e+00
-1.449273488685965461e+01
2.700064615883040364e+00
-1.341893895712357399e+00
-2.421482472403796660e+00
-1.619231947667166827e+00
2.464312335914296881e+00
-5.183868758870049387e-01
1.258321021907123871e+01
1.041506338030794065e+00
-2.491220942032260410e+00
-2.802499990153252796e+00
-1.143780475172838207e+00
8.415598463286830366e+00
2.873601999624590508e+00
7.285872981557979244e+00
-6.688910700188145597e+00
-2.577458235776298956e+00
3.684029570330608072e-01
-1.060884017693733972e+00
3.719413391753832787e+00
5.563465706662075405e+00
-1.937149607518746874e+00
-1.519595071223868743e+01
-4.882614739459691044e+00
-6.351861362590287108e+00
3.082102643160604671e+00
1.081195187789024104e+01
1.815200842590594554e+00
9.628376844292660053e+00
1.788439575823336458e+00
5.941633174654468164e+00
1.714874633745155030e+00
3.996667938108001472e+00
-4.904695502722629108e+00
-1.640704216397152138e+00
7.979383058812066665e+00
4.919069661030352592e+00
-7.170280859145854890e+00
5.688411984258004317e+00
6.516733699726616535e+00
-1.458205132021763273e+00
1.767416712421728375e+00
-3.037339945696687860e+00
1.631722701839166012e+00
8.312988195791682910e-01
-2.038628710760396867e+00
-2.144295422424097319e-01
-2.870552521228489695e+00
3.645323019702378708e+00
-3.408586392048370328e+00
1.873230611203629215e+00
1.485760705939067394e+00
-4.170074853052206265e+00
-2.110104311977528901e+00
1.653502108884838950e+00
7.272048866426962910e+00
-3.388883518052720589e+00
-6.553131227954659410e-01
-9.854573236896913002e-01
-9.277234974026448810e+00
-7.824664943279392437e-01
3.978395799977434422e+00
4.133939727348292514e+00
-2.539852564882315811e+00
2.834427835818962738e+00
-1.316669169347966406e+00
1.891692195001489551e+00
4.952221350548359879e+00
-3.511635197581023160e+00
2.539442969739033273e+00
-8.676983728532553286e+00
5.161374727537689111e+00
-8.178118695459938081e+00
-3.370611490039568947e-01
-1.003220742668152532e+00
4.559521761436973186e+00
9.465914826478568855e+00
-9.943032982595155778e-01
4.588111369492037239e-02
-5.600226613645525653e+00
2.990158949952681056e+00
5.280545405117380575e+00
6.225440912422746109e+00
-5.270202438895805308e+00
-4.621876357877473751e+00
4.787164537306147771e+00
4.969847305093471945e+00
-1.084569584295957156e+01
-4.320540767692274464e+00
-1.161245455277484240e+01
-1.011201937381828619e+00
7.496589950872457608e-01
1.847159484687348918e+00
2.391591241525473421e+00
3.477562977435162850e+00
-5.331849141693858485e-01
-7.998291344199825126e+00
1.131753023532235281e+00
3.974688524051595007e+00
-7.472867260031124559e+00
-5.119991451895308465e+00
6.356156858802500587e+00
8.625421802466469501e+00
-2.460123000360912471e+00
-6.901017693597252922e+00
-3.166442922855229103e+00
-4.386311517719612141e+00
-2.418607546219950777e+00
4.353570345435606725e+00
-1.016932177186691710e+01
-1.081222565901475541e+01
1.028035173739680808e+01
-4.255143022258422114e+00
6.263155554388047719e+00
-9.763437907196472310e+00
4.543589663880771568e+00
-7.480997498638974008e+00
-5.223879512585613227e+00
-7.388916497078168888e+00
2.881325338975389450e+00
-5.509198972654284709e+00
-5.282470895573204039e+00
3.563914149803387943e+00
8.295669555409272533e+00
2.271384432963579947e+00
1.380699994677197839e+00
4.126282859844836892e+00
8.824927701331677810e+00
-1.312839707088903296e+00
-5.174024749966790182e+00
9.751814047166201149e+00
7.486823223639805569e+00
-6.424332014877107255e+00
4.303942716401438773e+00
2.156600380993040744e+00
-3.758151649546553896e-01
-6.096750620204348436e+00
-7.464190841482152727e+00
-2.897715698060681078e+00
-3.807827432496916908e-01
8.683005166843559053e+00
-7.402191801816611516e+00
5.386662212114266879e+00
1.127370490452180629e+00
4.317441541223329793e+00
1.070106355943272369e+01
-2.347518373761856569e+00
7.308549253384285516e-01
-8.897630098484382799e+00
-3.543635554001931531e+00
8.264182701150605936e+00
1.071187524552676251e+01
8.846559318241012937e-01
-2.765573673111240138e-01
2.437847721886426289e+00
1.571282678236986863e+00
1.191719253757989350e+01
-5.344450292068383845e+00
-8.914656863190847602e+00
-3.941757518382704273e+00
-7.289428263717919521e+00
6.006719406366092251e-01
2.982852954979251514e-01
-7.901190054639547711e+00
-1.735122979744982141e-01
-1.555508459782426911e+00
1.268874769811102476e+00
-3.390941391671104643e+00
-2.118773841442570749e+00
-1.521811142531633632e+00
7.030511238265390261e+00
-6.004550135748261575e+00
-3.081178325133030249e+00
3.432331532351332037e-01
-3.840242127437600850e-01
6.118622524773548399e+00
-1.605650810624290603e+00
1.833782960198519607e+00
1.738298338221126171e-01
-4.516653701612563410e+00
-1.626604220313973448e+00
-1.517715541670781043e-01
-4.227413305319108972e+00
1.373678459790475337e+01
1.181943241244716170e+00
5.533045968253400559e+00
8.814365835455005183e+00
1.060599847973186094e+01
-9.540336814893736417e+00
-3.390817833718334118e+00
-7.413708403915983958e+00
-2.596002656816295939e+00
-1.886669288362021746e+00
-7.787530969491443855e+00
5.874775723637307934e+00
6.744442805061358293e+00
-3.740672930018067888e+00
3.601368139028777726e+00
4.519087281863229499e+00
3.500760040761609737e+00
-7.185071327749804837e+00
1.293911808838726252e+01
1.104377523361361391e+01
-2.587966412338279731e+00
-2.450646985158003055e+00
-7.041700529685511967e+00
3.252702938602822336e+00
-1.623030785272272861e-02
2.550699855552786222e+00
-2.227579011757487848e+00
-6.678880592106643199e+00
-5.083944028661536052e+00
-3.264706487672729196e+00
7.900776060006997614e-01
-1.204314261274172182e+00
4.122127779837628125e+00
3.588291998001080341e+00
4.942085417112465073e+00
1.570278097211509793e+00
9.818968616608945155e+00
1.134346994042047996e+01
-2.599753716145399185e+00
-5.596212786733521405e+00
4.057874335301370650e+00
3.107452296580882845e+00
4.245615067270874121e+00
-2.633519814042115215e+00
-5.418681919920306456e+00
-8.276579805870513118e-01
9.187781451544690725e+00
-1.069719178016658390e+00
3.683664218828458292e+00
-2.978776834079500446e+00
-4.653568339935667986e+00
-4.235042187035213068e+00
-1.191317290389841865e+01
-3.467632863280741162e+00
4.674834771644658105e+00
2.285503515780330230e-01
-4.475771057593853186e+00
-2.832454029143664509e-01
1.374076277520453360e+00
4.403005704545814858e+00
-3.868457419951784271e+00
-3.968307050566624583e-02
1.760909263982994855e+00
5.573236081730744473e+00
-6.615937225880512251e+00
-1.617824503878751541e+00
-9.517095838963724574e+00
-4.441230632872700035e+00
1.783094864990025563e+00
9.043510790226973128e+00
-1.260657144046907652e+00
-2.125274030744917830e+00
-5.288452415704028908e+00
-7.232821004412441468e+00
-4.557467062863964635e+00
3.284658608326743945e+00
-1.108924097786633034e+01
-1.089971274129763135e+00
-3.614740431876905635e+00
-5.531565729604071890e+00
1.258278669854589138e+00
-4.190959831689776927e+00
-5.755797773130641559e+00
-3.088010433134834809e+00
-8.171564160000972521e+00
-8.701076809080051433e+00
-4.212608729399535790e+00
-6.060437346528124714e+00
4.716800122071605372e+00
-4.319386523929842903e-01
-6.158697820720025362e+00
-5.606095708074005923e-01
3.209673913932880041e+00
3.048385222926002225e+00
9.073236668464119248e+00
-4.245865317967974839e+00
6.790228364580603859e+00
-1.953277380646172956e+00
4.045010173458917224e-01
-4.541534522786522921e+00
-5.492808616665826982e+00
9.611956352430862438e+00
1.000857578275381954e+01
1.566983693179320847e+00
4.416220374743565991e+00
1.136119455904435860e+00
8.371664712514949258e+00
-9.421361557738078929e+00
8.625065752353391346e+00
-8.889696733641500259e+00
8.459901273650645592e+00
1.132226585731637236e+01
-6.630736517365360072e+00
-3.748148274205539643e+00
-6.359528092121738418e-02
4.416697790079862074e+00
-1.147616829245623649e+01
-8.297280874568582210e-01
3.526178155068047548e+00
4.157552767646393477e+00
3.441223591133945714e+00
-2.394205804695169082e+00
-2.175543362997246710e+00
-2.984475995557110295e+00
1.338279246679705992e+01
-5.452758706626450014e+00
1.284309554563191069e+00
-1.676987701401167818e+00
-8.658288071921904638e-01
1.701181334579689342e+00
-3.076662355744344435e+00
1.983421670369498457e-01
-2.374136530614981311e+00
3.880116936173842124e+00
-2.119473892800584292e+00
3.064349085474275536e-01
2.584898585088454132e-02
9.972729442114689036e+00
9.809525112497713195e+00
-6.346772673320668190e+00
-4.224985787143505256e+00
-7.731059236119077305e+00
-2.059049381916414845e+00
-6.756841360924261686e-01
-3.868507018639267603e+00
1.652300322044921721e+00
-2.911358961975394344e+00
-4.811971918379693292e-01
-1.006591111757557577e+01
3.173888482330119221e+00
-5.342474609039849831e+00
-2.586779770054768779e+00
3.061700923907051397e+00
-7.767895926756642311e+00
5.242458441110890099e+00
1.227514189401026634e+00
1.171963153754645992e+00
-7.619865395708704803e+00
-7.259008784805649483e+00
1.808244207256881897e-01
-1.772576512717318087e+00
-3.258606774455241606e+00
-8.426173693014633592e-01
-4.925417582790121429e+00
-9.680915373627774212e-01
2.656603691062712436e+00
-4.907142764218258790e+00
-4.644986512667339085e+00
-8.400128555250373497e-01
-2.652944564866540400e+00
-6.301702317584915169e-01
1.249263929364860526e-01
-9.350930243074886405e+00
8.153484006547012442e+00
-1.287456717025020403e+00
1.950975127993797853e-01
-6.570868433025458089e+00
-1.590229277369693994e+00
-1.836066284694126027e+00
-5.742209083963722094e+00
-1.461725028896733392e+00
-8.449645982626758922e+00
1.176372355838052464e+01
8.830209246582757521e-01
2.298518493795904227e+00
1.221054900459007886e+00
-4.525720858532721103e+00
1.119509764192622159e-01
-1.433812886474724202e+01
-5.642495248257897167e+00
2.798618530319491260e+00
-1.642675668602781247e+00
-1.254223875786240683e+01
-7.921445236057026662e+00
4.240461328303447353e+00
-9.547098183474066246e+00
1.225625501689369262e-01
-9.893863137753690751e+00
4.541878488036389605e+00
2.578103011260572952e+00
4.702204998064836161e+00
-1.993278678076002564e+00
1.824188845490044564e+00
9.575839886870672890e-01
-7.060225816767308871e+00
3.259648449845452545e-01
-3.759001713994258864e+00
-6.619143703073423701e+00
-6.184872983865721707e+00
5.791915951381030325e+00
4.285736254916560739e+00
-2.047866223663953100e+00
-1.096806503839620106e+01
3.011917232926724974e+00
6.069862587088048933e+00
3.283274461635360630e+00
-1.395961130347995294e+00
-7.576258144226178715e+00
-5.279999136612406607e-01
-4.824253430992549774e+00
-4.259760608074424582e+00
-4.867598056114645910e-01
-3.443627505344108553e+00
3.069697500468470119e-01
4.837966917566348002e+00
-8.026665831694309361e+00
1.337793085216077094e+00
2.105511392528443881e+00
-1.605403281014065708e+00
-1.087320945406789363e+01
-4.712549892727456502e+00
1.199038306196978887e+01
3.754478552079855369e+00
-6.412912231185177170e+00
-2.109309168943906077e+00
-2.382803710065811931e+00
4.334923279520289108e-01
1.523948643648559864e+00
4.160127404424451392e+00
5.962539222808928008e-01
-4.714056223430065806e+00
4.673547213011639556e+00
-4.169362897473582130e+00
2.830494268830337390e+00
9.534447095504784642e+00
6.527966192731571304e-01
-8.903709539182361965e+00
3.209640375681428459e+00
2.021424955739821172e+00
-5.676589403876493023e+00
3.248608844987228128e+00
2.352521387618319859e-01
-5.772476121422671191e+00
8.496342503453429007e-01
-9.615968408567341363e-01
-9.797252279046173129e+00
1.111518986104323981e+00
-8.500485861239289065e+00
2.418131106974977573e+00
-7.665963012454223069e+00
2.419597849572723280e+00
5.282088604306640622e-01
-8.002713473982987935e+00
2.347461806872485290e+00
5.446030463969628421e+00
-8.363117253697531339e+00
-5.102512818134336214e+00
-6.153442681058038488e+00
-2.125667123998182362e+00
7.174995800680262548e+00
-5.098187829518718850e-01
6.852042234072437843e+00
-1.570175438557394942e+00
6.178508881566945554e+00
-3.784113094520314746e+00
-2.651676377973511300e+00
-9.277415496113796678e+00
3.705052006597242542e+00
-1.429164502738384357e+00
-3.063993253337169431e+00
-6.035177144387678716e+00
2.653086906359982677e+00
1.191288172874102713e+00
-5.763128774087705963e+00
6.773449325505047192e+00
-5.219040876373532978e-01
-1.527475528394940163e+00
9.230820003921438754e+00
-9.521433128280128999e-01
-1.068327021683520339e+00
-2.076506984622786156e+00
1.135721238700822155e+01
1.079166112952631273e+01
5.152372431410595865e+00
-1.002435497196287661e+00
-3.505525475932139479e+00
2.194082522224138909e+00
1.683089817791740828e-01
-8.431033850350047487e+00
6.052731567110960498e+00
-2.695735526075026645e+00
3.431796242374909767e+00
-6.246128534078886352e-01
-3.827391321483711861e-01
-7.105268828102259349e+00
-4.656781373981250916e+00
-3.456086493691227002e+00
-1.152185184399773382e-01
1.789884290076254825e+00
-1.528158145621042685e+00
-4.035142024018955276e+00
5.572289996056110972e+00
-4.945647103949042667e-02
2.520996562514758565e+00
1.981082573943882874e+00
-4.651146789546191762e+00
-3.378612017858526606e+00
4.528806902771756349e+00
1.034997765442906292e+01
2.498564064362188919e+00
-3.570071040613201241e+00
6.500147569111212498e+00
-8.689870839905369237e+00
-4.440227228529715298e+00
6.727159488684044675e+00
-2.254084562950577020e+00
8.011033405161866128e+00
-9.082466712346151994e+00
-3.475787993555065736e+00
1.771380808984886368e+00
1.023096950760458368e+00
1.470379587159474033e+00
-1.692449452991219572e-01
-3.315052836335839359e+00
5.260894869181839795e+00
-3.509634373615530212e+00
-6.648518112754345566e+00
-5.863926839533687430e-01
-1.360565183069493678e+01
4.395438849373428880e+00
2.598442492907370838e+00
-3.886315288485079900e-01
-3.648291642379272837e+00
-9.567274382590424509e+00
-9.121219340499010286e+00
3.599800717583009568e+00
5.197343639169642593e-01
2.002076977824650772e+00
-7.543643895579926761e-01
1.605955964347646869e+00
-8.434960618453354542e+00
3.407199525972831822e+00
1.909040820904653435e+00
4.717556418167373700e+00
5.966672917621647088e-01
-5.371894331144933865e+00
2.510894781254584096e+00
-6.241514034977729608e+00
5.235987250882962130e+00
1.677881178425683295e+00
-3.509211110831566671e+00
1.970269769737030607e+00
8.425550554620313548e+00
-5.213474312644757802e+00
8.979877079100722526e+00
5.183416850355612171e-01
5.849921381703145684e+00
1.550071501166563337e+00
2.544199342523562279e+00
9.514452263508367480e+00
9.906175504400844822e-01
-7.888914060384012439e-01
9.959498992778044180e-01
5.793594759695052332e+00
-1.126622484192463691e+00
-4.880963436565004088e+00
-1.192355540946868242e+00
3.039786785118654855e+00
-7.271188506900529147e-02
2.192322768793072196e+00
-3.983720151708071811e+00
7.200550547858599160e+00
2.040173861115457399e+00
2.054615085054162016e+00
1.623720093916771745e-01
3.246168390364790657e+00
-5.122392128432708969e-01
-7.660631610363884958e-01
4.196613131110915162e+00
-1.596113151127444230e+00
-2.974457626462132520e-01
-7.552468358033693541e+00
-1.305162750341970934e+00
-6.585659536333133168e+00
-4.963857487077799391e+00
-3.540979160130543590e+00
1.008445783612799040e+01
5.872793527201219277e+00
1.715818702283201880e+00
1.614992700845830020e+00
6.277479432363874068e+00
-1.098354540748664299e+01
-6.553375607244023016e+00
-3.080504185676914419e-01
-4.090603224210606292e+00
-6.869286061898906226e+00
-2.228099946117103602e+00
3.297812818228193166e+00
5.035708789384697681e+00
-3.700086348964629623e-01
1.525286693843134422e+00
3.251605537846428806e+00
-1.368840199441503458e+01
3.393594512884710479e+00
-1.098438398855666520e+01
1.697274051031302911e+00
2.869416555475070130e+00
3.166221319980218052e+00
-3.090687328801162259e+00
3.126234805664068084e+00
3.100148418098879421e+00
5.099120308763829712e+00
-8.272579158188214876e+00
-4.311563047759823242e+00
1.766154528944081870e+00
-1.144296777718035063e+00
3.644133866949172962e+00
2.494618241696231919e+00
1.097871684472764287e+00
2.362124719494451242e+00
9.420892547179877674e-01
-4.637443210243396230e+00
2.808064420210893086e+00
-3.378222595765650205e+00
8.204371195861272170e+00
5.644619549493365973e+00
-3.650450177747218028e+00
8.045214949195400589e-01
-7.551176618474290336e+00
4.924963774185298626e-01
8.226430056694180593e+00
9.877705387349057231e-01
4.986229662740456092e+00
6.479054305077906584e+00
7.285818276377354907e-01
5.916094366144348804e+00
-1.118089554248408835e+00
1.186758922869668442e+00
-8.032999874250226213e+00
-3.896716221386405721e+00
-1.888096569567230043e+00
2.902381931926854453e+00
-5.901404055625629752e+00
8.283738994660621024e-01
-8.461348273676001952e+00
-2.112827587159616272e+00
-3.701599732481588578e+00
8.286773611200242584e+00
-4.053620728511575955e+00
