2.780849956170108536e-02
-1.047315942866599257e-02
-9.042205106061894718e-03
-1.836902922643115360e-02
1.481562247729010552e-02
-3.940192724721958140e-02
2.987086260462874093e-02
-1.303172480646408796e-02
5.461891763499070358e-03
-4.269175836796485456e-03
2.503102408886364802e-02
-3.526923725623885841e-02
-5.519724362232946921e-03
-6.574941260874085300e-03
1.940992829822269644e-02
-1.882994005415188424e-02
-2.951939803783999641e-03
-1.502877773169304827e-02
7.226917275713765423e-04
9.977691307355927505e-03
-1.884240174029311668e-02
1.959746338152902612e-02
1.543507047165239982e-02
8.602612422024348560e-03
1.542249131907095366e-02
-1.170529759095779304e-02
-2.103858489038171620e-03
-1.602020388309095128e-02
-4.586195590859684472e-03
9.079589903878424254e-03
-1.184110728017674814e-02
-6.792348797545987721e-03
-1.176427264642458843e-02
-1.446976809054583910e-02
-1.149161265377138426e-02
-2.168156485459547366e-04
-1.912815158362582424e-02
4.013154453372607365e-03
2.841551381079730071e-02
1.270366214955297342e-02
-3.284190045481411805e-03
-1.519604771921301625e-02
-1.279121518679652431e-02
2.897451741712187348e-02
8.698195950360344169e-04
-1.090525054258092291e-02
3.268438652554458198e-03
3.595598900870246306e-02
2.057099587419711998e-03
1.056640588247256818e-02
5.138861720947930471e-03
-6.030453819087892853e-03
-1.955970541712762426e-02
-5.980684379333894157e-03
-3.576231586700926585e-03
1.004288319454586451e-02
1.436324467623187329e-02
1.594029964257836010e-02
4.889203482718969783e-03
1.515345703524384642e-02
-1.291515664146796090e-02
2.144887677525988967e-02
8.781265982812987148e-03
-5.103295555082771294e-03
8.363342530328676111e-03
-1.293774092280091477e-03
1.937329094472013680e-02
2.601898969195846206e-02
3.741665663855981566e-02
-2.390776530784004261e-02
-2.472296780209686309e-02
-8.636364557965585734e-03
2.739805755076884803e-03
1.499985385120703937e-02
5.403613349952708991e-03
-3.461971996959200409e-02
-5.242157450903056973e-03
1.417477649833784152e-02
3.939180355771326053e-03
1.304549392496566658e-02
-3.806217689069231122e-03
-3.436941919332712602e-03
3.193897354333681982e-03
7.020010218728586597e-03
3.394855431356415439e-03
2.037406544696587600e-03
-1.148161734045185546e-02
6.463823901798361297e-03
2.085558180393480912e-03
1.933656072209255505e-02
2.052525779528686228e-02
3.169844461425248058e-03
-6.424810636671730510e-03
-1.093494933594481820e-02
7.250146934772831037e-03
1.324048016440542265e-03
-5.886712887732515644e-03
7.463703232620833320e-04
-1.061430258790416886e-02
1.195018248445013989e-02
-7.654760358247083944e-03
2.096335098072720643e-02
6.907704109542367986e-03
1.016195722444523074e-02
-1.874469325520971424e-02
2.899796694004973339e-03
1.267819283165264738e-02
-1.632718223638664548e-02
-4.557612791668707100e-03
5.583551550773036085e-04
-2.350752078494308325e-02
5.395471930740474917e-03
1.448611762244136729e-02
-1.471475783327397431e-02
6.001283909261181590e-03
-2.246605523836488552e-02
-6.624601371953779119e-04
-2.766173119503793562e-02
1.919846883893220127e-02
7.000303435687535783e-03
-4.214378432049559284e-04
-1.327062706560108718e-02
2.180647171340759777e-02
3.367642704296169853e-02
-3.180831430245321251e-02
2.116290517277116812e-02
2.786508723333162504e-02
5.786699261321577407e-03
-2.053125234176995939e-02
1.478031607168488887e-02
-3.097322929956720147e-03
-1.033901218852309109e-02
-2.105837335566169977e-02
9.425102603196518214e-03
1.357271050640462134e-02
-1.067473359477819593e-02
8.912172968371354781e-03
-1.959091812839510935e-02
1.372771619395524167e-02
7.972237473543474688e-04
-3.194040834155501603e-03
-1.741870980719163828e-03
1.487517424358698881e-02
1.284691188530375991e-02
9.064350826842114406e-03
2.357419871118191824e-03
1.332283669385731168e-03
1.058655851731566538e-02
3.980264906498434327e-03
1.168515693966921606e-02
-5.309143211394829268e-03
-4.168398322833956338e-02
1.778448975921041730e-02
3.744069698157585779e-02
7.556079642969100105e-03
-1.714639523817196439e-03
-2.335909398154743279e-03
-2.038186214961449239e-03
2.980459290924659227e-04
-1.920875820164885325e-02
-8.852563825473168044e-03
-1.706891940589776863e-02
4.259396754640872723e-03
-5.078443008623456309e-03
8.477928520528341810e-03
-2.990886574866663712e-03
1.688588046101674803e-02
3.655661865098827797e-03
3.750438411415310536e-02
-3.246535685865442611e-02
-1.107509698628405918e-02
1.543329293885894841e-02
4.328447994028229023e-02
-4.256582535828952463e-03
7.476052844591082143e-04
-3.874459000240265075e-03
2.279430554615387641e-02
-4.918658786654671322e-03
1.164267296058376332e-02
-5.474945674572971425e-03
-2.178597629490028331e-02
5.367880404088283021e-03
8.614433221462401702e-03
2.213979378527646327e-02
-1.890833165423890265e-03
-1.056912714635602039e-02
9.634368440822386331e-03
4.121375585350427022e-03
4.804935482776921500e-03
-1.251676297166603351e-03
1.986478697013439182e-02
6.325648640517739230e-03
3.260741344847977591e-02
1.902109022262833335e-02
1.128281360353933921e-02
-2.786145076910653134e-02
1.031159740828266509e-02
7.195155499168878928e-03
1.388334632658642757e-02
1.788066022325892138e-02
-6.862962317024889208e-03
1.410682752086672362e-02
-9.626567527963326640e-03
3.346715994524569748e-02
-2.280277222020636943e-02
-3.014267049078426033e-02
-2.826005024795422149e-02
-1.524615092692910637e-02
-1.915905371266062029e-02
3.348771791586099833e-02
-5.589612500093391056e-03
-2.298636726872415811e-02
1.907803550561016845e-02
-1.004118401203981346e-02
-2.117470665343447467e-02
1.499420442258993583e-02
1.067184799607861709e-02
-7.446379937355542510e-03
2.409683085592322083e-02
2.210195752154258449e-03
2.768188540256646263e-02
8.606833195380879376e-03
2.668646961588435479e-02
1.872954424381000852e-03
-2.088180401013132320e-02
4.193274935709900841e-02
-9.343555287346377511e-03
-3.404068338352331507e-03
-1.199069603842796428e-02
-3.482076269867823582e-03
4.154457048926166358e-03
3.455296248143741294e-03
1.131654806247844695e-02
3.068142519667439727e-02
-2.062331734815352376e-03
-2.111080451133854480e-02
-2.024107301214269489e-02
-1.139759723620905815e-02
-2.866193016820911196e-02
1.412436174260328983e-02
-8.529326321727127846e-03
-5.324006720669683702e-03
-3.238184492549727096e-05
-2.390988969096670760e-02
-1.474558069787842637e-02
1.155093958839830889e-02
1.058927832229553286e-02
-7.587023496560887925e-03
3.099603107330527185e-02
-2.235380933508578777e-02
-5.906118795298381102e-03
-3.951934754396718534e-03
-4.781711127441287679e-02
3.317014372036693193e-02
6.271537995342415031e-03
-1.788318175355923037e-02
3.511571926922370246e-02
1.002642777787404564e-02
7.353410022116421002e-03
-1.039170306260132036e-02
1.818513870790151258e-03
-2.611937175076202780e-02
1.361070329802972941e-02
-6.410316462473716545e-03
2.294880940053193718e-03
2.057896236625095243e-02
4.874836283513715555e-03
4.493395311982319174e-03
4.733618212580656404e-03
-1.255347756190648700e-02
1.431224996483444062e-02
2.642202952428814727e-02
1.299061599724135249e-02
1.514947924849067463e-02
-1.501890132484456387e-02
-1.485636068950743280e-02
-2.466753757317505930e-02
2.109595024961093829e-02
-4.351513474335251194e-03
2.396507573559030282e-02
-1.338618693517642372e-02
-7.490074850701973486e-03
1.633660276129987252e-03
1.577505892752385439e-02
1.040032391544206758e-03
3.614417714628271033e-03
2.829489703701922282e-04
3.033421802935372825e-03
-1.911376527278537546e-02
1.385457367803729191e-03
-3.194198706354287216e-03
-9.728248604991843402e-04
8.428713010324559787e-03
-1.165308696619102649e-02
-1.446762182237213475e-03
-5.090781783083008979e-03
7.144135035586127169e-03
1.343513195714967148e-02
-1.635670811411421219e-02
1.003068087058059041e-02
3.536583773374270268e-02
-2.518594114428435518e-02
-1.421239306826769210e-02
-1.507532963561367297e-02
-4.778102638040855610e-03
2.778288355727756564e-02
2.285954099752156169e-04
-1.189302901477384822e-02
1.064516380798840277e-02
-1.026854535526194184e-02
1.923261352791957868e-02
5.226116652730655385e-03
2.377565270244267476e-02
-1.132209412312233654e-02
5.188772693691892646e-02
1.411674000910436919e-02
1.120629411300639623e-02
-8.763369876290318539e-04
-1.242209176742535906e-02
-1.485604319817906797e-02
-2.327907289827490719e-03
-1.364911488431469998e-02
4.839357193372053473e-03
-1.414263898881558054e-02
1.063282378269204791e-02
1.636863107123868663e-02
-1.208386213906101347e-02
2.041857029566949630e-02
-4.073523010620758514e-03
1.977832017291443478e-02
7.501328811699885073e-03
1.921405837641299019e-02
-1.706879901726428284e-02
-1.828293785900627711e-03
2.484820707460234923e-02
-1.058067932617123320e-02
-3.487651743202938720e-02
-3.325677630513617505e-02
-4.290981176206625641e-02
-3.619410490598882341e-02
-7.047188205891162863e-03
2.188817010634888302e-02
-7.570885478308120829e-03
5.538729922884844982e-03
-1.883034466948936558e-03
1.463564034648974976e-04
-2.879533790013045526e-03
-2.981936068953547868e-03
7.895046188429927225e-03
-2.013261116441275589e-02
1.729319502892672639e-02
1.575054102766272265e-02
-3.339346483569891576e-03
1.378819011386072865e-02
-1.200689004103469223e-02
-9.197161243026693092e-03
2.675208923516193740e-03
-3.256549629796301124e-03
-7.682314158070403104e-03
-1.151218910102293561e-02
-9.544209053844347063e-03
1.607839945592325417e-02
-3.326934609083455341e-02
6.034639921006976909e-03
-4.047757957109133185e-03
1.246003580796052265e-02
8.817967335983695198e-03
-4.763648806166229793e-02
1.000904448949252977e-02
5.551516542312680269e-03
3.742878185559841194e-04
-8.023611176597913314e-03
1.460802057097357678e-02
-7.070987263551242394e-03
3.141003474869395046e-02
9.662132660169705720e-03
3.659923080787188393e-02
-1.344820030131727191e-02
-3.006113015687487955e-02
1.223706894669436898e-02
1.459813969196331607e-02
6.053584819126853894e-04
-2.634386273824607105e-02
-7.667884753139226142e-03
1.057980084383183285e-02
-3.153065466119867131e-03
-1.985645449253062127e-03
-3.003825887202086001e-03
-1.598845040754221652e-02
-9.125211815080200642e-03
-2.442237142033130970e-02
3.026715533994478805e-02
-8.138297855635414149e-03
8.176600142339236765e-03
-1.749450300370464922e-02
1.360218011326642766e-02
-3.206817798161844951e-02
1.576076472382192256e-02
-6.054924928463041416e-04
3.613317772249517723e-02
-2.236762760235245714e-02
1.307620039774349836e-03
6.286942397765882089e-03
2.110701173393779093e-02
-7.239234887201856893e-03
1.480255039797308443e-03
-3.667864385817488915e-02
-1.421234117309049666e-02
7.731583593002886584e-03
1.890326525129302007e-02
-4.823274095574700722e-03
3.520443554972370326e-02
3.013514917282493141e-02
-1.038359716268955372e-03
-4.131873593613842599e-02
-3.043161564544926562e-02
-1.331680277065643708e-02
1.910299844773071659e-02
5.311805587566663898e-03
-3.585314476977938258e-02
-3.916429716352346282e-03
2.762045565003530545e-02
-6.416588624399319554e-03
-1.283934453832370239e-02
3.517479394005412069e-02
9.143616338450690243e-04
-8.203083081744153016e-03
5.994798582019007609e-03
2.938570186664688855e-04
-7.346838377579918353e-03
2.068855431525058394e-02
1.910061356887084866e-02
1.439539816722491296e-02
-1.761410601957673523e-03
1.963472752031472646e-02
-8.508991878625462787e-04
7.988848543231039795e-03
1.769653268145077868e-02
1.384726951613584819e-02
3.064027726915158345e-02
7.725900933997821747e-03
-2.883080312014663082e-02
-1.986190287952668138e-02
2.311358514969463068e-02
-5.671508099174348005e-03
6.617480425326857305e-03
-1.457676722027615931e-02
1.713490939447955691e-02
-6.588258668623778354e-03
2.496254997326564223e-02
-9.111750412169864269e-03
1.914224201829887659e-02
1.154553964006122153e-02
-1.236721908681874885e-02
1.881461893582969322e-02
-1.543581980415370536e-02
-1.408048988460044136e-02
1.235556710989578304e-02
-1.070574224096134709e-02
-1.016648617029252376e-02
-5.887518095150810413e-03
-1.712271608019931557e-02
1.789011575583758507e-02
1.041766184990348953e-02
-1.186894779065180393e-03
-1.855652633926344313e-03
7.706581161563761176e-03
3.022221841932090647e-02
1.491084587906836220e-02
-8.704694403013114867e-03
1.330927653196891172e-02
-2.033341037722499311e-03
-3.406813003490013255e-03
3.195365319404042115e-02
-7.172141223518719091e-03
-8.203559292490544830e-03
-3.341969031902212312e-02
-2.400762196208432869e-02
7.723143319583982563e-03
-1.189692045074162985e-02
8.823791295627122708e-03
-1.908639127159071636e-02
-1.313620578884515562e-02
1.154852879711002270e-02
2.501021397948134661e-02
1.014302746649804222e-02
2.050664789775856825e-02
2.918234467120089937e-02
1.780613864922359763e-02
-1.572352775084226439e-02
-1.803482471847288153e-03
1.078883618229136560e-02
-7.102104103423983496e-03
7.737234618883955320e-03
-2.703487069474362625e-02
-1.418596149705024859e-02
9.054325823990074310e-03
-3.829851745533933288e-02
-1.896383818573899038e-02
-3.033344058846353564e-04
-2.943572319251677033e-02
9.779011471613468977e-04
-1.368810878637087732e-02
-4.992046865506387029e-03
-4.433739724556410439e-03
3.240665389944500079e-03
-9.651961417348307523e-03
1.535415112150954149e-03
-1.029169596647214364e-02
9.519878165803680528e-03
2.899770642262328169e-02
3.370375101539739397e-03
2.908131003758549459e-03
-1.992760645608485787e-02
1.187030468624986762e-02
-1.297797589445445939e-02
-1.384731807148221507e-02
9.543262859763066569e-03
3.099350640416327456e-03
1.895464396377190969e-02
2.470179269215576692e-02
-9.239250975615103528e-03
2.197790909706678723e-03
3.013799032889563634e-02
1.654697758101576766e-02
1.220727109295951032e-02
2.236201216955633481e-02
-1.035069374969448466e-02
1.089819311686711888e-02
2.412616376856571709e-02
2.774972588503243909e-02
-1.380173862180276469e-02
-4.308617027616968437e-03
6.552014724730603756e-03
-4.947582371460114252e-03
-6.707823334071206373e-03
1.170997933102964524e-02
-6.050315144492966757e-03
-3.060874612229374722e-02
6.194760762720822808e-03
-7.267239987632662275e-03
-1.252367842447262361e-02
-2.680515464891966917e-02
1.735645772082233806e-02
-3.812776644183546448e-02
-2.909228471926466469e-02
-4.722434822929319487e-03
2.103949789831092640e-02
2.242192880828514784e-02
-1.977309432814637960e-02
-3.041031146856664445e-03
-2.585874062512460991e-02
1.731168248996053580e-02
-2.527848634683031726e-02
-2.451485319162756762e-03
1.768449592479750046e-02
-3.807688040518035586e-03
2.516887984013260054e-02
-1.489438381423721473e-02
6.320474229338067171e-03
1.460803707222601763e-02
-2.391839618375707181e-03
2.373345008522765448e-02
9.383879596382213931e-03
-2.803284160381465731e-02
6.777056408244230834e-02
1.110466215861367206e-02
1.837697823393774719e-03
-2.394742308191621580e-02
1.399850305411622217e-03
-7.874138281156115027e-03
1.103121850822337893e-02
6.362928328834106112e-03
3.172318806461581903e-02
2.435317832672072129e-03
8.791121170800246173e-03
6.376394099250636861e-03
-2.542118637862078590e-03
-3.139778289075586138e-03
1.884892482734890073e-02
1.335392382458531688e-02
-1.077592669761697451e-02
-1.906182519687400767e-02
-1.154047464980468684e-03
1.988364293938768221e-02
-4.712981260589107460e-04
2.989865363595073378e-02
-1.326906347659895236e-02
2.424860450067801206e-03
-4.307866810846416178e-02
-1.019772665084895703e-02
-5.292101203513701127e-03
8.747162515964293159e-03
2.928622204062024739e-02
5.982279453886547339e-04
2.489080668149492442e-02
1.132786064866716201e-02
1.688617136767691859e-02
-7.980487045247827704e-03
2.371080192327285757e-02
-1.836895486744747133e-02
8.477026087285947920e-03
-1.629913139315072174e-02
-8.870558373302729616e-03
-2.501896604656589015e-02
-8.839783036587549325e-03
6.011057919794443941e-03
-1.177337920346974718e-03
-2.307349263065859232e-02
2.517880099583460693e-02
5.773161622474978424e-03
1.725789833920333971e-02
1.344294319359456112e-02
-1.138241621510930300e-02
-3.329885300627390132e-02
-1.567190002335813043e-02
2.097444709706799623e-02
-1.803651870108239838e-02
1.397052064511527907e-02
-1.048429688956708031e-02
6.729959347175244917e-03
-3.122517880551455710e-02
1.998011627833887541e-02
-6.791209885263493895e-04
1.516517785770027382e-02
3.250397182620250874e-03
1.366270818893513053e-02
-1.745058121624850668e-03
1.272612990864991842e-02
-2.584361199696266070e-02
-1.850157207296586337e-02
1.241998406678066283e-02
-6.707246777698939576e-04
-3.916230139487819444e-03
-3.074930078800276224e-03
8.589443350796630017e-03
-1.015793802161348708e-02
8.736373986638207301e-03
-1.567819122899254819e-02
-6.972081500131855833e-03
1.686219491496741135e-02
1.833964828947716799e-02
-1.878308469910677792e-02
1.435727556616082402e-02
-1.779061386407566198e-02
1.254922547505635602e-02
-3.250731987207768070e-02
-1.912473350556739837e-02
-8.713513567601010451e-03
-2.850209510269930292e-03
2.437202218209604671e-02
1.547630275950432135e-02
2.697172634901384008e-02
2.065690951829659422e-02
-4.842572969777399726e-03
-4.559468208867534060e-03
1.830060130834200438e-02
6.911516153019685391e-04
-2.687703348304877615e-03
-2.285842972088334563e-02
-1.822578073507067015e-03
-4.778135493133259248e-02
-7.808650251464098989e-03
-1.677554431676209906e-02
1.185674787568271812e-02
-8.194784379818851813e-03
-5.633303157274406267e-03
2.306220251053481968e-02
-1.795985052459270898e-02
5.421143153519303835e-03
-3.244662819692846478e-02
1.536146301734128521e-03
7.023675541091782548e-03
1.472083589933502121e-02
-1.538529412929053909e-02
5.472469173619957591e-03
5.446742497153098279e-03
-3.292421059821549535e-04
2.568251625899744487e-03
7.935623957233878256e-03
6.811641088436394716e-03
-1.705152672101946723e-02
-2.047293329954654600e-02
4.290193035596807924e-02
3.286649757493621815e-02
-2.382554806878597886e-02
7.707646515451634789e-03
1.074160965460406111e-02
1.286275790976396452e-02
2.403544541849831576e-03
-1.586788037311250704e-02
-3.123004444667159402e-03
-8.407973750233551508e-03
2.300443503018194044e-03
-4.594468307022892342e-03
-2.254262965131446049e-03
1.743743460089819397e-02
2.106693436604572395e-02
-2.022027322334258442e-02
-7.873920407380888969e-03
-1.353835253259413375e-02
2.094990348492140400e-02
-1.016367780479619743e-03
2.480643717267641546e-02
-8.176098066638548545e-03
4.451152095424452406e-04
-2.308943983750244219e-02
2.229917338131752816e-02
-6.207853516888796677e-03
-2.542561049492215661e-02
-1.014283031002100738e-02
-3.945960804339298383e-02
-5.447042561525760598e-04
1.925769855104179874e-03
4.931846244096669239e-03
2.564734181431913007e-02
-5.152657453629716847e-03
1.382349961801980845e-02
5.345470021832184233e-03
-3.309631605845138758e-03
-3.555447591893816373e-02
1.622104903689886024e-02
-8.627943082391998503e-03
3.074016254620536297e-04
-2.175005927532085506e-02
4.844832480821487965e-03
1.849468101479135370e-03
5.036243292557498769e-04
-2.307634054181202307e-03
1.796242783783786462e-02
1.654152684186988714e-02
1.242756554531333248e-02
5.685626911694301178e-02
-1.027574936346799077e-02
-6.497271393428170894e-03
-1.737325609672906931e-02
7.464005020009801226e-03
-1.176966013279256811e-02
-4.619546617917950904e-02
-2.077212980385223159e-02
1.236939477868975561e-03
1.728737698858201499e-02
-2.665455856742372093e-02
-1.048489873948626853e-02
-2.385677767481742331e-03
-1.247243037629945650e-02
9.093428311456671839e-03
6.849369278694499507e-05
5.500014493203362817e-03
-1.241554868555996317e-02
2.630522471400722345e-02
-6.420082284018338535e-06
2.214533612367907897e-02
-7.515560798057064999e-03
1.010136917157753757e-02
-1.163092779056456964e-02
-1.627939481504335137e-02
-1.205835059686841300e-02
-7.852293902519079643e-04
-3.744677353660002834e-03
2.635094630173392960e-02
-1.966560916229041431e-02
-1.866639553290591613e-02
2.910691432280536686e-02
1.042226640383000363e-02
-3.220941460192466160e-02
8.513157251582120083e-03
4.063092993153558444e-03
-3.671249517962145437e-02
-6.326842045361829800e-03
-2.988256262149007478e-04
1.252147913362134171e-02
1.634079360128824071e-02
1.639167446783148857e-03
1.769249129680262531e-02
-2.504172070738659543e-03
-1.468019093006139343e-02
-1.599302460970652984e-02
9.289989538967410865e-03
-3.352350145280496435e-02
1.160394332760279409e-02
-1.894433126595093664e-02
-6.149851707394586066e-03
8.652046994179221628e-03
2.085092848095820156e-02
-3.322410797246870551e-02
-1.380162553805386327e-02
8.399273217222364947e-04
-1.020489050231029871e-02
1.475083204101295710e-02
-3.571863005426677284e-02
6.193978810362167284e-03
7.291676577255900606e-03
8.402475439847045249e-04
1.887009399643141405e-02
-2.105008938105920602e-02
1.897931888026808608e-02
-1.203387047700224359e-02
1.242129396576211603e-02
-5.550317744697772990e-03
1.394140744732646001e-02
1.336150438516891734e-02
-2.506433303531311815e-02
-2.644861364750641236e-03
-1.582424616803920899e-03
-4.072381627190898093e-03
-1.293681020195143645e-02
3.169628271887641596e-02
3.579697377773108542e-03
2.662159326716172919e-02
-9.743722262388209918e-03
-1.817776898438589264e-02
2.264058114976620455e-03
-9.642509043401543273e-03
4.091886764528233911e-02
4.201594898955761728e-03
1.973228923957637271e-02
-3.838875962159872882e-03
-5.582110726667832180e-03
-5.291978923482672410e-04
6.089815339711324334e-03
1.454477350565684321e-02
-2.091254699696926556e-03
-1.165605610800960618e-02
-1.828185432326903670e-02
-1.312736855039632741e-03
9.809018494504053234e-03
7.839971323659421579e-03
-3.050332251632863634e-04
-1.027426796593588175e-02
2.512594829810926075e-03
9.789196361191979112e-03
-6.303116369339176531e-04
1.923728254611784113e-03
-2.576606901161529895e-03
1.567318229495311827e-02
-7.501909516791748465e-03
3.176336356631358649e-03
6.752536711143731531e-03
1.242081529860642776e-02
2.560927730457480955e-02
1.156364734827281665e-02
1.025842248107475957e-02
-2.517019370402939077e-02
1.038152611914905377e-02
3.926803169126536625e-02
-1.420963832243033256e-02
-1.745399588016295633e-02
-3.674835051087097654e-03
1.748358366533927372e-02
8.983633752690274241e-03
-8.168280332056063187e-03
-6.161454178248309578e-04
1.775392026550479466e-02
1.151512873385966695e-02
4.158193550049817805e-02
1.721717452104303339e-02
6.053006947405554714e-03
1.052400293332152875e-02
-5.974546384783029941e-03
-1.673929737653790870e-02
2.943875078221032393e-03
8.398316563048614097e-03
-2.388699365230422325e-02
-8.942648439628881132e-03
-6.321594418203477748e-03
4.547750003872990179e-03
-4.459131934517470211e-03
7.619975376797274991e-03
1.679663953919891071e-03
1.815261565258766835e-02
-2.929488160409481068e-02
2.836967482505008478e-02
2.427032332596251035e-02
8.614194366358206940e-04
1.113341609675335721e-02
1.038399918168167631e-02
-1.262226540553174937e-02
2.819036218484606733e-03
1.332220154808121462e-02
5.304007010253906571e-03
1.799842186639244793e-02
1.626316265195469147e-03
1.382442356141287904e-03
-1.314466160486973609e-02
-6.240825641063068273e-03
-7.870283757159620211e-03
2.919757012082651801e-02
4.117411660776644847e-03
-1.711000138683323527e-02
6.823932490244517292e-03
-3.287068645036552578e-03
-5.227989523307945141e-02
8.214986019235370751e-03
-2.658192303023281314e-02
9.903206508294471952e-03
-1.645665938432739478e-02
-2.496625165119276471e-02
8.463039875754465799e-03
-2.558032767921626996e-02
-7.647409770109463156e-03
3.498904127301751769e-03
1.048131033702627384e-02
1.275228887187850220e-02
-6.211291141732089684e-04
-1.425045817174641627e-02
3.293537299806120061e-02
-1.037429087653646276e-02
3.087711795972041331e-02
-7.747145898113995920e-03
1.988100155096977212e-02
1.831761698376584147e-02
-1.789935767990913362e-02
6.082406659554593503e-03
1.293217525200089126e-02
1.200068744935679083e-02
-3.405773256588250173e-03
5.169501497755541602e-03
-6.757016128774798354e-03
-2.006123363381976873e-02
1.684611196103551201e-02
-9.581644965582000045e-03
2.362121130447585038e-02
1.031385073509700177e-02
-1.528194999932052343e-02
-2.759686147163229429e-03
-4.902858082030026390e-03
-1.490943943658630533e-02
8.584384111100963957e-03
-8.193786593005491711e-03
2.793426432374112450e-02
1.473830272433427312e-02
-1.506867798133493599e-02
-3.252855008179082220e-04
-3.882093577893667904e-03
-2.678409218891249916e-02
1.594292920346457310e-02
1.626055555201678243e-02
1.584441381687769559e-02
-7.823549672303073410e-03
1.830084696777480383e-02
-3.590932410832949496e-03
1.600956126734371168e-02
3.103014917874169151e-02
2.398655889328302378e-03
-2.429557102205005814e-02
-5.425291309285238533e-03
1.097356238588177886e-02
2.088402927939986622e-02
-1.941031508730157312e-02
-3.262152477261513230e-03
3.994723742553086231e-03
7.447092829028752539e-03
1.558628782488439071e-02
-1.623711580110996644e-02
-7.249872044594132293e-03
1.725620423932458861e-02
6.716702893422275139e-03
7.676195844594593289e-03
1.926533526639060898e-02
1.781375258518870996e-03
9.039323323547990632e-03
-5.385276562443482885e-03
-2.302632888042627918e-02
-2.217458130572164815e-02
1.272354470140122209e-03
-3.416443487372927950e-03
-1.120668814172033276e-02
5.444347378591760794e-03
-1.524128834939775246e-02
1.906073913018429839e-03
-3.342226761851394153e-04
-1.438045866744753695e-02
-3.934487003275138894e-02
2.493548606989473559e-02
5.420772347595493972e-03
-4.560935541884848093e-02
-7.300380997680769139e-03
6.741574911850845009e-03
-3.905727463672374264e-03
9.935146824672154084e-03
-1.666216546263251178e-02
2.998839920472040708e-03
-9.156311701036011020e-04
-3.133988188764142650e-03
-3.783974920605621094e-03
3.419847544299805479e-03
1.596802232084295475e-02
-9.075555335268176843e-03
-6.971875736879415766e-03
2.748843689513396412e-03
-2.056945905319034276e-03
6.601441674611704599e-03
1.229700780217831725e-02
2.210492106063982609e-02
-1.993502809570424448e-03
-3.898693083294874767e-02
-1.191959553819820329e-03
6.058197862969439372e-03
-3.200636152636131791e-03
-2.623375442601098406e-03
-4.164410686361100927e-02
8.696600192377366284e-03
-5.547375010944633443e-03
-2.586935889914769235e-02
-1.491858854111338326e-02
-1.480573256536559489e-02
1.042167445924373909e-02
9.615142881794826527e-03
2.593225325698981718e-02
1.109235588827264460e-02
-2.313999361220100276e-02
-2.412540856381564791e-02
1.935781406418198361e-02
2.682138510141453269e-02
-4.070204545762380610e-03
9.566606338554096284e-03
-2.576346726598050321e-02
-3.327958978048730504e-02
-2.009907352519160750e-02
-6.114985994589736823e-03
-8.925869651514520622e-03
-3.939511249130210960e-03
-8.406078499039935231e-03
1.162951304210035203e-02
2.443934624885708493e-02
6.196940317164527671e-04
3.475319073304652256e-02
-1.086089418112046179e-02
-8.989675365141655550e-03
6.637947471112413782e-03
-6.074090792868511168e-03
2.015092225525679306e-02
-1.097565012758323043e-02
2.264428238475668306e-02
3.324241245913584115e-03
4.392008874715119804e-02
-7.945563449133753731e-03
-3.470083129940256146e-03
2.493532833459441347e-03
-3.733880529561453554e-02
1.031067032285614381e-02
8.231998704889685603e-03
1.871510666853496091e-03
-2.643977713761373749e-02
-2.647684597388982181e-02
1.004280320079409088e-02
2.011884710537267112e-02
2.729694682366502756e-02
-1.532979733456352016e-02
-1.764707625875784267e-02
-4.655543187430787738e-03
-3.382414356785177351e-02
-1.008239547896549147e-02
1.458248491446717532e-02
2.798409990863712921e-02
4.779091001026922539e-03
2.808598247475783266e-02
7.034070568892395771e-03
3.276115701321064607e-03
-2.935042198213240645e-03
3.200328496454540352e-03
-4.363036476274402553e-03
-2.412366657816322237e-03
-1.133146879571265281e-02
4.434579424172618162e-03
2.473542583230834953e-04
-2.533014324696297725e-02
-4.120749162836860255e-03
-1.464893985765209315e-02
-3.506482231754651235e-02
8.284000774488313457e-03
2.668446169905402954e-02
4.056935329030917498e-02
2.674834045335122354e-02
-1.490796547072460732e-02
2.011998223758732288e-02
1.917246888881899564e-02
-3.403128293349037131e-02
1.474510398992102955e-02
1.073715769069016196e-02
2.787247871405999083e-03
4.941066100188375859e-03
9.982118727669094579e-04
2.793844729528995041e-02
-6.878552344501930038e-03
-3.422926338904492757e-03
1.264980679302513567e-04
4.719319231287164365e-03
-3.018651846763045765e-02
2.376186120140678926e-02
3.872499026218845838e-03
9.743310399120521173e-03
3.378014178991791371e-03
-3.191840926666077681e-03
-6.081670618431864704e-03
1.645456775949465274e-03
2.603108643513997976e-03
1.977787282055950419e-02
5.924446180691285598e-03
-2.285301935536204060e-03
3.400963628347705714e-02
-2.190354496215554669e-02
-2.294413929107273764e-02
6.070723154906161774e-03
-3.635792331236030461e-03
-3.038076314599113398e-02
-5.345315470345207882e-03
-1.216629857761530181e-02
1.936471756118123000e-02
-1.063571822358977403e-02
1.798633323682520546e-02
7.871379753832643406e-03
-3.532347988006993844e-03
3.624578856100589769e-04
7.338560283969715846e-03
-3.951320293725885807e-02
5.599352127940887200e-03
-6.490459336192661889e-03
3.078005517214461514e-02
-1.183439982109838959e-02
1.956048816923148734e-02
-4.305505582740368209e-02
1.394623328197404713e-02
4.726829332737584113e-03
-4.228877757275150383e-03
-2.069603184690734215e-03
-4.460750301138839864e-03
7.241738629872191031e-03
-2.298311205359429479e-03
-3.060574702466480057e-02
-3.181048344104169760e-03
3.825803295990252983e-02
8.019985751868047080e-04
4.978237179614197587e-03
-7.499414134440528408e-03
2.979781057801885163e-03
3.046395847385843271e-03
-4.471729735074484596e-03
1.477891363991817517e-02
-1.580292808365900067e-02
-2.228918474607493368e-03
8.646429117495347400e-03
-4.571063377469409238e-03
-2.095259880561551116e-02
9.557382699906392942e-03
-1.681441840008300950e-02
-7.657835025928112944e-03
-1.417773731260356732e-02
-1.895650470775297027e-03
-7.351010391634492901e-03
-8.124892898946771067e-03
1.165823637347197447e-02
3.017554638253866495e-02
-6.120578841330494638e-03
8.947762283166692948e-03
-6.084614833564008091e-03
1.693873400926980671e-03
1.930689955677027808e-02
8.610111782422319145e-04
-1.396202351165905242e-02
-1.249621190908689096e-02
-1.055858752372268276e-02
-2.277658684381543412e-04
1.468900125747026573e-02
-2.326235676568922175e-02
-1.775820343175823005e-02
-1.582797873655606216e-02
-2.994950519247149834e-02
2.269955711850427452e-02
-6.227958178103536061e-04
3.254099901528001437e-02
-2.438433554096608794e-02
2.215616770676502242e-02
-1.201209627929138157e-02
-6.974095512590630999e-03
-1.693089307653916284e-02
-1.626149790009798549e-02
-2.266228261022191354e-02
3.703581203693419831e-03
-2.249888456885762444e-02
-4.139604308460919854e-03
-1.575287773053821562e-04
1.141225466432450007e-02
1.718688174816932531e-03
5.501040295308066638e-03
8.806633106817958467e-03
-2.953317008470946825e-04
6.220450810798894802e-03
-1.677263291652709987e-02
-1.327591393184028926e-02
3.248504266952593339e-02
-2.008876330409923639e-04
-1.216364336184427332e-02
2.362329494854455841e-02
-2.685117194485931152e-03
-1.106780973870316598e-02
-2.480647388379090754e-02
1.334476011096966293e-02
-1.859727554115948173e-02
-8.951800631271709593e-03
1.096382222938535773e-02
3.203406533107510182e-03
-1.606168955052789072e-03
-3.577312839042935417e-03
1.951556530273829831e-02
3.804608057893357764e-02
-9.307603751539867895e-03
9.503484615431573301e-03
3.295179811649608798e-02
1.848378847517417184e-02
-1.242247668917905931e-02
-7.094504826544013529e-03
-1.013677240507902810e-02
-1.567505119560902438e-02
-2.035799325747931349e-02
4.632338404072822678e-03
-2.458465351727280937e-02
1.480191413059506189e-02
1.988379492536098466e-03
-6.917209346184872987e-03
1.538475181480419667e-02
5.490373038741625140e-03
7.770162432165296333e-03
1.748608401307839844e-02
9.663830065494146554e-03
-1.848897079640824921e-03
1.582716714522734713e-02
6.707913793362043839e-03
4.984603496687677049e-02
2.212706988203300140e-02
1.953759671724718608e-02
2.195230516269210466e-02
1.120758433243670667e-03
2.234119143949778521e-02
-5.741982059347512657e-03
-1.413506356814269761e-02
-9.684497854959587745e-03
8.940908185645343731e-03
-2.671641549845201954e-02
3.498452687185387138e-03
-1.236814372295542801e-02
1.215230677124297907e-02
-1.272635024697128803e-02
3.223181412025329790e-02
1.329008343741320403e-02
-2.187506891475800297e-02
2.934413207219655276e-02
7.364671978520564424e-04
-1.254873837557010478e-02
-1.747142484365983225e-02
1.550470088322036637e-02
2.579748786227984911e-02
-9.527242233068066585e-03
-1.701761889486740412e-02
-1.946609151877660288e-02
2.571515691278681431e-02
2.870630687162845779e-02
-5.973242445494448757e-03
1.344519604813393041e-02
1.713658673104337686e-04
-8.851058189983942396e-04
1.654407034191926473e-02
7.509609209208021989e-03
5.362250099296510079e-03
-5.360427243290237856e-03
1.273382012596650792e-02
-4.885548573014262749e-03
6.176372760032836865e-04
3.707160492829809223e-03
-2.057299540045248037e-02
-5.292738721764294121e-03
-5.244134671941852108e-03
1.647526602720103496e-03
-1.891023747846996492e-02
-2.039837296999503016e-02
2.792579020221300917e-02
1.969220373635735891e-02
1.524132243812579418e-02
3.104605582492818427e-02
7.183167843195777807e-03
-1.577085987938993622e-03
8.068673442005628443e-03
-3.196414399362842995e-02
-1.878017156013342404e-02
1.288528436526771917e-02
6.850431792135149934e-04
-2.209898155903922481e-02
1.127980624515933887e-02
1.715884679648676386e-02
1.160521614446769281e-02
-6.670374443504221160e-04
-1.426178484505039555e-02
6.285724887320187290e-03
7.266477149443452757e-03
-6.081221995326566328e-03
1.043456701815917431e-02
8.903017196976384037e-03
5.711489756110408808e-03
-3.460261022861047669e-02
1.886806671760287921e-02
2.943914079024000791e-02
-6.780744853284372854e-03
-2.544936921504888788e-02
1.105107674952453614e-02
-8.109731293156291140e-03
-1.673197701175986596e-02
2.096067517010592393e-02
-2.399067566011307134e-02
1.219248237378960445e-02
-2.134727177651944002e-02
2.042157301239137107e-02
9.206268088528894375e-03
-4.275855340014191562e-03
2.508907507694507419e-03
-6.413467269371231350e-02
1.439947366076195674e-02
3.091692147368898819e-03
9.101258854518030211e-03
-8.331249587430675924e-03
1.121459633994481911e-02
-2.216955273187629777e-02
1.722849151659404388e-02
4.080147237855315245e-02
2.120761641803474082e-02
-1.025438813671866213e-02
3.208002730009240286e-03
1.440244526442467296e-02
1.570828733414020295e-02
-7.431810628825073241e-03
3.141257764249874573e-02
8.974166029500723046e-04
1.685184046649327444e-02
-1.107970162506947270e-02
5.698164210903825140e-03
-4.225021761976920781e-02
1.308649578870783176e-02
-1.130325151421399674e-03
2.052590722738671398e-03
-1.202042862923776009e-03
4.939606494146202720e-04
2.747691321044027322e-04
-5.780388801671236358e-03
4.846539706192773411e-02
-1.421533948030829879e-02
-1.926850857503645958e-02
-1.384083367512970071e-02
-1.752605061077363094e-02
3.725208408249500863e-03
2.442108642858935655e-02
2.897390630513322490e-02
4.730239215851779477e-02
-4.271639914945283417e-02
6.949550908917094885e-03
-2.235810079308896484e-02
-8.512520414553682163e-03
-1.955657982764074515e-02
7.231824705648851395e-03
-1.073373014460450060e-02
4.573322008971918151e-02
8.482702209875006213e-03
-3.910815406363175525e-03
1.332364742781751848e-03
1.565463839075471875e-02
-6.721348713178735938e-03
1.521734231063153787e-02
-9.057694255110045750e-03
4.303586183934887156e-03
1.337411757419354474e-02
2.273013684340843832e-02
8.903931245751011900e-03
7.918982254908235770e-04
1.247810940689834426e-02
-2.656836408089706392e-02
2.822001796597553916e-02
-2.280265712580100204e-02
1.564381713015810735e-02
-9.796328817690779650e-03
8.711577504656660073e-03
-2.248366092550551764e-03
5.197106287149470816e-03
-1.373256014969605372e-02
-3.723195776707693277e-02
7.233989844605376654e-03
-1.025602021827112451e-02
-1.123796862307740139e-02
-1.225239993404550129e-02
3.367828174224957172e-02
-9.959088979298076280e-03
5.670307413340730865e-03
-1.964352931524551010e-02
2.588189021170521353e-02
-9.456475178916986038e-03
-1.178093713878846684e-02
4.637287652907815666e-02
-1.872487892735626852e-02
2.255215157806045659e-02
3.881687875932472026e-02
1.117643718237095254e-02
-3.710145757948299806e-03
3.494399777042138562e-03
2.089529338813519294e-02
-5.042232492614469840e-03
4.184954611663849189e-03
1.597267780620255373e-02
1.325664008587173343e-03
-7.401127911129509046e-03
2.493322792017600709e-02
5.631524850341311852e-03
-2.206614319582089496e-03
-1.327345251966497060e-02
-2.426607546078577565e-02
1.555892424634204053e-02
1.634401843840899149e-02
-3.719643137662057009e-02
-1.251126025863755487e-01
1.665242722150096777e-02
4.156157435550252716e-02
3.663002318657272022e-02
1.601209558181751827e-02
2.340173797672414485e-02
-8.830666990076776676e-03
1.328727355756536416e-02
1.898396594389207062e-02
-1.376715425514497132e-02
5.392570817553416634e-03
3.712894496671678007e-02
1.259837766514602247e-02
2.046823515608650265e-02
-3.002137709017968677e-03
1.792360505727929806e-02
1.013129548898726584e-02
-6.114352331040615041e-03
3.865011248500568441e-03
-1.524291368038764756e-02
-7.104711134680283258e-02
-2.622959487374958848e-02
8.867040210536808117e-03
2.250336552239551313e-02
1.565561356620715980e-02
3.612497323435157059e-02
5.649700604669198947e-03
8.519613784190376363e-03
8.858755688251470847e-03
-1.489603910664516126e-02
3.808094667773512937e-02
1.674684066118450193e-02
-1.237617126637190028e-02
-1.547088483775160839e-02
9.948489674555393777e-03
1.472638764249339406e-02
6.903750149712524486e-02
3.222842839628986197e-03
-3.078969950977124715e-03
9.767154884341615675e-06
2.289982531722728129e-02
2.406820360130709768e-02
-2.591305120830579914e-02
2.376542319774992661e-03
2.966953104660788321e-02
-2.262241453620444931e-02
1.017267651801288288e-02
-1.454070011953134851e-02
-5.402139016072141781e-02
1.080866230759131019e-02
2.162520736738257621e-02
2.152700096163872798e-02
-7.238579697501856813e-03
2.452673878381881820e-02
-4.491768399632773551e-02
-1.787152429482059823e-02
8.754656241690732948e-03
8.171943201826514791e-03
2.252707834045624899e-02
1.649269169189609627e-02
-1.474843567149071184e-03
2.630280248859023784e-02
1.165460023615303743e-02
2.941577357476010679e-02
-1.394776504274212667e-02
5.140079018461547050e-03
-7.371080346861286561e-03
1.362512798908413481e-02
-3.565650362884966503e-03
-4.294280008555213975e-03
-2.280392781969418567e-02
5.393455698292884577e-03
1.888806945956935518e-02
1.726618330460549453e-02
-5.158048500079225052e-02
-2.756980938912018467e-02
3.419055035120580066e-02
-3.164788950908909316e-03
4.785560158278209103e-02
1.991116180477695702e-02
3.419899009942676572e-03
-1.072878785916417735e-02
3.690408533895742776e-02
3.248702206558310573e-02
-2.346980563826887162e-02
2.253208573609728066e-02
-5.406366912452604048e-03
-4.533739592969166995e-03
3.177531504195513223e-02
-1.092536314913598004e-02
1.419411071396069896e-02
-6.340901862003530537e-03
-2.443598219276591280e-02
-3.060352530828540970e-03
1.994812774543262834e-02
-3.172713662369801985e-03
2.355570100644235974e-03
3.485500357476539572e-03
8.944644685445909092e-04
-7.181737084978758942e-03
-1.123194075575739553e-01
-3.466905272050704867e-02
-7.617303431338441275e-03
-3.106683543092263883e-02
4.504712191413468535e-03
5.962257660743843640e-03
-1.342983448912537722e-02
1.374562394114032908e-02
4.694055003444126684e-02
8.779685867542491584e-04
-6.289565106356799669e-03
8.108384388248783547e-03
1.784121466450425131e-02
4.473696498993717970e-03
-1.407456699803373221e-02
6.091923977127418344e-02
-3.988068758910701117e-02
-4.494546543371534530e-02
-3.129519130976692043e-02
3.093644754856563536e-03
-7.051435533940664246e-02
8.584138694977717574e-03
1.540974156938524535e-03
2.622956094870107155e-02
2.698606880086574719e-02
1.977874488284036072e-02
-1.969368915063451908e-02
6.092270654581972283e-03
-1.478487105739457672e-02
-8.407294744645590900e-03
-1.630179808446471229e-02
5.957026392822602731e-06
1.096279398764722982e-03
1.332625400768208375e-03
-2.043710101026415676e-02
-2.608011884749277670e-02
5.363018306510926314e-02
-1.327574769865387874e-02
1.356817141973400663e-02
-5.409228623090964541e-03
-3.187487010163799189e-03
-2.596821936883467533e-03
1.854754877345064779e-02
2.800895674789120535e-02
5.759469401567370028e-02
-4.006500454004602654e-03
2.415184362117880207e-02
7.369428691776988040e-03
-7.245582239937098379e-03
1.706460489421723209e-02
3.222909847456335505e-03
-3.792684318398871490e-02
1.027841281149606371e-02
4.913929257681743171e-03
-3.183180384737470392e-02
-3.683418200079464910e-02
2.203442856104155783e-03
1.179829739367131008e-02
1.034054256238363736e-02
-2.318538794621986115e-02
-6.019127268859333219e-03
1.153425412156825793e-02
-2.638965944205356323e-02
1.479553529966658220e-03
3.473470568358924364e-03
1.581432577801817480e-02
-4.202666703366948059e-02
2.310194449896855670e-03
3.474292512893763923e-02
-1.061757339272062159e-02
-5.508624608064112242e-03
1.644923139533841644e-02
-1.327377101289587899e-02
1.981291523100416410e-02
9.307268631417705065e-03
-2.678962037135114091e-02
1.585047482706076517e-03
-2.493016761413276508e-02
6.671289534673938149e-02
-2.881201444457313215e-02
-3.096352968075244058e-02
-1.936940508198303074e-02
2.674816808289311523e-02
2.251952242389732364e-02
-1.332040354154666957e-04
4.981945262371745634e-03
1.840208976180100070e-02
-1.194637959138133629e-02
-9.900831933915272068e-03
-1.450823455069354465e-02
1.343742595085959529e-02
2.796139403248286415e-02
4.429624820334019525e-03
-1.067044104023341829e-02
-8.908486901099870250e-03
-1.904261996470262702e-02
1.251707681367514660e-02
-1.819714863831336724e-02
-4.359272139901329210e-03
-2.001240731908309617e-02
-3.251846556458547893e-02
-4.348357824610384753e-02
-1.523598048993464113e-02
3.733464536400157938e-03
-5.440945155059035906e-03
-3.827561735876241177e-03
-1.834183025397786299e-02
-1.595022025028131410e-02
-1.827887147561316900e-02
3.616282168305584056e-03
3.505548137424317756e-02
-2.334672762716978860e-03
-2.344183349182677942e-02
2.178708182519858289e-02
-1.709527685995158516e-02
9.544858230402556223e-03
-7.578180749713408874e-03
1.388129854236529702e-03
5.876657863157250250e-02
-1.279751484947727960e-02
-1.004386327879893716e-02
6.423963222937326134e-03
-3.757246371586492155e-04
-6.951860565198450352e-03
-1.178541293663161633e-02
1.010914845251093333e-02
1.844449245759525319e-02
-1.629950753172801359e-02
-1.945552965941798468e-02
3.132766464388979377e-02
-2.439841654261197534e-02
1.224637958828972244e-02
7.517781402191960581e-03
-1.888263967993748446e-02
1.300239328432837953e-02
-1.888686480601917128e-02
-1.865291822900056601e-02
-2.378884938011584238e-02
1.428277795262423988e-02
-7.692719839167545988e-03
1.857930680380402017e-02
-1.386945115924688443e-02
1.052291257710638930e-02
2.409461545567133378e-02
-1.472535825605277796e-03
-1.926754796173996143e-02
-5.864752725777188334e-03
2.151511876105526022e-02
1.265315312924414001e-02
-6.608046521282320493e-03
-2.986334033288489537e-02
1.224986066310204159e-02
2.792082082193720130e-02
2.822363315994438557e-02
7.409290133782592443e-03
-3.270384948899068573e-03
-1.345825431460242333e-02
-9.802839803601104754e-03
-2.824342755696824039e-02
3.654313757301763665e-02
-4.616254796133494823e-04
4.082058577644928632e-02
-1.275382310373355524e-03
-2.770531101242241362e-02
3.186965868761918591e-02
-1.472008351871335885e-02
-7.496909565236430095e-03
2.822289722931886277e-02
2.497393417661466011e-02
-3.468828827112459962e-02
1.805747110259338121e-05
-1.865264271355172518e-02
9.229949090590631663e-03
3.102414485532008562e-02
-8.859332395089415321e-03
2.556370494010424058e-02
-1.589822244858770176e-02
3.718887931005201292e-02
-1.413504564834454184e-02
-7.932262413973078727e-03
5.083856558988393212e-03
-2.397792423186470567e-02
2.652902398671371995e-02
-1.831849634636312230e-02
1.051074000797386047e-02
-2.206967369111071525e-02
1.879464230416361950e-03
-1.802062240763077498e-04
-6.646614281274540459e-03
8.375344332235686723e-03
-1.911996674512648001e-02
2.605406735049570904e-02
3.465862224837447381e-03
-4.778901829717842331e-02
3.433485233600373082e-02
7.750375534145343727e-03
2.659675629907341105e-02
-3.029121936824967932e-03
-3.873556616622495646e-02
-7.185494207454481280e-03
-2.099009652901051223e-02
-6.588128113135632543e-04
-8.264196790169854590e-03
3.578252524825188165e-03
-3.020634800608102896e-02
9.207450603763421039e-04
-7.867958066207422774e-03
1.084555757012698948e-02
-2.897191431126450514e-02
-7.277138413673086073e-03
2.839149748928054134e-02
-2.021958372202694101e-02
1.263534593378224345e-02
2.277802464236563726e-02
-1.727350138688613871e-04
1.692312384780575441e-02
1.782925864411369701e-02
2.687393111458052236e-02
-6.297220923137972388e-03
-1.922540046602566784e-03
1.376643812971345068e-02
-1.276529160133588366e-02
8.226194288263888061e-04
-1.195940369825326983e-02
-3.987276381061490710e-02
5.733686835937537064e-03
2.914529525082103917e-02
-6.369680211020099792e-03
1.443156123458337430e-03
-7.757075018445056674e-03
-1.268515874089591600e-02
2.330083865766142525e-03
1.836838681959407707e-02
3.793483812748898315e-02
1.414912954420109899e-02
-1.645837485069002668e-02
-2.443025010153452789e-02
2.237270385010960844e-02
5.422103513457635950e-03
-1.045102058801959492e-02
-1.808147642080277367e-02
-1.382806118863892306e-02
2.111601191281406789e-02
-3.827884149556582218e-04
-2.397579333572641760e-02
1.493839487360288168e-02
5.308900497098053770e-03
-4.984130237962859297e-03
1.040397540992467687e-02
-1.416980001786094338e-02
1.650187280064453060e-02
-2.439336156306864956e-02
-1.546677647624251570e-02
-2.357198924493151410e-02
-7.131415949504265467e-03
-1.296742503262638888e-02
-6.208432700761113907e-03
8.162441979878137929e-05
9.488703485050486996e-03
2.508602648437175883e-03
4.311792679199475363e-03
2.746573645420959803e-02
-4.562270322513832695e-03
-2.496644816910892350e-02
1.628748498145004067e-02
3.142975539225431603e-02
3.206348653064914137e-03
1.437267442542635408e-02
-1.122403939765184884e-02
3.178728556824764705e-03
1.090575852572705021e-02
6.481145572180427826e-03
-9.239526443971753100e-03
2.791608784336052293e-02
2.958580180394983390e-03
1.592482545259003845e-02
6.946863040479064715e-03
1.495714506385465922e-02
1.597712806009132791e-02
-3.700537159030660873e-03
1.427243086396351966e-02
3.698661225462617635e-02
3.422238262000712461e-02
1.308025126295292093e-02
2.888550500600780072e-02
-2.239223341947334245e-02
2.520715912160669675e-02
1.281865286716633596e-03
-3.059201171402557706e-02
2.828375434104011578e-03
1.671401647987712583e-02
-1.191586815535256375e-02
3.316334316322377962e-02
2.309853442434575688e-02
-2.182971930724226378e-02
1.727544323698852746e-02
1.916952207839976111e-03
-9.444666239955983034e-03
-5.420676594415836137e-03
-7.618234160543782031e-03
-2.082234046712384476e-02
-7.675210700685121054e-03
1.185870919232164325e-02
2.441187024245802459e-02
2.496648921195133639e-02
-9.815832239202156376e-03
-2.007259078644752122e-03
-1.471228189795562545e-02
1.763345677132328523e-02
-2.821608060699044157e-02
-2.333904869440282803e-02
-1.088558076035937849e-02
4.305179998535365628e-03
-5.497995477027135119e-03
5.660481007022862302e-04
8.137841552751586298e-04
3.993706838896899508e-03
-1.770981960044791872e-02
-5.809778045097365763e-03
9.888618975656189580e-03
4.797472586937404603e-03
1.871721230299358205e-02
-1.277522496137508366e-02
1.551503189014035063e-02
2.510835094518575755e-02
-2.441120069998733988e-03
4.552676092496481253e-03
3.855202486556482885e-03
9.170583844381064581e-03
6.641139498409793368e-03
2.515736443283476259e-02
8.788715076447498400e-03
1.480011319100348922e-02
5.675677812153836869e-03
-1.783491927211803760e-02
7.419051041200486023e-03
-3.936805619057516872e-03
-1.087258203339803476e-02
-1.531146405975309342e-02
-1.205185318404682288e-03
-1.039967582647995624e-02
3.491882119143895763e-02
2.733644680470871668e-02
-4.569798501989822889e-03
1.214064283640557684e-02
1.980698921058506035e-02
-2.958978863190057755e-03
3.164142180154023987e-02
1.578636313551273762e-02
-1.741241677243130859e-03
-3.080367646856252764e-02
-1.653697888740770713e-02
5.455958833927605257e-03
-7.502999735699680643e-03
-3.552920942638513354e-04
-1.347866579147149330e-02
4.227272607323646902e-03
-7.846048203836655452e-03
-2.658204443706316950e-02
-5.848870822995734867e-03
-9.792979984238697755e-03
-2.656409883305616351e-02
2.436453666041860089e-02
-1.301978819466728492e-03
-5.595888294466328308e-03
1.284628139021500373e-02
-1.414015589200062675e-03
1.313592845042959451e-02
-2.534853994253154566e-02
-1.774736141931999162e-02
9.334197987757565651e-03
2.554101365055936809e-02
5.137919133826170321e-04
3.705315556610818458e-03
-1.409721107412761215e-02
-5.124968103915024734e-04
-1.213686863124268170e-02
-2.743247632175433402e-03
1.236530540292718472e-02
-3.421847810747639940e-02
3.646962001801214680e-03
-1.377360678594686388e-02
-1.106937087103703789e-02
1.948531246107566492e-02
5.057873755763861272e-03
1.598357078957710758e-02
-3.019550491361890077e-02
-7.022837934656815141e-03
-7.766699324684708979e-03
-1.009092962698174972e-02
7.536735287926228134e-03
1.533801411559092623e-02
-1.894785456744369975e-02
-1.648060941871287710e-02
-2.143328536478416452e-02
1.964681921819574559e-02
-8.812168997390288847e-03
-1.735620683047385798e-03
-5.687386894093078224e-03
-1.649762687069418823e-02
6.390160525190554004e-03
6.557350904577184843e-03
1.611532417362453520e-02
-3.859151139703945362e-03
-5.086083050871481430e-03
-1.002402666506578902e-02
2.547671513281571029e-02
1.724936500489257160e-02
-6.913874726728096512e-04
1.111031104731461695e-02
-1.002953925716947893e-02
3.517223725707294135e-02
-1.012750747424665150e-02
-6.500206413866801633e-03
-6.351992644894208229e-03
2.912483567004019863e-02
2.526927073678965265e-03
1.856505015529729546e-02
-1.884840062734424899e-03
-2.076591266173163919e-02
1.327608066463552630e-02
-1.072482304794823357e-02
-2.257286750755532409e-02
-7.123138247719945464e-03
1.081385560545978716e-02
3.020424189474338675e-02
-2.375337190993541403e-02
-3.764747605158667160e-02
1.592411997652017769e-02
5.136823417997524177e-03
-9.646554567292858415e-03
7.162280531954379019e-03
1.248793381709072808e-02
3.273427196547082363e-02
-2.231430364391241098e-03
2.190994803690573742e-02
-7.733980214351112922e-03
-8.725436884930461851e-03
7.254924667772552800e-03
-1.908804250951333034e-02
-2.228930362608756363e-02
1.648969204385136722e-02
-3.360749098549931091e-02
1.940501678286967466e-03
-5.559528970415778329e-03
-6.386038392170314583e-03
-2.280882625062164576e-02
-3.485428237001520629e-02
-1.131463386911368482e-02
-1.994832196624821835e-02
-7.283096950605862444e-03
1.507162082195081946e-03
-1.269880133502069783e-02
-1.836143966518272511e-02
4.965455828537532548e-03
-1.304247245257156816e-02
-1.642701168933110786e-02
-5.121450023936401953e-03
4.887561878754851340e-03
3.610139266141938752e-02
2.762388263609799263e-02
-2.162885377199577630e-02
-2.267090767721663402e-02
1.107949735549343222e-03
9.535721362064467424e-03
-2.254775468968303522e-03
3.718994553985920104e-02
2.015122980328756461e-02
2.807748623518294823e-02
-7.153869584255708250e-03
-1.535441670452543025e-02
-1.832314245082209206e-02
-1.947919852595329402e-03
-2.154272355253940285e-02
-1.085040561059526752e-02
-7.374700218963711404e-03
1.616598419614520554e-02
-8.095544254427069347e-03
-2.408868370936700920e-02
-7.660661696053103209e-03
3.228505435798461557e-03
9.602815959258558659e-03
-1.577863672765483435e-02
1.108294518403037804e-02
2.374220395735321745e-02
8.380436184051667792e-03
4.088141997270189169e-03
-7.671593272036952849e-03
-1.045670024919840603e-02
-3.475229334198922521e-02
1.040793586819263247e-02
-6.062280198254352791e-03
2.612167582144867342e-03
8.581734975624741302e-03
-1.346307355159789831e-02
1.741078265246589693e-02
1.936432754284322369e-03
2.562828855224605698e-02
2.892182393984391638e-03
5.454797297645407397e-03
-4.680167286658987180e-03
2.527594118304757331e-02
-3.601141691250605431e-02
-9.121987040897616694e-03
-5.222469338582036956e-03
-2.620052686665582525e-02
-1.360516601794250352e-02
-3.718634890900718304e-02
3.259395152496550978e-03
-2.405724202357162333e-02
6.331944579905033656e-03
-4.481655404233507098e-03
-1.425590510079412059e-02
-2.660047794985869254e-02
-1.169023189768073241e-02
5.317823759371780035e-03
-2.147633325826250883e-03
1.140597364015003869e-02
-1.349607196663998691e-02
2.749431933602617534e-02
-4.073719556630229707e-03
-1.446959325551223051e-02
2.242968966263832187e-02
2.324129317072761575e-02
-1.543682440232631596e-03
-8.291164859595724634e-03
1.558031362300658744e-02
-1.530746357485668688e-02
1.601031046833402069e-02
-2.374828022676961359e-02
-1.427677786300573289e-03
2.012521622205840695e-04
2.068244480955194753e-02
-3.131591010218346544e-02
4.013514383043106058e-03
-2.066541412636331218e-03
4.978935143361467236e-05
-1.513572743390083006e-02
-2.228820461027381308e-02
-7.928822938032363890e-03
-4.137240392601717123e-03
2.525487499621548865e-02
1.906833641794666596e-03
-7.320870844205696552e-05
1.195556253399808477e-02
-2.759466064170692720e-02
1.237020720986931402e-02
1.567107438712327799e-02
1.553013934573530333e-02
-5.700798267479783091e-03
-2.114725706666564786e-02
-1.686179831508816118e-02
4.236365590767029662e-03
9.189317307405396942e-03
2.185430184183732513e-02
2.604667635367476086e-02
1.491561337830195171e-02
5.808549070308124430e-04
4.535381862048647530e-03
-4.028505315170653397e-03
1.805915758192692608e-02
1.017382170622643106e-02
3.695478645436324917e-03
-2.149565467593661516e-02
1.791865407195028861e-02
-2.614001909880882615e-02
2.108788880994413514e-02
1.685667946133844602e-02
-2.717033186109748741e-02
-8.297006891236911093e-04
-2.125244575775420489e-02
-2.475856664020142060e-03
9.504409782936604559e-03
-2.339219614748665622e-03
-2.334917451258269536e-02
4.465315927053266701e-03
4.442382719671715378e-03
-4.662550430941467955e-04
-1.789259068459174429e-02
-5.988198946404228555e-03
4.597136675679917329e-03
-2.654424966612364649e-03
3.616770952347285462e-02
4.384033767353964946e-03
-3.539716735221450604e-03
8.261989859822000890e-03
-1.892480244526668909e-02
7.203253108874771785e-03
2.767922547335055147e-02
-1.513000552404875250e-02
5.116001610669338243e-03
1.313283780867179930e-02
-2.898982436840388810e-02
2.805748280574627690e-02
-1.789018045839070592e-02
-5.736065016321431446e-03
6.517039000332890478e-03
-3.982119409279816745e-03
1.374613087528803526e-02
2.583815908671385688e-03
9.754039307537843220e-03
1.283531487104704744e-03
2.520040206303047342e-02
-3.450496227802368754e-02
6.233227812181036873e-03
-5.146476750999178298e-03
-1.641846537414624538e-02
-1.389461695041816977e-02
-9.792194029867654081e-03
9.902284032098244981e-03
-1.534159138879173656e-02
-2.793673385744772052e-03
4.712210996009678909e-03
-1.978694453901738010e-02
1.904320824246530028e-02
4.145717198053901209e-02
-1.153905469324570388e-02
1.574076991067881182e-02
-5.301656832447938783e-03
9.131154623926359196e-03
-3.110760163493244725e-03
3.781188861876824681e-02
-5.552502167449905462e-03
1.359194536368423661e-02
1.039799895187769330e-02
-1.855720197549019790e-02
-3.698342259582897834e-02
9.913868654787107507e-03
1.445800331763272446e-02
-9.188299927372413703e-03
-1.084326003485323354e-02
1.672269550048383763e-02
1.460035436639476811e-02
1.636443574371737597e-02
4.475155686320390035e-03
-1.349515079366223058e-02
-2.085148451375139558e-02
-3.412213806145336648e-02
-9.875012883856539025e-04
3.285582289430850900e-02
8.181468577694691463e-03
-1.365138582675288993e-03
-2.603490085588161182e-02
-1.143484223182762195e-02
8.455094762174760012e-05
-3.804357330793829359e-03
1.555061161315023435e-02
-2.715319284762678607e-03
1.190351319146520231e-02
-1.955396006203103873e-03
-3.248779651744975946e-03
2.155613885400869956e-02
-1.287371800200281385e-02
-4.845814030447609215e-03
-2.213143109738503755e-02
1.656160296992448266e-03
1.830966417844673982e-02
1.166547776303245368e-02
1.256614975547977464e-02
1.802789548771539102e-02
1.070362255907992763e-02
1.298126467330810475e-02
6.911683359716403428e-03
-1.669847591725811403e-02
9.006653188285381958e-03
1.619340408027968026e-02
-1.526933237910656042e-02
4.040105897984047796e-03
1.853756442427914597e-02
-6.393849533668817531e-03
-2.261710618707859013e-02
1.053450496341547553e-03
2.728360924643081359e-02
-1.562946086451447170e-02
-1.804258990879075396e-03
-1.285751431476998309e-02
-6.145455309416987012e-03
4.019241974182779370e-03
2.528278253313455057e-02
-1.226881642773885311e-02
-1.213204564573366895e-02
-1.493708436264680472e-02
-1.872549508519735437e-02
-2.627378814041787455e-02
-1.457345526242386988e-02
-1.811504082621030265e-03
6.996080444377111070e-04
2.007211855719764904e-02
-1.406565206282010295e-02
-1.335239996639463016e-02
-1.295691700925432135e-02
3.351134817760152967e-03
-2.713019181642897446e-03
1.330567434837704247e-02
-1.350994823599288228e-02
1.563482678634801198e-02
1.613565496028064247e-02
-4.493399705014427398e-03
-1.065772888764799330e-02
3.101582125369960804e-03
-1.355091525657871158e-02
3.410618564142574999e-02
2.411965210391833151e-03
1.356644298573235832e-02
-2.169264837324215434e-02
-2.997265398011393286e-02
1.176587343624879538e-02
8.831887552298252342e-03
-1.302141621013137331e-02
-9.703096867016036686e-03
-1.164051519390285269e-02
3.900355677905518494e-03
1.581618175015375716e-02
-2.644772807067825859e-02
8.196030270431309273e-03
-1.496559366407251845e-02
-9.089459438164306307e-03
-2.746621816558918010e-03
-2.330784753394797570e-02
4.868771521085409060e-02
4.151517684982298367e-02
1.287872426204592947e-02
1.123086154769793732e-02
-1.786641820903225181e-02
4.069978383409375566e-02
3.135882697995690319e-04
-2.112508868177805609e-03
2.061215284950979748e-02
4.464850069308733474e-03
-1.329531370914598110e-02
-3.747895392336358933e-03
-6.438520687452832167e-03
1.106893805315206734e-03
9.492213030362952816e-03
9.120736313485190011e-03
2.227634162467116014e-02
-7.024371909096508912e-05
1.640196017809511173e-02
2.921774281042335136e-02
-2.098928584662850677e-02
1.219907948505366373e-02
-1.835813225645529720e-02
-2.580086220650851594e-02
2.712912821318709186e-02
1.943928068188781333e-02
8.960050372896471299e-03
-8.164979479756584446e-03
2.574069688440817211e-02
-2.340566478840817866e-02
1.153754628276021810e-03
8.306152183023886651e-03
2.203538087313585206e-02
-2.613216681535387304e-02
-5.245754718445018450e-02
1.975118948361797612e-03
5.434295629322990866e-03
2.973374932855052735e-03
-1.501830799286969602e-02
-7.560249257769386137e-04
-2.636587584045807162e-02
7.200482982239337845e-03
1.528095229591247030e-02
-1.253225379132728162e-02
-3.430712151421216188e-02
-2.221839464365876673e-03
-3.398289654734560055e-03
-1.379977199759872819e-03
2.231697653801592227e-02
2.372729597127456493e-03
3.567980713523805081e-02
6.518259226973740356e-03
-1.861324428323688288e-02
1.940725787930953211e-02
-1.546679273584727812e-03
-8.367668893534655969e-03
4.783300723352102921e-03
1.965078141896119297e-03
-2.668285137963193401e-02
-1.454360818213713998e-02
1.972214463374544896e-02
3.011853778020641068e-03
1.093932424145333676e-02
1.746482921827570076e-02
3.068921236330119512e-02
-1.094121677764881527e-02
-1.204199649550330431e-02
-1.582743745874494110e-02
-1.027960493821365728e-02
-1.562332080445246428e-02
-2.568098339319585771e-04
-1.852925476584677380e-03
9.950694344912202477e-03
-2.038373430139756720e-02
-1.119335787617254351e-02
6.153908590023716117e-03
1.196072732625085358e-02
-3.966007039051274580e-02
-1.030734042921168520e-02
-4.341935311686354569e-03
-3.494419128542721603e-02
7.681669153486589234e-03
2.061444600099539629e-02
-3.326551136483615889e-02
-2.679129816341627168e-02
1.630118621719978816e-02
1.943680274760946347e-02
-2.178968927935861707e-02
-1.690788841507255905e-02
1.128913099904547968e-02
-4.160522440278202616e-03
-8.924843238998505027e-03
2.729134432523906695e-02
5.098265809583345069e-03
-3.114863591378759164e-02
4.336688363107353214e-03
-2.405775760293653656e-02
1.270387476296568757e-02
1.681155424896012274e-02
7.508102281974347522e-03
1.588410848517047766e-02
3.362810991312433634e-02
1.244062991100567360e-02
-6.367887078185738292e-03
-1.871716566434980175e-02
3.842556082580910002e-03
-1.771966673356450625e-02
-2.463105949704070749e-02
-7.906780197751657469e-03
-3.044448545828648545e-02
-2.226387653235289976e-02
8.579706995295506913e-03
-8.136284534495248980e-03
-5.249525274687778277e-03
-4.436789332477662599e-04
-3.345541131014690556e-02
3.188116924803364050e-03
-6.556793430018885514e-05
-7.739266052938281650e-04
5.869466981097249715e-03
-3.706316939223017887e-02
3.273017631407106054e-02
-5.193316354406849258e-03
-2.455348007416444100e-02
1.909371398392691651e-03
-2.176216207534484998e-02
1.136631042794425481e-03
9.255012677999715359e-03
-2.257927573043334857e-02
1.447354793485198729e-02
2.244274806795166794e-03
5.976249692112745905e-03
6.917573058205513971e-03
8.772780140001452259e-03
1.918039187316697078e-02
1.473082490287059079e-02
8.335817403161914149e-03
-1.308535649965971576e-02
4.901936814447323786e-03
-9.550016655086437933e-03
-2.480237754152988389e-02
-7.083646384017460275e-04
-1.562714416727208414e-02
1.943341572257699379e-02
-6.455746012226905523e-04
7.748870102308286992e-04
1.327138888770424720e-02
-7.158206105342936922e-03
-4.392857681168655347e-03
1.993896016870835147e-02
-2.368832801570142088e-02
-1.484211692359555662e-02
-2.288814971702983394e-03
1.343544935937450446e-02
4.276402086474439049e-03
-1.981647942277990626e-02
-1.574636442986386553e-02
2.900884982464410622e-02
5.414473036134051856e-03
-1.058760214862707570e-02
-8.290743778912720505e-03
6.403238641610375925e-02
2.294521329312797578e-02
-2.801613981491758373e-02
-7.854144809149588013e-03
1.237459392822318552e-02
-4.716186438089038820e-03
1.950038691109223787e-02
3.020363448741668344e-02
1.294325989931586389e-04
5.045887317562818691e-03
-2.887467919025289362e-03
1.511336073722941917e-02
2.567844818282176422e-02
1.599668021905367374e-02
-1.854038121908452297e-02
1.291455965328298927e-02
-9.908162919883892888e-03
2.993164142129788735e-02
8.153892993831492186e-03
1.811497302402970133e-02
-3.605328902232772526e-04
-5.536192231478505527e-04
7.374835352028244820e-03
-5.273129053202296398e-04
2.703072118512742789e-02
-1.955419459666723342e-02
1.173420592162075643e-02
-1.004350986995838739e-02
1.474095632012092059e-02
-3.076630326560056763e-02
2.201824933074861268e-02
-5.296337669903184060e-03
-2.112026179130165049e-02
1.226950608753337238e-02
-3.283184958497408368e-03
4.744566795220312751e-03
2.102157537360752060e-02
-1.868098545914280775e-02
-1.260664369315799699e-02
1.376555565227719239e-03
9.715761231574328999e-03
-1.204576144052810216e-02
-1.357850469522632088e-02
1.320512103903363765e-02
1.683971608676146717e-02
2.392106608981063934e-02
-5.052663532572347974e-03
-4.420739384930108540e-02
8.960347245231967128e-03
1.300990048843658591e-02
-2.511174768084655992e-02
1.547293512745260245e-03
4.713228074741663241e-03
5.826815546972190576e-03
-7.955485466148895513e-03
1.428361241337425692e-03
1.027864545038132023e-02
-3.040776887245769458e-02
1.559756689839920940e-02
-6.263057511962620560e-03
1.308813834925715708e-02
-1.202873238294197358e-02
-2.930510565340332593e-02
2.022088192971501636e-02
2.809595540569281499e-02
-3.185195054441539164e-02
-2.212354260542654522e-02
1.612227471622655573e-03
-1.796485938077235431e-02
1.301537274449928241e-02
-1.364559014378337320e-02
-8.860885222113253773e-03
3.619728522060162035e-03
-3.729082067106864046e-02
-5.477016971232582555e-03
3.449042524014126615e-02
1.004736095482105032e-02
-1.710457460129536159e-02
1.790759014701380145e-02
3.532136247228470638e-02
2.182209435373289388e-02
-1.000843205883171147e-02
-1.125792727011747617e-02
-6.342496905366599817e-03
-1.795960435999988461e-02
5.001690753728546199e-04
-1.721721972228941119e-02
-1.498394039732386419e-02
5.492359491285622904e-03
-9.649107947484344971e-03
-3.499031146854137461e-03
3.677642395352536536e-02
6.303851218133990977e-03
2.037811899851455985e-02
7.497079413790627006e-03
1.032289199128364268e-02
-2.309763612517925016e-02
-9.364060466614433295e-03
-4.489739000295868768e-03
-7.646167675400636181e-03
-3.473756989742157308e-03
2.737488995487447410e-03
-3.811084286040967994e-03
1.180570460937102259e-02
-4.242248596961244005e-03
1.855706230028242656e-02
-2.241910795566406218e-04
-1.018075024073511817e-02
-2.142358398181085088e-02
-1.317170883811658554e-02
-4.353753570439233313e-03
2.057903921382204376e-02
-2.177424619116359594e-02
1.780722723179804790e-02
-1.570986434204437289e-03
-1.423418976636606388e-02
-2.258260386744941756e-02
9.398697493579445672e-03
-3.263436239585323223e-02
-7.901018789262199971e-03
-7.538916813460081086e-03
-2.792670675368401530e-03
9.949781389273057788e-03
-1.052254174112719071e-02
2.060240655325748602e-03
-2.084930466534309912e-02
9.876782161288035194e-04
1.041493428954859760e-02
-6.020901467026567970e-03
6.311490149467250538e-03
1.791286497835996392e-03
-5.894168119066300199e-03
-1.041184191365607508e-03
-3.338722222415665443e-03
-3.379876550279983793e-02
-2.566539771484238272e-02
7.410352037564928857e-03
-3.575212457428864760e-02
1.983128733524692003e-02
-2.413845149525099820e-02
5.225874213268233946e-04
8.082881697518293218e-03
-1.090078873447750292e-02
1.990330616670527714e-02
-2.346876542601134333e-02
1.552367678117854560e-02
2.543261321184063940e-03
-2.588273993666458887e-03
1.732005206144866805e-02
9.231928152971483059e-03
-2.062043640247185339e-02
2.416994286248478133e-02
1.718823728395937889e-02
1.777168771267713734e-03
2.562623485981496783e-03
2.287613152853684023e-02
2.838760982561835608e-02
1.048860275662067895e-02
-1.990386919665226850e-02
2.058660812664099993e-03
1.403859283471704973e-02
-1.428646094290913701e-02
-2.064422396808056337e-02
9.892502345780479619e-05
1.923648764935670386e-03
6.468377859008184010e-03
2.106250281277965292e-02
-3.736272908664035886e-02
1.709609973171322995e-03
-3.521165522387272040e-03
2.696242441059318036e-04
2.866427113564908296e-03
1.756064719282592751e-02
9.568827592843959923e-03
-7.823744403857479024e-04
1.525676036044948175e-03
1.803699541189694592e-03
-2.276350195774089549e-03
2.263263747303153814e-02
-3.273717444999077464e-02
-2.399336188265098480e-02
2.735125655842200743e-02
9.820841755153894570e-03
1.079647165334175068e-02
1.982794995897259674e-02
-3.455387433362747812e-02
2.463773844272559507e-02
-1.996965577978778578e-02
-1.682431386163462175e-02
1.774028936221544450e-02
-1.978564862031832045e-02
9.089275374160137727e-03
2.443562158575907778e-02
-1.112092434488497206e-02
-1.008494590819394854e-02
1.150500783652653666e-02
1.534486488014266334e-02
5.850274135029458894e-03
-2.707273493862943914e-02
2.756640236076119549e-02
1.065700090461975565e-02
-4.034910199572887268e-02
-1.540419954215126695e-02
-1.814759529828557927e-02
-1.331404291768336495e-02
4.383570653611256959e-03
-1.224464520790097613e-02
2.097087188048926687e-02
1.898139324902158032e-02
1.271158281309518962e-03
-1.803105576332453969e-02
-1.049453628503445505e-05
6.963653117295321229e-03
1.990106073426418237e-02
-7.948631264252117856e-03
1.364825601736304947e-03
-1.706400505307306345e-02
-7.891935056662791742e-03
2.000173861646368026e-02
2.732671557890791608e-02
-5.905894701129151339e-03
-4.522011046327492449e-03
-1.302239903479047653e-02
-2.618644143697746937e-02
6.381592205082049600e-03
8.092372945332548806e-03
1.034802496410476037e-02
4.473747748353777199e-04
9.060002048755646381e-03
2.831308289192642318e-03
2.130491461676156315e-02
6.412675455704915269e-03
2.484659533209600257e-02
1.835864174866011500e-02
6.146298457400441000e-03
-2.126796062400866313e-02
8.855608637587886189e-03
5.491387236981214517e-03
3.284642013485156858e-02
1.270875380950572953e-02
-1.936715898212029024e-02
-1.357368408967123997e-02
1.650242622050284227e-02
-3.306047089291849414e-03
-2.059325997966186123e-02
8.401746308192854784e-03
8.451185875756123816e-03
-2.029413374579314491e-03
1.475037213419088354e-02
-1.784465997160155065e-03
3.192530222088550695e-02
-1.878916980871147072e-02
1.554346232073917575e-02
1.696550445448330446e-02
2.168852701457082977e-02
-2.144329971635545833e-03
-7.070388555753492205e-03
2.980004304388813099e-02
9.357164425607083710e-03
-1.001741041959553109e-02
1.424971290747135098e-02
2.717056643434248228e-02
1.140832345247294079e-02
-1.242864756639207834e-02
1.676757905188349523e-02
-2.632231907974710156e-02
1.329900599408869941e-02
1.674879101960834171e-02
-3.800067515440922437e-03
4.744355690471585736e-03
2.572771743540424282e-03
-9.172725065486575860e-03
-1.468196275371399726e-02
-4.770974392272282240e-03
-1.064873585892423327e-02
2.591668048784684375e-02
-2.320200295084909672e-02
3.080218158974916062e-02
-4.030193128769636937e-03
-1.320004023749739470e-02
-9.317391799654770740e-03
-1.782109613577836579e-02
-3.479033793901727123e-02
1.396958709258729579e-02
-2.630414481963431594e-03
-1.435411770251650461e-02
-2.235562456451982427e-02
-9.635531695180929446e-03
-2.142544399321677853e-02
2.223131187662215000e-02
-3.246393604259933258e-02
-1.640443052537243068e-02
-1.511717270919284498e-02
8.134951232754122907e-03
4.344578918563112707e-03
-2.478831996282096668e-03
-2.948460736077809785e-03
6.814917188447807035e-03
-1.361777104978002806e-02
8.280252972468584924e-03
-2.264545397373518218e-02
9.249932956682397137e-03
-8.684151790724193784e-03
1.931763706115586718e-02
-2.094354106888583408e-02
-7.763891574817930429e-03
-1.405375185133749677e-02
1.609637802142818014e-02
-2.416108952686564504e-02
1.513645073452315158e-02
7.930195282041805835e-03
9.689359164183763626e-03
-1.178116318207847978e-02
8.137743894971141700e-03
2.997204143397673437e-02
-1.183507745129823950e-02
4.334559383337876180e-03
-4.503903585199030800e-03
-1.883773177763702067e-02
-1.412089959322292490e-02
8.985353489134770624e-03
-7.769411827270977355e-04
-4.199354549560738170e-02
9.112677601453839440e-03
-5.437071993020128717e-03
1.571166497544445109e-02
-1.101890081295300861e-02
3.949417871481537834e-02
-1.624241602116200528e-02
1.311765414211963320e-02
-1.841167802476351145e-02
3.337604951332540613e-03
-1.964516515374534894e-02
2.148278426045148112e-02
-3.612935805188890884e-04
2.559017871879855008e-02
-1.665516119261667080e-03
-2.780873238272293588e-02
-1.443401657605051895e-02
-6.713862102295398843e-03
2.365102074483627081e-02
4.672789930957159388e-02
-1.954348408004256965e-03
5.444391282888367059e-03
2.140169576775056634e-02
-1.953899255545629363e-02
-5.403070003860351543e-03
1.146330614616726355e-02
6.045577604353833366e-03
-1.443586546293437311e-03
-1.673292381305324303e-02
1.783713588994615155e-03
1.220433074944081431e-02
-1.229923716473309107e-02
1.275034427932813944e-03
3.577598746905350652e-02
8.171917492872046024e-03
1.015416844506789214e-02
-1.773936130759872637e-02
-9.430891732288318799e-03
-5.434963563311902453e-03
-1.435800590701922369e-02
-2.069958170616761906e-02
-2.680578284799225997e-02
-3.558865317520953139e-03
1.425770663202275551e-02
1.055917196901920256e-02
1.157781744745263984e-02
1.561476245293171375e-02
-1.470289739192339948e-02
-1.169747142361190345e-02
-4.033183856990668614e-03
-1.525816997756372986e-02
4.274322729017946375e-03
-1.135310818528253649e-02
1.907066996176639759e-02
-1.502866002621432336e-02
9.630613840216102964e-03
2.874007515756627287e-02
-2.080443990755929257e-02
-9.438552763230712364e-03
-1.315073452445594468e-02
-1.815169648380105319e-02
4.462939759796694279e-03
8.565379906021176187e-03
-1.254553111215634884e-02
-8.773610086746583270e-03
4.150028345815062400e-03
5.374968394452243371e-03
-1.902650408732626738e-02
3.940356742696664999e-02
-3.996468638582812913e-03
1.508593441841831482e-03
-1.075242818057334064e-02
-4.428819192189325724e-03
-1.548125834363077089e-02
2.787515291462054623e-02
-3.162351691692776023e-02
-3.166299751203750703e-03
1.131816033644751467e-02
-2.734401969247455405e-02
7.892510122832928007e-03
2.253835209043683271e-02
5.073795309887688294e-03
1.286078724013374931e-07
-5.856827252766416084e-04
-4.819217579751087187e-03
9.932536601887814384e-03
-1.478341953501559856e-02
5.594980657478463432e-03
-5.795499337647637243e-03
-9.957278260206509080e-03
-1.979694150691956728e-02
1.154780141678297609e-02
-1.011174232034192308e-02
1.844694768922996650e-02
-4.801325119987154819e-04
-5.293855593214289763e-05
-1.879538270396083691e-02
-1.712180068471980121e-02
9.364511002166710230e-03
-1.646715954078301156e-03
1.005659813758464803e-03
1.114525088061825778e-02
8.933889448787455528e-03
-6.091784841297505013e-03
4.955136939580053607e-02
5.367144483741573269e-02
7.538080986840952659e-03
-2.463874776753733481e-02
-1.529844439468499434e-02
9.959271669819797293e-03
-9.871405867597720860e-03
-1.398728094452877067e-03
-3.418392337366869815e-02
7.467348856402153574e-03
2.068831935650650503e-02
-2.078985288559160455e-02
-5.880658464037819867e-03
-6.146368021139966657e-03
-4.254096106989947029e-02
-8.143043505909519988e-03
-9.743994505754206489e-03
-2.385744384916350935e-02
-1.497197592969779466e-02
4.226083463746517152e-03
5.844518892556461835e-03
5.561691001569737079e-03
-9.860197684916046854e-03
-1.412221654463493258e-02
2.489015908826046342e-03
-6.730522823876052517e-03
1.774327223098192199e-02
1.993275397431250318e-02
-8.091051452622712026e-03
-2.796500201867132065e-02
3.139086063133593538e-03
-1.145137027154005324e-02
1.407757748511645132e-02
1.198557743166375755e-02
-1.798624267830282661e-02
1.794551805462154745e-02
2.383553687070714966e-02
6.612083192756886343e-03
1.044559006496792106e-02
-8.918194147804734545e-03
-1.470867100701690050e-02
2.148343683225265727e-02
4.127744582965072948e-03
-1.569462877705129046e-03
-1.179983898340476777e-03
1.288714047291437265e-02
-3.691910769721752118e-03
-8.532995740277488431e-03
-5.217155549684188154e-03
-2.781922763792430819e-03
-8.328301778299665795e-03
1.511377230704560003e-03
-8.416079797954527028e-03
-7.788282587657521273e-03
3.400919265390348056e-02
1.242981759020119316e-04
2.924041526264749974e-02
-1.720138880841714374e-02
1.292232630693738483e-02
1.937622399859029415e-04
2.894978642177211542e-02
-7.963906333951786126e-03
3.068424620700304500e-02
-1.007751500282733949e-02
1.305805372607918584e-04
-1.979198259558999362e-02
-5.915094820407011287e-04
-3.540774219284999885e-03
-1.899248512963996882e-02
-3.160312791821268119e-02
1.534632512337186054e-02
8.476666006402119175e-03
-1.192118978003858798e-02
-1.828287788659290706e-03
-1.241535899656252134e-02
-2.363813205230705893e-03
4.280685718701958409e-03
6.045276339952248244e-03
-8.576633690111579167e-03
-3.591813081138103304e-03
8.835827944317968530e-03
-1.128754988545971338e-02
-9.511037583072323026e-03
1.401260803780053675e-03
8.470240430978499824e-03
-7.257943252259566741e-03
1.363646356293897639e-02
-1.199485024892657731e-03
-1.151723074267647570e-02
1.616374737637327804e-03
-2.493827501786062550e-02
-3.143026035419452247e-02
5.804049052054018575e-03
-3.041033509275464092e-02
-1.372918937720868891e-02
1.709706030191388351e-02
5.678542535948715060e-03
-1.455127943030568027e-02
-2.566334341207888309e-04
-2.454803616146266146e-02
-1.950273264438114051e-02
-2.873015535564596608e-03
1.005703033284020484e-02
-5.774433140545846051e-04
-1.443102644485762427e-03
-1.113377759917472988e-02
1.275738867542516993e-03
1.362768138346506612e-02
1.889596702356445904e-02
5.868218953535106475e-03
2.088244587372027703e-03
6.080492163784002695e-03
8.994071975683174194e-03
-8.247924601965625144e-03
-6.319129406047102777e-03
-1.135805825659414077e-02
-1.076493273324130584e-02
3.223712592585877001e-02
1.343799218731686444e-02
-1.172262022046677461e-02
7.244556258179406976e-04
5.264159672203323412e-03
-1.540072134473263223e-03
-1.649930134328615045e-02
2.476430937515315331e-02
-2.034561482271299640e-02
1.486583065958799188e-02
9.251029432756696170e-04
-1.392649053332861361e-02
-2.764921302523442974e-03
-3.168021128635003375e-02
4.707480778299867261e-03
1.247118263497837970e-02
-9.074547905182327179e-03
5.099273987980026436e-03
-4.278061913281436257e-02
-9.097395795064773874e-03
-2.289607392919527223e-02
1.584084243067145070e-02
3.326606707601000978e-03
-8.086988213337480309e-04
-3.239561169886726825e-03
-4.158205344476599043e-03
1.344012798502270539e-02
-1.783462006670884573e-02
1.596000534159458528e-02
1.197683566060382329e-02
1.764632817921044441e-02
-5.956612988781812522e-03
1.851484383756124910e-02
1.713327448756709823e-02
7.697031369200743774e-03
1.922332745998088510e-02
-7.555004520249109130e-03
-1.252278713083536128e-03
2.307066166948120584e-02
3.453735933201252523e-02
-2.819009037496079603e-02
1.604201457832300087e-02
-2.153871755329930804e-02
3.600152564059949916e-03
-1.006470944631308526e-02
3.521359266695253936e-03
-5.105791869479001099e-03
6.746466395105840848e-03
1.112351187664040349e-02
-5.960364749285731664e-03
1.144568471759222980e-02
-4.923242841388796726e-03
1.172398554608233487e-02
2.015780678720366370e-02
2.826226849684314920e-03
3.990846276442431596e-03
-3.086227625635972957e-02
-1.321462572348415347e-02
-1.065976828352481302e-02
-2.579265412058863449e-03
-2.396813923169010402e-02
-2.227401653012123922e-02
-1.320057189941426000e-03
3.557931080587004805e-03
1.688349636267092932e-02
2.452853152600411105e-02
9.043690203361307023e-03
-6.295505062825721039e-03
1.184213631220755632e-02
-1.366755229265540633e-02
3.660520913514230847e-03
3.064406496645148692e-02
2.522731985680549266e-02
-5.176783530436195740e-03
1.661245154759501824e-02
-6.641069403460921235e-03
-1.053050392047574259e-02
-2.755156537890037297e-02
9.191462726764505417e-03
5.237651027117685987e-03
1.685435995167380852e-02
1.379724175973010523e-02
-5.127734075991431141e-03
1.477614383845974114e-02
3.219777119792917308e-02
3.939756280599803623e-02
1.322430400776720971e-02
4.938655160315242112e-03
6.653859045718181660e-03
1.427616082178705505e-03
-9.853635438413856779e-03
2.700294422518742521e-02
1.305397319463993955e-02
2.507997067950703315e-03
2.546780258167067115e-02
1.437605135537569495e-02
-2.150725633415763449e-02
2.117103257089291216e-02
-7.009389334440519967e-03
-2.255676677611620495e-02
4.962340657153733320e-03
-5.310514968018455011e-03
-1.274524010486062509e-02
2.711004393002196255e-02
1.022432868400244927e-03
-8.940652550011732660e-04
-4.303325941862444146e-03
-6.727786637466133188e-03
3.231865907118765084e-03
-5.497922942245002213e-03
5.543985126686692966e-02
-1.805071038456452365e-02
2.007182124755246648e-03
-8.050993665274907424e-03
-1.202736731633275574e-02
-1.143498689255949274e-02
4.734495296673723805e-04
1.594188544054196341e-02
2.044973427255900728e-02
1.192637721543018947e-02
-7.253355469332324265e-03
3.289981071494799125e-02
3.043447843285939161e-02
3.018495170553852497e-02
-8.071193034593991678e-03
1.063884896457095545e-02
1.215942517195970837e-02
1.001394285689258083e-02
9.736979493163711030e-03
9.399169701793289033e-03
-5.177572045192983113e-03
2.066904973815889002e-02
2.358540391142206760e-02
1.089306608363154599e-02
9.466807151610114480e-04
6.947515824072929280e-03
2.137336343821506779e-02
-2.182462178765205360e-03
1.197421242010069352e-02
-1.258735522187896284e-02
6.492111202930462427e-03
-2.182198039294916403e-02
-1.946375951195600945e-02
3.575443169021418760e-02
2.253769759447998497e-03
1.889539855257132972e-02
-4.582704140764589512e-02
-4.069354812482041568e-03
-3.009377692265467318e-03
-9.556943096879303226e-03
2.390878131532012205e-03
-1.483167440440972401e-02
2.150011619302896748e-02
1.128081215784331251e-02
-1.959116380422985457e-02
8.297201325228677898e-03
5.384523995395478282e-03
2.757800025773656655e-02
1.807627996967615253e-02
-1.914543384023429523e-02
-1.330510129381463208e-02
1.702454782447701542e-02
-2.262407061008003817e-02
1.027021472093087549e-02
-1.161319651944965614e-02
8.713047823416045223e-03
9.214996593284055168e-03
6.411948635850059884e-03
-1.278537641935227620e-02
5.741622375324820964e-04
2.088998867568904461e-02
-3.160315828482859486e-03
7.646984493614118229e-03
2.822626478476042422e-02
3.269078668242819674e-02
2.661600330966161845e-02
2.444328004123979756e-03
1.759974922397814466e-03
-3.023362268728529804e-03
-8.766504623863517753e-03
-2.806798070519993162e-03
-2.415548286765479072e-02
9.895682749549801829e-03
-4.872902461334917452e-03
1.936705048541656482e-02
1.797586942156254378e-02
2.384817837339677990e-02
-1.329883663799431674e-02
-3.880641250684910542e-03
-1.250111177917497506e-02
-2.669142788977152056e-02
-1.147375391310028608e-02
-1.357157632242942877e-02
1.935575665279832061e-02
-4.689361237540353583e-02
8.736500355126991524e-03
-4.341917014677803936e-03
-7.835102299267180520e-03
-5.239289609073982494e-03
7.973685322641489368e-03
-1.677325460523336172e-03
4.071503322582750717e-02
3.369963977358669382e-03
-8.060752515600014961e-03
-9.067946750304001560e-03
-3.700888663460284375e-03
2.723004424805267748e-02
9.298008922647860858e-03
2.357463281300728811e-02
-2.164306378589369098e-02
-8.339787373875104035e-03
1.192027978151253805e-03
-3.432663626936941891e-03
1.203476991875310383e-02
1.800150257000019197e-02
-6.267964157029075507e-03
-4.916898210991763052e-02
-1.579849798937989908e-02
-2.055248556777430902e-02
9.972646831525973019e-03
3.498383737380552500e-02
5.873378997164236011e-03
3.115418691265506995e-02
5.786788544761816561e-03
1.922512521923885193e-02
5.548757151434351685e-03
1.293187231713346583e-02
-1.586994390772862931e-02
-5.308766643912834864e-03
2.581859801315318156e-02
1.591645384619948603e-02
-2.320061560889993824e-02
1.840578667199689600e-02
2.108595696082259108e-02
-4.718261029313482700e-03
5.718765634307174280e-03
-9.827809808000062541e-03
5.279705485648118930e-03
2.689803195726724050e-03
-6.596316381005445581e-03
-6.938218296447018528e-04
-9.288141836896706208e-03
1.179503841087662860e-02
-1.102903836057535052e-02
6.061143797722609063e-03
4.807421592321693520e-03
-1.349295873153203047e-02
-6.827587370503559669e-03
5.350176316706669460e-03
2.352990262911083819e-02
-1.096528649158185452e-02
-2.120372711209982976e-03
-3.188608230978486665e-03
-3.001801000183023510e-02
-2.531798226366848044e-03
1.287274982786900702e-02
1.337603762650390292e-02
-8.218108079531959154e-03
9.171254513145696285e-03
-4.260298289870264113e-03
6.120879269410842670e-03
1.602372155585767358e-02
-1.110796329195905263e-02
8.154745674435503675e-03
-2.801999739930796998e-02
1.658170654199733404e-02
-2.638433405256032649e-02
-1.117358330658666833e-03
-3.372155276512836877e-03
1.483208617016898434e-02
3.041240939521321074e-02
-3.277865867931648459e-03
1.584456129951871133e-04
-1.818255456330675202e-02
-9.982584570112543187e-03
1.717791031715203143e-02
-1.552209816517273748e-04
-1.688831938965514035e-02
-1.481587306399569266e-02
1.554480546328334926e-02
1.589509299138547674e-02
-3.520800352247145659e-02
-1.408885083844164249e-02
-3.737750715902102283e-02
-3.245646299733070429e-03
1.824020043396138227e-03
6.013142597323774610e-03
7.597242258066218279e-03
1.126646566987311686e-02
-1.931058072366730483e-03
-2.582583450925281590e-02
3.463921058268701510e-03
1.269300508107192547e-02
-2.437065093465256432e-02
-1.670621617472301673e-02
2.033708597788360523e-02
2.777359242923251037e-02
-7.822635619017616337e-03
-2.224302222987537686e-02
-1.029374302618639436e-02
-1.349055101912098771e-02
-7.818714886761260821e-03
1.402221239583368098e-02
-3.281238540448237762e-02
-3.511776280512549087e-02
3.330738280058709311e-02
-1.360702566942304480e-02
2.030472341691233473e-02
-3.172806429070606365e-02
1.463933243184601524e-02
-2.422096707310551419e-02
-1.699749631442620465e-02
-2.385843639186308734e-02
9.383713762617748588e-03
-1.778776523128464473e-02
-1.694938088829700540e-02
1.166166508035637074e-02
2.688396198688415908e-02
7.439480582811532593e-03
4.592942067403049319e-03
1.584915742018765811e-02
2.847277644409414166e-02
-4.010684262245519174e-03
-1.659929343421923109e-02
3.160525261311945139e-02
2.418637293007727326e-02
-2.102188559364769407e-02
1.359804869228649349e-02
6.894392866040466826e-03
-1.233753580365320665e-03
-1.994747395899634096e-02
-2.419962577484376792e-02
-9.382900932346761869e-03
-1.395023462602394768e-03
2.819387189636091140e-02
-2.402796602388642885e-02
1.754628680861111331e-02
3.566580469327042258e-03
1.409085245440509435e-02
3.452827364457338594e-02
-7.574260221171870075e-03
2.181125173654630076e-03
-2.879059615706078615e-02
-1.148394027440884091e-02
2.655256334733575169e-02
3.485495810304108100e-02
2.879461175236384691e-03
-9.883167338407732386e-04
8.006371653608585631e-03
4.876134845375731074e-03
3.856935766901348900e-02
-1.724459758985766658e-02
-2.868787778510505093e-02
-1.289112814899132965e-02
-2.353957838870067432e-02
2.058947034774002895e-03
9.254237421311900308e-04
-2.551121974902233192e-02
-4.615581787013777392e-04
-4.987447237676707196e-03
4.114527197956670788e-03
-1.079337192181701113e-02
-6.549661750321618230e-03
-4.995633667025077725e-03
2.281218121081819011e-02
-1.842713295229296902e-02
-9.836915140221639750e-03
1.068379189026549998e-03
-1.389845110434152937e-03
1.988845719227528772e-02
-5.444650994594620735e-03
5.862780579406513815e-03
5.829996763021256904e-04
-1.468056968201042999e-02
-2.459890541164054187e-02
-3.851272634503839862e-04
-3.369525628439740822e-02
4.463716982114189491e-02
3.984681860721106701e-03
1.796515200933079814e-02
2.827514303359053224e-02
3.418479346518670664e-02
-3.099515391577594564e-02
-1.074487250650629951e-02
-2.395796778444994266e-02
-9.029671407312910361e-03
-6.064345569976536086e-03
-2.536370881021670146e-02
1.902521554400220249e-02
2.158527222725136266e-02
-1.204132726067276733e-02
1.144202853059710263e-02
1.442872597561537656e-02
1.110698786103530081e-02
-2.340957279698267779e-02
4.160242504029765948e-02
3.557777442680745000e-02
-8.212796423104528482e-03
-7.637380065002868576e-03
-2.282303459424411818e-02
1.163470563741347136e-02
-4.434414219333729232e-05
8.178825229851364315e-03
-7.083451284240208784e-03
-2.175263747939165312e-02
-1.640147651826851655e-02
-1.039048562136576752e-02
2.601691890844914923e-03
-4.054644210186685374e-03
1.326234198622679508e-02
1.159323571445135086e-02
1.589075099750399817e-02
5.139088132462529650e-03
3.184099527834179100e-02
3.674440721190295328e-02
-8.247055553939158096e-03
-1.796953367923917813e-02
1.317833504748510721e-02
1.015555079468716607e-02
1.388211857439993445e-02
-6.067441741569928534e-03
-1.762744265407817368e-02
-2.411007807980174687e-03
2.975675223463334490e-02
-3.403031964263689667e-03
1.187460785618669849e-02
-9.909321781926903883e-03
-1.543583923604254816e-02
-1.389522246716555845e-02
-3.855783237386085915e-02
-1.147439870661588583e-02
1.507106833322744734e-02
7.315968581307868545e-04
-1.467011819248908652e-02
-8.027517583658919879e-04
4.357260117981876825e-03
1.436669352585685962e-02
-1.262700840464636015e-02
3.297473114260698814e-05
5.586078261293491581e-03
1.807219853405821544e-02
-2.161926621117341019e-02
-5.235727447307571975e-03
-3.081483696544666182e-02
-1.458470203886892691e-02
5.987184255773711668e-03
2.927063916847398931e-02
-4.186885638388510023e-03
-6.740072529885816378e-03
-1.735161400121193118e-02
-2.339220701338774050e-02
-1.469077366253357560e-02
1.080610335134523162e-02
-3.603896172958705180e-02
-3.563740251696020066e-03
-1.155778396086109237e-02
-1.794411508613963022e-02
4.122502579669914610e-03
-1.344532429496465495e-02
-1.857123077239142966e-02
-9.999023450476002967e-03
-2.623442509812527398e-02
-2.731174196658660985e-02
-1.376419300135865373e-02
-1.032427974737358360e-02
2.485108424109632591e-02
-4.630457425626408399e-03
-1.500575991514796655e-02
-2.764966901886180533e-03
1.181053547725053471e-02
9.370694300913839578e-03
2.921606615340731350e-02
-1.368640855777555551e-02
2.228611584836291334e-02
-5.763027504731717786e-03
1.541695005758370604e-03
-1.481394563969111802e-02
-1.530740753815055394e-02
3.140057452122897719e-02
3.183085064285475635e-02
4.589739156489948402e-03
1.221752149389639108e-02
-1.712561899095936312e-06
2.752223436186778185e-02
-3.042768106220849686e-02
2.118652316807825148e-02
-2.876163913512866377e-02
2.705629084770485443e-02
3.662249243969100537e-02
-2.189852371903448433e-02
-1.202123536892233530e-02
-1.027961294810332375e-03
1.392873305131517303e-02
-3.754457833777589959e-02
-2.987230078188139563e-03
1.430435220782207834e-02
1.316082363167847546e-02
1.173022518182397986e-02
-5.610154027455896940e-03
-2.476096470921737482e-03
-7.621404628329801409e-03
4.331746883150618121e-02
-1.778190747613203615e-02
4.899359191365251602e-03
8.571667147480514608e-04
-2.745038409841240364e-03
2.969982829157614447e-03
-9.945146394289606367e-03
3.481323153531575075e-04
-8.161112284627463839e-03
1.252805904869146343e-02
-4.539130893864463945e-03
1.198609424188154873e-03
4.863900114296982897e-04
2.872071326581408096e-02
3.204836126774240901e-02
-2.040564828333603364e-02
-1.358016202064642360e-02
-2.874184688809032842e-02
-6.391131162133633324e-03
-3.112219717061472969e-03
-1.269659540145304244e-02
5.772220449158057751e-03
-9.606313372792741126e-03
-2.290583219176404138e-03
-3.759269302980432215e-02
9.744586772076862038e-03
-1.799584349083379470e-02
-9.600548478205534614e-03
1.105079850817686053e-02
-2.560943028600407359e-02
1.727901731557238835e-02
7.552079334731667468e-03
1.942060601842285003e-03
-2.444348395722695591e-02
-2.760002887314458309e-02
7.806217013873174805e-04
-5.267705435745085978e-03
-1.039796898360087485e-02
1.089243057719021038e-02
-1.380051629499516423e-02
-4.884737104311786746e-03
8.594300014701169999e-03
-1.606306748917326471e-02
-1.540831608130469911e-02
-3.112830485083336804e-03
-8.549931875878602483e-03
-1.956555888581140538e-03
6.621401346872486313e-04
-3.070479599463238687e-02
2.640204811386501899e-02
-4.062110200734277143e-03
-7.367962999306885974e-03
-2.155590187481572564e-02
-5.671603611723078329e-03
-5.205879530020885750e-03
-1.870280195196696166e-02
-5.045578630266771281e-03
-2.712508669390609195e-02
3.812357945875281123e-02
-3.028454185394173080e-04
7.822180405891613481e-03
4.887966840923258643e-03
-1.477106552873834466e-02
1.412322847177577279e-02
-3.410102976458667667e-02
-2.310570064068835291e-02
1.515847084529224446e-02
-6.890794947917362225e-03
-3.816918927564864894e-02
-2.745918589461895931e-02
1.346315806588267716e-02
-3.086155762719737516e-02
3.812783690692086975e-05
-3.170876033326218424e-02
1.537544506383063149e-02
8.176911384499455093e-03
1.815945486896677549e-02
-6.020844550364575117e-03
4.752867808575545090e-03
3.024420780662116000e-03
-2.561617050818515776e-02
-1.751715802610820513e-03
-1.102171444867406161e-02
-2.133160084441494686e-02
-2.725025970286152829e-02
1.913742710186661783e-02
1.343437153715957601e-02
-6.848242701018397022e-03
-3.613764967480872364e-02
9.891475879522580034e-03
1.862717863016494571e-02
9.987856130715767888e-03
-5.081181642982381466e-03
-2.494424265046236641e-02
4.305786798152063896e-04
-1.598287796754228884e-02
-1.274320482423653769e-02
4.631334037730940875e-05
-6.450478984625630102e-03
2.488852649672299629e-03
1.560306776351460395e-02
-2.101270738639874486e-02
5.185794386187508702e-03
1.399199048559455691e-02
-7.489189640985188801e-03
-3.744152270171985375e-02
-1.763038540819443500e-02
3.941646053317971604e-02
1.205841192514578615e-02
-2.076018276847481012e-02
-5.170601327261382420e-03
-6.080200199832890701e-03
1.848616971877603977e-03
2.227753328957156938e-03
1.365923799085646054e-02
2.384253567035431436e-03
-1.513127905184910235e-02
1.245816991890424767e-02
-1.303956376447942475e-02
8.350687769626578480e-03
3.054839794049520052e-02
2.673911450415841946e-03
-2.934995009943166394e-02
9.717702208464674279e-03
1.391163292114789771e-03
-1.904817524729306155e-02
9.568881538026950684e-03
-1.609100750363359365e-03
-1.590358278758395583e-02
1.917989384335580440e-03
-1.945767691054091277e-03
-2.841529287786523361e-02
1.432776621269395059e-03
-2.724921280326282266e-02
-1.732071839980067664e-03
-2.461727531379133416e-02
8.937518694279498674e-03
4.213852334703761804e-03
-1.204776168584980114e-02
8.781875950465015471e-03
1.348519026722156886e-02
-2.714045211666328561e-02
-1.671231986431309657e-02
-2.041651247180375703e-02
-8.797340009674253433e-03
2.327535240225487093e-02
-1.467942711308941293e-03
2.259289733330626521e-02
-6.135729275930747358e-03
2.001605815955997958e-02
-1.212118864682200196e-02
-1.796290764239614340e-02
-3.033224101574351697e-02
1.189280366058131574e-02
-3.924588754649524849e-03
-1.115192011358438935e-02
-1.986442435135661599e-02
8.865551958858616799e-03
-6.957995967532835989e-04
-2.387542041178404920e-02
2.273908592568564535e-02
-7.609418329200149734e-04
-4.966337243775598154e-03
3.084196495079723557e-02
1.728716739750682171e-02
-3.658082491861263091e-03
-2.573633315145908585e-03
3.392421408031343760e-02
3.636825795321152466e-02
1.073655397260516765e-02
-3.480084495893263560e-03
-1.129647912016499244e-02
6.661915604737482337e-03
1.912190860701773769e-03
-2.303015271023734975e-02
1.899966951480124705e-02
-1.697541460058366513e-03
1.253685209394138703e-02
-2.135793667667995523e-03
1.546312882162314975e-03
-2.343221389186180004e-02
-1.546269182495174470e-02
-3.304192368154648327e-03
-1.205131797067585781e-04
-2.654222177235954563e-03
-3.145254962749508693e-03
-1.386123007019224133e-02
1.710651449596952214e-02
-1.294292374369624549e-03
8.352139184874289232e-03
4.529978490337592187e-03
-1.790405899468832177e-02
-1.162126196823400417e-02
1.352575279991211944e-02
3.399531185185087484e-02
8.945129357410559062e-03
-5.180877673557871335e-03
2.140149833777929209e-02
-2.788113565783400735e-02
-1.366873360193299192e-02
2.177965891044645469e-02
1.135707496878007698e-02
2.635231501429038253e-02
-1.712690354400663723e-02
-1.153642287276253342e-02
4.110441520826539283e-03
-6.312905671717094873e-03
1.945358769319957895e-02
-3.404737057659328395e-03
-1.078048051556497466e-02
1.670444843453702116e-02
-5.972492663211564044e-03
-2.060241511608549084e-02
-3.424650457442524401e-03
-4.340450956150632145e-02
1.625834857886123558e-02
8.634355529322271586e-03
-1.194986990920456245e-03
-1.004848286151088094e-02
-3.109435647227157262e-02
-3.015753179311922091e-02
1.236204945720120393e-02
-2.420710984558092568e-03
5.819768010479195106e-03
-2.944397987750189440e-03
3.857281030723599610e-03
-2.852719071812060553e-02
-6.284902067600685663e-03
9.806503319704883495e-03
1.209013879162855812e-02
5.727179903550394004e-03
-1.730829328983060286e-02
6.647287468073500953e-03
-2.058881052032554559e-02
-5.716716513887563737e-03
5.087846817035439340e-03
-1.134587201966812120e-02
3.505002985844576230e-02
2.738783477185869480e-02
-2.276803527579726594e-02
-3.348361487975206902e-03
1.713160921316526355e-03
1.885458701013991573e-02
4.359650033307892539e-03
-7.772899766774704275e-03
3.084309682308039244e-02
4.440551203929755074e-03
-1.014362085983605208e-03
1.030302985867235155e-03
1.873845822081262810e-02
-3.629276361458154063e-03
-4.668374418537148129e-02
-3.483582737999403600e-03
1.289764112476091650e-02
1.836010543345367675e-04
1.439261937486010319e-03
-1.544548765330901532e-02
2.349525358004216080e-02
-3.849759573483836628e-02
2.508736145749237458e-03
2.746802753970128096e-03
1.170587722213440283e-02
-4.082103083234860964e-03
-2.337034342406449534e-03
2.353679400480077066e-02
-2.752083081386084290e-03
5.676063556078463079e-03
-2.593217663736728171e-02
-2.264522445632489826e-03
-2.418359803774908223e-02
-1.638612215208805692e-02
-1.111398903219612544e-02
3.384975098796295934e-02
2.070422184711566763e-02
1.106634055993697269e-02
8.641189888025493926e-03
2.596645824505743744e-02
-3.728114030809839136e-02
-2.137867330011050671e-02
8.835133861456812357e-04
-1.250688821622130548e-02
-2.274731631029187559e-02
-7.523196982673071393e-04
1.025764841772804255e-02
9.515203161703320728e-03
-1.439536137352133351e-04
4.218754205739021212e-03
9.911080248634095147e-03
-4.130168292285914949e-02
1.124072057799854925e-02
-3.982866853500970777e-02
5.852491598592545786e-03
8.051480755863926753e-03
1.006038590199444596e-02
-1.007295957700815592e-02
1.191756240022357610e-02
1.387862677927167651e-02
1.696364834269890876e-02
-2.365406339135322361e-02
-1.103148412341494605e-02
1.157665206538201035e-02
6.660774371792035041e-03
1.217018245244499801e-02
1.484346814367421344e-02
5.719550372033970799e-03
7.400668390666208588e-03
-3.431294491096296105e-03
-1.358286010889369656e-02
8.176127250883518868e-03
-1.840080150402163481e-02
2.628571237330172908e-02
2.113034369215219255e-02
-9.905783067968730940e-03
2.193644598649016446e-03
-2.478131155595110838e-02
4.527117127721646400e-03
2.684375365494996377e-02
9.578201272251981105e-03
1.278973940864941428e-02
2.418478257240861198e-02
8.261796199543901438e-04
2.007584109148935828e-02
-5.298328841908379536e-03
3.151409622564876369e-03
-2.617168935905423918e-02
-1.553859948807047309e-02
-9.425573031508153315e-03
3.077578849439949887e-03
-1.629427653058505843e-02
1.201847508486223858e-03
-2.918693370519039043e-02
-9.116994350962599053e-03
-1.273887223304247598e-02
2.478541250965058534e-02
-3.163350673625031639e-02
