2.170341801677141911e-13
-8.173880670270353761e-14
-7.057078242381803990e-14
-1.433629020432962227e-13
1.156299882665994029e-13
-3.075162310773021988e-13
2.331300961389961001e-13
-1.017073827828996862e-13
4.262787348254804750e-14
-3.331920428411023191e-14
1.953570986391131865e-13
-2.752622440511327323e-13
-4.307923370879209482e-14
-5.131477816841678211e-14
1.514867016097751421e-13
-1.469601261007929491e-13
-2.303870562298617459e-14
-1.172935794929153479e-13
5.640318934124400198e-15
7.787187683586839793e-14
-1.470573845605274491e-13
1.529503376813938699e-13
1.204645312923885526e-13
6.713993792339057793e-14
1.203663560542604237e-13
-9.135515063070753775e-14
-1.641977127691533726e-14
-1.250312627681230378e-13
-3.579341625183266275e-14
7.086255576918258810e-14
-9.241509075776038535e-14
-5.301155675146853568e-14
-9.181542727323153240e-14
-1.129307335615369458e-13
-8.968742544283402112e-14
-1.692159133768121739e-15
-1.492875474228163757e-13
3.132106012198393879e-14
2.217716828009097882e-13
9.914698538981034590e-14
-2.563178543503765229e-14
-1.185990546239426296e-13
-9.983030171245421569e-14
2.261344816330529868e-13
6.788592900654618477e-15
-8.511110445857214564e-14
2.550885213393818608e-14
2.806220659014044421e-13
1.605483681305631552e-14
8.246655785701719611e-14
4.010675362496261637e-14
-4.706527217556751450e-14
-1.526556519207197345e-13
-4.667684166956206731e-14
-2.791105247470279366e-14
7.838067335534591774e-14
1.120993610581863598e-13
1.244076422346940760e-13
3.815827125770570581e-14
1.182666514262437748e-13
-1.007976150313295703e-13
1.673998762899484846e-13
6.853425727577593659e-14
-3.982917397226273822e-14
6.527253243219501098e-14
-1.009738762845632958e-14
1.512007617674031919e-13
2.030677737235404232e-13
2.920219906202661679e-13
-1.865905145912968246e-13
-1.929528429369781170e-13
-6.740335980046457244e-14
2.138308449732763856e-14
1.170678402122642035e-13
4.217303385061097571e-14
-2.701930222651712706e-13
-4.091293534707873073e-14
1.106284425577087131e-13
3.074372197430346401e-14
1.018148452276635808e-13
-2.970600171557136092e-14
-2.682395251462990935e-14
2.492708721302312941e-14
5.478836278853406195e-14
2.649548436432313089e-14
1.590114051696567510e-14
-8.960941603317454243e-14
5.044755176962544841e-14
1.627694471142768729e-14
1.509140971187940446e-13
1.601914007782565168e-13
2.473936403573282871e-14
-5.014306889048341033e-14
-8.534289162334319167e-14
5.658448750865056687e-14
1.033366345830083792e-14
-4.594343188625882088e-14
5.825120871814126976e-15
-8.284037242307592280e-14
9.326637895773662408e-14
-5.974233291682819470e-14
1.636105422938921497e-13
5.391185867216019995e-14
7.930999837706037179e-14
-1.462948090425759080e-13
2.263174957496575897e-14
9.894820758385936772e-14
-1.274271056322729528e-13
-3.557033897375643638e-14
4.357737930294940167e-15
-1.834667666990428574e-13
4.210949334063401346e-14
1.130583350972761452e-13
-1.148427801947516051e-13
4.683761273456845575e-14
-1.753385460240208876e-13
-5.170235540788967588e-15
-2.158887119607443948e-13
1.498363453837969016e-13
5.463455925475726769e-14
-3.289153252898215030e-15
-1.035719190495353995e-13
1.701907612875291854e-13
2.628309994945582878e-13
-2.482511291855444216e-13
1.651679826863195033e-13
2.174758242374959968e-13
4.516286566528913425e-14
-1.602381858081452845e-13
1.153544359385270532e-13
-2.417336258384038940e-14
-8.069184132362535019e-14
-1.643521538000358319e-13
7.355914374102592043e-14
1.059295590859526246e-13
-8.331201218208821052e-14
6.955593376807443539e-14
-1.528992546072358477e-13
1.071393162770168956e-13
6.222011440544463950e-15
-2.492820701544834691e-14
-1.359460403175315474e-14
1.160947659058951805e-13
1.002649920944900534e-13
7.074362088794261900e-14
1.839871611569096408e-14
1.039793942475961003e-14
8.262384108516706591e-14
3.106437040642322524e-14
9.119796092933738678e-14
-4.143573232785898229e-14
-3.253267622733664842e-13
1.388008060639079752e-13
2.922096158504900248e-13
5.897216953236867086e-14
-1.338207343798562426e-14
-1.823083550587406918e-14
-1.590722553051554067e-14
2.326128877589979446e-15
-1.499166497309138818e-13
-6.909070832748890032e-14
-1.332160665982567127e-13
3.324288247199853716e-14
-3.963520981992897395e-14
6.616683010497172641e-14
-2.334266954283432399e-14
1.317875210826717117e-13
2.853097392406524708e-14
2.927066683640425621e-13
-2.533790826806320445e-13
-8.643668779623105490e-14
1.204506583622726722e-13
3.378179968674484663e-13
-3.322091862345333456e-14
5.834759248393139552e-15
-3.023859776559307346e-14
1.779004079570889016e-13
-3.838815808518429736e-14
9.086639052047221378e-14
-4.272975402026617572e-14
-1.700308027704702760e-13
4.189415254694300988e-14
6.723219451958356702e-14
1.727922063039570763e-13
-1.475719410826759236e-14
-8.248779622964514957e-14
7.519237963009388880e-14
3.216568263040063366e-14
3.750059333296893484e-14
-9.768831230476689314e-15
1.550366910196643813e-13
4.936914930189008596e-14
2.544877773600953125e-13
1.484519764615163818e-13
8.805783264202598852e-14
-2.174474430933403796e-13
8.047787996472076897e-14
5.615530142055912660e-14
1.083539470113559521e-13
1.395513779447445854e-13
-5.356266693542574632e-14
1.100981280549172415e-13
-7.513149663557445205e-14
2.611977537711698799e-13
-1.779664869505334792e-13
-2.352514476201642305e-13
-2.205583520770419635e-13
-1.189900900549312776e-13
-1.495287261396487868e-13
2.613582004821607518e-13
-4.362468258027694130e-14
-1.793993726317756112e-13
1.488964115443814984e-13
-7.836741191774728816e-14
-1.652600885072554889e-13
1.170237486889348941e-13
8.328949124221401170e-14
-5.811600735002369456e-14
1.880660953263413843e-13
1.724969094484308638e-14
2.160460074629856626e-13
6.717287936571683550e-14
2.082771866854591244e-13
1.461765770874829762e-14
-1.629741009113271106e-13
3.272682820842457723e-13
-7.292269966387060906e-14
-2.656738740649541528e-14
-9.358257098938818144e-14
-2.717620800919671896e-14
3.242387017878194474e-14
2.696720068583231998e-14
8.832111655716165040e-14
2.394562119096092347e-13
-1.609567162392454711e-14
-1.647613579305621580e-13
-1.579734525825838425e-13
-8.895367283493579421e-14
-2.236948635893741818e-13
1.102349756194712593e-13
-6.656796931855466183e-14
-4.155173605336450923e-14
-2.527273055537676437e-16
-1.866070945491395362e-13
-1.150833402845391547e-13
9.015044836098817223e-14
8.264506807166470444e-14
-5.921367389260551342e-14
2.419115845327551487e-13
-1.744625117907006089e-13
-4.609488720765380577e-14
-3.084326493753197616e-14
-3.731933655898294984e-13
2.588796613215274444e-13
4.894683742969128290e-14
-1.395710574769063124e-13
2.740640977657733913e-13
7.825224543143811462e-14
5.739041446825846495e-14
-8.110307245213120265e-14
1.419277103372403591e-14
-2.038512154115447199e-13
1.062260775788851138e-13
-5.002994767704027512e-14
1.791062485417602359e-14
1.606105434041874565e-13
3.804614103310993739e-14
3.506914731382121027e-14
3.694399065705072291e-14
-9.797485494881989208e-14
1.117013677987384471e-13
2.062133378842047653e-13
1.013865450230423695e-13
1.182356063967760377e-13
-1.172164981006422344e-13
-1.159479336657386385e-13
-1.925202322431762369e-13
1.646454263786239906e-13
-3.396181650488932119e-14
1.870377994824688719e-13
-1.044738174600619596e-13
-5.845702861494915030e-14
1.275006290489371975e-14
1.231180047609992875e-13
8.117035474920109572e-15
2.820907987994949601e-14
2.208303172824423219e-15
2.367463992949414854e-14
-1.491752680396429441e-13
1.081293880352864539e-14
-2.492943914461101586e-14
-7.592507663950863527e-15
6.578272279689192633e-14
-9.094766765532779793e-14
-1.129139827997470039e-14
-3.973150900330819035e-14
5.575710717566454731e-14
1.048558137161032893e-13
-1.276575432598079718e-13
7.828543911332227436e-14
2.760161720144826045e-13
-1.965661640921396842e-13
-1.109220247913626773e-13
-1.176568984228211816e-13
-3.729117374720328909e-14
2.168342575323365217e-13
1.784095444775879067e-15
-9.282031906125739863e-14
8.308123186194082516e-14
-8.014187596672453720e-14
1.501028309798570243e-13
4.078774335413249498e-14
1.855594287198745227e-13
-8.836440133498946600e-14
4.049628873909140662e-13
1.101754910478837699e-13
8.746062872389614067e-14
-6.839458534564445812e-15
-9.694944154501905098e-14
-1.159454557733540630e-13
-1.816838226144114868e-14
-1.065258645961323047e-13
3.776924097149396588e-14
-1.103776221919044801e-13
8.298492291620804716e-14
1.277505971558194140e-13
-9.430969501933158770e-14
1.593587476549656068e-13
-3.179221248678055796e-14
1.543618523645771341e-13
5.854486126457261122e-14
1.499580154682110701e-13
-1.332151270132251326e-13
-1.426909934670190350e-14
1.939302852032047940e-13
-8.257795635744914762e-14
-2.721972234126814050e-13
-2.595557938821631580e-13
-3.348938620821916057e-13
-2.824804649293212030e-13
-5.500047607241754018e-14
1.708283844607461930e-13
-5.908772313594999467e-14
4.322756448318103335e-14
-1.469632839610310110e-14
1.142252999584724909e-15
-2.247360574036798027e-14
-2.327281443582093638e-14
6.161766740022410327e-14
-1.571269513843503580e-13
1.349664478393497643e-13
1.229266523910478263e-13
-2.606225930131602680e-14
1.076112909550717047e-13
-9.370895868142905344e-14
-7.178015289250932289e-14
2.087893214823299560e-14
-2.541606308208027601e-14
-5.995737926774084532e-14
-8.984801635674020034e-14
-7.448872179361633845e-14
1.254854558615085273e-13
-2.596538960155520604e-13
4.709794302125826837e-14
-3.159112658305966020e-14
9.724557955531764635e-14
6.882069660982939432e-14
-3.717836738939635532e-13
7.811657584113362203e-14
4.332735891682815344e-14
2.921166230734542294e-15
-6.262106554271064889e-14
1.140097386937540877e-13
-5.518621816742212283e-14
2.451427170889270785e-13
7.540906822096195394e-14
2.856423100256130976e-13
-1.049578068982464715e-13
-2.346150580341363288e-13
9.550541267457584355e-14
1.139326223980005924e-13
4.724580034889457652e-15
-2.056032774856474229e-13
-5.984476355244230345e-14
8.257110015533131861e-14
-2.460841071040965795e-14
-1.549716593756459634e-14
-2.344365568336114738e-14
-1.247834396333972896e-13
-7.121861647907613169e-14
-1.906068087997086911e-13
2.362230019148845886e-13
-6.351614905149211566e-14
6.381508302934569651e-14
-1.365375758022091441e-13
1.061595575420186633e-13
-2.502792609242186089e-13
1.230064442369603429e-13
-4.725625936453897644e-15
2.820049527108267108e-13
-1.745703578218511061e-13
1.020544969258665623e-14
4.906706260918329204e-14
1.647317568250118966e-13
-5.649932335610752146e-14
1.155279659330540777e-14
-2.862620970168264701e-13
-1.109216197702945032e-13
6.034190743670005803e-14
1.475323998407354209e-13
-3.764371884699290213e-14
2.747564927351630127e-13
2.351927467516627470e-13
-8.103980915603024434e-15
-3.224761537231283292e-13
-2.375065486053333928e-13
-1.039323018982512002e-13
1.490912372905357266e-13
4.145651110551846801e-14
-2.798194078856001930e-13
-3.056616236294553015e-14
2.155665728949449967e-13
-5.007889938399700577e-14
-1.002059319878725416e-13
2.745251518661201887e-13
7.136225639864438587e-15
-6.402177174443687034e-14
4.678699735784931242e-14
2.293436112627211669e-15
-5.733912541973868645e-14
1.614658645894889762e-13
1.490726242680640708e-13
1.123503061529479155e-13
-1.374710293471564714e-14
1.532411693314835647e-13
-6.640926714991134206e-15
6.234975713870091352e-14
1.381143363671228710e-13
1.080723819826700772e-13
2.391350688470498435e-13
6.029755656345646407e-14
-2.250128492144950952e-13
-1.550141818498650827e-13
1.803922571432412552e-13
-4.426384486827762254e-14
5.164677927697465412e-14
-1.137658188327583636e-13
1.337310919788593173e-13
-5.141871519192862876e-14
1.948226856441337440e-13
-7.111355563110294569e-14
1.493975176112719183e-13
9.010830393113954565e-14
-9.652118229198817114e-14
1.468405509202741236e-13
-1.204703795318646679e-13
-1.098925733724607236e-13
9.643024328780696454e-14
-8.355402222254745867e-14
-7.934534498204742806e-14
-4.594971620705387728e-14
-1.336359280537447023e-13
1.396251745823014307e-13
8.130567037036849706e-14
-9.263237477026602484e-15
-1.448262417706543061e-14
6.014677349223758809e-14
2.358722872815554957e-13
1.163731687066240598e-13
-6.793664682184917181e-14
1.038735626254220579e-13
-1.586941086642841952e-14
-2.658880841651961524e-14
2.493854409133608000e-13
-5.597568423423378578e-14
-6.402548837817879241e-14
-2.608272723867259162e-13
-1.873698557074819844e-13
6.027603448956732141e-14
-9.285069015741174623e-14
6.886615027783936026e-14
-1.489616249448791785e-13
-1.025228149246437207e-13
9.013163310243859256e-14
1.951946840860829144e-13
7.916225921241377786e-14
1.600461579957748935e-13
2.277564899548229272e-13
1.389697669632795829e-13
-1.227158246052554614e-13
-1.407545699672591712e-14
8.420253709088823794e-14
-5.542907261616827218e-14
6.038601142606279108e-14
-2.109963173005884025e-13
-1.107157369843519891e-13
7.066537976354027101e-14
-2.989045604246584974e-13
-1.480051472875776541e-13
-2.367403316807819093e-15
-2.297340076388166715e-13
7.632126044351464387e-15
-1.068301963543724747e-13
-3.896092259169389732e-14
-3.460355939239917557e-14
2.529209296403872231e-14
-7.532968575225786578e-14
1.198329882356447185e-14
-8.032255719738981612e-14
7.429882897589668851e-14
2.263154625159532614e-13
2.630442521350183464e-14
2.269679551823708516e-14
-1.555269718995859429e-13
9.264296479584708877e-14
-1.012878940929597513e-13
-1.080727609375887224e-13
7.448133712855245208e-14
2.418918805030673917e-14
1.479333900744694184e-13
1.927875797009190120e-13
-7.210864636576126481e-14
1.715287612731179502e-14
2.352149208346860621e-13
1.291425200982069160e-13
9.527285238339898228e-14
1.745265316221815776e-13
-8.078301122095517306e-14
8.505602408285827856e-14
1.882950269389732492e-13
2.165754752058056920e-13
-1.077170316228622606e-13
-3.362702695161886072e-14
5.113584575368915735e-14
-3.861389505820908525e-14
-5.235186942717231087e-14
9.139168973327287610e-14
-4.722028185043470443e-14
-2.388889808985345953e-13
4.834762193798989973e-14
-5.671789192716669205e-14
-9.774228463890103541e-14
-2.092034757426922150e-13
1.354601877636214288e-13
-2.975719172827483625e-13
-2.270536081689296869e-13
-3.685670878845458473e-14
1.642048384295809555e-13
1.749941569442772356e-13
-1.543210667431238255e-13
-2.373402780535290800e-14
-2.018170940611223293e-13
1.351107350540880822e-13
-1.972884422617560650e-13
-1.913285919138306644e-14
1.380203943115426727e-13
-2.971747721858669097e-14
1.964330074594607349e-13
-1.162446888963819464e-13
4.932876509901917568e-14
1.140098674793384582e-13
-1.866734843118563604e-14
1.852300542274188925e-13
7.323741471464825140e-14
-2.187850797831455925e-13
5.289220578949467016e-13
8.666743210244181152e-14
1.434249408571432945e-14
-1.869000276042226135e-13
1.092526990599810404e-14
-6.145448957380887654e-14
8.609423388236492021e-14
4.966010230972942274e-14
2.475867530583716235e-13
1.900667844697826448e-14
6.861117306335282059e-14
4.976519724433887920e-14
-1.984021587476833080e-14
-2.450470962540718143e-14
1.471082946373923745e-13
1.042220168283579335e-13
-8.410178374331720447e-14
-1.487698965895180514e-13
-9.006877371467221148e-15
1.551838542932258856e-13
-3.678292752789737524e-15
2.333469939865164448e-13
-1.035597158648599259e-13
1.892506277204096795e-14
-3.362117181077235579e-13
-7.958916439668422564e-14
-4.130272629492088711e-14
6.826809340197234625e-14
2.285672111396151607e-13
4.668929058641432517e-15
1.942627580407093303e-13
8.840940675289298014e-14
1.317897914925103548e-13
-6.228449900225133808e-14
1.850532944116304519e-13
1.554961630623297284e-04
7.883220632386427756e-05
-1.117938972127665030e-04
2.426478238416245140e-05
1.654494992580192794e-05
1.107038111042487889e-04
6.948406909558645810e-05
-2.762929331070777266e-05
-2.329141558862799313e-04
-4.507972298077801465e-05
-6.222909400557590995e-05
1.332102261349746579e-04
-6.497954636823438993e-05
3.375857227416204315e-05
1.842215862966378227e-04
-8.785122150501826252e-05
-8.740152106955460928e-05
-3.191331860971077323e-06
-2.103255356802585837e-05
1.877376176798878642e-04
2.147754566514442544e-04
4.829171337395498959e-05
-2.770394632086836239e-04
5.024358488562715385e-05
4.016923121106316804e-05
7.285872720945445094e-05
-1.331881625343359651e-04
-1.875967130611613028e-04
-1.072573423651671441e-05
3.585418440641332930e-05
-2.560994555414680614e-05
1.796539938543165757e-04
1.601977977641206306e-04
1.011401221941124240e-04
-1.067165390077724155e-04
-3.377031584636533477e-05
-3.586942589065452829e-05
-1.630418114838589499e-04
1.153705435255256953e-04
1.073180898307784950e-04
-1.260165067848293330e-04
1.786213151202026400e-05
1.334757771692061110e-04
3.041212863838425954e-05
1.201643020023871654e-04
1.708869277585139783e-04
1.808255177134017618e-04
-1.502223223736745615e-04
-1.286143647612561073e-05
1.342982158042597236e-04
9.360093046918833938e-04
1.651946152894942857e-04
-4.347440402382104791e-04
-7.162199691789765833e-04
2.566133409000835434e-04
2.671853636991208662e-04
2.110367599428190173e-04
-1.346179171460722655e-04
-3.131421796910481515e-04
-9.701356518682747532e-05
-3.693813830535584968e-04
2.762463670785751755e-04
-1.473582181008484650e-04
1.556814121041538235e-04
5.638475529690243271e-04
-5.050976177603289270e-04
-4.522144254634895711e-04
3.551955363403645261e-04
-1.820504241364215493e-06
3.007863366386908711e-04
8.536908437034898241e-04
1.267680656699896860e-04
-1.443509740885246971e-03
5.054474600057297026e-04
-2.724855767090520863e-04
3.608985099005221006e-04
-2.272851953237121773e-04
-3.234968926979581378e-04
-1.787174379075543243e-04
-3.304029981697467668e-04
-1.425914851733414343e-04
5.382810644365809000e-04
7.317444438600757481e-04
4.861412630580560709e-04
-1.621053292802892404e-04
-4.985987464311920827e-04
-7.608035191948417147e-05
-2.187871956881974080e-04
5.354961833795267301e-04
8.782359828914147390e-04
-4.739783983534033313e-04
-6.557389382645103593e-05
5.036783354696290974e-04
-2.014857865934549148e-05
1.623663878449434954e-04
6.470765755623867146e-04
1.027886778934915691e-03
-3.140561380579725008e-04
-5.376074440301179360e-05
8.738961849708679237e-04
1.403599765317977994e-03
1.802229046214611104e-04
-5.999494764798798691e-04
-1.262159629408880811e-03
4.190678403048501890e-04
3.135566975987190701e-04
2.712465605000885060e-04
-1.949512201088054607e-04
-2.319841935271529281e-04
-1.074362510355328484e-04
-5.527725365744827479e-04
2.995606212728054839e-04
-1.677788962408142211e-04
2.230827243146533566e-04
7.265886547410855840e-04
-7.522466717920688398e-04
-6.619970247675507468e-04
6.143300354044341129e-04
2.449765428629852032e-05
2.700962152323240937e-04
1.184337598194261636e-03
1.543284223514047350e-04
-2.115721629289162107e-03
8.022426929540020079e-04
-5.208226597102348946e-04
5.242397482210792983e-04
-2.154863669983030886e-04
-3.092924252391675202e-04
-2.929050117110662413e-04
-6.146430025751850774e-04
-2.113001224296924823e-04
6.886709487042392500e-04
1.046547773136387478e-03
7.022302540990732478e-04
-1.382920941288223412e-04
-8.121148108758268359e-04
-8.357524768636532641e-05
-1.616781552787488496e-04
7.683191572197178767e-04
1.367638059346431428e-03
-6.486640059574758001e-04
-1.361004942608199362e-04
6.898839367829910987e-04
-7.455456201899439070e-05
1.210778037306871135e-04
8.870697837273654358e-04
1.528154246167834482e-03
-3.421642604376997797e-04
-7.545509210232170208e-05
1.324746791336183773e-03
1.403599765628494797e-03
1.802229044577871586e-04
-5.999494762989306465e-04
-1.262159629660730567e-03
4.190678404472333645e-04
3.135566975043345005e-04
2.712465605531175932e-04
-1.949512203768862385e-04
-2.319841934847552021e-04
-1.074362508662491669e-04
-5.527725362893766078e-04
2.995606214271483853e-04
-1.677788963821781382e-04
2.230827245267153055e-04
7.265886547835100897e-04
-7.522466722432222773e-04
-6.619970246605712174e-04
6.143300353280262659e-04
2.449765395804017154e-05
2.700962152086519488e-04
1.184337598468896986e-03
1.543284223224545854e-04
-2.115721629093414175e-03
8.022426929637392276e-04
-5.208226594021187318e-04
5.242397481633828292e-04
-2.154863671271908744e-04
-3.092924253678281114e-04
-2.929050116204724762e-04
-6.146430029767030890e-04
-2.113001224681231667e-04
6.886709484591604447e-04
1.046547772644207397e-03
7.022302542463727381e-04
-1.382920939153186744e-04
-8.121148109990583390e-04
-8.357524785229711567e-05
-1.616781551802555061e-04
7.683191575002829444e-04
1.367638059622852675e-03
-6.486640062456095748e-04
-1.361004943473376704e-04
6.898839370475626665e-04
-7.455456193057797458e-05
1.210778038965346060e-04
8.870697836600000517e-04
1.528154246244556530e-03
-3.421642605319476856e-04
-7.545509204825413894e-05
1.324746791389104115e-03
1.088070907601738324e-13
1.042811800617321529e-13
-1.956170616000753797e-13
-2.064208162984570517e-14
-1.235018914353966757e-14
-3.178330444713462483e-14
-1.009666123817709411e-13
2.473767676314672863e-13
2.793810158328870100e-14
2.077708528170562635e-13
-7.604584232624335359e-14
-1.418701926024281287e-13
1.767006507293794964e-14
-7.525591376664829555e-14
3.193553421708362299e-13
3.279176218293295940e-14
1.540025994009555495e-13
-2.996088643200640683e-14
-4.356613424898294787e-14
-4.130177194834107388e-15
4.752856502360513540e-14
1.135161207285207672e-13
-1.632140375872140777e-14
-9.097084061570577531e-14
-1.426825369053639749e-13
-1.024538438247212288e-14
7.655545321609653853e-14
6.118783018096430210e-14
-2.380661919580534617e-15
-8.018653864668735871e-14
1.960979440013959711e-14
7.640074941976966736e-14
-4.919329396704643532e-15
1.501392707933593721e-14
-2.010938293047941410e-14
1.223228985245186884e-13
-5.854939343480280369e-14
2.479003067277717546e-14
5.270083939277558577e-14
9.693947921801208683e-14
1.998701329481139355e-13
9.024962732750624941e-14
8.006287099576516342e-14
-1.964432616399909439e-13
8.102364549229955153e-14
3.064712299921768211e-13
-1.109005251054628772e-13
-1.362214339575717344e-13
-2.868061294693674177e-14
1.364523547478886885e-13
7.011365651416497427e-14
-6.375015024865056457e-14
-4.808767741135576173e-15
1.385622234324118986e-13
8.987095901141549636e-14
3.245303207070867250e-13
1.343731382805862018e-13
4.724129029200983661e-14
8.213561985416138851e-14
-4.662893708516952037e-14
-1.306434989288543077e-13
2.297576367615139314e-14
6.554549072328364289e-14
-1.864284001550317712e-13
-6.979378259211209049e-14
-4.933750772362817494e-14
3.549336387270780987e-14
-3.480173540181317846e-14
5.947085009502329071e-14
1.310910314982653046e-14
1.416738809412887991e-13
-2.286347955575554853e-13
2.214139279113682964e-13
1.894201344365793067e-13
6.723033035132630548e-15
8.689184505131694034e-14
8.104294675294964777e-14
-9.851171646532493568e-14
2.200144647086920879e-14
1.039744371896557935e-13
4.139564633900329981e-14
1.404704603143555921e-13
1.269274584654034496e-14
1.078940784735955310e-14
-1.025888091755529682e-13
-4.870713982868510190e-14
-6.142440656073349585e-14
2.278753184794711543e-13
3.213474578975356948e-14
-1.335366949741740571e-13
5.325805479917923285e-14
-2.565425174945736426e-14
-4.080236035743480176e-13
6.411466939518906186e-14
-2.074612425366246857e-13
7.729055286824658418e-14
-1.284376228156765644e-13
-1.948515757549271112e-13
6.605063020697423738e-14
-1.996441927391034449e-13
-5.968496452600569295e-14
2.730754268382649910e-14
8.180242127170675764e-14
9.952649744475595330e-14
-4.847663491292343224e-15
-1.112191076493541056e-13
2.570473700419966390e-13
-8.096717732701684011e-14
2.409835153982685612e-13
-6.046336498329560716e-14
1.551632393166184205e-13
1.429616501197969694e-13
-1.396973040911265422e-13
4.747074324787532833e-14
1.009304384573578890e-13
9.366054994232923547e-14
-2.658069360917252136e-14
4.034588478790280765e-14
-5.273579944991372548e-14
-1.565698784003093142e-13
1.314771438985145671e-13
-7.478089406260279079e-14
1.843540755825526211e-13
8.049546627631936427e-14
-1.192694874495881911e-13
-2.153824298002089826e-14
-3.826483992605606504e-14
-1.163621919873575562e-13
6.699767327122916135e-14
-6.394921638023184986e-14
2.180157236689835905e-13
1.150265386214289473e-13
-1.176049849303589338e-13
-2.538722804293710991e-15
-3.029818258059161091e-14
-2.090390916942216832e-13
1.244281649021359879e-13
1.269071110964353884e-13
1.236592918417952217e-13
-6.105966578174450675e-14
1.428307668745040720e-13
-2.802578650794369010e-14
1.249482014227840848e-13
2.421778626548056723e-13
1.872054669075469600e-14
-1.896171825730979498e-13
-4.234222162434473040e-14
8.564425098361161022e-14
1.629914682450245981e-13
-1.514897203433000669e-13
-2.545979105825005339e-14
3.117721581985106834e-14
5.812157118349375182e-14
1.216447220543822232e-13
-1.267241732465244238e-13
-5.658234210110310674e-14
1.346777495699614025e-13
5.242117082479176167e-14
5.990962828619366046e-14
1.503582110181301721e-13
1.390291906780714899e-14
7.054829126772719684e-14
-4.202992258224432499e-14
-1.797112569755626979e-13
-1.730637089416445930e-13
9.930216072858204563e-15
-2.666397047874262354e-14
-8.746370395983369171e-14
4.249094659849869411e-14
-1.189521395884719972e-13
1.487614202747928412e-14
-2.608473871752298756e-15
-1.122337093520740744e-13
-3.070709224141550007e-13
1.946114627384889104e-13
4.230695294169181749e-14
-3.559627170587093653e-13
-5.697654421192073385e-14
5.261528694800453418e-14
-3.048263557535002652e-14
7.753983422065113056e-14
-1.300415152920381805e-13
2.340474221376602803e-14
-7.146133860925382866e-15
-2.445952021592410585e-14
-2.953240583322235693e-14
2.669053777709420130e-14
1.246240066140670762e-13
-7.083106758012162329e-14
-5.441269247296342996e-14
2.145362194889283585e-14
-1.605363738592408661e-14
5.152160326361489777e-14
9.597321138952767853e-14
1.725200386819183889e-13
-1.555848948185879237e-14
-3.042773505924976759e-13
-9.302766011606243298e-15
4.728180330499498705e-14
-2.497968082964943368e-14
-2.047439262926497067e-14
-3.250155432479718631e-13
6.787347475584761722e-14
-4.329503592639171698e-14
-2.018999654290057621e-13
-1.164335970768635441e-13
-1.155528014727017281e-13
8.133698717611070124e-14
7.504233185669165109e-14
2.023908306540031250e-13
8.657138660063024326e-14
-1.805983645959514202e-13
-1.882891328689526561e-13
1.510799709254267293e-13
2.093301479114450004e-13
-3.176631320019759494e-14
7.466352361330057722e-14
-2.010735237240177491e-13
-2.597338439025510502e-13
-1.568652035681224562e-13
-4.772501188452961179e-14
-6.966283088384303830e-14
-3.074630446419642552e-14
-6.560606951900734636e-14
9.076368263746375778e-14
1.907392905247577636e-13
4.836463248581508096e-15
2.712347080151723140e-13
-8.476492085655593177e-14
-7.016080887489918167e-14
5.180651635638478125e-14
-4.740584124538150909e-14
1.572698621005671512e-13
-8.566054496979026957e-14
1.767295373832366517e-13
2.594436898278993612e-14
3.427786685498013582e-13
-6.201193434860785562e-14
-2.708260636460715670e-14
1.946102316776502479e-14
-2.914143921284818227e-13
8.047064443497058967e-14
6.424744657994655287e-14
1.460638976060657440e-14
-2.063518508846825210e-13
-2.066411582767560053e-13
7.838004903622411437e-14
1.570195284267656017e-13
2.130417163216660873e-13
-1.196429167011310536e-13
-1.377283488337832186e-13
-3.633464641548667543e-14
-2.639838676962578930e-13
-7.868905087991727453e-14
1.138104431415467375e-13
2.184046704112080354e-13
3.729888752371299885e-14
2.191998229565418701e-13
5.489809817943083047e-14
2.556876841891938621e-14
-2.290682659212941537e-14
2.497727969660433120e-14
-3.405174891111501996e-14
-1.882755373699466610e-14
-8.843756689272011944e-14
3.461011291092107766e-14
1.930500728636208569e-15
-1.976916036385244480e-13
-3.216079365405333718e-14
-1.143290973063232302e-13
-2.736668674816395422e-13
6.465330186588769461e-14
2.082615157002713705e-13
3.166275228824587485e-13
2.087600637444796978e-13
-1.163506882753377564e-13
1.570283876781617656e-13
1.496334262063967758e-13
-2.656005073245455705e-13
1.150796197701905993e-13
8.379920720137723525e-14
2.175335117784500057e-14
3.856303817578230222e-14
7.790643107476055457e-15
2.180483700832705597e-13
-5.368434084396818415e-14
-2.671456653352412918e-14
9.872666594297844936e-16
3.683239284591407524e-14
-2.355936634841690346e-13
1.854517915884073045e-13
3.022330095483182678e-14
7.604262789875130935e-14
2.636404514763025849e-14
-2.491103762026734559e-14
-4.746499874234846396e-14
1.284212985232310574e-14
2.031621839498596351e-14
1.543583609588925684e-13
4.623792509628985308e-14
-1.783586456774777790e-14
2.654315639076332051e-13
-1.709483790406911003e-13
-1.790698002114111118e-13
4.737955818245258417e-14
-2.837590018542687810e-14
-2.371096652528425317e-13
-4.171804229387534718e-14
-9.495307834249291387e-14
1.511338499491406448e-13
-8.300751286598975224e-14
1.403761134114767047e-13
6.143296037498872341e-14
-2.756855859638984462e-14
2.828838351172066590e-15
5.727451822089335893e-14
-3.083846931857079057e-13
4.370069646733014302e-14
-5.065543064690451247e-14
2.402259792903292883e-13
-9.236274173117519507e-14
1.526617609867186444e-13
-3.360274337289944247e-13
1.088447544631359042e-13
3.689100617410925356e-14
-3.300469394413778564e-14
-1.615242237233887185e-14
-3.481436610387906736e-14
5.651886406295607755e-14
-1.793739669839737124e-14
-2.388655741451211974e-13
-2.482680584419015536e-14
2.985885951832161635e-13
6.259277055752129920e-15
3.885314353478431541e-14
-5.852991797687586773e-14
2.325599543852544075e-14
2.377589714023907315e-14
-3.490005617993680993e-14
1.153434905213900614e-13
-1.233355123413433022e-13
-1.739581428058720890e-14
6.748190964891056585e-14
-3.567531539851846567e-14
-1.635266258817762813e-13
7.459153681490752909e-14
-1.312297883731710930e-13
-5.976632946428345981e-14
-1.106515505249588482e-13
-1.479479124345732937e-14
-5.737168631531068133e-14
-6.341152874361068953e-14
9.098785671279927128e-14
2.355080307629185511e-13
-4.776866180904836940e-14
6.983369408890839305e-14
-4.748797715994920319e-14
1.322000218179106988e-14
1.506826036257822901e-13
6.719846742196578773e-15
-1.089679908695685173e-13
-9.752791950792964347e-14
-8.240553870429942858e-14
-1.777621205954758019e-15
1.146417604560721350e-13
-1.815533599073617993e-13
-1.385956518261919407e-13
-1.235310226349319889e-13
-2.337438699795127336e-13
1.771609344996207204e-13
-4.860671444370238822e-15
2.539694393596497985e-13
-1.903099540242294849e-13
1.729199981906257484e-13
-9.374959128187592614e-14
-5.443001693162908282e-14
-1.321388264844433464e-13
-1.269144657450601005e-13
-1.768700219199353298e-13
2.890496513285961061e-14
-1.755947657748581129e-13
-3.230795049952734278e-14
-1.229448894193120616e-15
8.906806817970022978e-14
1.341367153440062409e-14
4.293341206391182323e-14
6.873223749936295898e-14
-2.304945415291275993e-15
4.854812245443337389e-14
-1.309036694416226789e-13
-1.036131809190875733e-13
2.535327225350852691e-13
-1.567847364297386350e-15
-9.493235544882095219e-14
1.843703375884275148e-13
-2.095626222717464956e-14
-8.637981375303738964e-14
-1.936045743955365492e-13
1.041504977208079405e-13
-1.451442729397597867e-13
-7.202193370040117772e-14
8.606033911038212289e-14
2.453589189339213193e-14
-1.154778172691721574e-14
-2.859161836888193644e-14
1.531111605941653224e-13
2.979943379316629761e-13
-7.332175738455265449e-14
7.601316545013917932e-14
2.577134163363349595e-13
1.441763977749097133e-13
-9.176985519747811650e-14
-5.754466931851863168e-14
-7.989656343458234875e-14
-1.220482084529708379e-13
-8.336204008150239150e-14
3.499005270015147172e-14
-7.843489550835433261e-14
1.170719744134143189e-13
1.646857194666154197e-14
-5.306128175097872507e-14
1.183934178586743611e-13
4.261888526939889377e-14
3.538984338018159675e-14
1.389629929522820999e-13
7.659590098407314710e-14
-1.455028591850967526e-14
1.252698171435746858e-13
4.132897911646546756e-14
3.897913152031720676e-13
1.467994205041600139e-13
1.540845693520593474e-13
1.724939131056754799e-13
1.066763568976430563e-14
1.754203174161792452e-13
3.120810046393418968e-15
-1.110558395849335520e-13
-7.535610428973187519e-14
7.054122743347247410e-14
-2.085864146825723361e-13
2.783872599075652568e-14
-9.731727451951330491e-14
9.596327681249551159e-14
-9.969874829449807569e-14
2.501646587255939812e-13
1.025907309315333570e-13
-1.695364607263417562e-13
2.349936794211239068e-13
-3.036396271594754182e-14
-9.720049971920722329e-14
-1.367932277492817938e-13
7.586093299848675705e-14
2.010241646760198364e-13
-7.728554935336428928e-14
-1.332954348071908511e-13
-1.522791148831812841e-13
1.999396847584476901e-13
2.232316815301502409e-13
-4.656038666391730246e-14
7.184456300694786275e-14
-3.882068633162974127e-16
-8.101016103385503816e-15
1.288062664053874521e-13
5.891759612125031322e-14
4.402424903548167925e-14
-3.909244351027099345e-14
1.089750735121413268e-13
-3.767974545399920628e-14
6.670309474891135034e-15
2.932511705478511672e-14
-1.604903973769509143e-13
-3.996307211226068443e-14
-4.176792713326902775e-14
1.352208058702105741e-14
-1.485537086047148165e-13
-1.585391145269859382e-13
2.169161648154477216e-13
1.545162719938812380e-13
1.187875018669548340e-13
2.438201001842552612e-13
5.606351359815397859e-14
-1.216933234017069101e-14
6.442510355185100467e-14
-2.510977779807614814e-13
-1.467185369280206802e-13
1.013640182075371422e-13
4.357863054268832850e-15
-1.707092350800178136e-13
8.798929909020526550e-14
1.334665677060737565e-13
8.923760691169315771e-14
-4.048053347715429005e-15
-1.117073484136220838e-13
1.437611712261444549e-14
5.704277783104128611e-14
-4.791224049982879038e-14
8.057363125712216944e-14
4.201229522187587574e-14
4.450854170598162788e-14
-2.715743933483911251e-13
1.444484262239995896e-13
2.304017061886667923e-13
-5.377503632940296612e-14
-1.973333791831354168e-13
8.536946891189146379e-14
-6.221834378741206499e-14
-1.292057353373045572e-13
1.627031142408929634e-13
-1.848379109173300042e-13
9.585802151181714987e-14
-1.667139009079685855e-13
1.953784828809109307e-13
6.901829099217955228e-14
-3.439140055791197293e-14
1.995781631563143308e-14
7.777462955505322275e-14
1.108849447049286637e-13
1.106039626844254117e-13
7.305044708499173840e-14
-6.378454976846476338e-14
8.872987443920810503e-14
-1.752104069429673774e-13
1.341602153360917009e-13
1.166452100777680076e-13
1.862677992714927249e-13
-7.866879925895086472e-14
2.488036363390588029e-14
1.146784438321634427e-13
4.247004716118124549e-14
-5.700843322309054514e-14
4.106352483206811112e-14
9.089986156700374614e-15
1.330393113730396858e-13
-8.397096944680439539e-14
4.536009349170726777e-14
3.913950082901971817e-14
1.011891265562170918e-13
-9.739375033188795292e-15
1.701093140218749023e-14
-9.479821760655705881e-15
4.551653063734528225e-15
1.116895505440614991e-15
-4.365742496624339548e-14
3.777649178670036388e-13
-1.127578174051013164e-13
-1.567831956913103667e-13
-1.063063148324739052e-13
-9.487247988886954078e-14
1.528078264740049515e-15
1.911916847255157945e-13
2.255905661123335532e-13
3.170969666845796382e-14
-3.337944998969109067e-13
5.135553001869460096e-14
-1.751209105507654076e-13
-6.690040080784890218e-14
-1.536182811403439147e-13
5.686884679402612134e-14
-8.372310228311895287e-14
1.031654751097646981e-13
6.377395879615434375e-14
-3.207649233281567756e-14
1.076393874033947896e-14
1.225795026876159420e-13
-4.972178151464496255e-14
1.223388810067556584e-13
-2.580875821936776787e-15
3.599508861644677679e-14
1.067892278968670314e-13
1.779104838701482796e-13
6.958744804728387016e-14
7.799261329611094141e-15
9.629324188592523132e-14
-2.064923928635323935e-13
2.189871044816702648e-13
-1.771032913350091499e-13
1.207476195246552789e-13
-7.537981693127234705e-14
6.777556931672169475e-14
-1.557496076903093331e-14
4.056363624432806451e-14
-1.069958165973890478e-13
-2.886886853316649258e-13
5.433461223287608429e-14
-8.023537957872950113e-14
-8.666637969857162221e-14
-9.691283385272434686e-14
2.651437792429218035e-13
-7.778866572045864640e-14
4.366656782354643571e-14
-1.550506701632692402e-13
2.035060117251834731e-13
-7.432481122730056754e-14
-3.474803915331990993e-13
3.623526318376821087e-13
-1.467272868818001736e-13
1.748907974995765757e-13
9.794826010523718698e-14
8.713988770343468743e-14
-3.092945718604725663e-14
2.527947375582700536e-14
1.635341561069633742e-13
-4.020835269312771810e-14
3.357831480190577538e-14
1.240319394267150212e-13
1.114185956354618067e-14
-5.678341650521731054e-14
1.939636414653311837e-13
4.565414879615235692e-14
-1.672473554317374489e-14
-1.036698849789947579e-13
-1.343611854525049056e-13
1.194214635001135099e-13
1.268348625014165475e-13
-2.900359157767686179e-13
-8.223788262711970733e-14
1.289219093571877596e-13
3.239196610261184412e-13
2.873159157784655271e-13
1.258458685844621481e-13
1.834955115848749626e-13
-7.047026575012427354e-14
1.034881307178624188e-13
-1.653016855931652959e-13
-7.507416519667994021e-14
4.288601271202773303e-14
2.896652738875034334e-13
9.993786519159507899e-14
3.658694724654868694e-14
-2.272542983364035543e-14
-1.766959986000598035e-13
8.055052846629993556e-14
-4.664356850120400549e-14
3.193955723365170653e-14
-1.188264578026113794e-13
1.620127717728061045e-14
-2.053675329721556041e-13
6.732858393894583064e-14
1.763329632713814243e-13
1.221160045506675999e-13
2.824350146478681694e-13
4.336467344071524009e-14
6.752328825444281913e-14
6.879280138383116303e-14
-1.175436212846835127e-13
2.877006769405818849e-13
1.320872019467354372e-13
-3.244484485050734680e-14
-1.206303483526415747e-13
7.769738712682195854e-14
1.145797774363595946e-13
1.842325525949137994e-14
2.486203437717629193e-14
-2.513491504500992733e-14
-3.670886701534026391e-16
1.783926681798462606e-13
1.871412086210110530e-13
-2.004436170405988979e-13
1.855606778695976301e-14
-1.608839813936488124e-13
-1.784667065257011691e-13
7.829109836128536166e-14
-1.124448749680374872e-13
-4.213305644770579980e-13
8.620098920278581482e-14
1.713112292355648762e-13
2.724077865037946749e-13
-5.295006322241446560e-14
1.931307494203796256e-13
-3.502020717470279766e-13
-1.394120876861686262e-13
6.934122174717779683e-14
6.300326001147763877e-14
1.764254237917244666e-13
1.278264608636631477e-13
-1.089884130395088676e-14
2.043278872407021182e-13
9.172322606588263281e-14
2.294259298488151998e-13
-1.074621208323564873e-13
4.011789114571110187e-14
-5.739970512076811359e-14
1.076807542639878007e-13
-2.933509440496121326e-14
-3.365080873586404965e-14
-1.772366884816414118e-13
4.118017818613983426e-14
1.490442409651523425e-13
1.347083648326517027e-13
-4.029820529009529402e-13
-2.164062416676210598e-13
2.679134867609058026e-13
-2.506937980564020279e-14
-1.990053241364869894e-14
1.557043395732342112e-13
2.627443112265393186e-14
-8.452247040991204293e-14
-2.803834791113211214e-14
2.534859418717807945e-13
-1.845722609954782046e-13
1.738609732805929758e-13
-4.173974828758629407e-14
-3.623976965793433858e-14
2.489100065831118529e-13
-8.589647666441962047e-14
1.115749222872035009e-13
-4.850877763616557332e-14
-1.913432327374353978e-13
-2.218246631336285013e-14
1.561841360857294243e-13
-2.483767139202507467e-14
7.341007550018202051e-14
2.519323483489638793e-14
6.257293317346056312e-15
-5.578327103699795625e-14
1.760787095728374218e-14
-2.716216474604822133e-13
-5.990174574729563211e-14
-2.410309005384058713e-13
3.603535887066514354e-14
4.738736578113874112e-14
-1.063649225399775974e-13
1.070653715361600163e-13
5.288823489937200503e-14
3.922514183336652336e-14
-4.828837040159757438e-14
6.317144385619781600e-14
1.408561041417101776e-13
-8.824400873144364125e-14
-1.091412973232132411e-13
1.588676771833752148e-13
-3.097729307993971757e-13
-3.497048242346982656e-13
-2.424717147528167096e-13
2.428302274520268302e-14
2.035922403199472984e-14
6.633968758107112860e-14
1.015157817242938187e-14
2.054144233370662524e-13
2.105456610060675787e-13
1.548592617298481864e-13
-1.544303138799277829e-13
4.857884916487084243e-14
-1.157362177221672851e-13
-6.690157532323916188e-14
-1.367348233835515031e-13
1.431322908764632604e-15
7.270222640620435819e-14
1.051430619678616031e-14
-1.594499551293973278e-13
-2.038986310053100259e-13
-1.018246824995610412e-13
-1.039028442691585426e-13
1.047893432383925531e-13
-4.266017619886369755e-14
-2.520833629688384835e-14
-2.096861564303161565e-14
1.465535248006319350e-13
2.186067767000170317e-13
5.706070985434374767e-14
-3.317696725223226701e-14
1.873928880831885579e-13
5.855488837337996201e-14
-5.626415371130381343e-14
1.350261107255620623e-13
2.768868151128513866e-14
-1.916056095925075241e-13
8.376303414404184627e-14
4.006064123837809553e-14
-2.480720282470269438e-13
-2.874080218027741202e-13
1.821163012393455622e-14
9.130549930627007201e-14
8.131440222049077455e-14
-1.818450288108942463e-13
-4.636515207926087290e-14
8.906529351500765382e-14
-2.051969544359776534e-13
1.139494256182202184e-14
2.850363237106050598e-14
1.234261037743071776e-13
-3.278726527211792119e-13
1.937223841328296742e-14
2.696479649582260398e-13
-8.300157620704292487e-14
-4.225378712235815410e-14
1.274660710729729082e-13
-1.019660181154431203e-13
1.545845855732807546e-13
7.222243134282048833e-14
-2.103171794557351087e-13
1.344062071082617022e-14
-1.949394263262352729e-13
1.272730784157865562e-13
-2.245604995628005789e-13
-2.420744325290127557e-13
-1.519590205529502622e-13
-1.073012067585286149e-13
1.756936068967451704e-13
-2.439449926735680797e-15
3.502793751544276224e-05
6.532930663234954097e-05
-6.464692457599798784e-05
1.421761094095024696e-04
-1.541138579632096120e-05
8.586022932627940978e-05
4.526118191457449485e-05
-1.079213546038106728e-05
-2.137575175941267046e-04
-3.612767120370019932e-05
-9.907578214146183250e-06
1.090636480537996383e-04
-5.072957658029015346e-05
1.619112768360732730e-06
1.179541200233749491e-04
-1.879767628904791866e-05
-3.064868321392395469e-05
-5.995235913416578367e-05
-2.286546680790754355e-05
1.454472949219258752e-04
1.069857339372589153e-04
3.518388107180347936e-05
-9.576940184722689171e-05
-3.379436890701524186e-05
9.535985282610474542e-05
3.408669645417339034e-05
-1.149177946519663786e-04
-1.630144572030287813e-04
2.457106735426013488e-05
9.915817869003596839e-05
-6.633309024711485862e-06
1.181101028225996159e-04
5.590138662671812744e-05
4.101322122092592484e-05
-9.515575077608128441e-05
3.484320928700142375e-05
-2.883181131220090201e-05
-1.497075603013550173e-04
5.008128840050212588e-05
-9.668933557513096505e-06
-7.225168777220604573e-05
2.708478020695969071e-05
6.573336663948698853e-05
3.607685844792846993e-05
1.101502796264621159e-04
8.848514587444333390e-05
4.984678570220588936e-05
-1.236244855202964872e-04
-6.197502223411943117e-06
2.083075278095090536e-05
4.021283000906586581e-05
7.588479275153610858e-05
-1.697829224674593203e-04
1.662153050328861231e-04
6.362460710376702461e-05
1.601296886390032545e-04
5.219327205813331172e-05
7.927006234434690740e-05
-2.453693561731309751e-04
-7.112511729486873106e-05
1.347691289655431431e-05
4.374212954768271541e-04
-5.726786243750794383e-05
-4.740882222556115980e-06
1.184945132238760299e-04
3.244740281056772320e-06
-3.484697466650336082e-05
-1.015223944193371648e-04
2.492242484603158093e-05
-2.645000319240122942e-04
1.244725497307420307e-04
3.594111915369614673e-05
-1.237404311812217268e-04
-1.502852620578340394e-04
2.065838499612456566e-04
5.497040774260345176e-05
-1.227577618855739210e-04
-2.234923760237970546e-04
2.957165832249536555e-05
1.173176459231958861e-04
2.650179464452595129e-05
1.028736739871122035e-04
6.491021322327033909e-05
4.298017074780808260e-05
-1.017920313930533626e-04
-1.012224629516139619e-04
-3.485074604923773460e-05
-1.726143048351400111e-04
6.217213890142699539e-05
1.005550307969741343e-05
-9.805809184557249061e-05
4.577613720288087573e-06
5.879294588826414680e-05
3.322369911180742983e-05
1.244547248273933349e-04
1.020783590667552861e-04
5.550933432003901918e-05
-1.790899572956115209e-04
1.403854086214282844e-04
2.659446404089991329e-05
7.301196087596077125e-05
2.410160623033519420e-04
-1.836124644062272007e-03
5.575376271091755541e-04
2.052105214814313287e-03
2.088264691627928372e-03
7.914814666807156308e-05
6.353742322593542921e-04
-4.195231836747493888e-04
-3.770842213594312970e-04
3.262816230634940163e-04
2.979253084821035895e-03
-1.150372533128168927e-04
-2.221004231528920440e-04
3.292214594094066869e-05
6.366592679221172489e-04
-6.202215027844601534e-05
-9.856946039279515515e-04
4.977843948739366390e-04
-2.888819432898437085e-03
-2.385175071166488513e-04
4.643860262806867421e-05
-4.238363497155312994e-04
-5.201801890454944843e-03
7.704315106591196147e-04
7.242910467169922078e-04
-8.476583803458670463e-05
-1.709990264442952119e-03
4.619180331552926030e-04
7.843700728610167533e-04
2.073680446567565750e-04
-1.134747346435702577e-03
-3.015913465220628788e-03
2.004777516821623813e-04
-1.697300319582768346e-04
-3.304687515729663998e-03
-1.114161363222989948e-04
-3.198021897443668101e-04
3.979149787107496227e-04
1.273852942845010196e-03
-3.125661556360781511e-04
-8.616027615144310984e-04
-8.994950388844867150e-04
-8.220839207521316938e-04
2.129432275358711911e-04
-6.713269303293147548e-04
9.802216692437765860e-05
-1.845030013379404029e-03
1.244958072035431441e-03
8.460287008458473109e-05
1.013741828606763441e-04
4.246056432274759938e-04
-2.602630111769225693e-03
8.522754542902762900e-04
3.704838970918543275e-03
3.708882909111454237e-03
1.181760295400320973e-04
5.446448552646656737e-04
-5.594618150201711732e-04
-3.692997289195912606e-04
3.526373424480237057e-04
3.411448409063636781e-03
-1.453938106033212914e-04
-7.235026000641502780e-04
2.299322295733312248e-05
8.056977521175864940e-04
-9.077282565431453497e-05
-1.763176117808175087e-03
4.988593524712698788e-04
-3.005760180244651351e-03
-2.535188200588448806e-04
5.579929296387954753e-05
-4.882400041153614543e-04
-8.834711904442077088e-03
9.286819404135560497e-04
1.253467922790347253e-03
-1.322707399056190117e-04
-2.529044625983364360e-03
9.675439895655264886e-04
1.017160892811493815e-03
1.386240436860558913e-04
-1.379711622390423966e-03
-3.240129631355849991e-03
2.336568185346919312e-04
-2.624323900139612282e-04
-3.439741961921900272e-03
-1.241285082819598576e-04
-4.222202270375835097e-04
4.185825441662154229e-04
1.083907397390882843e-03
-3.603559591466666870e-04
-1.481673833203226006e-03
-8.307395793735811640e-04
-9.298428264709124921e-04
2.825133530229001076e-04
-8.652579292915193055e-04
1.466560523456797384e-04
-3.016343214371670044e-03
1.276108225272960849e-03
1.053023202469218790e-04
1.235103993818132805e-04
4.403549752566354920e-04
-3.291964753725174810e-03
3.617064436410739707e-03
3.522938463572169564e-03
3.630084434075147356e-03
1.624953080438609494e-04
-5.006658139800853387e-04
-7.636192025832804408e-04
-3.838798142871036761e-04
1.691820243785861636e-03
2.351941724045490418e-03
-1.807629863446530091e-04
-3.727943101380336906e-03
-2.073137963197952023e-03
1.783403451768860197e-03
-1.078368467446611786e-04
-1.728238797941237170e-03
4.433137815007604020e-04
-6.242022448247625498e-03
6.423878108471153499e-05
2.983576310524629059e-04
-6.412876399412529172e-04
-4.500872203777799702e-03
4.178298064664974325e-03
2.227529365576033649e-03
-3.629530677190950403e-04
-1.680128215392432973e-03
2.853270228984444018e-03
3.398488488058005325e-03
-8.586607836709535919e-05
-2.780632022732053982e-03
-4.357089739178927890e-03
5.404646543937663286e-04
-5.172228358640779469e-04
-3.278316750827933983e-03
-1.304118710901556912e-04
-5.391908985171404035e-04
2.546412225299054762e-04
2.130698415075520113e-04
-5.658827324232191614e-04
-2.079443565724046865e-03
1.740426085499102910e-04
-3.439149282619234779e-05
3.958006522175692033e-04
-2.819663356204535516e-03
2.655263821084999842e-04
-2.253772725971818925e-03
2.144990692007426507e-04
1.742265102358989235e-04
7.166570582712429669e-04
5.274212308570073700e-04
-2.703403805395655172e-03
3.332554559635465732e-03
2.575930369139317350e-03
2.619954850745686431e-03
7.389217895002480772e-04
-2.028777498530640435e-04
-9.962620419349203088e-04
-4.380378882160584908e-04
-8.613253948852120649e-05
2.145032126162755865e-03
-5.659480998545097889e-04
-2.231741832959042646e-03
-1.230442388284966673e-03
2.156290839576244407e-03
-8.108675145574857591e-04
7.936846832251493204e-04
5.122978938771125109e-04
-6.398286905890779482e-03
5.934248964897148766e-03
4.145854577848909705e-04
-6.822995791453526949e-04
-6.378551050493992333e-03
2.147663801778504442e-03
2.092703850907063571e-03
-4.637418754210961727e-04
-1.401513186437118412e-03
1.460663875835893459e-03
2.788909823173891904e-03
1.378455407383569154e-04
-3.540496779609016847e-03
-5.444718517456115583e-03
3.544535508083858431e-04
-7.270868654366605382e-04
-2.208612750377850990e-03
-4.275464020182691001e-04
-7.433842709408348005e-04
4.140596315187358928e-04
3.804020529637965509e-04
-4.017419852148048677e-04
-1.600859129883741181e-03
1.766333065993066836e-03
-5.721676692658689604e-05
5.344116876149843098e-04
-4.448174981026785033e-03
3.193946966161208246e-04
-1.648462947358352634e-03
4.293102321470426588e-04
2.847732847340196118e-04
9.251499062839304991e-04
1.083055328897201226e-03
-2.708855822955860606e-03
1.023172852762935280e-03
3.104951230086073783e-03
3.049598440077702297e-03
8.514193191408067326e-04
-6.603688756654781068e-04
-1.272313254317725909e-03
-6.085558130036334808e-04
-2.495676894813228779e-03
2.218584541590828182e-03
-7.278631705507881532e-04
7.549254336676886057e-04
1.388868786276199014e-03
6.080373748414385614e-04
-1.052196743763891438e-03
1.924323345678787163e-03
3.680501270560074538e-04
-4.368596620980337228e-03
4.072776132923834440e-03
6.596770003452612609e-04
-7.540832238108026919e-04
-5.863745435610349943e-03
-1.823237301793276038e-03
3.126533153747360679e-03
-6.198147699560277533e-04
-2.026908901597552267e-03
-2.844138309712599170e-04
-1.209149345984626955e-04
-8.379352732504183245e-04
-4.424933690731444082e-03
-3.779375655032691465e-03
3.482589832320327912e-04
-1.930481087444632649e-03
-2.789512775431312111e-03
-5.794123601809353851e-04
-9.558918465740224180e-04
5.683395264367945010e-04
4.402198680115780279e-04
-2.178404044433491062e-04
-3.406899163559254807e-03
1.410584065947088819e-03
-3.247363027525732851e-04
7.492095367268010540e-04
-4.421868214436575940e-03
4.309700215609155172e-04
-2.220870261525689782e-03
4.387071274272887045e-04
3.481646174306930351e-04
1.217029024361151665e-03
2.507090003163310772e-03
-6.451954297073232529e-03
1.571900084650567578e-03
5.493203438497579714e-03
5.485347813703940825e-03
5.541204848301360675e-04
-6.265233308039064352e-05
-1.411306901872754404e-03
-6.870675508722982709e-04
-1.118302429613207910e-03
3.497257310399157909e-03
-9.119346081350615009e-04
-2.493325586296168093e-03
-7.933366437743047883e-05
3.706448592261634149e-04
-1.347693909271950336e-03
-1.185024146778604749e-04
2.948806606921865843e-04
-7.870947743174615263e-03
-2.987374710123628842e-03
5.232965667424181039e-04
-1.341298977408744535e-03
-1.012395106473881930e-02
-1.160339028644450125e-03
6.243818616273264129e-03
-5.898385254822090425e-04
-3.927984126759669417e-03
1.745993315204739200e-03
2.373754257295024317e-03
-1.794571139820108142e-04
-3.841498923927084627e-03
-9.548084741026080860e-03
5.137908482896819595e-04
-1.050333659814984850e-03
-3.282575954858418712e-03
-6.877138221919215947e-04
-1.128460268698904022e-03
1.348658585401813371e-03
1.729537609857861001e-03
-8.461575875247367030e-04
-2.783370750180827469e-03
-8.133416807147502781e-04
-1.010346235649216794e-03
7.827839837895064594e-04
-3.972391883246770457e-03
1.106717445252075561e-03
-4.376147628717481225e-03
7.608778562947730167e-04
1.136604124950443915e-03
1.276027154988795560e-03
2.249004595081191549e-03
-5.988190489053159954e-03
7.138445675197582297e-04
4.855399582940047622e-03
5.263283115791307643e-03
4.336636273621198665e-04
-3.620228939103424466e-05
-1.452537300275890363e-03
-7.674310389038987166e-04
-8.320812578640589133e-04
3.054356144694097240e-03
-9.359514998093292027e-04
-1.994625893494475759e-03
1.083742156776768521e-04
7.956382257413634152e-04
-1.398907122139677077e-03
7.277965680796580307e-04
2.438874832270901557e-04
-6.320839203557509361e-03
-2.015125475540293330e-03
4.978296346960566507e-04
-1.546174685254510890e-03
-9.344988732606043791e-03
-2.204014564956592592e-03
4.642032365619320339e-03
-6.283394249051837402e-04
-4.256787692996878356e-03
5.303014925688379890e-04
2.218095286670162657e-03
-4.177083232553728336e-05
-3.822055018619711659e-03
-9.091773590930662952e-03
6.137826505903670607e-04
-8.048569197310664327e-04
-3.526132659922627793e-03
-7.060170629949665292e-04
-1.181021135798443651e-03
1.663409634283297134e-03
2.255863244131510459e-03
-1.017043458354061113e-03
-2.418387953077546712e-03
-7.504467705178703100e-04
-9.434897671664699368e-04
7.996157554015295710e-04
-4.227400145385122425e-03
1.200232762727984799e-03
-4.575200540166649878e-03
5.560922413952607696e-04
1.298835832657763622e-03
2.958960418918017091e-03
2.442028280438769596e-03
-5.508407798264046765e-03
-1.886961754176210999e-03
4.744089097332780669e-03
5.316829748715495331e-03
2.781189453140075693e-03
-1.704107010852082694e-04
-1.515586406307251489e-03
-9.435298034710118626e-04
-3.828785142312522791e-03
2.936549369468279859e-03
-1.665005162813527201e-03
2.385000207901762179e-03
3.489532245373941268e-03
2.291523506497733682e-04
-3.411352899924567899e-03
2.072502686605548830e-03
1.242050012313972618e-04
-1.898507646020390410e-03
-1.796780945273474504e-03
8.049491328541009917e-04
-1.685897622638372504e-03
-5.117155731095028234e-03
-5.255947192467028822e-03
3.558512955967440845e-03
-7.502831714370685606e-04
-5.295834576905644915e-03
-1.705159494265010359e-03
-1.708312237438137102e-03
-6.377757487620022009e-04
-5.805481851515855579e-03
-9.129332230266714102e-03
8.213860300471038153e-04
-8.535611181130379815e-04
-4.862694510373650331e-03
-1.741568015021041247e-03
-1.238846438713501552e-03
2.727374850693351557e-03
4.135358990033649249e-03
-8.439140358118477070e-04
-3.576084416763661983e-03
3.353409148209018312e-03
-2.878073158186174318e-03
1.169308436432856847e-03
-5.912688090694070454e-03
9.994929779671088161e-04
-5.538109946579554584e-03
2.214279101602059435e-04
1.214906810139093803e-03
3.915702578222378036e-03
2.114140894807375794e-03
-2.440596882171137960e-03
-4.789342123334362940e-03
1.998758377308055677e-03
2.435719940452459650e-03
5.811298098486667070e-03
-3.661697384609468079e-04
-1.636156970907384376e-03
-9.999779187610691612e-04
-5.842686427999319726e-03
1.753158620892404868e-03
-1.371160541128740298e-03
2.798614982116795925e-03
4.902509362049613587e-03
-8.518961506595928643e-04
-4.799519171730063684e-03
2.591922678483781287e-03
-7.230496263288769957e-05
7.865446719161610801e-04
-1.782872091561216524e-03
1.026296600996528694e-03
-9.077203541775687732e-04
-3.141500097853841544e-03
-6.199735771571133862e-03
2.657594583438389283e-03
-8.571614768666695802e-04
-2.786857827436061731e-03
-2.968304355873200868e-03
-4.918503218015133141e-03
-1.252962504796643114e-03
-1.727535785833825190e-03
-3.121188871143450345e-03
7.534424420975788152e-04
-1.011247303690092228e-03
-2.787227134234676086e-03
-3.071254549071068384e-03
-1.322734624723382289e-03
1.277862212244429332e-03
1.429318597555956491e-03
-4.224127041964434470e-04
-1.673857512935510421e-03
6.411270370239447770e-03
-1.456126005981559944e-03
1.300478826471179565e-03
-1.730266466274370729e-03
-1.103352795805706018e-04
-2.797306068206457247e-03
2.317326244625383838e-04
2.333141357403151564e-04
1.694623002087058527e-03
2.216977120385796567e-03
-2.400886947440194520e-03
4.857177994191240900e-04
1.582841012997457256e-03
1.958599828615249869e-03
2.599896003924806638e-03
-3.777212671103954045e-04
-1.658928172850773460e-03
-7.487114539375946476e-04
-4.780951037558588265e-04
1.771132460307603580e-03
-4.080799418279671179e-04
-3.559882930667305047e-04
2.538613694723653824e-04
9.070657988656863607e-04
-1.719480843875069442e-03
7.348139882173039539e-04
1.710436733061250015e-04
-2.746527459021790973e-03
-2.625549667260046720e-03
6.372738001757464587e-04
-8.379121149885677229e-04
-1.582506156292924800e-03
5.020138110550222349e-04
2.580734743603088719e-03
-9.664862759974114648e-04
-2.208615921676782348e-03
-3.276922957352377099e-04
-3.911704180451223197e-04
-4.346834054156321079e-04
-1.210374846503656622e-03
-1.966298103873643632e-03
7.043047471143934609e-04
-8.170424253762037991e-04
-1.976559341576455617e-03
-1.243565687642483614e-03
-1.168612424573700929e-03
7.331794353460732456e-04
9.460326503690652143e-04
-2.813332247276788874e-04
-1.432689159945165630e-03
2.185301798456188056e-03
-8.666233847058069919e-04
8.681860018380998341e-04
-1.461521354408419626e-03
2.426851823675283304e-04
-2.211631433830729514e-03
-1.376877233426374676e-04
3.310080529768212121e-04
6.318703286631366378e-03
4.493820408928848181e-03
-6.417532572213309819e-03
-1.386997490779550302e-03
4.113465624496923101e-03
4.269935731139780540e-03
5.537953695586158090e-03
-1.514243837587493690e-03
-1.909508880448074989e-03
-8.319920991730088205e-04
-2.877903075983668374e-03
4.261062313109279312e-03
-1.930213678124376815e-03
5.581233805513503669e-03
3.308433743998695931e-03
-2.863760807095157984e-03
-4.435076812866574000e-03
2.250925475159536691e-03
2.807642151642512950e-04
-2.305040498982930015e-03
1.973651557758737945e-03
1.148261258874473320e-03
-4.418552584516030265e-03
1.425251995979223566e-03
-3.290523437392398401e-03
5.219984588768821453e-03
-1.393314287174929984e-03
-3.837974631757623285e-03
-5.922326421147120976e-03
-3.377953105788238791e-03
-1.062900678926422329e-03
-1.085496207158001233e-04
-5.575592760297603612e-04
1.688666300498197631e-03
-1.076028819806211772e-03
-3.331557422563728547e-03
-9.196917062610692004e-04
-1.274317024005013760e-03
3.065478152196038277e-03
4.936853887175493387e-03
-8.585695405721725272e-04
-2.417623824300513518e-03
6.238851204143323025e-03
-2.099019702713295250e-03
8.007879671996578907e-04
7.174942941996036421e-04
4.080836830534699186e-03
-4.139348955609636720e-03
-9.309209495600662219e-04
4.118420150426821413e-03
3.372337367905607012e-03
3.334320784944175189e-03
-4.838622581371937459e-03
1.862090544736664252e-03
3.681855660075626039e-03
3.814974368876963753e-03
2.609297648995336210e-03
-8.194414074773381839e-04
-1.501632269768645063e-03
-6.791807572287069696e-04
-2.562633972811451653e-04
3.185822597007562790e-03
-1.557759213747015670e-03
4.541684124855578284e-04
-3.383995960849913154e-06
-5.016518434635399912e-04
-3.297744758855802871e-03
-1.265784958645316120e-04
5.421130966758578489e-04
-6.445844333782925831e-03
-2.079210189748169606e-03
1.096337994419097159e-03
-2.695073269339215514e-03
-2.647660386880012866e-03
1.531854565548836306e-03
4.609609030633749632e-03
-8.713164993133122854e-04
-3.876977173172539010e-03
-1.615905324574039249e-03
9.080298801653525782e-04
-7.012685149409404826e-04
-2.676765363110372720e-03
-5.046292657577837633e-03
1.066864943578481675e-03
-1.030847693048747397e-03
-3.546402495371640557e-03
-7.808769960117384812e-04
-1.133365942949311192e-03
1.967131474146688059e-03
3.259568343275272371e-03
-8.595567931061445961e-04
-2.802233795157438919e-03
1.971493336595582513e-03
-2.018281617660886654e-03
6.866250698737222120e-04
-2.372584741973122330e-03
1.812656649134682151e-03
-4.141691196953100826e-03
-1.523245611895729617e-04
2.085980803788715140e-03
5.056832958230113133e-04
1.529440232966366216e-03
-2.070737641980756761e-03
2.309821126610142605e-03
1.728078595873826055e-03
1.944957017371535396e-03
8.896128985905520580e-05
-1.635312797958839615e-04
-1.176577887200643945e-03
-3.864007736924777200e-04
9.357441288832076725e-04
1.259668059615308379e-03
-3.903444080214092367e-04
-1.807219875155724464e-03
-9.121676637855733513e-04
1.201132899945227218e-03
-5.131067358750995063e-04
-1.162247459999222457e-03
2.099411465557306602e-04
-3.339252747587793339e-03
-2.305245273742554703e-03
5.914950392216770545e-04
-6.914530510109198483e-04
-3.064427260724408419e-03
2.718020270427437199e-03
2.520392406388629117e-03
-5.748984071371222035e-04
-2.439703315190644515e-03
1.743276424161341017e-03
2.088834296714054718e-03
-1.155683284961516962e-04
-2.213126770898093780e-03
-3.667156149495751690e-03
2.682999581287164492e-04
-6.807676862173512623e-04
-1.871758650332581899e-03
-3.407765100922989033e-04
-8.497186474421048775e-04
6.705926173755152051e-04
7.105006542753789693e-04
-5.985720016004504726e-04
-1.469188317992337284e-03
-2.925676238197478986e-04
-6.687246825916042144e-04
7.215039588127694897e-04
-2.422666382866198349e-03
4.086434021319496307e-04
-2.501967951714324876e-03
7.151557794979809530e-05
4.123774509255148765e-04
2.414820967777735151e-04
6.220206851173046151e-04
-1.445365820096972641e-03
1.279257403385391937e-03
1.131260855954071111e-03
1.371791830495980172e-03
-8.881981981935902382e-05
-1.300769203894888454e-05
-9.863753195477656908e-04
-2.972236641471177779e-04
4.492408987401975539e-04
9.589537970001730171e-04
-2.869502015917584320e-04
-4.334256186276881704e-04
-1.850186942754541400e-04
4.624361159722149470e-04
-2.412871427987220072e-04
-4.598851676812405753e-04
9.151832304533288198e-06
-2.165043343925690186e-03
-7.916852013253974137e-04
2.757341852229457861e-04
-5.260210188567332294e-04
-1.468677313590428628e-03
1.505147268668247671e-03
1.133421694619200825e-03
-5.104092443006098779e-04
-1.737884409615332625e-03
4.649294546333419256e-04
1.264124583897417112e-03
4.207507817240438766e-05
-6.992033487318063652e-04
-1.604981302553676022e-03
2.251243258972745207e-04
-4.552023029188793078e-04
-1.465626282321424957e-03
-2.138945955586712630e-04
-7.017186725374428835e-04
4.530357921804748791e-04
6.589307221077698009e-04
-4.287386756595235157e-04
-8.631211021303442261e-04
-3.102251817950376473e-04
-1.736879840823930810e-04
5.564637560418103082e-04
-8.427504827150435760e-04
3.209932921328965895e-04
-1.773857321505762545e-03
1.191648331843749846e-05
3.198785277668841258e-04
1.938839098579910871e-04
5.851280559360552387e-04
-1.159173897868216729e-03
8.243744376253016705e-04
1.000993103065297984e-03
1.192841020542904007e-03
-3.395526568840603204e-05
-1.967426466546057657e-05
-8.706814776630388908e-04
-2.286190552434872218e-04
1.781212565518808656e-04
7.839045376775359390e-04
-2.353497655246991724e-04
-2.070477523895315080e-04
1.058933071188036254e-04
1.134445459571419425e-04
-1.958084417902746985e-04
-3.034074783691922982e-04
-4.467579718506292473e-05
-1.153620391897837265e-03
-2.964963749673708349e-04
1.773941619965465645e-04
-4.532031897955490730e-04
-1.344348612729379805e-03
9.615739375978585822e-04
1.168824990975950769e-03
-4.578733350467164708e-04
-1.656533237986815548e-03
2.404770917270201665e-04
8.789444591342543715e-04
3.615629693699689304e-05
-2.564415904264809743e-04
-8.561866423531477692e-04
1.938729211961714982e-04
-3.972631974835619684e-04
-9.658932484723879589e-04
-1.593173124244966394e-04
-6.144533193207016557e-04
3.612671217422598505e-04
4.192309094215226624e-04
-3.591450813118264715e-04
-5.518503412493356436e-04
-1.438763531268501380e-04
-1.936120868638054439e-04
4.570688273132443146e-04
-3.316929548402834139e-04
2.654930841156782364e-04
-1.673264088687993409e-03
-5.433369043405204445e-06
2.324163872686777572e-04
1.224266334281268415e-04
4.615013813744868530e-04
-4.703467516892140873e-04
4.515604221349261288e-04
3.120278123738980092e-04
4.881560203585069875e-04
7.265680701675972372e-05
-2.060137821853048762e-05
-5.734185743236680684e-04
-1.616006934409733688e-04
9.173832687814981385e-05
3.428350823633038872e-04
-1.522748524222393885e-04
-2.234095520162495394e-04
1.411325030559221173e-04
9.652577967080900895e-05
-1.508739344758718904e-04
-2.856263595527640600e-04
2.854582794518719722e-05
-1.854777437649470645e-04
-4.989203301058044234e-07
1.129012007585149236e-04
-2.863011270357728876e-04
-6.616569413401714433e-04
3.879667855344860966e-04
7.361024810452559096e-04
-3.034046858691255024e-04
-8.258822729315473763e-04
2.655657422377287946e-04
4.188368066513083708e-04
4.321398527338857318e-06
6.095227144496566179e-05
-3.712481399291657144e-04
1.244805778983204797e-04
-2.595278669120395067e-04
-1.510542883650757356e-04
-1.392748881740987158e-04
-4.025477603116502882e-04
2.447089527760461583e-04
1.160675359542974884e-04
-2.395127598315235939e-04
-2.223183165313844314e-04
1.023287534201368121e-04
-1.818319005856456098e-04
2.984700016819813299e-04
-8.594851727720039398e-06
1.506123227758584507e-04
-7.686904663066966396e-04
-7.874146824108744786e-06
9.364630265915929502e-05
9.546024326613631770e-05
3.118322314167178795e-04
-2.977223752402419210e-04
3.543923462076751358e-04
1.272855971917598414e-04
2.791556020722775651e-04
5.296480029944816784e-05
-1.507948681537816922e-05
-4.339140444833587077e-04
-1.370827673727115573e-04
9.558560560203809519e-05
2.501198528561847986e-04
-1.175565567579354471e-04
-2.395790669841956877e-04
7.652916404666539702e-05
1.072299183230648482e-04
-1.250128816691596114e-04
-2.530563026561133172e-04
4.952852650672026559e-05
-1.820102439122206624e-04
-2.432642831181424899e-05
8.969827101593920383e-05
-2.195107479661085280e-04
-3.437069366944591853e-04
2.984726641404720398e-04
4.168451384273691744e-04
-2.298227579530561632e-04
-4.449624047939061038e-04
2.493345400066887606e-04
3.309563427377093959e-04
2.647525689145808645e-06
4.605069744452591415e-05
-2.322073697452772367e-04
9.641175200915271220e-05
-1.966983854620719897e-04
-8.938772428091832484e-05
-1.212396343211867588e-04
-3.046050964421768373e-04
1.941419397908628031e-04
9.170791507389794374e-05
-1.898800562560611614e-04
-1.604999974378395534e-04
7.238772844742721228e-05
-7.355712428791784884e-05
2.256661831250565047e-04
-1.432793146221726528e-05
1.152504423756486548e-04
-4.024603181393309522e-04
-5.790494388983025200e-06
7.250081181858501257e-05
3.763435101069063254e-05
6.826844499081350238e-05
-6.495505155001848972e-05
1.428881233869274976e-04
-2.088070509353055898e-05
9.031980550239496924e-05
4.974352520100775300e-05
-1.172234985447055410e-05
-2.293916217784721203e-04
-3.861316444871502592e-05
-1.589008768228639086e-05
1.157897565126275518e-04
-5.446359258222531772e-05
1.572027895519470330e-05
1.312000565966745490e-04
-2.503361579180975812e-05
-3.289499009487879838e-05
-6.025596213993141139e-05
-2.491894165762446932e-05
1.771897715854707143e-04
1.217180879317996073e-04
3.773426057146159901e-05
-1.026655718429383653e-04
-2.012643289081782026e-05
9.144047946295915470e-05
2.999560633598528928e-05
-1.235085927218028835e-04
-1.734726399708558318e-04
1.554050266892912532e-05
9.547210195406266131e-05
-8.031405021603337533e-06
1.297433216281245860e-04
7.564815946449945775e-05
4.397229453332465537e-05
-1.021429020019322918e-04
3.875210325755868324e-05
-3.090058997021445186e-05
-1.606428682043118945e-04
5.318393672618847373e-05
-1.093155394142461526e-05
-7.571710506777947565e-05
3.176388449848263553e-05
7.993595187625926446e-05
3.964343097174241040e-05
1.182187063717303260e-04
1.019536683468588451e-04
5.339385075516935139e-05
-1.301775291617213691e-04
-6.871806906045699402e-06
2.209897948250901046e-05
3.421200992533696387e-14
-9.556454235312554555e-14
1.636692398985658251e-13
1.481421575119900863e-13
9.920880299036320755e-15
-1.407251547847337099e-13
-8.190564448858377165e-17
5.434851822663103399e-14
1.553197931929158149e-13
-6.203587741456133482e-14
1.065191614842703151e-14
-1.331777120464085502e-13
-6.159338626514810494e-14
1.561055436638687894e-13
2.132740495108767789e-13
-4.609313824257491035e-14
-3.529248163755620519e-14
-1.016345988772995937e-13
-2.043746673989963449e-13
4.980576637447252717e-14
6.315772355518086021e-14
8.076218242034858457e-14
3.491580596380296077e-15
7.070968042005219100e-14
2.209722505824414673e-14
1.662763094116223961e-13
5.004835867257304265e-14
1.939177061996301425e-13
1.432818319474929079e-13
4.796939309177857536e-14
-1.659878983269020354e-13
6.911447186431019198e-14
4.285807381722385606e-14
2.563531286394601974e-13
9.918672375252426292e-14
-1.511529042599641756e-13
-1.059371575126198544e-13
1.287948146068976077e-13
-2.580237089125373217e-14
-1.607221305395862648e-13
6.557225850784598428e-14
6.595811449372369563e-14
-1.583875703167203168e-14
1.151207355222652925e-13
-1.392704104266882196e-14
2.491641729444635059e-13
-1.466419306952838392e-13
1.213104861793724709e-13
1.324089544004145997e-13
1.692702502415883747e-13
-1.673563495830305610e-14
-5.518154549331282050e-14
2.325773778855643884e-13
7.302891352697563727e-14
-7.818186856851595458e-14
1.112132911607188046e-13
2.120553680965502973e-13
8.903738664869257391e-14
-9.700060692524321255e-14
1.308642260560651334e-13
-2.054351378760285377e-13
1.037934051986134202e-13
1.307175930034260497e-13
-2.965800207830152878e-14
3.702779236332624235e-14
2.007945106420481077e-14
-7.158943833249016830e-14
-1.145868277587320141e-13
-3.723554064938771838e-14
-8.310911028607213494e-14
2.022692914396912656e-13
-1.810823226012155793e-13
2.403986671006893572e-13
-3.145404014621132293e-14
-1.030210171810773023e-13
-7.271850414123143027e-14
-1.390865041437693213e-13
-2.715246270514196648e-13
1.090270215836083256e-13
-2.052932950687635490e-14
-1.120281286908169927e-13
-1.744766789280567216e-13
-7.520145836360510078e-14
-1.672169928291053874e-13
1.735064682828279295e-13
-2.533679937815584376e-13
-1.280299975297394142e-13
-1.179834668214626585e-13
6.349003000279992330e-14
3.390769507979571898e-14
-1.934628903269502182e-14
-2.301155289560752076e-14
5.318769398631819559e-14
-1.062812385451514735e-13
6.462405177501761080e-14
-1.767386811650069480e-13
7.219201494153593083e-14
-6.777631997617683852e-14
1.507664055387473500e-13
-1.634559338813460602e-13
-6.059405827031430770e-14
-1.096838937522856713e-13
1.256257713510116000e-13
-1.885676084675939313e-13
1.181339240733329872e-13
6.189199197136607494e-14
7.562156015940418329e-14
-9.194725112628944751e-14
6.351182561078399210e-14
2.339197563012014273e-13
-9.236803036299230380e-14
3.382949662793885494e-14
-3.515116016953635627e-14
-1.470209373758513422e-13
-1.102079549328617652e-13
7.012707836692339898e-14
-6.063714162556355155e-15
-3.277427715491060450e-13
7.112079197143530892e-14
-4.243416513357864059e-14
1.226232404036051284e-13
-8.599809921363348646e-14
3.082362167635582176e-13
-1.267655393371430462e-13
1.023780267662754297e-13
-1.436957588003272345e-13
2.604866734104612126e-14
-1.533226308719171448e-13
1.676645106054553117e-13
-2.819751417143773940e-15
1.997210761500003126e-13
-1.299868497752098087e-14
-2.170359972423709974e-13
-1.126517073371734453e-13
-5.239899958994204214e-14
1.845867263026670424e-13
3.646925032797525124e-13
-1.525290508940086693e-14
4.249128925391335316e-14
1.670316474589151577e-13
-1.524939963469542053e-13
-4.216879325238339457e-14
8.946650450969047245e-14
4.718330725072530714e-14
-1.126661371573337440e-14
-1.305937558234281475e-13
1.392116879886786468e-14
9.524990418214320206e-14
-9.599061066968606679e-14
9.951132068026805718e-15
2.792172261149956018e-13
6.377853682929333896e-14
7.924921007946325290e-14
-1.384485966080804976e-13
-7.360432557053708082e-14
-4.241770968575669629e-14
-1.120584745666877619e-13
-1.615519289505473353e-13
-2.092083785843691511e-13
-2.777551571246088368e-14
1.112756789731249434e-13
8.241010006530516862e-14
9.036021926545183132e-14
1.218669551000202814e-13
-1.147502142093518855e-13
-9.129407053504774338e-14
-3.147738157987545152e-14
-1.190838939221744431e-13
3.335937371256917174e-14
-8.860645364492402095e-14
1.488389264302840459e-13
-1.172926608488939004e-13
7.516307647902963170e-14
2.243047538735656689e-13
-1.623703051352340420e-13
-7.366411684286103655e-14
-1.026362058760398300e-13
-1.416667071977504497e-13
3.483145395011605730e-14
6.684935307647859762e-14
-9.791283609725509223e-14
-6.847450607910986865e-14
3.238930592814965267e-14
4.194947146748877430e-14
-1.484942295030753765e-13
3.075290320220310305e-13
-3.119083403317943810e-14
1.177396644972227417e-14
-8.391838724722456859e-14
-3.456515661174117773e-14
-1.208250090990506473e-13
2.175543828407060032e-13
-2.468088597464984387e-13
-2.471169899485295375e-14
8.833369970852130120e-14
-2.134091011735131751e-13
6.159787442588476193e-14
1.759027939433245238e-13
3.959893639630272762e-14
1.003732836710556958e-18
-4.571018649774866315e-15
-3.761205936875058648e-14
7.751946247923252312e-14
-1.153786572244652005e-13
4.366657889453980682e-14
-4.523154672972378916e-14
-7.771256119416625107e-14
-1.545071844041025104e-13
9.012595619083476706e-14
-7.891809120063974354e-14
1.439710243785864995e-13
-3.747241590015571558e-15
-4.131641860253168618e-16
-1.466904198495736454e-13
-1.336287837593285332e-13
7.308625060902596407e-14
-1.285195723233876708e-14
7.848771298232720928e-15
8.698421079036371507e-14
6.972542218343763859e-14
-4.754393619315500020e-14
3.867285543092079833e-13
4.188840898395052382e-13
5.883169724376967356e-14
-1.922955393628309568e-13
-1.193982195866348596e-13
7.772811895625991415e-14
-7.704236162840027679e-14
-1.091651149979132193e-14
-2.667918047090438533e-13
5.827966134881603793e-14
1.614640308307181876e-13
-1.622564592823084479e-13
-4.589617953880081973e-14
-4.796993600885055410e-14
-3.320151304412372317e-13
-6.355318694752318516e-14
-7.604796707650640168e-14
-1.861977757991272619e-13
-1.168502642216966774e-13
3.298288560443840894e-14
4.561412468535174884e-14
4.340676648854099991e-14
-7.695488626020164891e-14
-1.102182332100382728e-13
1.942577038355149286e-14
-5.252902983632289446e-14
1.384791197957482491e-13
1.555671462137566261e-13
-6.314740983483201479e-14
-2.182556190435654767e-13
2.449930707971233225e-14
-8.937334979777825046e-14
1.098698432631918286e-13
9.354262231756106240e-14
-1.403754066385466129e-13
1.400575672926396542e-13
1.860268006229951996e-13
5.160465604253903105e-14
8.152363888205433634e-14
-6.960292665742638366e-14
-1.147952749583146201e-13
1.676696036665845957e-13
3.221539010108545430e-14
-1.224902797113101171e-14
-9.209300826145733520e-15
1.005789600779405273e-13
-2.881388207878549573e-14
-6.659660765786783842e-14
-4.071780554074127335e-14
-2.171179084976986795e-14
-6.499905342364368931e-14
1.179569280472036702e-14
-6.568412564377457899e-14
-6.078442033797054814e-14
2.654281015567770608e-13
9.700973849155970142e-16
2.282097076187651290e-13
-1.342499371279377276e-13
1.008535713933098298e-13
1.512236530758875641e-15
2.259414661384144136e-13
-6.215509320406112874e-14
2.394782287633474486e-13
-7.865096072204976537e-14
1.019128694353976063e-15
-1.544684820909959060e-13
-4.616494148176013409e-15
-2.763432195024433013e-14
-1.482287251893501812e-13
-2.466497317931889807e-13
1.197719094605395783e-13
6.615697668884185659e-14
-9.304010253385848205e-14
-1.426905254064021638e-14
-9.689689497012084533e-14
-1.844861352294635444e-14
3.340903429374132912e-14
4.718095600294903237e-14
-6.693718434545465326e-14
3.507265337997863988e-05
6.358595883600723711e-05
-6.048263174059009866e-05
1.331609548951150524e-04
-1.952560121770248122e-05
8.407628336841269122e-05
4.635831032293058642e-05
-1.092566964491293026e-05
-2.137790960563836190e-04
-3.598493435447666937e-05
-1.480940989820543529e-05
1.078797020049237300e-04
-5.075644646789471162e-05
1.465365604381248574e-05
1.222701717359282465e-04
-2.332947896647759035e-05
-3.065584575910191683e-05
-5.616132117098757772e-05
-2.322271522398665645e-05
1.651585057595369728e-04
1.134792505460776614e-04
3.516663844181669533e-05
-9.567637016654289531e-05
-1.871872654966463508e-05
8.521581549302567702e-05
2.793218734743189950e-05
-1.151057239882354548e-04
-1.616235512459481471e-04
1.448270765993382015e-05
8.897214400652140340e-05
-7.489482607646754701e-06
1.209558180905266470e-04
7.058455073867608636e-05
4.097797935669031296e-05
-9.519046329251146612e-05
3.612088046815380924e-05
-2.879760890143406732e-05
-1.497085385048935332e-04
4.956253413250002044e-05
-1.018818188566994669e-05
-7.056302881219405363e-05
2.966332237395672284e-05
7.449850658937356279e-05
3.695721558452005597e-05
1.101720842835899830e-04
9.505398369912996474e-05
4.975839364272513298e-05
-1.212762687163754813e-04
-6.404574175672154180e-06
2.059357478777279536e-05
6.746847898557511915e-05
3.435354459479236723e-04
-4.462738301859196576e-05
2.138470915174389459e-04
8.692410294661550825e-04
1.074075079533952414e-03
2.286682889156677924e-03
-3.540916598400285992e-04
-3.941841886565132145e-04
-9.539028948203124268e-04
7.141956195951270920e-04
-5.869692161130897826e-03
-2.314525234875346713e-04
-5.476442672328452445e-04
-9.017458573931004398e-04
4.608113991538134529e-04
-1.118042882049089827e-04
1.204551419450187141e-06
3.402935476394286811e-04
4.381041900884934267e-04
-1.370102147108830104e-03
9.070822471820270440e-04
-2.396162610507216253e-04
-5.250940793181391175e-04
1.126465467104149085e-03
1.052390144652355902e-03
-5.279722532936745880e-04
-2.425189715865807996e-04
2.273854953914523935e-05
4.445744114976324531e-04
3.388699429013152919e-04
-1.666083211059983570e-03
-1.677692120871227249e-04
2.069257024215882357e-04
-5.738359364576713605e-04
-9.602699506764426153e-07
-7.046902777765593536e-04
-1.944383162724506499e-04
2.059261450728110707e-04
5.926830976703463018e-04
-1.754135399960543779e-04
-7.810859990276444037e-04
6.248431649759844057e-04
-5.748990889546102786e-05
7.992528299755045267e-04
-1.654252738861818235e-03
1.018680465356926792e-04
-5.640916007393112323e-04
-1.662832428598726977e-03
6.280946434329316035e-05
3.203874110502430721e-05
7.106264563716780877e-04
-2.194365716687769665e-03
5.168675106318441209e-03
2.381720230611546283e-03
1.776156100750549702e-03
-1.908751705370093912e-04
7.010217905505003021e-04
-4.120277732495960035e-04
-2.450935754887224242e-04
1.921502009667857939e-03
1.132471946279931278e-03
3.764051006148591214e-05
-4.904832122619285847e-03
-1.227584963726843000e-03
9.903067449368405106e-03
-7.452161817167384161e-06
-2.616948141489490714e-03
1.506273263990817084e-03
-7.532668722697177452e-03
-1.691604726031465831e-03
-7.013468415186705190e-05
-2.772007945299670623e-04
-7.168921489076086895e-03
1.589401666146957092e-03
2.638596963216709949e-03
-1.120115354662035314e-04
-1.484681698140934451e-03
8.625395032632062961e-03
1.247806655951386049e-03
4.777823961738629759e-04
-8.539052138609638408e-04
-2.831876152846506383e-03
1.262993409487100757e-05
-1.587643314212557684e-04
-3.018185726498763110e-03
-6.568034978163136094e-05
-3.065363106180682613e-04
7.596729271069633301e-04
2.275853361109614857e-03
-4.462916504496860018e-04
-2.591041650416239621e-03
-3.955293538851387472e-03
-1.394114382468639125e-03
-1.213679256050219688e-04
-1.217838894068819580e-03
4.745079743440155332e-05
-1.843114061452093711e-03
4.940107171874215603e-04
5.628489075241622261e-05
6.703123562597759679e-04
2.280084326090317005e-03
-1.149501757266178405e-03
-2.733153888594700093e-04
1.229668870262586337e-03
1.166125792963688046e-03
8.475292390521427417e-04
-1.618463517630203997e-04
-6.315558270283266884e-04
-1.684566405074358359e-03
-3.380067741127887847e-03
8.131605163196851949e-04
-3.920575316094723891e-04
1.133699879975983956e-03
2.904581292478111438e-03
-1.384368317216768448e-03
-2.817390314182269088e-03
3.887396252002730743e-03
4.800580407709142771e-05
1.026550918329112829e-03
1.226177096496414501e-02
6.448770647837818266e-04
-2.819521294093075593e-03
4.328257078511049509e-03
-6.909128003296643832e-03
1.329506680899777580e-03
-4.667789644968590025e-04
-1.029059691540416431e-03
-1.963010588989988568e-03
6.749396614522439400e-04
-1.499247670710190721e-03
-3.119496213814007546e-03
1.440916173130579042e-02
2.907202350766956503e-03
-2.884109281129149842e-04
-1.752076633684740946e-03
-2.980637965988857871e-03
-7.026070135408609817e-04
1.103241189032096430e-03
1.037774664947238535e-03
-1.433476319880980362e-03
-1.036209668102625048e-03
4.353845016669612047e-04
-1.192346326099192732e-03
2.224618170599720315e-04
-6.169514836892125119e-03
3.220999728032563052e-04
-1.199661575437775641e-03
3.511474827644912020e-04
2.477195974755184733e-04
8.519942312645658895e-04
2.090426103807575646e-03
-1.762820525160855786e-03
-3.302802410980035675e-03
2.638922160214802071e-03
2.644019439088383765e-03
1.185298595589689107e-03
-1.019911733296967283e-03
-9.303356663303353254e-04
-2.005930406517073428e-03
-5.758901006701219738e-03
2.137632191095435903e-03
-6.904158486937162116e-04
5.638715863195523613e-03
4.679845212291484056e-03
-5.388759789322474479e-03
-2.801469972347646418e-03
4.593220884514213898e-03
-6.535777917100955067e-04
4.310214226341388920e-03
1.185776562535867384e-02
5.258646152110658121e-04
-2.828625941077021408e-03
7.580716077302224014e-04
-6.616473219567441805e-03
1.417637486152154361e-03
-6.297563527780603238e-04
-1.958124821488300884e-03
-6.046596492187931472e-03
-3.319967649413057675e-03
-1.678918712890320507e-03
-3.659927552147362005e-03
1.585144052496545095e-02
2.850796726929254697e-03
-4.787391732122343760e-04
-3.108430466898452760e-03
-2.604789254725542458e-03
-8.940724189440529390e-04
1.139841719914389548e-03
1.127632952378786451e-03
-1.329624682144326222e-03
-1.216114193764874065e-03
1.646445058213950657e-03
-1.051340802611532791e-03
9.169810978584101583e-04
-6.661529533442922882e-03
6.177529685080283915e-04
-2.210479610289301736e-03
3.661635876730843196e-04
7.065473299681155174e-04
7.663978301826796955e-04
1.779015813493469746e-03
-4.580686590596829734e-03
-1.437828028046525975e-03
6.363005918135601971e-03
6.136326682128686975e-03
1.537399712290811243e-03
-9.102990594556529050e-04
-1.449855604292365823e-03
8.544081132042939978e-05
-5.236448236217515484e-03
3.608184408677198377e-03
-8.327952855722482468e-04
7.109728940895893370e-03
5.526052545268961107e-03
-3.234001739523838237e-03
-1.922706613213097859e-03
2.094702226913275865e-03
-2.982265528193219634e-03
1.353636251119768935e-03
6.323391117585726133e-03
-1.658222486219254523e-03
-2.401786035577339190e-03
-6.468898749274798292e-03
-3.259681124583336219e-03
3.690778908168176106e-03
-1.034929607232343372e-03
-4.345944609446423905e-03
-3.765682964147310397e-03
-4.800836653853815007e-03
-2.263413033924635434e-05
-5.461711663759693212e-03
6.216111797080213323e-03
2.398094577410332141e-03
1.817095296293518925e-03
-7.105899368577909235e-03
8.178510234052721595e-04
-1.139316876918992309e-03
2.343282543640109843e-03
3.554205933007585205e-03
-1.076502858263934763e-03
-2.038888600312795119e-03
2.573553111586959416e-03
-2.048578462885685195e-03
-1.235836128835120229e-03
-6.098078511344346038e-03
9.224368624758231845e-04
-4.926064263652074962e-03
-5.278782348067668882e-05
1.266583710611224323e-03
2.551683094792770324e-03
1.631337441471761122e-03
-4.925808563077152015e-03
-8.617702807913363468e-04
6.150226034726835947e-03
5.999668565108311376e-03
3.674080930998471165e-03
-2.664581272515603033e-03
-1.931983441982945866e-03
-2.965850093572200245e-03
-4.120161247599618223e-04
5.641098361174038366e-03
-2.467160467641778092e-03
5.123704322579810929e-04
-8.642754228406832181e-04
1.255954138550604302e-04
-3.164644756011259115e-03
1.334371233501527570e-03
8.584117553962682199e-04
-5.104977533099048538e-03
7.551114511794692827e-03
1.182865478766392375e-03
-2.204983658287266914e-03
-1.127465010270894963e-02
1.285879303242304502e-03
4.844744090704253790e-03
-1.059543250832933447e-03
-3.530945459898529593e-03
-5.209441599763237106e-04
3.881081502192476498e-04
-1.708103210257049280e-03
-1.015505773042712362e-02
-3.690917372614024861e-03
2.045744833525812122e-03
-2.380914206139104518e-03
-1.039061007316979986e-02
-1.741611878620235926e-03
-1.789880696205366347e-03
3.188125257558150141e-03
3.709989848264920453e-03
-2.040263032584245257e-03
-3.781764567474600255e-03
4.414901724675831217e-03
-2.139900386994297854e-03
2.639015874260338367e-03
-9.755651522261023223e-03
1.348197754290575943e-03
-4.279056394767079968e-03
6.633978161928702662e-04
1.739368563454170291e-03
3.902114260269110013e-03
2.991378620694869466e-03
-6.071031832479713806e-03
-2.215056420179167904e-03
6.083883447320623250e-03
5.716415893162845631e-03
5.689251085271121965e-03
-5.847162108190764873e-03
-2.724387720278181706e-03
-9.223334817133950481e-03
5.960104021004796783e-03
6.743227789810928539e-03
-4.383855761783294301e-03
-6.505521130466477252e-03
-4.723571082152273025e-03
3.323762882952950408e-03
-5.167953604783245489e-03
-6.870726591941211069e-04
3.301097180390359567e-03
-7.828341396011745043e-03
1.560574201283747298e-02
3.765798247489968078e-03
-3.160143529860244896e-03
-2.099214267455751931e-02
7.598939706544431336e-03
8.749279372769622892e-03
-1.474026270406047839e-03
-4.021264332530836288e-03
4.413549620119167939e-03
5.007168662629831206e-04
-4.647113818169378192e-03
-1.954702362517595632e-02
-1.111134050773295544e-02
3.156566685710164404e-03
-6.948736788196440903e-03
-1.303611889097966089e-02
-5.123246583748848441e-03
-2.539468792349006739e-03
4.917801811282842411e-03
4.221921088085983827e-03
-4.129297969505073967e-03
-7.695965550149357418e-03
6.995844728206309683e-03
-3.100159967643127418e-03
7.674985455113172463e-03
-1.919841312963943558e-02
1.764447267467181366e-03
-4.402162752803169023e-03
1.412335682264481695e-03
2.445579073926016592e-03
3.331655542466071835e-03
6.019012100722039883e-03
-1.074249556995296277e-02
5.507107746039972655e-03
8.712977367114705177e-03
8.789780809222951310e-03
3.983846989533857720e-03
-4.384246574214495026e-03
-3.515809954505460296e-03
-4.946853438011785883e-03
8.459560447417512410e-03
6.569323269777052436e-03
-2.830976259570579679e-03
-4.951077621929027284e-03
-8.774029865609083573e-03
8.558274624612817461e-03
-3.318343342947073157e-03
-2.562501896239918232e-03
1.513041208066213256e-03
-1.379521978148101277e-02
9.468933348629654566e-04
3.957255719328549651e-03
-4.933112256168057166e-03
-2.712637676865460243e-02
9.929962645805477314e-03
1.188052468160482808e-02
-1.973148561831475963e-03
-7.582099896464368147e-03
5.207920096750967912e-03
8.006578730983622896e-03
-3.529545318489776904e-03
-2.188720343757945969e-02
-2.089465009729396874e-02
3.368278408382826411e-03
-5.492382338677737411e-03
-1.194419746372073036e-02
-2.829325989826638344e-03
-3.122659932120019043e-03
4.924019230653436420e-03
6.117410697710470337e-03
-4.882947478798342449e-03
-9.658126440429225593e-03
4.323093893585051514e-03
-5.039320675886310372e-03
6.507534722389596640e-03
-2.313656881559859185e-02
2.874483313508753406e-03
-7.907127924761498186e-03
9.654511750712177053e-04
3.323443639816753541e-03
6.688530002012357985e-03
9.906321109011979181e-03
-1.557767588143057005e-02
2.738902376189492841e-03
1.286544544141607696e-02
1.296330034572148841e-02
7.123216390899174064e-03
-4.373385579321695249e-03
-4.645808626713376910e-03
-3.169307710502721441e-03
5.609269582494412140e-03
9.289287815931820610e-03
-3.392680288231164978e-03
-7.066823907484503413e-04
-7.276791537167445409e-03
2.208829572715875419e-03
-4.842711784339670880e-03
-7.448217234537543715e-04
9.388307353254256391e-04
-1.647806773496836644e-02
-7.387144315859267563e-03
4.502724456292664726e-03
-7.633071215176093910e-03
-2.076912880090657151e-02
4.627878853755401645e-03
1.667391645558883792e-02
-2.865032246006123020e-03
-1.048073371524897539e-02
1.079564337253556116e-03
3.637072629072265074e-03
-3.264915560788189501e-03
-2.225084739946336237e-02
-1.754406575317635220e-02
3.697511770844137333e-03
-3.844309777575586132e-03
-1.285448459527289630e-02
-2.023537550000104220e-03
-3.828839124462204979e-03
6.253371674338184874e-03
8.053153316488400118e-03
-3.812805634470339822e-03
-1.410424604308129284e-02
8.443434395158757808e-03
-7.342819369223736216e-03
6.006420609688263579e-03
-2.321441970061052101e-02
5.575436279353866015e-03
-1.125420990256738654e-02
-3.890360936064602500e-05
6.120629239980981094e-03
4.693196470334418287e-03
8.758418798878859352e-03
-1.482590021836263997e-02
4.534349273932590171e-03
1.330651109268875254e-02
1.360609935193149954e-02
3.623552333980568398e-03
-3.590363858589924045e-03
-5.331112014423088422e-03
-2.264954341180676605e-03
5.363116733241294308e-03
1.114849059685328603e-02
-3.539922337773083842e-03
-3.660500441955242493e-03
-7.457304001552343860e-03
3.474434788487705018e-03
-4.082313012291038587e-03
-3.030188668660878035e-03
1.997767928405964639e-03
-1.941877207811111561e-02
-1.631138402358296019e-02
3.682186021841839588e-03
-5.246848397555921480e-03
-1.924136102012363042e-02
6.943444412814627972e-03
1.510692106007389089e-02
-2.964886989087795518e-03
-1.227717830767737286e-02
3.855925751801002159e-03
5.624273418466425520e-03
-2.938427087900518427e-03
-1.978330724743953759e-02
-2.085446520412172211e-02
1.306194283466063010e-03
-4.261914371694591232e-03
-1.502174718425531783e-02
-2.861546151839026129e-03
-3.865611119125352945e-03
6.619993990111941451e-03
8.388433089555488720e-03
-2.424433625249377156e-03
-1.339101681598719659e-02
1.807293268826261996e-03
-8.018794506234355746e-03
5.203558780022021421e-03
-2.046668010934601586e-02
4.198236839910972525e-03
-1.318353678051377431e-02
3.144367151751184227e-04
4.458423610141522796e-03
5.210122322441060154e-03
9.103472402920002524e-03
-1.534058220691133893e-02
1.794347273345805365e-03
1.380219069401234476e-02
1.456503165830131535e-02
3.158513177368863899e-03
-3.138387039263729715e-03
-5.930790217197845667e-03
-4.040448430592681606e-03
2.524285599387937097e-03
1.152205734718921883e-02
-5.586733380354337412e-03
-7.125181715655003970e-04
-3.854688661601492553e-03
2.818104152128827859e-03
-6.741847102158021222e-03
-4.072455914646021247e-03
3.506592790521322230e-03
-1.952261645836622997e-02
-1.841901740718383459e-02
3.513965995964346556e-03
-6.254275140896938326e-03
-1.838833146630030127e-02
5.693968901388400325e-03
1.462515858353204828e-02
-3.129891674333648913e-03
-1.397314592871522210e-02
1.695366793620133820e-03
3.804818119245403658e-03
-2.770126600530190171e-03
-2.048150813468485945e-02
-2.376489537911463668e-02
2.848697577494243693e-03
-4.485968079230548237e-03
-1.803012337952476091e-02
-4.659915205837256678e-03
-4.517955020408508798e-03
8.563952836992877460e-03
1.120914915150046133e-02
-3.697109943146302015e-03
-1.273493603023300932e-02
7.388833194438785418e-04
-8.990553163982667809e-03
5.181890015113435437e-03
-2.064595990651208954e-02
3.836147701631777238e-03
-1.475205023327386990e-02
3.772887209102248913e-04
3.835792493566184645e-03
5.974284188997167587e-03
1.094697879712881912e-02
-1.612808562676822099e-02
1.699517338122210784e-03
1.363236132873234772e-02
1.435121901184029970e-02
4.514237817380632733e-03
-4.095494160635769314e-03
-6.627123814287919600e-03
-6.111743641590902144e-03
4.236648361877922569e-03
1.270234215691661873e-02
-5.817964935282251074e-03
-1.337095804808890488e-03
-4.457433385421761575e-03
4.899718586286070862e-03
-8.473993282010774952e-03
-5.488041339286968238e-03
4.838567948250971015e-03
-1.898804334974120087e-02
-1.676088378884276614e-02
5.107190357657602486e-03
-7.552386964152952263e-03
-1.658337027239156769e-02
5.386397211301126135e-03
1.672990226809966535e-02
-3.450798852359403691e-03
-1.423599507272028247e-02
7.426760144287486171e-04
3.881683789567499845e-03
-4.031517526923170114e-03
-1.978461670426938379e-02
-2.157631536830308117e-02
4.303044579503222111e-03
-5.910602369147869434e-03
-1.977318143651656673e-02
-5.923260471621414301e-03
-5.167879814761475524e-03
1.031097149668810421e-02
1.256012518650105950e-02
-4.969094254987703983e-03
-1.467014531868801423e-02
2.964477115581740443e-03
-1.045544625941283168e-02
6.027680945551524769e-03
-1.948886097386924587e-02
4.077911371446307776e-03
-1.497774207809143485e-02
4.170745608005660583e-04
4.247454699039695386e-03
5.422315327265756629e-03
1.126988492003981254e-02
-1.531430446203428664e-02
6.943991991948153227e-04
1.242100362449189213e-02
1.334023651679577642e-02
3.462399571524604237e-03
-5.241853763885861994e-03
-7.099897332328109455e-03
-6.729387113617962997e-03
4.647838648520650866e-03
1.185300936537665023e-02
-4.013627256935903623e-03
-2.425804593308535703e-03
-3.623664011895776429e-03
4.589769110687161313e-03
-7.116753656964487119e-03
-7.207569676771357313e-03
5.434862415692832960e-03
-1.431001840360451687e-02
-1.635835458061894732e-02
5.592774444150572233e-03
-7.999749404392120927e-03
-1.483856946494190032e-02
5.503120499687501679e-03
1.706979162045124676e-02
-3.723863222673502466e-03
-1.409585387630109092e-02
2.938963155253463029e-03
3.383951239913378720e-03
-4.817825696776269900e-03
-1.917332669708136234e-02
-1.954765749120658883e-02
4.929822611928251497e-03
-6.662740762261393224e-03
-1.867334650914156957e-02
-5.993740363656173756e-03
-5.636296702415386981e-03
8.972790278003016026e-03
1.052809970733897295e-02
-5.528935067141772623e-03
-1.589418750114703072e-02
1.467216406979657576e-03
-1.015925463746150670e-02
4.471419237754029920e-03
-1.849567052928192609e-02
3.074473861950182980e-03
-1.470513848289789309e-02
4.197632874388522602e-04
2.993080210680801323e-03
5.112192307666711330e-03
1.151913203018952066e-02
-1.377390125513358425e-02
1.198062614356682452e-03
9.229164318736667039e-03
1.062524196128173878e-02
2.742965675686107746e-03
-5.467884830983324798e-03
-7.249443886820407419e-03
-6.163067124576052103e-03
3.178590894492842444e-03
9.578709227045525965e-03
-2.294481263315279861e-03
-3.842223536960061997e-03
-2.412744259731604366e-03
4.074266668945254223e-03
-5.015887207296274887e-03
-6.435154771733305086e-03
5.662826604725510263e-03
-1.297259467747573745e-02
-1.404526062495225006e-02
6.202922045890881843e-03
-7.789034452968199643e-03
-9.238775739127834744e-03
6.510860363541494909e-03
1.602917278976501853e-02
-4.097425804967580465e-03
-1.295278928050952807e-02
2.704446613536778347e-03
2.727624665554987098e-03
-4.580713805769538044e-03
-1.623684446447499694e-02
-1.167574026304788425e-02
4.898130117140079426e-03
-6.646426782336586556e-03
-1.492016393889348744e-02
-5.888572473232787929e-03
-5.654369275041174099e-03
6.725677878424280581e-03
7.333781395285423471e-03
-5.280658986749605342e-03
-1.456800826862487443e-02
3.946944857159288616e-04
-8.906028438537763256e-03
3.464202851142723569e-03
-1.556146777799939478e-02
2.389681101194421602e-03
-1.296548420691692738e-02
-6.881042527810778727e-05
1.829020193979632915e-03
3.864495163912413933e-03
8.899786633150929063e-03
-1.170724021741163974e-02
4.719992824543606247e-03
8.400976391414542374e-03
9.735118777957735628e-03
9.784212718186454348e-04
-4.270232999168554859e-03
-6.815866112594903305e-03
-4.634676774505242826e-03
3.512163388481288374e-03
9.378490643969445220e-03
-9.798838324822647331e-04
-4.383209900235739143e-03
-1.622136764085066636e-03
4.507599868298062078e-03
-3.205734505509080789e-03
-5.731398888916735754e-03
4.149943176441038550e-03
-1.332686949621720955e-02
-9.395119389246158262e-03
5.187921849071491787e-03
-7.310075450915866357e-03
-7.520958099397112399e-03
7.109728809667626402e-03
1.293003970195224714e-02
-3.693985789238276619e-03
-1.161176730981745148e-02
3.024571609552150278e-03
4.212405688919675442e-03
-3.563686180818713238e-03
-1.133394654908792196e-02
-8.733749857674678527e-03
4.016189507762817773e-03
-5.884833883308203395e-03
-1.202819535118201423e-02
-4.509086161036933611e-03
-5.227231167091757683e-03
5.895362658483413107e-03
5.686865941388158548e-03
-6.373250680779069845e-03
-1.252568920071887512e-02
-3.519623896535322479e-04
-6.859747892972630975e-03
2.191788514434211878e-03
-1.075409605260423812e-02
2.723054240331216225e-03
-1.179422239549806836e-02
-6.581218572050581391e-05
2.081199290333209020e-03
3.209022878129823373e-03
5.918055252524273384e-03
-1.012052035038732249e-02
6.829873385232116366e-03
7.738982114249540536e-03
9.112519673787877403e-03
-1.548350356280924021e-03
-2.519022074940174393e-03
-6.188345662415255938e-03
-3.922718052234931176e-03
6.114296275051531865e-03
8.504417928008274619e-03
-2.182027304993280643e-03
-7.305720033708575784e-03
-3.891072246117888416e-03
7.125942862661838358e-03
-2.628983733057252154e-03
-4.632978172397462027e-03
2.922519551493368492e-03
-1.315866393620026241e-02
-1.014432796292518910e-02
5.133954004880373484e-03
-5.785079267079017151e-03
-6.904143778196191253e-03
1.131848224872600110e-02
8.557613327557863150e-03
-3.261209184090658672e-03
-1.027343753383901451e-02
5.045050156004884934e-03
5.505692740291200267e-03
-1.828935387221600119e-03
-1.103279744819892459e-02
-1.075126335626537706e-02
2.924667784774147294e-03
-4.868000663433211944e-03
-1.140822717022248016e-02
-4.848896953571058162e-03
-4.711444011955836023e-03
3.959986349424861850e-03
5.203572452155256871e-03
-6.024586285201735669e-03
-1.012071002775585989e-02
-3.580982365204861493e-03
-3.237749206143601156e-03
3.428838494035953664e-03
-1.087292458173348166e-02
2.903595817134634396e-03
-1.053790759661431611e-02
1.035934635301147998e-04
2.524802348082379796e-03
2.706874860435822157e-03
6.641121383741260820e-03
-6.107440122541712459e-03
5.508265862231926518e-03
4.274829409089501812e-03
5.135839335971522854e-03
-5.722576761955156573e-04
-2.060350567249116024e-03
-5.254419571312769419e-03
-4.024918541987078206e-03
7.490378099919615777e-03
5.294580825170296795e-03
-1.656742917931360590e-03
-8.869848338550463326e-03
-5.409597234360165319e-03
8.639619632119501999e-03
-2.312997635688963070e-03
-6.252418039642433471e-03
3.000424799978400163e-03
-1.046756448240829772e-02
-1.180711765621087622e-02
4.250829039781734570e-03
