2.170341801677141911e-13
-8.173880670270353761e-14
-7.057078242381803990e-14
-1.433629020432962227e-13
1.156299882665994029e-13
-3.075162310773021988e-13
2.331300961389961001e-13
-1.017073827828996862e-13
4.262787348254804750e-14
-3.331920428411023191e-14
1.953570986391131865e-13
-2.752622440511327323e-13
-4.307923370879209482e-14
-5.131477816841678211e-14
1.514867016097751421e-13
-1.469601261007929491e-13
-2.303870562298617459e-14
-1.172935794929153479e-13
5.640318934124400198e-15
7.787187683586839793e-14
-1.470573845605274491e-13
1.529503376813938699e-13
1.204645312923885526e-13
6.713993792339057793e-14
1.203663560542604237e-13
-9.135515063070753775e-14
-1.641977127691533726e-14
-1.250312627681230378e-13
-3.579341625183266275e-14
7.086255576918258810e-14
-9.241509075776038535e-14
-5.301155675146853568e-14
-9.181542727323153240e-14
-1.129307335615369458e-13
-8.968742544283402112e-14
-1.692159133768121739e-15
-1.492875474228163757e-13
3.132106012198393879e-14
2.217716828009097882e-13
9.914698538981034590e-14
-2.563178543503765229e-14
-1.185990546239426296e-13
-9.983030171245421569e-14
2.261344816330529868e-13
6.788592900654618477e-15
-8.511110445857214564e-14
2.550885213393818608e-14
2.806220659014044421e-13
1.605483681305631552e-14
8.246655785701719611e-14
4.010675362496261637e-14
-4.706527217556751450e-14
-1.526556519207197345e-13
-4.667684166956206731e-14
-2.791105247470279366e-14
7.838067335534591774e-14
1.120993610581863598e-13
1.244076422346940760e-13
3.815827125770570581e-14
1.182666514262437748e-13
-1.007976150313295703e-13
1.673998762899484846e-13
6.853425727577593659e-14
-3.982917397226273822e-14
6.527253243219501098e-14
-1.009738762845632958e-14
1.512007617674031919e-13
2.030677737235404232e-13
2.920219906202661679e-13
-1.865905145912968246e-13
-1.929528429369781170e-13
-6.740335980046457244e-14
2.138308449732763856e-14
1.170678402122642035e-13
4.217303385061097571e-14
-2.701930222651712706e-13
-4.091293534707873073e-14
1.106284425577087131e-13
3.074372197430346401e-14
1.018148452276635808e-13
-2.970600171557136092e-14
-2.682395251462990935e-14
2.492708721302312941e-14
5.478836278853406195e-14
2.649548436432313089e-14
1.590114051696567510e-14
-8.960941603317454243e-14
5.044755176962544841e-14
1.627694471142768729e-14
1.509140971187940446e-13
1.601914007782565168e-13
2.473936403573282871e-14
-5.014306889048341033e-14
-8.534289162334319167e-14
5.658448750865056687e-14
1.033366345830083792e-14
-4.594343188625882088e-14
5.825120871814126976e-15
-8.284037242307592280e-14
9.326637895773662408e-14
-5.974233291682819470e-14
1.636105422938921497e-13
5.391185867216019995e-14
7.930999837706037179e-14
-1.462948090425759080e-13
2.263174957496575897e-14
9.894820758385936772e-14
-1.274271056322729528e-13
-3.557033897375643638e-14
4.357737930294940167e-15
-1.834667666990428574e-13
4.210949334063401346e-14
1.130583350972761452e-13
-1.148427801947516051e-13
4.683761273456845575e-14
-1.753385460240208876e-13
-5.170235540788967588e-15
-2.158887119607443948e-13
1.498363453837969016e-13
5.463455925475726769e-14
-3.289153252898215030e-15
-1.035719190495353995e-13
1.701907612875291854e-13
2.628309994945582878e-13
-2.482511291855444216e-13
1.651679826863195033e-13
2.174758242374959968e-13
4.516286566528913425e-14
-1.602381858081452845e-13
1.153544359385270532e-13
-2.417336258384038940e-14
-8.069184132362535019e-14
-1.643521538000358319e-13
7.355914374102592043e-14
1.059295590859526246e-13
-8.331201218208821052e-14
6.955593376807443539e-14
-1.528992546072358477e-13
1.071393162770168956e-13
6.222011440544463950e-15
-2.492820701544834691e-14
-1.359460403175315474e-14
1.160947659058951805e-13
1.002649920944900534e-13
7.074362088794261900e-14
1.839871611569096408e-14
1.039793942475961003e-14
8.262384108516706591e-14
3.106437040642322524e-14
9.119796092933738678e-14
-4.143573232785898229e-14
-3.253267622733664842e-13
1.388008060639079752e-13
2.922096158504900248e-13
5.897216953236867086e-14
-1.338207343798562426e-14
-1.823083550587406918e-14
-1.590722553051554067e-14
2.326128877589979446e-15
-1.499166497309138818e-13
-6.909070832748890032e-14
-1.332160665982567127e-13
3.324288247199853716e-14
-3.963520981992897395e-14
6.616683010497172641e-14
-2.334266954283432399e-14
1.317875210826717117e-13
2.853097392406524708e-14
2.927066683640425621e-13
-2.533790826806320445e-13
-8.643668779623105490e-14
1.204506583622726722e-13
3.378179968674484663e-13
-3.322091862345333456e-14
5.834759248393139552e-15
-3.023859776559307346e-14
1.779004079570889016e-13
-3.838815808518429736e-14
9.086639052047221378e-14
-4.272975402026617572e-14
-1.700308027704702760e-13
4.189415254694300988e-14
6.723219451958356702e-14
1.727922063039570763e-13
-1.475719410826759236e-14
-8.248779622964514957e-14
7.519237963009388880e-14
3.216568263040063366e-14
3.750059333296893484e-14
-9.768831230476689314e-15
1.550366910196643813e-13
4.936914930189008596e-14
2.544877773600953125e-13
1.484519764615163818e-13
8.805783264202598852e-14
-2.174474430933403796e-13
8.047787996472076897e-14
5.615530142055912660e-14
1.083539470113559521e-13
1.395513779447445854e-13
-5.356266693542574632e-14
1.100981280549172415e-13
-7.513149663557445205e-14
2.611977537711698799e-13
-1.779664869505334792e-13
-2.352514476201642305e-13
-2.205583520770419635e-13
-1.189900900549312776e-13
-1.495287261396487868e-13
2.613582004821607518e-13
-4.362468258027694130e-14
-1.793993726317756112e-13
1.488964115443814984e-13
-7.836741191774728816e-14
-1.652600885072554889e-13
1.170237486889348941e-13
8.328949124221401170e-14
-5.811600735002369456e-14
1.880660953263413843e-13
1.724969094484308638e-14
2.160460074629856626e-13
6.717287936571683550e-14
2.082771866854591244e-13
1.461765770874829762e-14
-1.629741009113271106e-13
3.272682820842457723e-13
-7.292269966387060906e-14
-2.656738740649541528e-14
-9.358257098938818144e-14
-2.717620800919671896e-14
3.242387017878194474e-14
2.696720068583231998e-14
8.832111655716165040e-14
2.394562119096092347e-13
-1.609567162392454711e-14
-1.647613579305621580e-13
-1.579734525825838425e-13
-8.895367283493579421e-14
-2.236948635893741818e-13
1.102349756194712593e-13
-6.656796931855466183e-14
-4.155173605336450923e-14
-2.527273055537676437e-16
-1.866070945491395362e-13
-1.150833402845391547e-13
9.015044836098817223e-14
8.264506807166470444e-14
-5.921367389260551342e-14
2.419115845327551487e-13
-1.744625117907006089e-13
-4.609488720765380577e-14
-3.084326493753197616e-14
-3.731933655898294984e-13
2.588796613215274444e-13
4.894683742969128290e-14
-1.395710574769063124e-13
2.740640977657733913e-13
7.825224543143811462e-14
5.739041446825846495e-14
-8.110307245213120265e-14
1.419277103372403591e-14
-2.038512154115447199e-13
1.062260775788851138e-13
-5.002994767704027512e-14
1.791062485417602359e-14
1.606105434041874565e-13
3.804614103310993739e-14
3.506914731382121027e-14
3.694399065705072291e-14
-9.797485494881989208e-14
1.117013677987384471e-13
2.062133378842047653e-13
1.013865450230423695e-13
1.182356063967760377e-13
-1.172164981006422344e-13
-1.159479336657386385e-13
-1.925202322431762369e-13
1.646454263786239906e-13
-3.396181650488932119e-14
1.870377994824688719e-13
-1.044738174600619596e-13
-5.845702861494915030e-14
1.275006290489371975e-14
1.231180047609992875e-13
8.117035474920109572e-15
2.820907987994949601e-14
2.208303172824423219e-15
2.367463992949414854e-14
-1.491752680396429441e-13
1.081293880352864539e-14
-2.492943914461101586e-14
-7.592507663950863527e-15
6.578272279689192633e-14
-9.094766765532779793e-14
-1.129139827997470039e-14
-3.973150900330819035e-14
5.575710717566454731e-14
1.048558137161032893e-13
-1.276575432598079718e-13
7.828543911332227436e-14
2.760161720144826045e-13
-1.965661640921396842e-13
-1.109220247913626773e-13
-1.176568984228211816e-13
-3.729117374720328909e-14
2.168342575323365217e-13
1.784095444775879067e-15
-9.282031906125739863e-14
8.308123186194082516e-14
-8.014187596672453720e-14
1.501028309798570243e-13
4.078774335413249498e-14
1.855594287198745227e-13
-8.836440133498946600e-14
4.049628873909140662e-13
1.101754910478837699e-13
8.746062872389614067e-14
-6.839458534564445812e-15
-9.694944154501905098e-14
-1.159454557733540630e-13
-1.816838226144114868e-14
-1.065258645961323047e-13
3.776924097149396588e-14
-1.103776221919044801e-13
8.298492291620804716e-14
1.277505971558194140e-13
-9.430969501933158770e-14
1.593587476549656068e-13
-3.179221248678055796e-14
1.543618523645771341e-13
5.854486126457261122e-14
1.499580154682110701e-13
-1.332151270132251326e-13
-1.426909934670190350e-14
1.939302852032047940e-13
-8.257795635744914762e-14
-2.721972234126814050e-13
-2.595557938821631580e-13
-3.348938620821916057e-13
-2.824804649293212030e-13
-5.500047607241754018e-14
1.708283844607461930e-13
-5.908772313594999467e-14
4.322756448318103335e-14
-1.469632839610310110e-14
1.142252999584724909e-15
-2.247360574036798027e-14
-2.327281443582093638e-14
6.161766740022410327e-14
-1.571269513843503580e-13
1.349664478393497643e-13
1.229266523910478263e-13
-2.606225930131602680e-14
1.076112909550717047e-13
-9.370895868142905344e-14
-7.178015289250932289e-14
2.087893214823299560e-14
-2.541606308208027601e-14
-5.995737926774084532e-14
-8.984801635674020034e-14
-7.448872179361633845e-14
1.254854558615085273e-13
-2.596538960155520604e-13
4.709794302125826837e-14
-3.159112658305966020e-14
9.724557955531764635e-14
6.882069660982939432e-14
-3.717836738939635532e-13
7.811657584113362203e-14
4.332735891682815344e-14
2.921166230734542294e-15
-6.262106554271064889e-14
1.140097386937540877e-13
-5.518621816742212283e-14
2.451427170889270785e-13
7.540906822096195394e-14
2.856423100256130976e-13
-1.049578068982464715e-13
-2.346150580341363288e-13
9.550541267457584355e-14
1.139326223980005924e-13
4.724580034889457652e-15
-2.056032774856474229e-13
-5.984476355244230345e-14
8.257110015533131861e-14
-2.460841071040965795e-14
-1.549716593756459634e-14
-2.344365568336114738e-14
-1.247834396333972896e-13
-7.121861647907613169e-14
-1.906068087997086911e-13
2.362230019148845886e-13
-6.351614905149211566e-14
6.381508302934569651e-14
-1.365375758022091441e-13
1.061595575420186633e-13
-2.502792609242186089e-13
1.230064442369603429e-13
-4.725625936453897644e-15
2.820049527108267108e-13
-1.745703578218511061e-13
1.020544969258665623e-14
4.906706260918329204e-14
1.647317568250118966e-13
-5.649932335610752146e-14
1.155279659330540777e-14
-2.862620970168264701e-13
-1.109216197702945032e-13
6.034190743670005803e-14
1.475323998407354209e-13
-3.764371884699290213e-14
2.747564927351630127e-13
2.351927467516627470e-13
-8.103980915603024434e-15
-3.224761537231283292e-13
-2.375065486053333928e-13
-1.039323018982512002e-13
1.490912372905357266e-13
4.145651110551846801e-14
-2.798194078856001930e-13
-3.056616236294553015e-14
2.155665728949449967e-13
-5.007889938399700577e-14
-1.002059319878725416e-13
2.745251518661201887e-13
7.136225639864438587e-15
-6.402177174443687034e-14
4.678699735784931242e-14
2.293436112627211669e-15
-5.733912541973868645e-14
1.614658645894889762e-13
1.490726242680640708e-13
1.123503061529479155e-13
-1.374710293471564714e-14
1.532411693314835647e-13
-6.640926714991134206e-15
6.234975713870091352e-14
1.381143363671228710e-13
1.080723819826700772e-13
2.391350688470498435e-13
6.029755656345646407e-14
-2.250128492144950952e-13
-1.550141818498650827e-13
1.803922571432412552e-13
-4.426384486827762254e-14
5.164677927697465412e-14
-1.137658188327583636e-13
1.337310919788593173e-13
-5.141871519192862876e-14
1.948226856441337440e-13
-7.111355563110294569e-14
1.493975176112719183e-13
9.010830393113954565e-14
-9.652118229198817114e-14
1.468405509202741236e-13
-1.204703795318646679e-13
-1.098925733724607236e-13
9.643024328780696454e-14
-8.355402222254745867e-14
-7.934534498204742806e-14
-4.594971620705387728e-14
-1.336359280537447023e-13
1.396251745823014307e-13
8.130567037036849706e-14
-9.263237477026602484e-15
-1.448262417706543061e-14
6.014677349223758809e-14
2.358722872815554957e-13
1.163731687066240598e-13
-6.793664682184917181e-14
1.038735626254220579e-13
-1.586941086642841952e-14
-2.658880841651961524e-14
2.493854409133608000e-13
-5.597568423423378578e-14
-6.402548837817879241e-14
-2.608272723867259162e-13
-1.873698557074819844e-13
6.027603448956732141e-14
-9.285069015741174623e-14
6.886615027783936026e-14
-1.489616249448791785e-13
-1.025228149246437207e-13
9.013163310243859256e-14
1.951946840860829144e-13
7.916225921241377786e-14
1.600461579957748935e-13
2.277564899548229272e-13
1.389697669632795829e-13
-1.227158246052554614e-13
-1.407545699672591712e-14
8.420253709088823794e-14
-5.542907261616827218e-14
6.038601142606279108e-14
-2.109963173005884025e-13
-1.107157369843519891e-13
7.066537976354027101e-14
-2.989045604246584974e-13
-1.480051472875776541e-13
-2.367403316807819093e-15
-2.297340076388166715e-13
7.632126044351464387e-15
-1.068301963543724747e-13
-3.896092259169389732e-14
-3.460355939239917557e-14
2.529209296403872231e-14
-7.532968575225786578e-14
1.198329882356447185e-14
-8.032255719738981612e-14
7.429882897589668851e-14
2.263154625159532614e-13
2.630442521350183464e-14
2.269679551823708516e-14
-1.555269718995859429e-13
9.264296479584708877e-14
-1.012878940929597513e-13
-1.080727609375887224e-13
7.448133712855245208e-14
2.418918805030673917e-14
1.479333900744694184e-13
1.927875797009190120e-13
-7.210864636576126481e-14
1.715287612731179502e-14
2.352149208346860621e-13
1.291425200982069160e-13
9.527285238339898228e-14
1.745265316221815776e-13
-8.078301122095517306e-14
8.505602408285827856e-14
1.882950269389732492e-13
2.165754752058056920e-13
-1.077170316228622606e-13
-3.362702695161886072e-14
5.113584575368915735e-14
-3.861389505820908525e-14
-5.235186942717231087e-14
9.139168973327287610e-14
-4.722028185043470443e-14
-2.388889808985345953e-13
4.834762193798989973e-14
-5.671789192716669205e-14
-9.774228463890103541e-14
-2.092034757426922150e-13
1.354601877636214288e-13
-2.975719172827483625e-13
-2.270536081689296869e-13
-3.685670878845458473e-14
1.642048384295809555e-13
1.749941569442772356e-13
-1.543210667431238255e-13
-2.373402780535290800e-14
-2.018170940611223293e-13
1.351107350540880822e-13
-1.972884422617560650e-13
-1.913285919138306644e-14
1.380203943115426727e-13
-2.971747721858669097e-14
1.964330074594607349e-13
-1.162446888963819464e-13
4.932876509901917568e-14
1.140098674793384582e-13
-1.866734843118563604e-14
1.852300542274188925e-13
7.323741471464825140e-14
-2.187850797831455925e-13
5.289220578949467016e-13
8.666743210244181152e-14
1.434249408571432945e-14
-1.869000276042226135e-13
1.092526990599810404e-14
-6.145448957380887654e-14
8.609423388236492021e-14
4.966010230972942274e-14
2.475867530583716235e-13
1.900667844697826448e-14
6.861117306335282059e-14
4.976519724433887920e-14
-1.984021587476833080e-14
-2.450470962540718143e-14
1.471082946373923745e-13
1.042220168283579335e-13
-8.410178374331720447e-14
-1.487698965895180514e-13
-9.006877371467221148e-15
1.551838542932258856e-13
-3.678292752789737524e-15
2.333469939865164448e-13
-1.035597158648599259e-13
1.892506277204096795e-14
-3.362117181077235579e-13
-7.958916439668422564e-14
-4.130272629492088711e-14
6.826809340197234625e-14
2.285672111396151607e-13
4.668929058641432517e-15
1.942627580407093303e-13
8.840940675289298014e-14
1.317897914925103548e-13
-6.228449900225133808e-14
1.850532944116304519e-13
-1.433623217012156434e-13
6.615978697564198164e-14
-1.272081800569253588e-13
-6.923114855254588954e-14
-1.952629904577465467e-13
-6.899095939891478190e-14
4.691389496469979175e-14
-9.188650029676484911e-15
-1.800793511202458765e-13
1.965104380986549167e-13
4.505720982644099878e-14
1.346909713397269376e-13
1.049167772820064036e-13
-8.883519105702274547e-14
-2.598841856500200448e-13
-1.223128909092901862e-13
1.636971430293881761e-13
-1.407677908217766215e-13
1.090343075864792248e-13
-8.182573011580771120e-14
5.252463212675170796e-14
-2.436999906309261314e-13
1.559367899912692155e-13
-5.300266799814438048e-15
1.183581277422106023e-13
2.536804570070689361e-14
1.066319548840069565e-13
-1.361947838759849804e-14
9.932233723375364980e-14
-2.016990211891860179e-13
-1.443973457741246178e-13
9.693299178728052769e-14
-5.234736963604169884e-15
-3.056460474561169028e-14
-2.399859536630444299e-14
6.703715860690934664e-14
-7.927863011177603489e-14
6.818389325974125587e-14
-1.223619912447123489e-13
-5.441429837255132073e-14
1.316026649002528761e-13
1.431335956202309005e-13
-1.465944388565201349e-13
1.120527745493506604e-13
-1.388486022449188906e-13
9.794166911724826342e-14
-2.537065871617564220e-13
-1.492608706951877945e-13
-6.800547686253935171e-14
-2.224474150412977516e-14
1.902138531992683963e-13
1.207863327535620048e-13
2.105035010205236679e-13
1.612188896476286362e-13
-3.779433881593099287e-14
-3.558481976048467132e-14
1.428288496011664169e-13
5.394161014182852799e-15
-2.097644611997903386e-14
-1.784008714093598188e-13
-1.422449050505435255e-14
-3.729143016801410800e-13
-6.094338178091715844e-14
-1.309263917521399256e-13
9.253715932946346849e-14
-6.395700370599425056e-14
-4.396567062752460442e-14
1.799912362632404133e-13
-1.401694264694417466e-13
4.230984693312012707e-14
-2.532329129913804607e-13
1.198900546485504323e-14
5.481696915876620572e-14
1.148902170613856803e-13
-1.200760469143655923e-13
4.271042592406851624e-14
4.250963953774373665e-14
-2.569602519905046907e-15
2.004417335982515238e-14
6.193436060283317023e-14
5.316212534031015798e-14
-1.330803236719951865e-13
-1.597830290856724455e-13
3.348323508702047496e-13
2.565098250026123887e-13
-1.859488420324037042e-13
6.015508815181356143e-14
8.383395299326428519e-14
1.003886639567297450e-13
1.875870066198527652e-14
-1.238424388967014052e-13
-2.437379650075590783e-14
-6.562086119408381941e-14
1.795403842597289865e-14
-3.585798148183674772e-14
-1.759361785896567960e-14
1.360921798184977874e-13
1.644189690507264550e-13
-1.578111185775349381e-13
-6.145278915644697262e-14
-1.056614088873251856e-13
1.635055899853711370e-13
-7.932342681625339173e-15
1.936042878799780959e-13
-6.381116452994384423e-14
3.473945595980684643e-15
-1.802038126705026635e-13
1.740361000957084965e-13
-4.844980563045376215e-14
-1.984366872000840623e-13
-7.916072048519226681e-14
-3.079664065453484070e-13
-4.251198141978470718e-15
1.502986095193835891e-14
3.849108089867805817e-14
2.001672111723514139e-13
-4.021442378263333298e-14
1.078868674661357103e-13
4.171924850622198963e-14
-2.583034660456972880e-14
-2.774884173537850198e-13
1.265987785990700502e-13
-6.733763356291512203e-14
2.399146333529977636e-15
-1.697504848452701118e-13
3.781197339293380364e-14
1.443435638302611104e-14
3.930585796980185830e-15
-1.801015779239884276e-14
1.401895413650459589e-13
1.290999792665808489e-13
9.699216218495265563e-14
4.437403653447168818e-13
-8.019810035998366392e-14
-5.070859602013622956e-14
-1.355912923467987034e-13
5.825356404762569745e-14
-9.185747444249741339e-14
-3.605370763503627315e-13
-1.621181377411123495e-13
9.653816269400965290e-15
1.349210403690423684e-13
-2.080281337573285064e-13
-8.183042731295445807e-14
-1.861925765757632108e-14
-9.734231418748921974e-14
7.097055898722973649e-14
5.345657872582793084e-16
4.292540609009693385e-14
-9.689837541666341007e-14
2.053017232110040279e-13
-5.010616599536888460e-17
1.728354620311771414e-13
-5.865593620709375816e-14
7.883713293702503224e-14
-9.077472418149870243e-14
-1.270541439847103459e-13
-9.411058766982537057e-14
-6.128400296421049198e-15
-2.922570409242199313e-14
2.056585618562246328e-13
-1.534821881549503342e-13
-1.456837267390168507e-13
2.271677863541721040e-13
8.134160706604006948e-14
-2.513815560707182704e-13
6.644177621438529606e-14
3.171081038578803712e-14
-2.865262929969949540e-13
-4.937846334784805755e-14
-2.332214100755554544e-15
9.772512005629821209e-14
1.275333368733978329e-13
1.279304416194281704e-14
1.380827949816327546e-13
-1.954405814544830201e-14
-1.145729993861353538e-13
-1.248191394457742429e-13
7.250464049250182132e-14
-2.616374766289009253e-13
9.056412127632306000e-14
-1.478529036063550542e-13
-4.799712478214953942e-14
6.752575492211432817e-14
1.627331297958022654e-13
-2.593008306546839000e-13
-1.077161490495541341e-13
6.555295702524506189e-15
-7.964507538263427171e-14
1.151243249104223989e-13
-2.787695745086347633e-13
4.834151911361513340e-14
5.690860970335306438e-14
6.557794908786003330e-15
1.472735115073403717e-13
-1.642875007023271507e-13
1.481259678962476151e-13
-9.391953015749494525e-14
9.694321502315865591e-14
-4.331800278247816721e-14
1.088070907601738324e-13
1.042811800617321529e-13
-1.956170616000753797e-13
-2.064208162984570517e-14
-1.235018914353966757e-14
-3.178330444713462483e-14
-1.009666123817709411e-13
2.473767676314672863e-13
2.793810158328870100e-14
2.077708528170562635e-13
-7.604584232624335359e-14
-1.418701926024281287e-13
1.767006507293794964e-14
-7.525591376664829555e-14
3.193553421708362299e-13
3.279176218293295940e-14
1.540025994009555495e-13
-2.996088643200640683e-14
-4.356613424898294787e-14
-4.130177194834107388e-15
4.752856502360513540e-14
1.135161207285207672e-13
-1.632140375872140777e-14
-9.097084061570577531e-14
-1.426825369053639749e-13
-1.024538438247212288e-14
7.655545321609653853e-14
6.118783018096430210e-14
-2.380661919580534617e-15
-8.018653864668735871e-14
1.960979440013959711e-14
7.640074941976966736e-14
-4.919329396704643532e-15
1.501392707933593721e-14
-2.010938293047941410e-14
1.223228985245186884e-13
-5.854939343480280369e-14
2.479003067277717546e-14
5.270083939277558577e-14
9.693947921801208683e-14
1.998701329481139355e-13
9.024962732750624941e-14
8.006287099576516342e-14
-1.964432616399909439e-13
8.102364549229955153e-14
3.064712299921768211e-13
-1.109005251054628772e-13
-1.362214339575717344e-13
-2.868061294693674177e-14
1.364523547478886885e-13
7.011365651416497427e-14
-6.375015024865056457e-14
-4.808767741135576173e-15
1.385622234324118986e-13
8.987095901141549636e-14
3.245303207070867250e-13
1.343731382805862018e-13
4.724129029200983661e-14
8.213561985416138851e-14
-4.662893708516952037e-14
-1.306434989288543077e-13
2.297576367615139314e-14
6.554549072328364289e-14
-1.864284001550317712e-13
-6.979378259211209049e-14
-4.933750772362817494e-14
3.549336387270780987e-14
-3.480173540181317846e-14
5.947085009502329071e-14
1.310910314982653046e-14
1.416738809412887991e-13
-2.286347955575554853e-13
2.214139279113682964e-13
1.894201344365793067e-13
6.723033035132630548e-15
8.689184505131694034e-14
8.104294675294964777e-14
-9.851171646532493568e-14
2.200144647086920879e-14
1.039744371896557935e-13
4.139564633900329981e-14
1.404704603143555921e-13
1.269274584654034496e-14
1.078940784735955310e-14
-1.025888091755529682e-13
-4.870713982868510190e-14
-6.142440656073349585e-14
2.278753184794711543e-13
3.213474578975356948e-14
-1.335366949741740571e-13
5.325805479917923285e-14
-2.565425174945736426e-14
-4.080236035743480176e-13
6.411466939518906186e-14
-2.074612425366246857e-13
7.729055286824658418e-14
-1.284376228156765644e-13
-1.948515757549271112e-13
6.605063020697423738e-14
-1.996441927391034449e-13
-5.968496452600569295e-14
2.730754268382649910e-14
8.180242127170675764e-14
9.952649744475595330e-14
-4.847663491292343224e-15
-1.112191076493541056e-13
2.570473700419966390e-13
-8.096717732701684011e-14
2.409835153982685612e-13
-6.046336498329560716e-14
1.551632393166184205e-13
1.429616501197969694e-13
-1.396973040911265422e-13
4.747074324787532833e-14
1.009304384573578890e-13
9.366054994232923547e-14
-2.658069360917252136e-14
4.034588478790280765e-14
-5.273579944991372548e-14
-1.565698784003093142e-13
1.314771438985145671e-13
-7.478089406260279079e-14
1.843540755825526211e-13
8.049546627631936427e-14
-1.192694874495881911e-13
-2.153824298002089826e-14
-3.826483992605606504e-14
-1.163621919873575562e-13
6.699767327122916135e-14
-6.394921638023184986e-14
2.180157236689835905e-13
1.150265386214289473e-13
-1.176049849303589338e-13
-2.538722804293710991e-15
-3.029818258059161091e-14
-2.090390916942216832e-13
1.244281649021359879e-13
1.269071110964353884e-13
1.236592918417952217e-13
-6.105966578174450675e-14
1.428307668745040720e-13
-2.802578650794369010e-14
1.249482014227840848e-13
2.421778626548056723e-13
1.872054669075469600e-14
-1.896171825730979498e-13
-4.234222162434473040e-14
8.564425098361161022e-14
1.629914682450245981e-13
-1.514897203433000669e-13
-2.545979105825005339e-14
3.117721581985106834e-14
5.812157118349375182e-14
1.216447220543822232e-13
-1.267241732465244238e-13
-5.658234210110310674e-14
1.346777495699614025e-13
5.242117082479176167e-14
5.990962828619366046e-14
1.503582110181301721e-13
1.390291906780714899e-14
7.054829126772719684e-14
-4.202992258224432499e-14
-1.797112569755626979e-13
-1.730637089416445930e-13
9.930216072858204563e-15
-2.666397047874262354e-14
-8.746370395983369171e-14
4.249094659849869411e-14
-1.189521395884719972e-13
1.487614202747928412e-14
-2.608473871752298756e-15
-1.122337093520740744e-13
-3.070709224141550007e-13
1.946114627384889104e-13
4.230695294169181749e-14
-3.559627170587093653e-13
-5.697654421192073385e-14
5.261528694800453418e-14
-3.048263557535002652e-14
7.753983422065113056e-14
-1.300415152920381805e-13
2.340474221376602803e-14
-7.146133860925382866e-15
-2.445952021592410585e-14
-2.953240583322235693e-14
2.669053777709420130e-14
1.246240066140670762e-13
-7.083106758012162329e-14
-5.441269247296342996e-14
2.145362194889283585e-14
-1.605363738592408661e-14
5.152160326361489777e-14
9.597321138952767853e-14
1.725200386819183889e-13
-1.555848948185879237e-14
-3.042773505924976759e-13
-9.302766011606243298e-15
4.728180330499498705e-14
-2.497968082964943368e-14
-2.047439262926497067e-14
-3.250155432479718631e-13
6.787347475584761722e-14
-4.329503592639171698e-14
-2.018999654290057621e-13
-1.164335970768635441e-13
-1.155528014727017281e-13
8.133698717611070124e-14
7.504233185669165109e-14
2.023908306540031250e-13
8.657138660063024326e-14
-1.805983645959514202e-13
-1.882891328689526561e-13
1.510799709254267293e-13
2.093301479114450004e-13
-3.176631320019759494e-14
7.466352361330057722e-14
-2.010735237240177491e-13
-2.597338439025510502e-13
-1.568652035681224562e-13
-4.772501188452961179e-14
-6.966283088384303830e-14
-3.074630446419642552e-14
-6.560606951900734636e-14
9.076368263746375778e-14
1.907392905247577636e-13
4.836463248581508096e-15
2.712347080151723140e-13
-8.476492085655593177e-14
-7.016080887489918167e-14
5.180651635638478125e-14
-4.740584124538150909e-14
1.572698621005671512e-13
-8.566054496979026957e-14
1.767295373832366517e-13
2.594436898278993612e-14
3.427786685498013582e-13
-6.201193434860785562e-14
-2.708260636460715670e-14
1.946102316776502479e-14
-2.914143921284818227e-13
8.047064443497058967e-14
6.424744657994655287e-14
1.460638976060657440e-14
-2.063518508846825210e-13
-2.066411582767560053e-13
7.838004903622411437e-14
1.570195284267656017e-13
2.130417163216660873e-13
-1.196429167011310536e-13
-1.377283488337832186e-13
-3.633464641548667543e-14
-2.639838676962578930e-13
-7.868905087991727453e-14
1.138104431415467375e-13
2.184046704112080354e-13
3.729888752371299885e-14
2.191998229565418701e-13
5.489809817943083047e-14
2.556876841891938621e-14
-2.290682659212941537e-14
2.497727969660433120e-14
-3.405174891111501996e-14
-1.882755373699466610e-14
-8.843756689272011944e-14
3.461011291092107766e-14
1.930500728636208569e-15
-1.976916036385244480e-13
-3.216079365405333718e-14
-1.143290973063232302e-13
-2.736668674816395422e-13
6.465330186588769461e-14
2.082615157002713705e-13
3.166275228824587485e-13
2.087600637444796978e-13
-1.163506882753377564e-13
1.570283876781617656e-13
1.496334262063967758e-13
-2.656005073245455705e-13
1.150796197701905993e-13
8.379920720137723525e-14
2.175335117784500057e-14
3.856303817578230222e-14
7.790643107476055457e-15
2.180483700832705597e-13
-5.368434084396818415e-14
-2.671456653352412918e-14
9.872666594297844936e-16
3.683239284591407524e-14
-2.355936634841690346e-13
1.854517915884073045e-13
3.022330095483182678e-14
7.604262789875130935e-14
2.636404514763025849e-14
-2.491103762026734559e-14
-4.746499874234846396e-14
1.284212985232310574e-14
2.031621839498596351e-14
1.543583609588925684e-13
4.623792509628985308e-14
-1.783586456774777790e-14
2.654315639076332051e-13
-1.709483790406911003e-13
-1.790698002114111118e-13
4.737955818245258417e-14
-2.837590018542687810e-14
-2.371096652528425317e-13
-4.171804229387534718e-14
-9.495307834249291387e-14
1.511338499491406448e-13
-8.300751286598975224e-14
1.403761134114767047e-13
6.143296037498872341e-14
-2.756855859638984462e-14
2.828838351172066590e-15
5.727451822089335893e-14
-3.083846931857079057e-13
4.370069646733014302e-14
-5.065543064690451247e-14
2.402259792903292883e-13
-9.236274173117519507e-14
1.526617609867186444e-13
-3.360274337289944247e-13
1.088447544631359042e-13
3.689100617410925356e-14
-3.300469394413778564e-14
-1.615242237233887185e-14
-3.481436610387906736e-14
5.651886406295607755e-14
-1.793739669839737124e-14
-2.388655741451211974e-13
-2.482680584419015536e-14
2.985885951832161635e-13
6.259277055752129920e-15
3.885314353478431541e-14
-5.852991797687586773e-14
2.325599543852544075e-14
2.377589714023907315e-14
-3.490005617993680993e-14
1.153434905213900614e-13
-1.233355123413433022e-13
-1.739581428058720890e-14
6.748190964891056585e-14
-3.567531539851846567e-14
-1.635266258817762813e-13
7.459153681490752909e-14
-1.312297883731710930e-13
-5.976632946428345981e-14
-1.106515505249588482e-13
-1.479479124345732937e-14
-5.737168631531068133e-14
-6.341152874361068953e-14
9.098785671279927128e-14
2.355080307629185511e-13
-4.776866180904836940e-14
6.983369408890839305e-14
-4.748797715994920319e-14
1.322000218179106988e-14
1.506826036257822901e-13
6.719846742196578773e-15
-1.089679908695685173e-13
-9.752791950792964347e-14
-8.240553870429942858e-14
-1.777621205954758019e-15
1.146417604560721350e-13
-1.815533599073617993e-13
-1.385956518261919407e-13
-1.235310226349319889e-13
-2.337438699795127336e-13
1.771609344996207204e-13
-4.860671444370238822e-15
2.539694393596497985e-13
-1.903099540242294849e-13
1.729199981906257484e-13
-9.374959128187592614e-14
-5.443001693162908282e-14
-1.321388264844433464e-13
-1.269144657450601005e-13
-1.768700219199353298e-13
2.890496513285961061e-14
-1.755947657748581129e-13
-3.230795049952734278e-14
-1.229448894193120616e-15
8.906806817970022978e-14
1.341367153440062409e-14
4.293341206391182323e-14
6.873223749936295898e-14
-2.304945415291275993e-15
4.854812245443337389e-14
-1.309036694416226789e-13
-1.036131809190875733e-13
2.535327225350852691e-13
-1.567847364297386350e-15
-9.493235544882095219e-14
1.843703375884275148e-13
-2.095626222717464956e-14
-8.637981375303738964e-14
-1.936045743955365492e-13
1.041504977208079405e-13
-1.451442729397597867e-13
2.083394815586359837e-05
-1.684545682229712359e-04
6.920592307845977809e-05
-4.700201825895973480e-05
-4.574427486240970662e-07
7.763073978036902732e-08
-9.088528524792778476e-05
-6.167097105149204792e-05
-6.674457663758144436e-05
-7.543691880461194342e-05
2.170577370284499952e-05
-1.285383070816455614e-05
-9.161021412270957156e-07
-9.655006107955849698e-06
1.091606135857531209e-04
-3.040467384091562780e-05
6.785701217230593967e-05
-1.468824328184951054e-05
-1.645142649790947006e-04
2.108752996479621670e-04
3.090272849457953507e-07
5.504811850727960406e-05
6.319643090463622818e-05
7.296285897268749057e-05
9.555196225517195371e-05
1.533077048499441862e-04
-1.391787572775920825e-05
-5.574287309521523010e-06
-5.475937092289606319e-07
2.977526107946913865e-05
1.594577624439183863e-04
-7.902297226569987890e-05
-3.085862783769417538e-05
9.329279983520653473e-07
-1.051321003355433362e-04
9.402220642868945176e-05
-1.132988862589747624e-04
4.219175231391490309e-05
-6.779100072549591857e-05
1.784291260796998441e-04
-9.593960199909340122e-05
-1.025865462671481169e-04
9.356824110323323419e-07
-1.061545163734418359e-04
2.425209111014597690e-04
-1.313552673576069991e-05
-7.140436676396278348e-05
-5.279553330507773690e-05
-1.141508992645407584e-04
1.274971873309622650e-05
6.741215890316441448e-05
-1.213490102181060445e-04
3.073059776825459239e-05
4.004407989757193469e-05
5.072197286470636081e-06
8.020503417935895046e-05
8.981848259880869333e-05
9.608720793648125582e-05
-1.741585962121174047e-04
-5.048045737340145890e-05
2.257092225620958858e-04
3.536068479609947175e-05
-1.028666364856924262e-04
2.815529407396265762e-05
-1.362804672645677939e-04
-6.172209800481322510e-05
5.492041237492803767e-05
-4.174017658951363174e-05
2.522840722468045258e-05
-4.084622847497695604e-05
-7.041570094519227928e-05
6.728947613035165642e-05
-1.927745508734358645e-04
-9.663104783871651234e-05
-1.527078502488759984e-04
-2.596525989662291441e-07
2.722956706603082343e-05
-1.640842504263646459e-04
-6.089279241762467569e-06
-6.574552745650173720e-06
-2.011474755616572099e-04
1.212287298192269287e-04
1.530378672590970993e-07
6.894978161036138754e-05
-7.605149444590367518e-05
-4.271780291255799133e-05
1.120748588672170495e-04
7.086234032124721380e-07
6.615574110696029804e-05
-2.522489294774224187e-05
-1.163781388010562499e-04
8.564707534796663730e-05
-2.204944017091926113e-06
8.768457003216273069e-05
1.043594372718656161e-04
2.680766339286183250e-05
-9.362708078187811374e-07
2.544901915590947156e-04
2.953285549301168820e-05
1.736281790518170456e-04
-1.522613778261391407e-05
-9.483352221863669811e-04
6.409108206972263929e-04
-2.069139503656324387e-04
-1.423076503214619828e-04
6.190069795433915760e-07
-1.229277850770776447e-04
-3.572966146638224469e-04
-1.223589315656863357e-04
-1.862752101650194084e-04
-7.307702316362556433e-07
9.929022948201317832e-05
-1.261960045245374517e-05
-3.450631632759245456e-05
3.441704847240229979e-04
-5.196269922952909679e-05
4.820349671761720500e-04
-1.442178152167535640e-04
-1.103304844714497182e-03
1.457982494490094299e-03
-3.138819973898299186e-04
7.029747609231657942e-05
7.351745847346060638e-05
1.212984718151224536e-03
5.611127162051780673e-04
9.545985792567095174e-04
1.404813514071483335e-04
5.995157950175098414e-04
-5.193363498380463113e-06
9.151442705135051832e-05
1.642716201505709048e-03
-2.443760590612972274e-04
-6.640827906712904328e-05
1.575143135172144717e-05
-2.216164218358502951e-05
1.408599396642907825e-04
-7.777553924057043757e-04
3.853685959332551906e-04
-1.585529978465867809e-04
1.406764996463709090e-03
-3.172566550863138886e-04
-5.124710672138812909e-04
1.608600595665743037e-05
-1.121323177408154598e-03
1.125855309285776719e-03
2.203666441990754013e-04
-3.841694239353547714e-04
-2.104025413548311842e-04
-5.329291824076530211e-04
5.425888453467145474e-05
8.717956683160986127e-05
-7.861287415955936150e-04
2.895715016527077327e-04
5.979971162773587952e-05
-8.349728455971442881e-06
7.449560283201451529e-05
3.256877104346152848e-04
3.574557016851936313e-04
-1.087705783358820311e-03
-4.612628872696845255e-05
1.119323254663323174e-03
8.383710987112262387e-06
-1.067157503005456733e-03
7.957056289266761047e-04
-5.534806086161993960e-04
-8.937492590208421259e-05
4.509712209374495853e-04
-6.125375142902153612e-04
1.315435262204547406e-04
-2.601291365631671831e-05
-4.590862644488717518e-04
6.021967204993089158e-04
-1.516955641741390449e-03
-2.197036810550428943e-04
-8.128504971243095435e-04
-2.607447013802807680e-04
-9.627364493844841868e-06
-1.026831273045704720e-03
-2.250979038623570947e-05
3.019034204376233279e-05
-1.347911711711205626e-03
7.406570302807476700e-04
1.246882345557520569e-06
1.254987544645710148e-04
-5.502319629117212625e-04
-5.409642654518056305e-05
7.714873142897413216e-04
2.193450673562406697e-05
7.976321473733080517e-04
-1.151389343890920139e-04
-9.785485047338728440e-04
1.337454874563829632e-03
-1.651571142186151477e-04
1.241038651625961874e-04
7.716743320661680451e-04
5.676674306623756593e-04
-1.627461680051235494e-05
1.710327565300589310e-03
-2.559678086005343667e-05
1.078403958950859172e-03
-5.351873143480898596e-05
-1.407752670393383346e-03
1.010029634612981050e-03
-2.936932372055829567e-04
-2.438486694080883280e-04
9.613391250264455928e-07
-9.178799991419719830e-05
-5.327469380672204304e-04
-1.225180322192503338e-04
-2.208936534762891949e-04
-2.976434354924555156e-05
1.874387903113399747e-04
-2.047412714176015053e-05
-4.659215633531410327e-05
4.478250569284048096e-04
-4.932464226167715480e-05
7.388917561513899668e-04
-2.284386713762419515e-04
-1.679127629503273170e-03
2.227484393809963433e-03
-5.395778410104969895e-04
4.845178055083916737e-05
4.328066132436126588e-05
1.987777193737673073e-03
8.383524125955037687e-04
1.438405952260432639e-03
2.595925431239972238e-04
1.037141908394164248e-03
-8.201692044280354472e-06
1.180914592975655208e-04
2.612344843269311101e-03
-3.159865622424321702e-04
-7.354235207524007780e-05
2.583174167322804183e-05
1.000156365975075749e-04
1.184708917908558110e-04
-1.187181786326158527e-03
6.065523186982516024e-04
-1.833161157953996814e-04
2.182121194930345277e-03
-4.189586287862774767e-04
-7.455585928810750784e-04
2.640284077473850237e-05
-1.786730256875368678e-03
1.615407337952246176e-03
3.957882365723463473e-04
-5.661236499839476062e-04
-2.920763882876513265e-04
-7.655116026870128956e-04
7.645750766417228658e-05
6.121172516577589164e-05
-1.190991845593655394e-03
4.570499574693799387e-04
5.012599290586428362e-05
-2.100476352205737088e-05
2.262122646349908230e-05
4.414807810367508533e-04
4.878168187474185699e-04
-1.639665110193288308e-03
-1.293094738651910826e-05
1.626267888376079765e-03
-3.204270920118335774e-05
-1.698005376945500248e-03
1.329846199963866408e-03
-7.717482044769744670e-04
-7.245632064748348507e-05
7.025232381947739456e-04
-9.973656773509290922e-04
1.928235749032864690e-04
8.964970369354504585e-06
-6.961108741302907219e-04
9.460454696383639641e-04
-2.352559839228437338e-03
-2.504784816920186253e-04
-1.195705531694019139e-03
-4.475541329409517223e-04
-5.230162883407118567e-05
-1.548329665534635413e-03
-3.066841986787251711e-05
6.049480008314883568e-05
-2.051186738602138633e-03
1.113040626678189846e-03
1.940832567313019957e-06
1.250150874810292243e-04
-8.452744999821555291e-04
-3.681740037976799870e-05
1.178022448703017807e-03
3.674735028035778497e-05
1.283244476813137809e-03
-1.646491430428530635e-04
-1.528050503060688573e-03
2.184926405225269801e-03
-2.808031956586539801e-04
9.801213917136565774e-05
1.188477381219846772e-03
9.399027690132111300e-04
-2.672605493627047606e-05
2.603665865675948692e-03
-8.275836564138696922e-05
1.624383533685231067e-03
-5.351873128619730608e-05
-1.407752670597808365e-03
1.010029634616575831e-03
-2.936932369902286923e-04
-2.438486696179475847e-04
9.613392254588698277e-07
-9.178799990587471335e-05
-5.327469384523777227e-04
-1.225180322870383400e-04
-2.208936533032196826e-04
-2.976434347038873235e-05
1.874387905190677984e-04
-2.047412723597844756e-05
-4.659215645588445927e-05
4.478250571624480089e-04
-4.932464216180869738e-05
7.388917557504678327e-04
-2.284386717599352185e-04
-1.679127630030679413e-03
2.227484393719671076e-03
-5.395778411463805898e-04
4.845178051492170424e-05
4.328066132791996977e-05
1.987777193954751165e-03
8.383524127092552248e-04
1.438405952168703063e-03
2.595925428972883269e-04
1.037141908434484425e-03
-8.201692169105187559e-06
1.180914592110765993e-04
2.612344843603244503e-03
-3.159865626326198353e-04
-7.354235237825653305e-05
2.583174139880849631e-05
1.000156367405241549e-04
1.184708917949614000e-04
-1.187181786053845538e-03
6.065523186408047166e-04
-1.833161157662744332e-04
2.182121195017728502e-03
-4.189586289136310623e-04
-7.455585930785675998e-04
2.640284075577996700e-05
-1.786730257059151788e-03
1.615407338002170651e-03
3.957882361476133446e-04
-5.661236501142720683e-04
-2.920763881823927512e-04
-7.655116025554620923e-04
7.645750742698938685e-05
6.121172484725881477e-05
-1.190991845713232919e-03
4.570499573404170177e-04
5.012599303576852257e-05
-2.100476356433845024e-05
2.262122625988443708e-05
4.414807808285133462e-04
4.878168190941904432e-04
-1.639665109992652792e-03
-1.293094716856506091e-05
1.626267888520596975e-03
-3.204270909206104504e-05
-1.698005376773978597e-03
1.329846200328145761e-03
-7.717482044277753240e-04
-7.245632079107236121e-05
7.025232377304207803e-04
-9.973656772137571343e-04
1.928235747501080551e-04
8.964970471472705226e-06
-6.961108742781000041e-04
9.460454695868305338e-04
-2.352559839198868977e-03
-2.504784817869650285e-04
-1.195705532002783872e-03
-4.475541329762455930e-04
-5.230162894929458859e-05
-1.548329665830589646e-03
-3.066842008588851814e-05
6.049480021908344778e-05
-2.051186738518387051e-03
1.113040626407430303e-03
1.940832479003397755e-06
1.250150877799435464e-04
-8.452745000310925121e-04
-3.681740024477146543e-05
1.178022448788957743e-03
3.674735002932746187e-05
1.283244476832553268e-03
-1.646491425675267422e-04
-1.528050503053771363e-03
2.184926404969915036e-03
-2.808031958283273375e-04
9.801213931849804540e-05
1.188477380839155634e-03
9.399027687445328213e-04
-2.672605500368975857e-05
2.603665865595129660e-03
-8.275836571913884750e-05
1.624383533866990623e-03
3.888208363275773097e-14
1.436209262554271484e-13
-9.323669890332125588e-14
-7.727202026803072476e-14
-1.132309488472728939e-13
1.048737174164412167e-13
2.182274601590064623e-13
3.457144421612109518e-14
-8.327851051640316929e-14
-6.952716549215765340e-14
-1.486200074590869634e-13
9.769076171565177970e-14
-1.420214430248257265e-13
-3.402236977626403278e-14
-1.561888086066676872e-13
-2.537935748193522823e-13
-3.393718792508212587e-13
-1.189107138753587455e-13
2.913819255314966423e-14
-4.246439360906259253e-14
-2.987258343601568300e-14
-1.431506249776562615e-13
-1.244850685969344165e-13
-1.426592569763378546e-13
2.822363119276138515e-14
2.735939651673513357e-13
-1.822118406251510477e-14
-1.829541037350106018e-13
1.700394309907438804e-13
-1.334217759504055991e-13
7.449378835617937566e-14
-5.914465980184601158e-14
1.083379648772969863e-14
4.586495645428911692e-13
-9.987946805172343293e-14
-7.838832251965364594e-14
5.013645516629359766e-14
-2.932380023366731466e-15
-5.425648208959566269e-14
-9.198041875524547543e-14
7.889784710302609219e-14
1.439518622809123718e-13
-1.272111156675824925e-13
-1.518426019351827056e-13
2.444998514741452394e-13
-1.904198505916351773e-13
9.557807849613239512e-14
5.867326713132450484e-14
-1.473714255328453722e-13
1.014784620227907969e-13
-1.474044009465235277e-13
-1.455785417901654672e-13
-1.856624234935617561e-13
1.114713505699331980e-13
-6.003859143312358485e-14
1.450040341551628880e-13
-1.082455008061553319e-13
8.212711006147465778e-14
1.880488050164577319e-13
-1.149255122409224901e-14
-1.503754802175181001e-13
-4.577204163426648505e-14
1.679168684076164596e-13
9.875278275438469204e-14
-5.157315144150252326e-14
-2.330713878264580356e-13
9.560524688814360023e-14
2.179108025318596875e-13
2.202741313184666049e-13
5.782653631643048347e-14
-2.552404219588377044e-14
-1.050362744374088838e-13
-7.650723101294723361e-14
-2.204286186440836081e-13
2.852045248366287729e-13
-3.602801628691726049e-15
3.185882916228018421e-13
-9.953847150873775015e-15
-2.162288349477533686e-13
2.487298974957852995e-13
-1.148843450325427264e-13
-5.851037081925338503e-14
2.202683876752057118e-13
1.949115347830559880e-13
-2.707281703437859989e-13
1.409313159078818861e-16
-1.455763915026805425e-13
7.203604888573831912e-14
2.421310013198127327e-13
-6.914353429731125323e-14
1.995144589305657367e-13
-1.240792466202063154e-13
2.902442799728816834e-13
-1.103183592165635759e-13
-6.190812510658388176e-14
3.967746040817127129e-14
-1.871380768401301658e-13
2.070483867290383759e-13
-1.429685131920192503e-13
8.203210804398840270e-14
-1.722449471065762496e-13
1.466846413262242862e-14
-1.406437266302177165e-15
-5.187415733187288052e-14
6.536620168001754972e-14
-1.492236680428263778e-13
2.033415407724410069e-13
2.704966389405802782e-14
-3.729741111756940641e-13
2.679697446958803455e-13
6.048857099654366719e-14
2.075770102476090550e-13
-2.364108119992765056e-14
-3.023155502355468225e-13
-5.607989891560725505e-14
-1.638192805659997539e-13
-5.141769625873591663e-15
-6.449873971517326560e-14
2.792682508580595743e-14
-2.357484250747043247e-13
7.186045722415728029e-15
-6.140625547608859970e-14
8.464522476203524142e-14
-2.261141654365312992e-13
-5.679514517044398670e-14
2.215842450487159730e-13
-1.578057372964477081e-13
9.861380473946900381e-14
1.777733420361938728e-13
-1.348127468657057138e-15
1.320781907717332722e-13
1.391502092458627504e-13
2.097402484587454908e-13
-4.914728237514517735e-14
-1.500465359262299319e-14
1.074415254473458199e-13
-9.962797853047240469e-14
6.420214543733104593e-15
-9.333834683118577072e-14
-3.111909215185643065e-13
4.474912495780230135e-14
2.274673340958847197e-13
-4.971279804084002789e-14
1.126325443822071017e-14
-6.054085778315705310e-14
-9.900257371021995955e-14
1.818536956323605573e-14
1.433578883156831093e-13
2.960661892069358030e-13
1.104282783722157100e-13
-1.284510113423542974e-13
-1.906682987449929691e-13
1.746099758985090984e-13
4.231734215709725876e-14
-8.156602193528712378e-14
-1.411186677837330846e-13
-1.079224686943793815e-13
1.648019996095510942e-13
-2.987509974541716690e-15
-1.871214460508205340e-13
1.165881775541006505e-13
4.143383804016715327e-14
-3.889913649046287783e-14
8.119885319837058124e-14
-1.105896031245487811e-13
1.287904953869939984e-13
-1.903803985047514856e-13
-1.207119839353278894e-13
-1.839699171593822714e-13
-5.565783981260981262e-14
-1.012055488502005822e-13
-4.845432592816977974e-14
6.370458425267301839e-16
7.405552310235218465e-14
1.957863702650540408e-14
3.365181163789248802e-14
2.143590516565593973e-13
-3.560668913306319790e-14
-1.948531094982892158e-13
1.271172844870936157e-13
2.452966287984522937e-13
2.502426460319286960e-14
1.121729564666620797e-13
-8.759912354978161369e-14
2.480870083535845371e-14
8.511506906319882050e-14
5.058274045620449943e-14
-7.211079628568584129e-14
2.178738635334569277e-13
2.309053109779483235e-14
1.242868723912642817e-13
5.421747841455075504e-14
1.167345152649996327e-13
1.246950732549519040e-13
-2.888120758577299713e-14
1.113905956949505795e-13
2.886656667705225585e-13
2.670919636939683671e-13
1.020861123033161754e-13
2.254397754830667812e-13
-1.747623963506704094e-13
1.967317618908665935e-13
1.000444417976404831e-14
-2.387583755570706051e-13
2.207433530116464873e-14
1.304461916749873567e-13
-9.299856938866152564e-14
2.588265857019243909e-13
1.802747922713030168e-13
-1.703721994287294676e-13
1.348279022266079348e-13
1.496104275335541684e-14
-7.371183007547132715e-14
-4.230620562655437706e-14
-5.945726060089338261e-14
-1.625100118195061299e-13
-5.990193963329180467e-14
9.255246661879594104e-14
1.905248513202182772e-13
1.948534298213601116e-13
-7.660863175919833574e-14
-1.566585164191565093e-14
-1.148234565131459341e-13
1.376220541994820662e-13
-2.202151866733251605e-13
-1.821519096363230142e-13
-8.495758970139601886e-14
3.360020231883635280e-14
-4.290964847907921994e-14
4.417778283892988420e-15
6.351258779055191557e-15
3.116927929489141412e-14
-1.382180354380874261e-13
-4.534298631168216650e-14
7.717670302960313454e-14
3.744234842563197401e-14
1.460803312379382879e-13
-9.970550441949145324e-14
1.210885980770522017e-13
1.959606037234130451e-13
-1.905196258099101912e-14
3.553181001770574657e-14
3.008830840346974110e-14
7.157272696101311778e-14
5.183142884853122778e-14
1.963431343264487454e-13
6.859239446247142143e-14
1.155089445107397691e-13
4.429638780490507867e-14
-1.391943881759579147e-13
5.790271628199628014e-14
-3.072518810717856853e-14
-8.485613985351273765e-14
-1.194998328479691049e-13
-9.405987796994794176e-15
-8.116529667492196108e-14
2.725273872793968855e-13
2.133499978233478229e-13
-3.566544355297730239e-14
9.475284557739815590e-14
1.545856026993212518e-13
-2.309364265702550826e-14
2.469486001860816323e-13
1.232062295682079305e-13
-1.358969257064304517e-14
-2.404103340302534700e-13
-1.290644843068777548e-13
4.258156934799338076e-14
-5.855790215590471778e-14
-2.772912225182670132e-15
-1.051955778238166733e-13
3.299216639288457688e-14
-6.123525779225101441e-14
-2.074621900681281266e-13
-4.564808975612783822e-14
-7.643027907936173197e-14
-2.073221318300825053e-13
1.901554317064137986e-13
-1.016142223177949562e-14
-4.367366263702092210e-14
1.002600713332653713e-13
-1.103582426176874324e-14
1.025206504096552136e-13
-1.978351824652897657e-13
-1.385110342697749155e-13
7.284966969546509069e-14
1.993373625212111737e-13
4.009939711073081857e-15
2.891850106143291835e-14
-1.100230755469098088e-13
-3.999831951923960552e-15
-9.472338942057664906e-14
-2.140994696694333645e-14
9.650624675712931391e-14
-2.670614905404481234e-13
2.846307498207149622e-14
-1.074974739326344182e-13
-8.639199776446006025e-14
1.520750447510025519e-13
3.947467505531210456e-14
1.247453561732791686e-13
-2.356637990890464487e-13
-5.481043197664855593e-14
-6.061597163133413976e-14
-7.875565648059558025e-14
5.882119460374131007e-14
1.197070453798747168e-13
-1.478804015606053722e-13
-1.286245432234581244e-13
-1.672781915876425558e-13
1.533355401812609006e-13
-6.877544290389954285e-14
-1.354582296651098570e-14
-4.438777249080113183e-14
-1.287573576074653200e-13
4.987263867464417524e-14
5.117749249609942007e-14
1.257736384661935882e-13
-3.011912605676616718e-14
-3.969483728389187292e-14
-7.823350570945783153e-14
1.988355383916862991e-13
1.346243720896450237e-13
-5.396001786317245258e-15
8.671151941200012829e-14
-7.827652927874934826e-14
2.745051979814977179e-13
-7.904113190067256212e-14
-5.073150267688443133e-14
-4.957475368483389953e-14
2.273076552778499800e-13
1.972165181234241928e-14
1.448927667343436453e-13
-1.471042034666362606e-14
-1.620696154416516765e-13
1.036144822016287964e-13
-8.370294026438719947e-14
-1.761721729238573298e-13
-5.559323567186255037e-14
8.439780364899649461e-14
2.357319877208723520e-13
-1.853855360751786226e-13
-2.938234435162609660e-13
1.242813664335880897e-13
4.009084548835590685e-14
-7.528748745727595112e-14
5.589872549344951940e-14
9.746331232175104919e-14
2.554778571800779249e-13
-1.741541857238222065e-14
1.709983524697552562e-13
-6.036061210457591834e-14
-6.809853356969768834e-14
5.662177579753445468e-14
-1.489745121942285013e-13
-1.739590706166383840e-13
1.286954294680468066e-13
-2.622929812285293928e-13
1.514483692033105253e-14
-4.338989270297474616e-14
-4.984046708054427303e-14
-1.780137362286325392e-13
-2.720236876760661752e-13
-8.830617704607217010e-14
-1.556886481437421013e-13
-5.684164916015380928e-14
1.176279526205296339e-14
-9.910904868288698569e-14
-1.433036685632822305e-13
3.875339021847704797e-14
-1.017912638480766615e-13
-1.282062344532010696e-13
-3.997086231670243048e-14
3.814545919750189577e-14
2.817568830636994352e-13
2.155933191458455459e-13
-1.688045245288636762e-13
-1.769373371068633592e-13
8.647103091218225935e-15
7.442247876521631608e-14
-1.759761774576351736e-14
2.902526014686418974e-13
1.572722623895749867e-13
2.191335132159423436e-13
-5.583308142178040009e-14
-1.198350610044965543e-13
-1.430047741729949073e-13
-1.520273279405829445e-14
-1.681323127278649424e-13
-8.468306177243679252e-14
-5.755657591142006569e-14
1.261690196132255183e-13
-6.318247435006628932e-14
-1.880025101167866758e-13
-5.978839049032755510e-14
2.519718940140772587e-14
7.494612517283042086e-14
-1.231459280552554644e-13
8.649793983029640736e-14
1.852983746866640941e-13
6.540594154020129609e-14
3.190630781132906691e-14
-5.987370705428907593e-14
-8.161034941165567767e-14
-2.712277042381251296e-13
8.122976298591169823e-14
-4.731366429375568214e-14
2.038691977585422789e-14
6.697699783186903384e-14
-1.050738866484682970e-13
1.358841720557769883e-13
1.511308060126289268e-14
2.000185081075040517e-13
2.257232301875704254e-14
4.257250402342109639e-14
-3.652682762887489028e-14
1.972685782798048157e-13
-2.810546584486675362e-13
-7.119344841057870826e-14
-4.075927753078045834e-14
-2.044845985253266811e-13
-1.061828613298172581e-13
-2.902245312081412378e-13
2.543827124492489853e-14
-1.877571203760705298e-13
4.941828658241905935e-14
-3.497752204477553442e-14
-1.112616187448310026e-13
-2.076060562386570953e-13
-9.123756894015561090e-14
4.150348052152684776e-14
-1.676141631220954101e-14
8.901904730638387905e-14
-1.053314260363570464e-13
2.145821295796039705e-13
-3.179374644952069622e-14
-1.129293690442553095e-13
1.750547272982830098e-13
1.813889670010830623e-13
-1.204782200175213958e-14
-6.470921467535225137e-14
1.215980958060058721e-13
-1.194686106686730164e-13
1.249540486359757904e-13
-1.853457975311933679e-13
-1.114245222781361741e-14
1.570692368266888818e-15
1.614181823490949516e-13
-2.444081119929535685e-13
3.132386922861263827e-14
-1.612852647007503807e-14
3.885859086177885063e-16
-1.181282790022307831e-13
-1.739504932392679868e-13
-6.188128137699830552e-14
-3.228950108481564438e-14
1.971041651449151764e-13
1.488207140572032526e-14
-5.713645924192764955e-16
9.330836808551115820e-14
-2.153652532057289518e-13
9.654450339334289888e-14
1.223064471497290064e-13
1.212065057057110909e-13
-4.449244287843160914e-14
-1.650458554972931273e-13
-1.315995695973415427e-13
3.306313347985164117e-14
7.171893412260375106e-14
1.705640562467230856e-13
2.032838570082516105e-13
1.164103771250075007e-13
4.533339465657445078e-15
3.539683548885089426e-14
-3.144086743836072625e-14
1.409444782022769792e-13
7.940259589641151360e-14
2.884172791701860883e-14
-1.677649590337236458e-13
1.398479046877211405e-13
-2.040123596776480942e-13
1.645825100768401579e-13
1.315596189978750193e-13
-2.120535373464758413e-13
-6.475480938804862997e-15
-1.658668110215640532e-13
-1.932306775832991505e-14
7.417810445477787619e-14
-1.825667041808199755e-14
-1.822309375839074191e-13
3.484999898204456464e-14
3.467101450102456869e-14
-3.638933513923123124e-15
-1.396444904080419869e-13
-4.673548985016330140e-14
3.587880702845922476e-14
-2.071672170471847290e-14
2.822744595605648410e-13
3.421562434225197743e-14
-2.762606871148154773e-14
6.448151550940529378e-14
-1.477004889973285744e-13
5.621850001495587301e-14
2.160252477829680694e-13
-1.180836217919162691e-13
3.992833963748699440e-14
1.024965291908923030e-13
-2.262539462455146215e-13
2.189773944761732234e-13
-1.396256795596489843e-13
-4.476768570140792572e-14
5.086287425970268830e-14
-3.107884405648034405e-14
1.072830354753920308e-13
2.016564634126845568e-14
7.612636272365621079e-14
1.001744820518469347e-14
1.966790257600886046e-13
-2.692973845321645973e-13
4.864784182309630444e-14
-4.016618587879020247e-14
-1.281395338926187570e-13
-1.084419097077441117e-13
-7.642414502081005848e-14
7.728335331168494736e-14
-1.197349645616304435e-13
-2.180349973884575474e-14
3.677691592196074414e-14
-1.544291620811944528e-13
1.486245987308851010e-13
3.235565914984316789e-13
-9.005769152348071540e-14
1.228503927438420464e-13
-4.137730414428915558e-14
7.126499771742825683e-14
-2.427823479955579637e-14
2.951066176282467182e-13
-4.333505132551001291e-14
1.060796794285079960e-13
8.115220934154220085e-14
-1.448315148403179283e-13
-2.886407727634729705e-13
7.737376664309678357e-14
1.128389142298623754e-13
-7.171099387969844907e-14
-8.462729342118012288e-14
1.305139279481145769e-13
1.139499070432558379e-13
1.277178543080220674e-13
3.492679435468509590e-14
-1.053242366508720751e-13
-1.627374694086226195e-13
-2.663095951404261588e-13
-7.707051294293714921e-15
2.564265134040177903e-13
6.385307921371437993e-14
-1.065435883906245937e-14
-2.031919539732517887e-13
-8.924435508016991295e-14
6.598862178370497466e-16
-2.969148236573872544e-14
1.213662835377816109e-13
-2.119197742239059223e-14
9.290214385326169160e-14
-1.526108117297012330e-14
-2.535542152130632473e-14
1.682370137727064721e-13
-1.004742030786811703e-13
-3.781963399390385929e-14
-1.727269388807594349e-13
1.292566653897722516e-14
1.428995816656141195e-13
9.104437285247928512e-14
9.807375633460387057e-14
1.407004901017598977e-13
8.353747895608996610e-14
1.013135616922042481e-13
5.394291512299064172e-14
-1.303249038198270921e-13
7.029331397172933853e-14
1.263830208058267655e-13
-1.191710119869110489e-13
3.153140533218108384e-14
1.446782516331907934e-13
-4.990142990550723876e-14
-1.765174380655994347e-13
8.221758398484619501e-15
2.129376218834341119e-13
-1.219816703042864875e-13
-1.408151741616814894e-14
-1.003477398019586654e-13
-4.796281266010404127e-14
3.136857077911687169e-14
1.973219722719000175e-13
-9.575318902462351296e-14
-9.468574795400496037e-14
-1.165779495419995481e-13
-1.461449750293875456e-13
-2.050563733690116146e-13
-1.137399703307740435e-13
-1.413806244993207313e-14
5.460160050215777865e-15
1.566548308593113542e-13
-1.097767701275503656e-13
-1.042101237267008510e-13
-1.011235379444544952e-13
2.615426251929050191e-14
-2.117402604052730990e-14
1.038454490279767937e-13
-1.054397247504125717e-13
1.220235491709857956e-13
1.259323120977637085e-13
-3.506918159966962953e-14
-8.317929726658674462e-14
2.420660389493074928e-14
-1.057594559069352317e-13
2.661850929034774721e-13
1.882442060093256119e-14
1.058806436020405844e-13
-1.693024157921609401e-13
-2.339245369780953513e-13
9.182792079550631428e-14
6.892933831233013448e-14
-1.016269283251375694e-13
-7.572877741744364137e-14
-9.084955001740042057e-14
3.044071094301332462e-14
1.234389518899017394e-13
-2.064139047264961671e-13
6.396672738224311344e-14
-1.168004531994644064e-13
-7.093958352382331007e-14
-2.143628112206625263e-14
-1.819083970993221408e-13
3.799880799602200259e-13
3.240092962272088794e-13
1.005132749293558047e-13
8.765236769330361582e-14
-1.394402247387286252e-13
3.176454809378045796e-13
2.447430610024322457e-15
-1.648728401489191504e-14
1.608695818074387624e-13
3.484636314931471763e-14
-1.037645883962835170e-13
-2.925081959296159285e-14
-5.025007033529721244e-14
8.638861979458896403e-15
7.408291369517479733e-14
7.118368698500965307e-14
1.738579073969469141e-13
-5.482240403161472731e-16
1.280107174606225143e-13
2.280327582270296847e-13
-1.638129535152627669e-13
9.520892017079835495e-14
-1.432778555652762526e-13
-2.013653762290851601e-13
2.117319594086294738e-13
1.517157851858270829e-13
6.992959769832268432e-14
-6.372438842105950407e-14
2.008958100331179629e-13
-1.826718215184870843e-13
9.004591898495667008e-15
6.482618472061705856e-14
1.719773054231669661e-13
-2.039510757562527719e-13
-4.094101057675354775e-13
1.541501082214647262e-14
4.241249672900876413e-14
2.320599820396183374e-14
-1.172118673827197539e-13
-5.900471170274482571e-15
-2.057750809152051302e-13
5.619688028808025464e-14
1.192617007748185860e-13
-9.780921193609170705e-14
-2.677533167594954673e-13
-1.734056544628709924e-14
-2.652228709971604028e-14
-1.077016829101067513e-14
1.741750465897063097e-13
1.851820238375604899e-14
2.784665772045474200e-13
5.087239763900008972e-14
-1.452689025638488250e-13
1.514658600617443556e-13
-1.207121108350679653e-14
-6.530629796092677170e-14
3.733174271718019989e-14
1.533664635682567293e-14
-2.082489478034112517e-13
-1.135070258460580032e-13
1.539234248232723851e-13
2.350631014979892480e-14
8.537703600525555715e-14
1.363059838143208412e-13
2.395169876203438244e-13
-8.539180649084628770e-14
-9.398295047112183709e-14
-1.235267981788567171e-13
-8.022819157369299068e-14
-1.219337495993708277e-13
-2.004297701959365881e-15
-1.446133980835415774e-14
7.766117637722607491e-14
-1.590868666986119390e-13
-8.735966658640430066e-14
4.802878712314322153e-14
9.334867721656664642e-14
-3.095309347238160957e-13
-8.044465595127124487e-14
-3.388706278891529254e-14
-2.727253906824466484e-13
5.995234526579373222e-14
1.608874789346626925e-13
-2.596239675178197409e-13
-2.090953314335868335e-13
1.272242171341324345e-13
1.516964459032163807e-13
-1.700597811242348561e-13
-1.319592843328340250e-13
8.810713737886802623e-14
-3.247120812440505894e-14
-6.965482014602036404e-14
2.129979910695332957e-13
3.978991882694555317e-14
-2.431026040756745101e-13
3.384611246075045759e-14
-1.877611442660343114e-13
9.914864475217140445e-14
1.312074348229908128e-13
5.859772548204373996e-14
1.239690927992975100e-13
2.624539036848428854e-13
9.709412431670995314e-14
-4.969880335860408842e-14
-1.460799672421027565e-13
2.998960829514558795e-14
-1.382948883606416219e-13
-1.922355354967018883e-13
-6.170924663438238232e-14
-2.376069923300016663e-13
-1.737606223534086105e-13
6.696117025916456490e-14
-6.350043588789072756e-14
-4.097043825517107427e-14
-3.462736035846937103e-15
-2.611060603884609719e-13
2.488197328007854383e-14
-5.117314163088327297e-16
-6.040186595371724534e-15
4.580883450535808930e-14
-2.892631645089126050e-13
2.554458922642060461e-13
-4.053175018772994302e-14
-1.916300592320047829e-13
1.490187757761796934e-14
-1.698449423429196708e-13
8.870949185113766030e-15
7.223166012804697086e-14
-1.762221865319140683e-13
1.129602337296251076e-13
1.751566429116202085e-14
4.664223071537305911e-14
5.398888185628984344e-14
6.846802867778190520e-14
1.496952619199428012e-13
1.149681772256124596e-13
6.505770985981872120e-14
-1.021259566272067950e-13
3.825764980223412310e-14
-7.453404779087643463e-14
-1.935726040878983534e-13
-5.528501752284326891e-15
-1.219635894120067998e-13
1.516700115319257057e-13
-5.038450708300408969e-15
6.047682170514059724e-15
1.035778647654185135e-13
-5.586692622870272050e-14
-3.428449144875583149e-14
1.556155830705850182e-13
-1.848778945812312800e-13
-1.158367667884086451e-13
-1.786328240533926442e-14
1.048582909130673697e-13
3.337560226312288439e-14
-1.546596699973229627e-13
-1.228940557210718310e-13
2.264024322970284622e-13
4.225778934351974434e-14
-8.263198620873427997e-14
-6.470592830956061608e-14
4.997470812536652598e-13
1.790781823664573863e-13
-2.186547290227995522e-13
-6.129844854772607198e-14
9.657873996980924868e-14
-3.680794265212038181e-14
1.521926947842226181e-13
2.357272471504224898e-13
1.010169496815923189e-15
3.938112571504165363e-14
-2.253552843351659348e-14
1.179537159100040516e-13
2.004099838961276974e-13
1.248476700098477822e-13
-1.447002355862677617e-13
1.007929557780944529e-13
-7.732923567175174202e-14
2.336044504138496870e-13
6.363786284705834293e-14
1.413800953304213838e-13
-2.813814534632663206e-15
-4.320775882002878322e-15
5.755763057076940951e-14
-4.115465627482324974e-15
2.109639320430676813e-13
-1.526126421783908184e-13
9.158076855119845800e-14
-7.838556430548050194e-14
1.150472488717903461e-13
-2.401186511780883786e-13
1.718436006093740325e-13
-4.133579021508819334e-14
-1.648351682057682647e-13
9.575857154255418215e-14
-2.562394113445154939e-14
3.702943995114413473e-14
1.640649603161658333e-13
-1.457975952588141102e-13
-9.838979526889992867e-14
1.074346380650866231e-14
7.582761770088236316e-14
-9.401233435625220167e-14
-1.059747804046030470e-13
1.030606707982439678e-13
1.314272266663183268e-13
1.866943218571620056e-13
-3.943401135404279948e-14
-3.450209695830985404e-13
6.993191466777043530e-14
1.015370527384298002e-13
-1.959871138821635254e-13
1.207600497367264971e-14
3.678485381331409052e-14
4.547595717704075990e-14
-6.208937170993591125e-14
1.114778632012714024e-14
8.022070315620569653e-14
-2.373204341111081203e-13
1.217327506971313256e-13
-4.888065065992793153e-14
1.021476678470432806e-13
-9.387942939521077655e-14
-2.287145901597815534e-13
1.578158692865646248e-13
2.192776576807291658e-13
-2.485916925438961704e-13
-1.726653723664602828e-13
1.258278846620586912e-14
-1.402085185819957942e-13
1.015797615010503114e-13
-1.064983554107527422e-13
-6.915565348912954295e-14
2.825052860086938370e-14
-2.910398913890074976e-13
-4.274591965951146818e-14
2.691839287847918670e-13
7.841562047749668708e-14
-1.334943410906703996e-13
1.397615551933090458e-13
2.756690604457481323e-13
1.703126897262061618e-13
-7.811179606559592962e-14
-8.786360479594102512e-14
-4.950064324826267571e-14
-1.401675052535504075e-13
3.903618926935950165e-15
-1.343734910581238478e-13
-1.169436420903971162e-13
4.286566187192531731e-14
-7.530741556501516239e-14
-2.730853402046669139e-14
2.870252314241427876e-13
4.919902916701693591e-14
1.590430415129034498e-13
5.851169641909643442e-14
8.056602965280836791e-14
-1.802677814068172982e-13
-7.308273435979514487e-14
-3.504061126829953795e-14
-5.967527047523773880e-14
-2.711127936614017533e-14
2.136500311840772065e-14
-2.974398355205440713e-14
9.213878711838743244e-14
-3.310904798247978883e-14
1.448304247313624865e-13
-1.749721413215273695e-15
-7.945667032795843562e-14
-1.672024761864826719e-13
-1.027999019776326315e-13
-3.397929955609372235e-14
1.606111431686178312e-13
-1.699392540177868837e-13
1.389782629134001832e-13
-1.226091871823115444e-14
-1.110921392735234548e-13
-1.762481613058135575e-13
7.335306245625387505e-14
-2.546981030803473736e-13
-6.166428115305152857e-14
-5.883822053510406428e-14
-2.179567398673296756e-14
7.765405112484226047e-14
-8.212421583548249602e-14
1.607935158762401817e-14
-1.627204565665487758e-13
7.708432144332415529e-15
8.128438285630489186e-14
-4.699071990083988137e-14
4.925864796070350636e-14
1.398027231352812898e-14
-4.600161697521433626e-14
-8.126024810336892690e-15
-2.605738719350381100e-14
-2.637858020819162917e-13
-2.003081302304970812e-13
5.783482404935422483e-14
-2.790309857969772279e-13
1.547752398121349555e-13
-1.883909277148231503e-13
4.078585121141277383e-15
6.308364817457323393e-14
-8.507628183676322412e-14
1.553373178920675846e-13
-1.831642966741483956e-13
1.211560679825587643e-13
1.984913405956644521e-14
-2.020043990573036899e-14
1.351760562011341245e-13
7.205149467348632698e-14
-1.609342316144129910e-13
1.886367051994569526e-13
1.341472947569265626e-13
1.387008912278109904e-14
2.000024798620356380e-14
1.785390269147404630e-13
2.215539033938939620e-13
8.185933568031101063e-14
-1.553417121148801776e-13
1.606702154960279535e-14
1.095655837105175010e-13
-1.115000948311350400e-13
-1.611198840185230294e-13
7.720701117512218276e-16
1.501330669432194802e-14
5.048309357829299159e-14
1.643843825557961119e-13
-2.916011077172335450e-13
1.334281981343805952e-14
-2.748128393947608199e-14
2.104309031238385253e-15
2.237131339009371552e-14
1.370538046561546377e-13
7.468085961172535090e-14
-6.106118558342770647e-15
1.190728924262334472e-14
1.407715113583497079e-14
-1.776599983102368152e-14
1.766386535200844600e-13
-2.555005099068324154e-13
-1.872585615098064235e-13
2.134655820083568248e-13
7.664772902098545978e-14
8.426212887847509460e-14
1.547491929293734822e-13
-2.696791234987052229e-13
1.922876619876666441e-13
-1.558551499975905856e-13
-1.313070184798188947e-13
1.384558397019250214e-13
-1.544190479558171827e-13
7.093814697813310164e-14
1.907102210237705440e-13
-8.679435194063857107e-14
-7.870895595656450925e-14
8.979196946904756291e-14
1.197605128481008456e-13
4.565904204343519907e-14
-2.112918325300121654e-13
2.151447086623814258e-13
8.317361565117890330e-14
-3.149085499097665698e-13
-1.202235960754879054e-13
-1.416346990904500510e-13
-1.039107623532742768e-13
3.421200992533696387e-14
-9.556454235312554555e-14
1.636692398985658251e-13
1.481421575119900863e-13
9.920880299036320755e-15
-1.407251547847337099e-13
-8.190564448858377165e-17
5.434851822663103399e-14
1.553197931929158149e-13
-6.203587741456133482e-14
1.065191614842703151e-14
-1.331777120464085502e-13
-6.159338626514810494e-14
1.561055436638687894e-13
2.132740495108767789e-13
-4.609313824257491035e-14
-3.529248163755620519e-14
-1.016345988772995937e-13
-2.043746673989963449e-13
4.980576637447252717e-14
6.315772355518086021e-14
8.076218242034858457e-14
3.491580596380296077e-15
7.070968042005219100e-14
2.209722505824414673e-14
1.662763094116223961e-13
5.004835867257304265e-14
1.939177061996301425e-13
1.432818319474929079e-13
4.796939309177857536e-14
-1.659878983269020354e-13
6.911447186431019198e-14
4.285807381722385606e-14
2.563531286394601974e-13
9.918672375252426292e-14
-1.511529042599641756e-13
-1.059371575126198544e-13
1.287948146068976077e-13
-2.580237089125373217e-14
-1.607221305395862648e-13
6.557225850784598428e-14
6.595811449372369563e-14
-1.583875703167203168e-14
1.151207355222652925e-13
-1.392704104266882196e-14
2.491641729444635059e-13
-1.466419306952838392e-13
1.213104861793724709e-13
1.324089544004145997e-13
1.692702502415883747e-13
-1.673563495830305610e-14
-5.518154549331282050e-14
2.325773778855643884e-13
7.302891352697563727e-14
-7.818186856851595458e-14
1.112132911607188046e-13
2.120553680965502973e-13
8.903738664869257391e-14
-9.700060692524321255e-14
1.308642260560651334e-13
-2.054351378760285377e-13
1.037934051986134202e-13
1.307175930034260497e-13
-2.965800207830152878e-14
3.702779236332624235e-14
2.007945106420481077e-14
-7.158943833249016830e-14
-1.145868277587320141e-13
-3.723554064938771838e-14
-8.310911028607213494e-14
2.022692914396912656e-13
-1.810823226012155793e-13
2.403986671006893572e-13
-3.145404014621132293e-14
-1.030210171810773023e-13
-7.271850414123143027e-14
-1.390865041437693213e-13
-2.715246270514196648e-13
1.090270215836083256e-13
-2.052932950687635490e-14
-1.120281286908169927e-13
-1.744766789280567216e-13
-7.520145836360510078e-14
-1.672169928291053874e-13
1.735064682828279295e-13
-2.533679937815584376e-13
-1.280299975297394142e-13
-1.179834668214626585e-13
6.349003000279992330e-14
3.390769507979571898e-14
-1.934628903269502182e-14
-2.301155289560752076e-14
5.318769398631819559e-14
-1.062812385451514735e-13
6.462405177501761080e-14
-1.767386811650069480e-13
7.219201494153593083e-14
-6.777631997617683852e-14
1.507664055387473500e-13
-1.634559338813460602e-13
-6.059405827031430770e-14
-1.096838937522856713e-13
1.256257713510116000e-13
-1.885676084675939313e-13
1.181339240733329872e-13
6.189199197136607494e-14
7.562156015940418329e-14
-9.194725112628944751e-14
6.351182561078399210e-14
2.339197563012014273e-13
-9.236803036299230380e-14
3.382949662793885494e-14
-3.515116016953635627e-14
-1.470209373758513422e-13
-1.102079549328617652e-13
7.012707836692339898e-14
-6.063714162556355155e-15
-3.277427715491060450e-13
7.112079197143530892e-14
-4.243416513357864059e-14
1.226232404036051284e-13
-8.599809921363348646e-14
3.082362167635582176e-13
-1.267655393371430462e-13
1.023780267662754297e-13
-1.436957588003272345e-13
2.604866734104612126e-14
-1.533226308719171448e-13
1.676645106054553117e-13
-2.819751417143773940e-15
1.997210761500003126e-13
-1.299868497752098087e-14
-2.170359972423709974e-13
-1.126517073371734453e-13
-5.239899958994204214e-14
1.845867263026670424e-13
3.646925032797525124e-13
-1.525290508940086693e-14
4.249128925391335316e-14
1.670316474589151577e-13
-1.524939963469542053e-13
-4.216879325238339457e-14
8.946650450969047245e-14
4.718330725072530714e-14
-1.126661371573337440e-14
-1.305937558234281475e-13
1.392116879886786468e-14
9.524990418214320206e-14
-9.599061066968606679e-14
9.951132068026805718e-15
2.792172261149956018e-13
6.377853682929333896e-14
7.924921007946325290e-14
-1.384485966080804976e-13
-7.360432557053708082e-14
-4.241770968575669629e-14
-1.120584745666877619e-13
-1.615519289505473353e-13
-2.092083785843691511e-13
-2.777551571246088368e-14
1.112756789731249434e-13
8.241010006530516862e-14
9.036021926545183132e-14
1.218669551000202814e-13
-1.147502142093518855e-13
-9.129407053504774338e-14
-3.147738157987545152e-14
-1.190838939221744431e-13
3.335937371256917174e-14
-8.860645364492402095e-14
1.488389264302840459e-13
-1.172926608488939004e-13
7.516307647902963170e-14
2.243047538735656689e-13
-1.623703051352340420e-13
-7.366411684286103655e-14
-1.026362058760398300e-13
-1.416667071977504497e-13
3.483145395011605730e-14
6.684935307647859762e-14
-9.791283609725509223e-14
-6.847450607910986865e-14
3.238930592814965267e-14
4.194947146748877430e-14
-1.484942295030753765e-13
3.075290320220310305e-13
-3.119083403317943810e-14
1.177396644972227417e-14
-8.391838724722456859e-14
-3.456515661174117773e-14
-1.208250090990506473e-13
2.175543828407060032e-13
-2.468088597464984387e-13
-2.471169899485295375e-14
8.833369970852130120e-14
-2.134091011735131751e-13
6.159787442588476193e-14
1.759027939433245238e-13
3.959893639630272762e-14
1.003732836710556958e-18
-4.571018649774866315e-15
-3.761205936875058648e-14
7.751946247923252312e-14
-1.153786572244652005e-13
4.366657889453980682e-14
-4.523154672972378916e-14
-7.771256119416625107e-14
-1.545071844041025104e-13
9.012595619083476706e-14
-7.891809120063974354e-14
1.439710243785864995e-13
-3.747241590015571558e-15
-4.131641860253168618e-16
-1.466904198495736454e-13
-1.336287837593285332e-13
7.308625060902596407e-14
-1.285195723233876708e-14
7.848771298232720928e-15
8.698421079036371507e-14
6.972542218343763859e-14
-4.754393619315500020e-14
3.867285543092079833e-13
4.188840898395052382e-13
5.883169724376967356e-14
-1.922955393628309568e-13
-1.193982195866348596e-13
7.772811895625991415e-14
-7.704236162840027679e-14
-1.091651149979132193e-14
-2.667918047090438533e-13
5.827966134881603793e-14
1.614640308307181876e-13
-1.622564592823084479e-13
-4.589617953880081973e-14
-4.796993600885055410e-14
-3.320151304412372317e-13
-6.355318694752318516e-14
-7.604796707650640168e-14
-1.861977757991272619e-13
-1.168502642216966774e-13
3.298288560443840894e-14
4.561412468535174884e-14
4.340676648854099991e-14
-7.695488626020164891e-14
-1.102182332100382728e-13
1.942577038355149286e-14
-5.252902983632289446e-14
1.384791197957482491e-13
1.555671462137566261e-13
-6.314740983483201479e-14
-2.182556190435654767e-13
2.449930707971233225e-14
-8.937334979777825046e-14
1.098698432631918286e-13
9.354262231756106240e-14
-1.403754066385466129e-13
1.400575672926396542e-13
1.860268006229951996e-13
5.160465604253903105e-14
8.152363888205433634e-14
-6.960292665742638366e-14
-1.147952749583146201e-13
1.676696036665845957e-13
3.221539010108545430e-14
-1.224902797113101171e-14
-9.209300826145733520e-15
1.005789600779405273e-13
-2.881388207878549573e-14
-6.659660765786783842e-14
-4.071780554074127335e-14
-2.171179084976986795e-14
-6.499905342364368931e-14
1.179569280472036702e-14
-6.568412564377457899e-14
-6.078442033797054814e-14
2.654281015567770608e-13
9.700973849155970142e-16
2.282097076187651290e-13
-1.342499371279377276e-13
1.008535713933098298e-13
1.512236530758875641e-15
2.259414661384144136e-13
-6.215509320406112874e-14
2.394782287633474486e-13
-7.865096072204976537e-14
1.019128694353976063e-15
-1.544684820909959060e-13
-4.616494148176013409e-15
-2.763432195024433013e-14
-1.482287251893501812e-13
-2.466497317931889807e-13
1.197719094605395783e-13
6.615697668884185659e-14
-9.304010253385848205e-14
-1.426905254064021638e-14
-9.689689497012084533e-14
-1.844861352294635444e-14
3.340903429374132912e-14
4.718095600294903237e-14
-6.693718434545465326e-14
-2.803265978629361658e-14
6.896009149080700912e-14
-8.809479742181428314e-14
-7.422983177523910920e-14
1.093627827976881150e-14
6.610682765106675159e-14
-5.664533463817074924e-14
1.064271261094801049e-13
-9.361499293529148031e-15
-8.988736434671632438e-14
1.261515621325619571e-14
-1.946332293580753171e-13
-2.453005698238023614e-13
4.529827381988294415e-14
-2.373404624307165463e-13
-1.071508138810953948e-13
1.334356949994076185e-13
4.431874582454856186e-14
-1.135668968597386371e-13
-2.002920972216103590e-15
-1.915875716778186570e-13
-1.522110022912637521e-13
-2.242273338002787281e-14
7.849108609284222198e-14
-4.506713351474658324e-15
-1.126283705630554463e-14
-8.689466643263381431e-14
9.956629936499171230e-15
1.063585847227840131e-13
1.474754401019601904e-13
4.579909415104865343e-14
1.629791103990736053e-14
4.745580137666070355e-14
7.019512265596220376e-14
-6.437174181586850185e-14
-4.931826929285007787e-14
-8.864508696515648149e-14
-8.401598026305611586e-14
2.515978318340251749e-13
1.048781366647666334e-13
-9.149034680286130335e-14
5.654085452126385189e-15
4.108465385532510775e-14
-1.201964501403229061e-14
-1.287704261941282958e-13
1.932754973251371197e-13
-1.587893594638488425e-13
1.160218429821165329e-13
7.220057249729956074e-15
-1.086906702322074122e-13
-2.157910126686051396e-14
-2.472513365498245332e-13
3.673999847084537343e-14
9.733257606722397829e-14
-7.082320499254475193e-14
3.979778725480026029e-14
-3.338855654528719327e-13
-7.100152360474438995e-14
-1.786946693494758876e-13
1.236314186055313312e-13
2.596283046204808702e-14
-6.311569788269384486e-15
-2.528347496957304137e-14
-3.245312412148177337e-14
1.048948057087615793e-13
-1.391920529977572756e-13
1.245614373081037391e-13
9.347439630225828669e-14
1.377225103730434695e-13
-4.648897412563911953e-14
1.445009265711334148e-13
1.337183321864118276e-13
6.007224119492743848e-14
1.500303569458786115e-13
-5.896377863097906323e-14
-9.773532844968328377e-15
1.800572566042964142e-13
2.695502305382957293e-13
-2.200123433415837917e-13
1.252014864922704945e-13
-1.681010475114064132e-13
2.809774610406295569e-14
-7.855101849199852078e-14
2.748279603605735990e-14
-3.984865670439106559e-14
5.265346301195592196e-14
8.681454658768167190e-14
-4.651825511086135444e-14
8.932897633072458704e-14
-3.842393479291570119e-14
9.150100262136125912e-14
1.573235931099167062e-13
2.205756646195153681e-14
3.114695375279396814e-14
-2.408676818590360981e-13
-1.031348510463651314e-13
-8.319521393302472946e-14
-2.013013154121702946e-14
-1.870617088403107245e-13
-1.738397609670017396e-13
-1.030251665890275821e-14
2.776822436804880049e-14
1.317689141518822896e-13
1.914353458249054760e-13
7.058237301230782934e-14
-4.913389077394919508e-14
9.242312193975229941e-14
-1.066697611697705663e-13
2.856889684711131740e-14
2.391646303045887120e-13
1.968891083389994977e-13
-4.040271813087948353e-14
1.296535181342069172e-13
-5.183088178556905576e-14
-8.218635745023923850e-14
-2.150289119727673478e-13
7.173567825977488835e-14
4.087776451773473564e-14
1.315415161558111285e-13
1.076819354188304887e-13
-4.001990682134350950e-14
1.153218733324407450e-13
2.512906839746588449e-13
3.074821683648108657e-13
1.032103861715465786e-13
3.854422175751583547e-14
5.193069981121895849e-14
1.114197065190044063e-14
-7.690367055951224517e-14
2.107471440170598882e-13
1.018810225249398874e-13
1.957391071380373273e-14
1.987659795064755789e-13
1.121993120499341397e-13
-1.678555053207056065e-13
1.652314137672779844e-13
-5.470547104856724644e-14
-1.760465131757670778e-13
3.872907755590328582e-14
-4.144643833784567466e-14
-9.947148464666456403e-14
2.115830142365456280e-13
7.979678259071277848e-15
-6.977820547454714408e-15
-3.358573215049433058e-14
-5.250767499937366713e-14
2.522341653158208953e-14
-4.290908237417510299e-14
4.326857924005801824e-13
-1.408785512165006829e-13
1.566525104768659213e-14
-6.283477487884328453e-14
-9.386877559802752077e-14
-8.924548409916483026e-14
3.695083594644743814e-15
1.244200187514534222e-13
1.596019699892857874e-13
9.308058838554018041e-14
-5.660952883343048086e-14
2.567698206926616605e-13
2.375288915121166379e-13
2.355814355347847790e-13
-6.299242285082289791e-14
8.303194704300122165e-14
9.489943416949754999e-14
7.815480563306158297e-14
7.599321771816813356e-14
7.335674785185268665e-14
-4.040887217210657518e-14
1.613136391919095661e-13
1.840746132485026341e-13
8.501600964578445117e-14
7.388463100633238756e-15
5.422257312855577601e-14
1.668105249959983151e-13
-1.703324153337714152e-14
9.345392296287011192e-14
-9.823925649059841670e-14
5.066832280395563810e-14
-1.703118003081148447e-13
-1.519068326317036276e-13
2.790489919109982511e-13
1.758976858651116770e-14
1.474710034138747800e-13
-3.576616688488017024e-13
-3.175968137291247520e-14
-2.348698529407200959e-14
-7.458810588970937042e-14
1.865984441219221359e-14
-1.157552671165716079e-13
1.677997793844000017e-13
8.804221216151087895e-14
-1.529011720085579930e-13
6.475632686731726098e-14
4.202404909842573689e-14
2.152352255942351065e-13
1.410781115678629324e-13
-1.494224285006633094e-13
-1.038409765670857159e-13
1.328697642105942925e-13
-1.765717925923804221e-13
8.015490469587487126e-14
-9.063633872562013118e-14
6.800184191604188435e-14
7.191935064430143893e-14
5.004268613527537296e-14
-9.978473247544294479e-14
4.481105865838583510e-15
1.630379789416463777e-13
-2.466499687924136077e-14
5.968164541364281750e-14
2.202946700941090039e-13
2.551384719953625922e-13
2.077272254417150559e-13
1.907699921956600651e-14
1.373589803185289717e-14
-2.359612930166100464e-14
-6.841905079256054388e-14
-2.190593263688521277e-14
-1.885238507422941198e-13
7.723183295027247491e-14
-3.803104832702795281e-14
1.511520574867158635e-13
1.402944475322497431e-13
1.861254624787653200e-13
-1.037920834422330151e-13
-3.028684774948574226e-14
-9.756616102774101749e-14
-2.083158840234589803e-13
-8.954804513813052844e-14
-1.059207072350857219e-13
1.510639136550937596e-13
-3.659858272617297493e-13
6.818487951507818776e-14
-3.388691998811627158e-14
-6.114982939941695845e-14
-4.089055299239383278e-14
6.223141428665323518e-14
-1.309085214724547178e-14
3.177644963209954535e-13
2.630121655423020278e-14
-6.291093878964497164e-14
-7.077168562763592787e-14
-2.888395093678793917e-14
2.125195685654694961e-13
7.256722856411231995e-14
1.839905491473943081e-13
-1.689154279851614798e-13
-6.508869388821020425e-14
9.303300036053471990e-15
-2.679056215926885376e-14
9.392654993944669590e-14
1.404945039697813131e-13
-4.891894505575467755e-14
-3.837441749860273175e-13
-1.233009372331632935e-13
-1.604039026166209848e-13
7.783250672626510615e-14
2.730348124929763360e-13
4.583936622095146161e-14
2.431459273944269553e-13
4.516356248669624514e-14
1.500443877354764122e-13
4.330582297830045120e-14
1.009280741722658768e-13
-1.238585439563027593e-13
-4.143279336977248649e-14
2.015037970830158507e-13
1.242215353627191604e-13
-1.810714949539832514e-13
1.436497791560265588e-13
1.645674327695712820e-13
-3.682413400412645719e-14
4.463267096663810061e-14
-7.670211187737342996e-14
4.120598269110101414e-14
2.099283458647345091e-14
-5.148160240368420186e-14
-5.415000965631825182e-15
-7.249021991923119548e-14
9.205554171920623144e-14
-8.607721870485102432e-14
4.730479514361213959e-14
3.751999642034810039e-14
-1.053071284854984055e-13
-5.328657967296368559e-14
4.175597924916886234e-14
1.836414480113809580e-13
-8.557966094950688557e-14
-1.654865815417916077e-14
-2.488580772762904778e-14
-2.342785225270871082e-13
-1.975966920439218072e-14
1.004666468680070402e-13
1.043946061785921022e-13
-6.413903582298515556e-14
7.157796126155776737e-14
-3.324991859271185844e-14
4.777100652964229400e-14
1.250587167924520810e-13
2.650340258722160962e-05
-4.740330430808572203e-05
-1.387570197217956075e-05
-6.712489945991786591e-06
2.115345135625275986e-05
8.163478702412467727e-09
-8.320623762515479875e-05
-1.854978509654707738e-05
-5.560561019763569956e-05
-5.613666687043457131e-05
2.456619911363124454e-05
-3.093512855263476553e-05
4.929265651622934062e-07
-8.422961116106345679e-07
5.906583211032283661e-05
-2.680419595427694366e-05
7.278512509149110218e-06
-3.732229636039393662e-07
-1.969109923415041929e-05
1.260882065676296731e-05
4.515518858003990008e-05
5.105429292738561804e-05
5.945347552287468603e-05
-1.025833518140514328e-04
2.407831541989679408e-05
2.290418720422969393e-05
-3.725263891420518109e-05
-1.041596289440769305e-04
3.543736749215964926e-08
2.046905864004808959e-06
-7.158462214435390870e-05
-5.196169782520526669e-05
-2.466217690873689881e-05
-8.374543694001424847e-07
-1.068327629480534448e-04
8.414698030536214477e-05
-7.495161239747628910e-06
-4.230189153793598404e-06
-3.581922919549799286e-05
-9.120895568744759023e-06
-5.102825416744970091e-05
-3.144276472637158408e-05
-8.457092190592711236e-07
4.481384545784509017e-05
1.041525769706112093e-04
-5.060574870350322821e-05
-1.238360630746996227e-05
-2.875619171595606872e-05
-4.543653930115825921e-05
9.147450952391862047e-06
6.241010058426701046e-05
-1.976995689533730000e-05
-1.994535864124554286e-05
3.582345579937672256e-05
5.887699711351606643e-06
7.988784751760948056e-05
4.716962343789058148e-05
5.791670937758868561e-05
-3.281123442367002533e-05
-4.918927196527805634e-05
8.631628460441375804e-05
3.768740172254319068e-05
4.017191554568380699e-05
-9.861183106830092335e-05
-6.816529032839299521e-05
-5.566195915579033615e-05
-1.652841047954023551e-05
5.118221043511535657e-05
8.133272680733239700e-06
-4.099680228079622540e-05
1.234649174461083949e-06
-1.758491034390625824e-05
7.750363888053987154e-06
-6.732199089973304974e-05
-5.443036615831167095e-05
4.023152596369349167e-05
3.602270630020423093e-05
-1.894911535940717795e-05
7.173861520457320082e-07
-1.212875594475732547e-05
-2.598316088391873109e-05
2.648692422968878024e-05
1.309173570935485603e-08
4.746384539895059462e-05
-7.966889891412991004e-06
-4.344140682074272873e-05
8.095748578721197818e-06
-1.621729071457539639e-06
-5.411305444476923111e-05
1.165237400014736271e-06
1.169521355412908623e-05
-1.106621080471509707e-04
2.006318611107848072e-05
7.932128998580620957e-05
-6.602514593855874904e-06
-6.542309132565653717e-05
8.586802545719074131e-07
3.076756633673266979e-05
3.342521124060834485e-05
3.379497629940403440e-05
2.976467060594372918e-05
-5.394281944858382409e-05
-3.870467714764055933e-06
-8.821935877134262128e-06
2.922474724102163286e-05
2.405179294405215507e-07
-9.551412245628700711e-05
-3.067636758127801987e-05
-6.378082781972673767e-05
-6.251072932831491400e-05
1.923388879330021229e-05
-6.192286541230294385e-05
-6.375414839602694563e-06
5.947392030029546823e-05
6.943144190395378443e-05
-4.668552970174524641e-05
1.620507046962192674e-05
-3.549836504328190951e-05
-2.225865649319765647e-05
1.316032395814513645e-05
4.104154103386096418e-05
5.925399742005539941e-05
6.651479260612036526e-05
-1.229587689694935470e-04
2.771565484285021093e-05
2.702497562135493475e-05
-6.588478266260819317e-05
-1.209620637815822004e-04
-2.205236521745849672e-06
-2.705723889673306861e-04
-8.216594111188193009e-05
-5.829753286659256734e-05
-3.022424500278932778e-05
8.658085850249331217e-06
-1.231943197849180553e-04
9.655984371509810705e-05
7.460724074588732230e-05
7.971883384316680776e-05
1.591998224312825597e-04
-9.688051822130294398e-06
5.328185665299582066e-05
-3.123812809129019382e-05
8.923746480786358119e-06
3.632784763385728206e-05
1.201953285602413074e-04
-6.932731205319857064e-05
4.466196794114920057e-05
-6.110625921551449851e-05
-4.937966473799699032e-05
5.698880944821581567e-05
7.258882276050027701e-05
-2.987720756501124544e-05
-5.357179379230767502e-05
3.831352618548100760e-05
6.559217203491740384e-06
1.804080077670895275e-04
2.396939997118511948e-05
7.090937784778486130e-05
-3.763184755505102365e-05
-5.317762346266317208e-05
9.893124750586655594e-05
3.674790033604508977e-05
3.209447972768090076e-05
-2.249398524796634210e-04
-7.883808505518191180e-05
-6.193957098977516005e-05
-1.829598806636624725e-05
6.938404978366084829e-05
-3.527458080102803458e-05
-4.127937376788840045e-05
7.453030053652659964e-07
-6.885209899667707782e-05
-2.080374324385404959e-05
-7.862630723496687063e-06
-1.076552085938065870e-04
5.313900154960048898e-05
4.342574056443478640e-05
-1.275649341282918596e-05
4.020835741790659661e-05
-1.201493503032983903e-05
-9.556174502865269189e-05
3.584585002576804163e-05
4.900097412902287904e-07
-1.318916404039331995e-04
-3.258151467819172652e-05
-1.041132127547560166e-04
9.035718413695453366e-06
1.515735741018097051e-05
-9.107121396800604233e-05
7.802334777841130905e-06
-1.071950133784621356e-05
-1.288708549356449337e-04
-1.465545330247225721e-05
9.134288693189674888e-05
-6.691343652635662812e-06
-7.440411010263489622e-05
-9.072239641656972573e-06
3.691664975820042682e-05
1.853344900440742515e-06
3.874081937894719791e-05
4.828804711446212127e-05
-6.297618826335762293e-05
5.493077643722613047e-04
2.488371473757947441e-04
3.447421139872795088e-04
3.115092848969190277e-06
-1.634008848701242638e-04
-1.167990360557135678e-04
-9.943952724597373573e-05
-1.097142756160606955e-04
-4.129432986064940304e-05
-2.678673398803446551e-04
-8.641371231750775430e-05
1.352102876711949774e-03
-1.526516753091367755e-04
-2.525307693184954063e-04
5.949129620560760379e-04
-1.262206387290837730e-03
-3.280137847436651152e-05
-7.101403133444726028e-04
-5.909682282441710141e-06
7.152773380051555784e-05
1.040939042989020712e-04
-1.261714758126219072e-03
4.814373181509868299e-05
-2.351970893130477934e-04
-3.911816360212441290e-04
-5.304712811265725660e-04
-2.939128151511029904e-05
-2.933957202115792043e-03
-3.353767607253217882e-04
-7.181636749454498600e-05
-2.855254349790466118e-05
1.171698266792892346e-04
-4.052960449760062977e-06
1.710654077137077416e-04
1.205509826008532848e-03
1.332073887595607497e-03
2.282494126287839924e-03
-2.827506507417655625e-05
1.279590724116929767e-03
1.739481461200866746e-04
1.204871890844484299e-04
-5.821229331509931298e-04
2.243035685536656516e-04
-4.142891756316295507e-04
1.203115819525644222e-03
-3.819468678773608843e-04
7.029252751082989579e-05
1.034959489634876707e-03
1.420567282125390670e-04
-9.335913678129830872e-05
-1.332349238129532185e-03
1.786405864328510006e-05
1.268862108174926933e-06
1.432187916180466909e-03
-6.271918400954475592e-04
2.600525501523737269e-04
-6.228400366612988812e-05
-6.815007811667017222e-05
1.754768249470559094e-04
1.639258085405811808e-05
-5.878618059804210363e-04
-1.597034973614962954e-03
-1.438385300298726673e-04
-7.744685012820794569e-05
-3.202329430667815607e-04
1.050005011107508265e-03
-3.497453226857447084e-04
-2.944979512213477180e-05
2.939628877454984659e-04
-1.027654524356766798e-03
-6.564854562132975543e-04
7.029721453125543657e-04
-1.079538701625055693e-03
5.587923696575099099e-04
2.977595904399804160e-04
1.547946773032383245e-03
1.157687826425037470e-03
-1.904588149842955969e-05
-7.854333671881688541e-04
1.222705462570515891e-04
6.376209376470133949e-06
-2.164852586807179333e-03
-6.580981246290541200e-04
-1.363203793617324749e-03
-1.170022216725257911e-03
2.012287546510925572e-04
-5.996475616123770735e-04
8.597026996163814865e-04
-5.887356960925896636e-04
-1.262678984697892604e-03
-8.148688929949758760e-04
1.617844249868579287e-04
-6.321815583343022918e-04
-5.270603838473199082e-04
-1.223970641673057197e-04
2.184995045470872796e-04
-8.447425823668987342e-04
6.532777124507243790e-05
5.841767808603142331e-05
-8.906784769434873618e-05
8.103014191062768434e-04
8.427742567330898842e-04
5.854975064722029712e-04
4.421469005206054366e-06
-2.131904207197782807e-04
-1.563834401635859556e-04
-1.177414937575430541e-04
-1.407938472991682784e-04
-1.762883228090692737e-05
-3.630878652577621967e-04
-1.204572333167285020e-04
2.213903950435390251e-03
-4.664672865567486308e-04
-3.615563350812032550e-04
8.110495720232517840e-04
-1.682062653391908514e-03
-3.825109531079887544e-05
-1.174000918049125999e-03
-2.959972739809643659e-05
7.675010222955683280e-05
1.271894395749436561e-04
-2.258263551114717601e-03
6.522210027172971466e-05
-5.496607649877355848e-04
-5.176485292873690344e-04
-8.931219180354187104e-04
-4.148194104899873388e-05
-3.748534438079265552e-03
-5.856485564492548658e-04
-1.025425250710944682e-04
-2.001324669264152714e-05
1.622709973410067677e-04
1.827900016153961068e-04
2.248245911957337398e-04
1.859820912050156629e-03
1.753608962484714574e-03
3.286399470225204004e-03
-5.402338187650607853e-05
2.094649208159592938e-03
3.313499150480317466e-04
1.667902498463908032e-04
-7.648995383826634117e-04
2.950394989236583879e-04
-4.497179727311032709e-04
1.963808167947412534e-03
-5.255599573370340694e-04
1.856382389633686109e-04
1.581540230444734244e-03
1.927648329556208725e-04
-1.451619135007517828e-04
-2.499133346393606677e-03
1.057926500325174230e-05
-2.137073964954311112e-05
1.860828652238678566e-03
-1.242336120752070370e-03
4.085141895464942897e-04
-6.220654228921221329e-05
-7.507987825894933481e-05
2.263311411283222432e-04
-1.112424252972984440e-06
-7.786173945236652587e-04
-2.401884455917432243e-03
-1.251591820362349481e-04
-1.087555353146005065e-04
-5.274029464047442356e-04
1.930483319088743040e-03
-4.402511608887138745e-04
-1.783358665257056064e-05
5.023270881605824620e-04
-1.659743003082827162e-03
-9.648552124091118150e-04
1.075120337929384934e-03
-1.645208647659222477e-03
1.033156056420769233e-03
5.223027960489685928e-04
2.949730167803713866e-03
1.833017270187951592e-03
-6.602052169849326516e-05
-9.722636332142569737e-04
1.912675399613444731e-04
9.044010871257937925e-06
-2.231137792352566162e-03
-1.262875261389761724e-03
-2.205599333531114113e-03
-2.364992186102933634e-03
2.747062085676180328e-04
-9.157092203096273229e-04
1.398609003263415673e-03
-9.756093011626575323e-04
-2.268305662652059934e-03
-1.311543342751538173e-03
2.053180847305539685e-04
-1.065081032127947495e-03
-1.208172206124485948e-03
-1.693782465814164760e-04
2.089253061200717788e-04
-1.401862176426907185e-03
7.366694302207390426e-05
1.132364637638439352e-04
-1.531858729934001354e-04
7.347314088672512230e-04
3.246002944019404750e-03
5.959985952638751196e-04
6.112137497769381483e-06
-2.568066782261819157e-04
-3.990662564246724611e-04
-1.589533108915932387e-04
-1.852861288113065116e-04
-6.227091768070830435e-05
-6.491195090912577331e-04
-1.663520674227638330e-04
2.971435611857323623e-03
-2.194558309327434859e-03
-6.338981995000506292e-04
8.573132629750669165e-04
-1.990201117079522328e-03
-2.785023864224254615e-05
-1.878615670030017943e-03
-4.332629126512625739e-04
2.312637318275872166e-04
2.472762290356413594e-04
-1.531918599816469665e-03
9.309223404787756416e-05
-2.108525785364891592e-03
-9.707363869107082628e-04
-1.945979055114900949e-03
-5.717415765823257752e-05
-3.389974558405192012e-04
-2.244415544753426868e-03
-1.764190803315594444e-04
-7.613101228493615027e-05
2.250734531618499550e-04
8.879194090421364599e-04
2.821651700773788497e-04
1.471717669151564227e-03
3.002342835053464602e-03
2.525898388673477896e-03
1.122897649557200460e-04
1.925702137115770183e-03
2.263500026971854758e-03
2.315154077515799321e-04
-8.052627056268815264e-04
3.737465421372162459e-04
-4.094187043479340245e-04
1.600879075019006345e-03
-6.142910252232969661e-04
1.590011927100196207e-03
2.798308436431982786e-03
2.180718640191851301e-04
-3.740832601013622041e-04
-2.150608427290795228e-03
7.975185562824122138e-05
-1.306336362238963553e-04
2.501183101413709167e-03
-2.475839329497528298e-03
9.050470723231748707e-04
-1.053187100385040366e-04
-1.680573366792399823e-04
2.576702234363617431e-04
2.215611862400691787e-05
-8.200136320757712505e-04
-2.502960307027361254e-03
-2.464093729787734683e-04
-1.919842280055572483e-04
-2.388090539900687356e-03
1.871522475563402056e-03
-7.832950062626757495e-04
-5.179716810075288025e-05
2.392412890551053918e-03
-1.368532735589406872e-03
-2.088561750001952100e-03
2.633098297335102669e-03
-2.522442700033549964e-03
1.255707807275462844e-03
6.498276208023462267e-04
4.238626787302252584e-03
2.425601785673330534e-03
-2.408326123804389545e-05
-1.588929421827019921e-03
3.200359053342971484e-04
1.249564707248002281e-05
3.343766297537062530e-05
-2.393736078446120300e-03
-2.994322674433657142e-03
-3.640379990928732309e-03
3.876903485550902231e-04
-2.191876418944792206e-03
3.732291873334708798e-03
-2.272413795016762963e-03
-1.391583333585490667e-03
-2.550817439138771715e-03
2.812728534207349597e-04
-2.020492558478879496e-03
-2.855822537191890845e-03
-2.351915184382774343e-04
2.123551545426473786e-04
-2.635345971600071540e-03
1.051897547391718204e-04
3.046401222973122076e-04
-8.923506632909553428e-04
7.053847834135505918e-04
3.388938802000284953e-03
-3.435606873617664332e-04
6.636606743489389926e-06
-3.485407469853104602e-04
5.799718577551982231e-06
-2.393082567394345418e-04
-5.790774138262480076e-04
1.159141483715767453e-04
-2.057957434485877034e-04
-1.823432292249403111e-04
2.217089925937027351e-03
-1.697110456621418783e-03
-8.309628567807608984e-04
8.229675334620321133e-04
-1.808256514274413475e-03
-3.974785878405471184e-04
-4.933673053069517929e-04
2.525222368103091880e-04
4.654459267719482873e-04
4.508216630786851791e-04
-6.259161089211024050e-04
-3.949439793241296999e-07
-2.580845420539406264e-03
-7.901849719634554490e-04
-2.125126753955693636e-03
-6.232768217486411117e-05
2.308855054187831587e-03
-1.563644460923409567e-03
-6.914069147401693399e-04
-2.085499171260465055e-04
2.470405943234549990e-04
5.178160744789074609e-04
4.304437404811192638e-04
6.511899740638657421e-04
2.286189775786387924e-03
1.281340438767873116e-03
1.163748381849277226e-04
1.475637481618277940e-03
1.753654297612157031e-03
2.541480987732300939e-04
-7.443733132621463628e-04
6.560632356366389141e-04
-4.647330014515067722e-04
7.661897887784255160e-04
-5.748655581600896868e-04
1.023794558676297027e-03
1.947418113852149519e-03
2.833902234033823910e-04
-5.342210175738376556e-04
-1.051801420242543667e-03
1.967812394155995809e-04
5.547187428518806729e-05
1.876937187038549976e-03
-2.086714966982599392e-03
8.025654001684278923e-04
-5.980248069935076684e-04
-3.730583021332609605e-04
3.517781745206990723e-04
2.240610272598294933e-04
-7.675136227955078145e-04
-2.370741380519447543e-03
-8.545207012306470055e-04
-3.244771507854504679e-04
-2.094932594839498275e-03
9.435464675393024888e-04
-1.149599980846494800e-03
-2.496202765338040330e-04
2.125003290126563707e-03
-5.269610344656325491e-04
